{
    "input_shape": [256, 256, 3],
    "layers": [
        {"type": "conv2d", "input_shape": [256, 256, 3], "padding": 0, "num_filters": 1, "filter_size": [3, 3], "stride": 1, "detector_function": {"name": "relu"}, "filter": [[[-0.2564921094562205, 0.09560742360037879, 0.1417435783296569], [0.6411939423186458, -1.3340125661371052, 1.1047233874350575], [0.01825428384329426, 0.2299682745168528, -0.15884150816192133]]]},
        {"type": "pooling", "stride": 2, "mode": "max", "pool_size": [2, 2]},
        {"type": "flatten"},
        {"type": "dense", "num_units": 8, "detector_function": {"name": "relu"}, "weights": [[0.7697875310632207, -0.6955078785308244, -0.013686047508203547, -0.9966813941390865, -0.3111246720169856, -0.4734924662394673, 0.8892383503033524, 0.33641355764142206, 0.3715148953863529, -0.46571878665432387, -0.4765387026225615, -1.5533686715427315, -0.14507997688551635, 0.23108927375343513, 1.5551137644262032, 0.8032042811470129, -0.17464051306243014, 0.7991256148122456, -0.9671083131512002, 0.5735977257982312, -1.3068812925694746, -0.7891864490995614, 0.9600560396642787, -0.2284410316131651, -1.4398296632974428, 0.002795790797886816, -0.7610270873811662, -0.2914425217163957, -0.86156745124204, -1.596534629987498, -1.7596261509165172, 0.17514471961469194, 0.3484629833382245, -0.3159606054180567, 0.2980779999702199, 0.07398241149567557, 0.051157411004999966, 0.5516461432934658, -1.7114267396319807, 1.2476844766956694, -0.9212383082479333, 0.31027263576396974, 0.4728858907084175, -0.36285855487887003, 0.7015035080963898, -1.316757950846767, -1.22979599818963, -0.07648851146772968, 0.11063160131871387, -1.3228366493363595, 2.7045146683139647, 1.076141058040065, 0.811750042004572, -2.401997446587019, 0.06593338141167569, 0.9195454009576807, 1.8969509472880977, 0.04655980509683956, 0.4477792346532012, -1.3882199716417467, 2.066224677191561, 1.0178524989019129, -0.4176057635106798, -0.24214222809762748, -1.5099908679557685, -0.49296433919116517, -0.8578793999549827, 1.285161509610849, -1.303423848028836, 1.598675638945446, -0.5825697543856082, 1.7504267266721338, 0.6300716382564469, 0.8643198628545774, -1.2053195973201738, 0.053100147566624414, -0.17327673066989047, -0.1206000111651921, 0.5834682296882001, -0.019728014317170642, 0.031772425313669445, -0.9490863459500449, 2.1746773124500725, 0.7620374174411267, 0.3512492584114552, -0.2507487000659642, -0.8198232429329149, -0.7938792585440998, 0.48166542145353286, -1.1089206706725814, -0.6351222533865872, 0.8370090897820635, -0.4881210349785824, -0.511472697454737, 0.12573621491061307, -0.7943436294379181, 0.9400059395045534, 1.3656932442232408, 1.6404828990867688, 0.6188155554128151, -0.7722244832645596, -1.475206640487329, -0.6658723521109119, 1.3179626648698308, -0.5456027764842448, 0.7410317247055053, 0.40039977540962557, 0.1727146125350196, -1.800856421077387, 0.010144192457995676, 0.04294495247235929, -0.9988229524287069, 0.470288101096852, 1.0094134427151196, -0.4754900762390184, 0.021528035688354038, -0.5607595769514918, -0.15660334025871586, 0.3929214783615655, 0.37799789177825055, 0.02655062192884617, 0.590972569710462, 0.12603516189000785, 0.4176052817598282, 0.4199187275560738, -0.46466139743054446, 0.9241297050463164, 1.6800474738497202, 1.6601681146976004, 0.5309392150787275, -0.7196564755272428, 0.7624903608824384, 0.9977605220202648, 0.8058650315750279, 0.07957768034859249, -0.14355408278479384, -0.906429477444936, -0.692364173748986, -0.2464972836405879, -1.4042917780081692, -1.0488528475745333, -0.7323728540936159, 0.5624413650465225, -0.8132296608718221, -0.610756616374759, 0.1011468502214393, 0.22232005628052737, 0.7821156088334631, -1.1627195223240059, -0.13595273368044203, -0.01703988209058824, 0.6997441132280644, -1.2775811819309375, 1.6363293125524512, 1.9588529721722394, -0.012424267234932769, 1.9740520286792598, 1.4226594238911385, -0.8360147010548425, 3.3882841786453337, -0.7065934808407195, 1.6046099241384488, 0.22500283942169613, 0.8608903577179462, 0.4024941189753038, 0.984008917950718, 1.3473596177488483, -1.4111193985706467, 0.5392995752113328, 0.7837442839301257, 0.01884406297527591, -1.9811667442853476, 0.9899429181792091, 0.8390241502286941, -0.2763002080572312, 0.28909227221379746, 1.3307019326793987, -0.49922666249922026, -0.6574077910762979, -0.46069795478982384, 0.37015046537160445, -0.676921528878212, 0.11841475614872575, 0.3689705128613215, 0.5723775346074838, 0.8109294686699863, 0.7308531988092531, -1.6584833444324723, -0.7180885179049029, 0.6807967483260274, 1.8003694210285015, 0.44753354260505185, -1.800926733136059, -0.12782241055129212, -1.0112060786360721, -1.152025024649627, -0.6623205459103094, -0.5031756265903394, -0.578007414083353, 0.8782038791233995, -0.6052020905306873, 0.27341619927779137, -1.4064260044437393, -0.08627660243515163, -1.1632479506278326, -0.5051545074538556, -1.5621682847260385, -0.4133363695359859, 0.26217093342341413, -0.04495557071221786, -2.352568278519925, -0.9782449521531817, -0.9187826676014083, -1.380172503482563, 0.6416159410736852, 1.1823903427781997, 0.3551023964186002, 1.062690240794172, 0.24705597483576736, -1.2401583834012493, 0.6899210509823228, -0.2624495261826429, -0.35381214790782706, -1.4399053182133972, -0.8793664117850107, 0.6407418076390043, 1.0333947553243845, -0.634723555136908, -0.871154224884918, -0.452875324831075, 0.01410992836943219, -0.4447956452799859, -1.0230491849464607, -0.5754533808354015, -0.20890784653104036, -0.6312378706324485, -1.4963566394663765, -1.205765798604002, 0.8676204790456852, 1.9742206797857325, 0.8170879990882381, -2.3680895824237083, -0.464520997993564, -0.7215826695660726, 1.8705431299004067, -0.09823567458488557, -0.6462871940932117, 0.31039008263501344, -0.43854012203051196, 0.3074318915732756, -0.7971705580970784, -1.8900549405280753, -0.03962083631645684, -0.5956157571683454, 0.9610754876943648, -0.8382607937304147, 0.7987878077043307, -1.0999559914125956, -0.5527332375895384, 0.7562290565482965, 0.3950338956343348, 0.14004058124099908, -0.6281022540323631, 1.2803532909888433, 0.5316521121815491, -0.47237539420709923, 0.934440869944295, -0.5128833788199179, 1.6503024110341797, 0.6612583358822302, -0.24456882026033666, 0.2931911770412444, 0.22024454683655223, -1.3666117050154922, -1.9490760297487186, -0.49097646914817944, 0.5551075229774388, -0.5327672657682596, 0.27192672317970035, -0.9467952973605898, -1.6378223281952629, 1.464936451103677, -0.5893775477077194, -1.6317250630094429, -0.8484279778693495, 0.4928109603538653, 0.6779291376303649, -1.0106913961729178, 1.036612298486756, -0.3154828405014991, -0.6257063923517627, 0.9173775123203749, 0.6517264105210527, 1.2468916338908276, 0.16734111368592816, -0.13137987443209528, 1.1367781090489641, -0.6270674567910672, -1.3461640170408185, -1.6255886160613384, -0.6042574122660126, 0.04226226606913262, -0.36402899011434187, 0.24346639943774856, 1.6006095827683924, 0.4332286627567146, -1.3029939838945577, 0.9838333139281598, -0.9283948857400438, -0.4056919342786105, -1.1274049244723223, -0.5055767092634356, -1.026975159854071, -0.8282643563230676, -0.7652930111699975, 1.5477689940977815, 0.37519809153416406, -0.729271827458822, 0.9860902189099285, 1.332717693064869, 0.04222997704592372, 0.41458516554634794, -0.785419989224386, -1.505018983239902, 1.3761443039301366, -0.7673854438762185, -0.15894433449662881, 0.18492800163981854, 0.09290461847755625, 0.6670217091232898, 1.4975023716037275, 1.7641125515717222, 0.5832272540133686, 2.39504201524082, 0.8141016114417904, -0.031150787976535456, 1.0341961457096365, -0.24665927777053875, -0.15815882205758056, -0.8890581572385701, -1.1225257795221553, 0.010439515195557629, 0.04766558531977389, -0.6149409671419719, -1.3760552474477976, 0.40225863805362955, 2.0029995485078196, 0.2345276064748737, 0.9506599311753303, -0.7432602429625333, 1.1147170890513178, -1.0448665946228024, 1.4594726480865978, -0.5105698055740676, 0.6829679868744633, 0.5988844880932198, -2.2140355561037826, -0.16186473899833995, 1.4534406826055548, -0.15296808354946417, 0.20566651808014472, -0.034046116623035465, 0.29245187361723984, 1.018489682174447, -1.2918809409265568, 1.0051062121809438, 0.9103693331548397, 2.3389187393848823, -0.5997020800954431, 0.22306414134687497, 0.9775743332955414, -1.9110960538924617, -0.9761743807708078, 2.4584253872519373, 1.0987539864669498, -0.4212879028793597, 1.6683434061115752, 0.005482059355292606, -0.5177019079737194, 0.38178335661762947, 1.238263281263975, 1.1460449894092355, -0.9472135817629665, -0.07044230493476757, 0.6786358529226018, 1.4086102964528637, -0.33483949308244915, -0.48553385185301307, 0.5516146374282683, -0.07983853482580337, -1.1659568752928076, 0.6118365437912323, 0.8618852660970441, -1.078765428744295, -0.33907035529437873, 0.5095464674071423, -0.7393753168437629, 0.36374788164978417, 2.2786795944733353, 0.8291654214929527, 0.5739087293975897, 0.5076550267247619, -1.5303485233230576, 1.726301320401625, -1.1833228614985372, -1.77006329803844, -0.07504773823153942, 1.259170477325025, -0.19084904532227207, 0.1440526832682537, -1.970653464252584, 0.5533026875249725, -0.8731594210343409, -1.0502307438516325, 1.737567665461901, 1.556027282930538, 1.0078221596811066, -0.6181675334289879, 0.7797041899100184, 0.9980710059130661, -0.8741618607584866, 1.6345643464007056, 0.8296033735945528, -1.4519275027648468, -0.3148507723638916, -0.303969545651757, 0.08786356608794199, -1.654491791507928, 1.1627841161647705, 1.1225310580753578, 0.8129169388935669, 0.34892679360149986, 0.9177245483312421, -0.16283824477104508, -2.4137396460933584, -0.3172262581888195, -0.986683281481081, -1.1724211531665705, -1.6414389688225337, 0.8370645077757498, 0.13393411359251126, 0.6496004410812269, -0.3543262782158348, -0.5329075908846939, 1.2268353626582351, -0.2967309537086165, -0.7482916953833224, 1.1193644359926196, 0.3045003479310261, -1.6139417897635893, -0.781969263491362, -0.06684188946725879, -1.7253514920581197, 0.41994308085300014, -0.6179599684637207, 0.10868852624312132, -1.7054088158418148, -2.267902314405577, 1.9305303764269026, 1.5113162206873647, 0.34499859026824653, -1.369936307497422, -0.2862435071822922, -0.7597017280272625, 0.6331668539377616, 0.40577701845008846, -0.016598034339306313, -0.06760800755822023, -0.1072710320716554, -0.5783412929580287, 0.2391025697299395, -0.18198445593038412, -0.5734033472423191, -0.16407714343253274, -1.2095471022944129, -0.7080674875690235, -0.0759668715097363, 0.07531882482190369, 0.47096591368048785, 0.3156451555157892, 1.3539523343053017, 0.03195307087394985, -0.6275913004157597, -0.8709870909155559, -0.9475039902263644, -1.193223845041453, -0.5766945130419944, -1.1454337008191149, -0.2895583441999254, -1.4333513031667071, 0.8058996301111375, 0.6698056157056655, 1.2335913018654567, 0.515496736248431, 1.3309614984505405, 0.6550551762673009, 0.36939304207162993, 0.9457131148303622, -0.4492865470566363, 0.7486633891958544, 0.31207067747412737, -0.39080235344126335, -1.6634132890995303, -0.6762466550598651, -1.3675116590784493, -1.2172125029426826, -1.520963779756618, 0.7056926791015072, -0.37847044720379786, -0.8376192985892791, -1.1970714883810687, -0.23818773560829357, -1.192826630850182, 0.4567913972892778, -0.2495637790583076, -0.38187040433910546, -0.11684236951094244, -1.1492522168105754, 0.06428787366137588, -0.7835627033561635, -1.639115328201703, -0.5164169743596206, -0.16873066931365965, 0.6479649730488827, -0.25784272606800906, -0.09937933514843127, 1.0334453116502536, 1.110046251798379, -0.396502735781265, -0.4537521155621381, -0.30885504356448273, -1.072873266032148, 1.1022367098132733, -0.6410805555287094, -0.958764285642141, 1.8338586975397035, -0.26234306489670095, 0.03011550957939488, 0.8742043130613937, -0.4094567513411287, -0.47069514059221934, 0.9906228658040415, 0.17995816349882085, 0.7783502854177591, 0.3414579097270104, -0.06700595626351369, 1.7853368084303423, -0.21921104010829437, -0.6580349528300895, 0.13059101483108468, 2.5367958794838694, -0.883930143022141, -0.4317957627680386, -0.2860103564848116, -0.267745804281979, -1.8959987160018696, -0.1778735233844156, -1.2599029332486267, -1.3238105610930828, -0.9559951689895478, 1.365774233560208, 1.786625407963107, -0.3033694088808589, -0.4347223149042033, 0.5525918404313942, 0.12191898857614651, -1.7415926599617455, 0.753797198736274, -0.5521478699650724, -1.102103553964283, 1.1471023904190303, -0.3783050194015357, -0.393833340812325, -0.6966152765472727, 0.784197380025894, -0.433067458524317, -0.18877971929094942, -1.1511101249088698, 0.2775760159482148, -0.365764906867232, 0.7325104437424345, -2.000439606720321, -0.8779458126882633, 0.8107290065394229, -0.5003015128682033, 0.5937085989006587, 0.7689617748125296, 0.00010127726883660756, 1.356289829208165, -0.5640016258352186, 0.16582378473652382, -0.3571118157663502, -1.2976110032511659, -1.145465934431509, 1.3858615728328185, 0.26054087680182864, -0.712696757058618, -0.8518837855063385, 0.42478327534842386, 1.1953961685081107, 0.17776586861686466, 0.2362972700400486, 0.8023951938660417, -1.440883130144487, 1.2780666576322381, -0.0820071420879958, 0.5473404322748623, -0.6848532574825307, -0.6622114640979633, 0.14993239797271035, -0.08275155834833775, 0.6930052776683413, -1.0991890053998272, 1.0117792742750493, 1.2833940209632972, 0.5158199953357102, 1.5524577008191718, -0.7960974547414603, 2.027625597536504, -0.3760433086386136, -2.2477196732361033, 0.9520347964350707, 1.356675259511076, 0.04109318322138267, -0.40461924099799346, -1.0919549634947237, 0.43580032789003204, -0.5782632291858635, 1.6584696761179258, 0.06395787233899991, 1.6819582907413144, -0.8198457126896357, -0.6787278119849529, -0.30499220266812904, -0.6126978701148516, -0.2204974600214783, 1.753032944344727, 0.06503042765385304, -0.7575888776063837, 1.182546342194428, -1.9993873219905636, 0.01781145898037979, 0.23723121951891746, -0.19034933762124182, 0.8370960792727324, -2.011266605766367, -0.6956547942130212, -0.2978714396448092, 1.9258753385401959, -2.111344027162578, -0.7353532335019787, 0.010856938138540866, -0.5611371391685718, -0.5384273020328598, -0.9672417469884539, -0.007706716226938602, -0.0360069573551929, -0.4423668444544972, 0.43995080456241425, -0.3180047707710111, 1.4208223181525643, -0.2680734048053302, -0.2598237080449167, 1.111940992776458, -0.15648445487663754, 1.1352331788274241, -1.2732198198275129, 0.07262928192593232, 0.6116569346927553, -0.9974971573063419, 0.7993506557167792, -0.35838488996120477, -0.6919025016907716, -2.0223526679784793, -0.5162754207681379, 0.24915075798029948, -1.4685143464796024, -0.45972948814806774, -0.6499399359868846, 0.956350633553967, -1.860153393961197, -0.13761411116733346, 2.2799154831753725, 0.24514420358434635, 0.8621725071575678, -1.5870633316319374, 0.5566641204507232, -0.26687815792960706, -0.8051251772712763, -0.21283837746735582, -0.4161697283833198, 0.2850968293490335, -1.8597417465159654, 0.787003043861149, 0.9415324235134386, -0.05506850002433614, -1.4783203154099571, -0.6249242823834716, 0.18356899337563976, 1.7030263285666591, -0.376509022105357, 1.0498839170235483, -1.852202526622677, 1.5407537721599744, 0.4575201627412887, -0.3258476022549342, -0.978474737184173, 2.0882504302978546, -0.7103218441150483, 1.8549731656722752, 1.6535270980631729, 0.3639394187740531, -0.3422999171713065, 1.6071946019675367, 0.1606119621602459, 0.9313336523260347, -0.492368505568549, 0.7252081890217287, 0.7560508104945746, -0.002093732648967152, 0.9905242490733794, 1.3856147559319332, -0.43767824296153446, -0.8035376536817522, 1.6355948276797696, -1.2623700380898728, -1.1794426612172089, 0.4089966888461995, 0.5543428634392791, -0.3204488113772778, -0.6655303910689025, 1.0325032517392707, 0.2838634917538828, 0.20042847371402106, -0.2621382728100007, -0.2905025290910052, -1.7670463427423886, 1.014760190503124, -1.1220924923572233, -0.5650234622307803, 0.3087486317061794, 0.6228472020527042, 1.3374471588349348, -0.11370175505624505, -0.48432518282613574, 0.14352631654932294, -0.9697963703379474, 0.25573299811663674, -0.4134643101728492, 0.04663760864522925, 1.394441393126496, 0.41160702362745794, 0.13299369826474935, -0.7588291100066062, -0.4168437891207593, 1.6543681780005806, -1.1351310861951551, -1.4807828274648673, -0.269574532186803, -0.7964242477473275, 0.361644342876441, 0.3554155757632583, 0.04160987851668596, -0.4008665338563016, -0.35609728467405877, -1.4795272111757622, -0.493805660216465, -2.2217821070809882, 1.537678252314889, 0.33242216802340735, 0.2624519784612242, 0.18797657609608642, -0.4738947356151219, -0.10019061731616719, -2.004471093623564, 0.44444758701127207, 0.8327804425099741, -0.4325114511378353, -0.06271445559604982, 0.1879138993943512, -0.8105697734928635, 1.1849676612885223, -1.0646968781696124, 0.5656227883955788, 1.1074717200861315, 0.18683484551776397, 0.6854602368585664, -0.2874919182123255, -0.39614327594181953, 0.05679078400503492, 1.1738308934006787, 1.2587627462235507, 0.17588459599148573, -0.11521576449647938, -1.6258459952653872, 2.564675913956878, -1.0142958498905796, 2.3549575378785517, 0.6086959983849388, -1.953867611480701, -1.0330085591325182, -0.7532030293154287, -0.22292114500033294, 0.49694671209373364, -0.25207492667647435, -1.064417205099446, 2.0785290395165945, -0.07055893359923117, -2.449846760120615, 0.6743193357614992, 0.2790585675027152, -0.2050976951232844, 0.18406571668297245, 0.17861687008542967, -2.340940090825912, -0.10407638508553183, -0.5262306860546363, -1.0749865178736508, -0.5637946042048416, 1.356617812707738, 0.03486188905813797, -1.5018914172339508, 0.6865502649049778, -0.29502775728133157, 2.485910361066552, 0.40865910424435486, 1.5090133541665514, -0.6013187637798155, -0.08405245326252811, 2.448366106333304, 1.4125666295506867, 0.2379104040333764, 0.9306480111333947, -0.36992884733863446, 2.274918050165519, 1.11613786591793, -0.08680002290387392, 1.432966121253151, 0.9359747422392473, 0.08569630779381357, 2.06644892200285, 0.012640469033252003, -0.001570512113783901, 1.1495558877274596, -0.24107873389257808, -0.06613736616707136, -1.487432781089795, 0.20694355523829455, 1.8631792043575048, 0.09934478895765834, -0.473545565434115, 0.888516306474296, -1.2376546669966855, -0.8898031924123088, -1.3322477854877353, -0.3207349625642773, -0.7980767207269758, 0.2255202892327037, 0.394591611991783, -0.03863311884881981, -0.4326148176299273, 0.825251553699195, -0.3377024785624228, -0.32656974474543365, -1.0581654369990756, -0.3468058142749781, 0.5743731023812597, -0.7003046680492848, -0.9476574735017624, 1.155820862984476, 1.6891408340667335, 0.09051272658543841, 0.05577032391401337, 1.6819235646633657, -0.5322970707857253, -1.2777335382459407, 1.1975372179619268, 0.4735302271394976, 0.9537328435820591, 0.2209999384998314, 1.1063164886846477, -0.18290290237065593, 0.6203822251327733, 1.9388987949962335, 1.224081992261395, -0.37456299494164547, -0.11269438654757079, -1.5709790771143788, 1.3255181192413972, 0.5718454237526386, -0.04741384619368889, -0.36978792767854485, 1.0352847803849834, -0.14778008930798003, -1.8242459317663227, -1.0916365588264134, -0.785618124367033, 0.17953512945094457, 0.6540731611749496, 0.15314698986744749, -1.2519619750740825, 1.1308741821774921, -0.7873523644316276, 0.7900303667259457, 0.15898611041462224, -0.7308974845653954, -0.5130025419184472, -1.601968713176707, 0.9815988575697179, 0.169360464159873, -0.28958909560067464, 0.7720258359732436, -0.5423247963864939, 0.6163788053935499, -0.6184819297484032, 1.3415579510225675, 0.7038534715309287, -0.8048999064838256, 0.32491812932608677, -0.28453005184718944, -2.7205679334694843, 0.36234644693085266, -0.7843836469912089, 1.1556965585329633, 0.42948883698786083, 0.8696005213937202, -0.5531713564912869, 0.438087905749735, -1.6893373083897452, -1.1737341914598107, 1.034619477387069, -0.664207942623626, 0.4827792343179439, -1.5350116527664368, -1.0502216876131427, 0.31398086300664163, -1.196350340072975, 0.2631514175292046, -1.280464996366918, -0.05946724513905266, 1.9142253461218963, -2.119501825965214, -0.23837363936835027, 0.02990421583349729, 1.9397869842789646, -0.9486672678690975, -0.5659232175258422, -2.1436381231579573, 0.46752936254902905, 1.1827855661892441, 1.564061303464546, 1.184790937180036, 0.8902961993843416, 2.74488646465648, 0.9666233586176112, -0.6306943965539286, 0.022217108302777556, 0.9895790282692043, -0.9810311699793238, -0.4069036199269683, 0.1468374098641052, -0.8004458455542668, -1.4447550517637446, -1.0468358164899312, 0.5839972196867695, -0.8533103289310977, -0.8168164382900572, 0.1721511185923587, -2.0062426085581615, 0.4552941625294947, -0.705701392454959, 0.6596142923441018, 1.8246605173752752, 0.3716875514970741, 0.18928018110694342, 0.4524376125875183, 1.016931843825761, -0.1041972265256986, -1.2821034153447497, -0.2751244434169656, -1.6175499264644797, -1.7211940651459636, 1.6248327338296735, -0.8887400296903745, -1.3962627098151466, 0.08292258114974876, -1.365948926106093, 0.0663232701162295, -0.46086731833556926, 0.4381521297101587, 1.5325194049656259, 1.0033057214282952, -0.21665746388441834, 0.28045298664102436, 0.5875804922432111, -0.15907488783690316, -0.029255437994015195, -0.6549530215609338, -0.07352320198197364, 0.6587926138062548, 0.34239699959270353, 0.34782977926819886, -0.23742595288017435, -0.6039125685545552, 0.33604631132086077, 1.4903301709491077, -0.27904183402881005, 0.9615118666029748, 0.34648431866127255, -0.24345859170560658, -0.3285737639194777, -0.9227248814741362, 0.8529351416440552, -1.309255137521813, -1.8307682224466275, -0.23443002524515208, -0.5895138149570138, 0.38062394509528485, -2.2449237599666603, 0.7749720263878273, -0.6002519471071752, -2.4145831314843695, 0.44244030020018765, 0.05367090133628778, -0.8017606836631641, -0.43545145752325914, -0.1422053961336634, 0.41124659262107066, 0.14710821252890505, 1.6265106092889434, -0.609285125846667, 0.26269650099287656, -1.1040107219190145, 2.1842480156476856, 2.454779777796037, -0.9056070215175928, 0.3783546271242778, -0.7550634301014263, -0.33531470593710117, -0.9229915408284284, -1.3627595647074993, 0.3723557705180917, -0.2635816695707808, -1.7084454755249292, -0.4683016942423895, 0.5279151048700862, -0.08485351833558247, -0.2304572041567583, 0.6166741179021548, -0.3939529905537545, -0.021244220442362804, 1.0446334741923073, 1.1809038166617758, -0.4061468826924246, 0.5743932543460524, -1.1620755805562668, 0.7956909319736786, 0.2676037739384166, -0.07342722547846312, 0.5150066996926287, 1.0593326096581537, 1.2838326289096833, 0.2671945099432489, 0.5917359219983701, 1.1054935706712326, 0.7673054853734832, -0.482915940620167, 1.6250827940299695, 0.1477627846924279, 1.0845308859599616, -0.12377531753096184, 2.1361851562275316, 0.3681596276369702, -0.1265824444233983, 0.4553659393515466, 0.5130091916817993, 0.12531424433919278, 0.6826581301270278, -0.6952571539935317, 0.7944944896351431, -2.2449287987171767, 1.0671664613902885, 1.4908819988962152, -0.11367441700113311, -0.03491555694330013, -0.1362528181057633, -0.8566101520588875, 0.015639076863960804, -1.0864860152374687, -0.39175506678125005, -0.5144678448073959, 0.9765350092828198, 0.2765547578698658, -0.006074364002664973, -0.45156134466911324, -1.6436746251057952, 0.8801818032658311, 1.5328812431343775, 1.6189898416755322, 0.053418792578124215, 1.2167410038550213, 0.9942809476058786, -0.13050998161381128, 0.18989122739616257, 0.8264576608707503, -1.721348893668513, -0.21984951833843433, 0.6539250069642344, 0.6578332624141665, -0.5407126749391244, 0.4030517407638693, 0.9905121489244165, 0.21599331100847716, -0.33893444025730773, 1.6565354523363967, -0.10729540221717525, -0.003871970445129292, 0.4179375379252206, -1.4461543502411278, -0.35460408813513755, -0.5293021615852392, -0.9088061300508542, -0.2550044671425112, -1.2843813272735645, 0.7604380438519287, 1.4507681364783542, 0.3347417222045009, 1.539653500602347, 0.8610056741312515, 0.867777335099821, -0.920453341391355, 0.7432033642373805, 1.7362774462006476, -1.298536831907016, -0.08142177582529014, 0.674403332691004, -1.529025435378528, -0.3416712230082781, -0.5984004351554046, -0.5684667720801908, -2.3796330723809933, -0.8114068018501609, 0.17792971783863004, 1.6180784052480262, 0.9854922964765318, 2.0178633804035844, 0.7076443970691108, 0.40709185948142335, 1.6249540734322236, 0.5144627071155977, -0.9119109794602746, 0.35081506028686016, -2.0588210079633757, 0.922977717306104, 0.8047528577389664, 2.2404457621999456, 0.35236765793830205, 0.5893897464829615, -1.219126715342198, -0.8393919831310642, 0.8249349436303895, 0.6384245490083087, -1.6011859703176055, 0.35649802895195476, -1.069052056119186, -0.21367963354662536, -0.33620457101965645, 0.31784136353685644, 0.2564448450823937, 1.0368473207008395, 2.5231212379249564, 0.8212759531807522, -0.7255091288822951, -1.7635721440858478, -0.10922966893299417, -0.8359832449755682, -1.4298534945151486, -0.46647681619336184, -1.518461189277936, 1.6404000837157195, -0.20368324466486065, -0.6261721964761613, -0.8969571179120954, -0.976291623275821, 1.4525630247247199, -1.210630232286516, -0.17483194538487185, -0.5839963118159155, 1.5775870678884756, -0.5301144887537484, 1.400350275441959, -0.14423777992445228, -0.42198662778355456, 0.23574276488571363, 1.4694668855279283, -1.0855098924524453, 0.6417295528326803, 0.36196500892752687, 0.022203798546010737, 1.7627262138021431, 0.05094555360517579, 0.8666096453292887, 0.3698365873516846, 3.0272888404790943, 1.1793681732323313, 0.539802244201789, 0.21615057801960572, -1.254463483338654, -2.409130806453496, 1.5088244792970744, 0.09575092664423147, -0.19071016429204818, -2.805416929422166, -0.1730450626514222, 0.5546138071433151, -0.13163879389583916, 0.7339880740377038, 0.9506692991799318, 1.325479755190335, 1.1547796009110611, -0.3386854375976573, 0.8991105705754282, 0.772240687731519, -0.44788404078592103, -0.7500758445010145, -0.004608022516220487, -1.3058994149725511, 0.4208247175390299, -0.30372445477007876, 0.6740195276478367, 0.41910096511085104, 0.032498140986612536, -1.1681240753762294, -0.8156095498665794, -1.5274839056896694, 1.1531001716359517, -0.2530410125981851, -1.8629948193273003, 0.7905877897379631, -0.6249977395902914, 0.6413155164503358, 0.16769864854643624, -1.7257798246027167, 0.8295888125443699, 2.1559789104270863, -0.297046587301341, 0.3448034374144357, -0.29492995548757234, -1.875676706046807, -0.3390980449383026, -0.6248243225885113, 1.1383553988935327, -0.15791451038638904, 0.1521100618499602, -1.4651334460023133, 0.7658725782256117, 1.3975001985086772, -0.5662660016291148, 1.7863541880904539, -0.8015882482717187, -1.341568021648604, -0.27094419627680494, -0.22403736137314292, -0.8859326977153924, -0.756009272620376, -0.9412773763724764, 0.5256721551272314, 0.5498932624215077, 0.2217120234094323, -0.48566627749810504, 0.7847412444710842, 1.6703083928543467, -1.0817268079082007, 0.13528756529123956, 0.9157096098763119, -1.6707572232502192, -0.5981671595594569, 0.03862067899166976, 1.547100839656267, -0.4408463364900394, -1.270892738390947, -2.186858466985136, -0.7985051481871451, 2.869024881559148, -0.09667575020104405, -0.4514762985303443, -0.7370185226949069, 0.9158992720331728, -2.002842883862254, 0.20643896012656685, 0.1483217706876081, -0.5782787068858538, -1.8921834343292259, -0.1886251837081927, 1.2165232055518065, 0.6110441764577645, 0.5483204066715562, -0.5225374929730381, -0.1344341619597976, -0.18063558233807242, 1.2311598751828035, 0.3438358041256124, -0.5449900274194776, -1.4391848101693565, -0.5262233954661529, -0.38658205384052624, -0.1553785207791746, 1.008785286831485, -0.29189847405063696, 0.3823238273058801, -0.3908393813522317, -0.3174778424787805, 0.31676174294692194, 0.588971354461018, 0.7719592943237534, -0.2694511618022514, 0.5264356483440006, 1.9713645772672843, -0.2458658790760158, -1.160410874935431, 1.125149052304682, 0.2452860756906795, -0.2394623740951722, -0.4859965230407285, -0.7162542085409428, -0.42282566161193025, 1.4875479128990599, -0.4359819577822629, -0.9195026260066811, 0.28849405852881027, -0.8459023077529497, 0.42393332923486915, 0.9200925186322328, -1.3398558194938606, 0.1378026906514283, 0.26105084731116984, -0.20154877807933128, -0.2083347267918752, -0.9219788709903851, -1.314303521549735, -0.3508833598861657, -0.2621089559474515, 2.9788362657056706, -1.2951942462865818, 0.7753112402388567, 0.41794472757101514, 0.6069846154493788, -3.564974232904118, 0.6556244910808905, -0.5397995693340528, 0.3499849682086583, -2.306577761509736, 1.9267279132083808, -1.8101969109221172, -1.0572531059784005, -0.212467429826654, -1.1244074661311834, -0.756965608107764, -0.5679011759262196, 1.3952387242466924, -0.03489180050771821, -0.03218019060893517, 0.08095706695432466, 0.16928439047385951, 0.22937984192787492, -0.28755329182953693, 0.9564558988012428, -1.4749654849378868, -1.5439856010276098, 0.9619330059337172, -0.5256123629643793, -0.3926153268452642, 0.8585950860450754, 1.0202836194078115, -1.2364587796235469, 2.3782607526392914, 0.322190926753602, 0.03937402856002243, 0.8854709761292107, -1.3245547982266686, -0.20970047577554454, 0.39555590913729943, 0.5414481212273902, 0.12411646981210119, 0.39250264631396375, -0.8381137555680597, 1.4985344655530968, 1.247515539574388, 0.18733975011178178, -0.9549443330070562, 0.3002261703271713, 0.2754531942085938, -2.1156751517842616, 1.1749124098194048, 1.3347854521778288, 0.9440509266982777, 0.2530242365589616, 1.1141256692652086, -0.11086682702159244, 1.5864447257735463, -0.16793274489242058, 0.1991065070930161, 1.6896025527464569, -0.34548978873034863, 0.5439882367863201, -0.04036870650439787, 0.6357189397838049, 1.5684332372706047, -0.931731070042807, -0.4753042285260161, 0.17015329625677253, -1.4747057000342085, 0.890335011184971, 1.3249368734004963, -1.105509945889154, 1.1501505396511924, 1.6961527711798559, -0.6676515018329954, -1.8475908905225398, -0.36218452913444826, -1.5221249776316457, -2.975403662960596, 0.16794363809771876, 0.14678599175499113, 0.8968324819746509, -0.31236153008796586, 0.03196877731068095, 0.6740479641582492, -2.516362136131377, -0.16555397611178682, -1.5529018419349132, -1.073729295748057, -1.0586160121072565, -1.9451058112202484, -1.2648629541391052, -0.3110773550085738, 0.13027725964426973, 0.8359750751112832, 0.9774056560030973, 0.2912512824938417, 0.0035316553283277845, -0.32853415709506234, -0.21499121933316914, -0.5717829012328504, -0.23149992980721246, 0.624884985359106, 0.9994790193021428, 1.1598350144007377, -0.9186240185547939, 0.4713124246207815, 1.3983475303291786, 0.6517003039522464, -0.6135992955077042, 0.5646224599759244, 0.6039424009166102, -0.5086578619470508, 0.42165110274649736, 1.5302848519843752, -0.8325011995999912, -1.9926915096567168, -0.26065750040519925, 0.18431657436942137, 0.4079301872178251, -0.49834065260406774, -0.22662660489902714, 0.02513025811167053, 0.2809565023025299, -1.306004898187787, -0.20781946298534176, -0.8778893252598825, -0.4348337181746107, -0.39611272075026294, -0.224081464665135, 1.3020827195906286, -1.8994676039159133, -0.964366262850457, 0.4961985510897202, -0.6852530527278197, -0.8879794329674042, -0.7095543156195726, -0.3227665185562183, -0.30759006808171924, 0.9421975434613967, 0.7696047620320147, -0.298795174863895, -0.4942968668238782, -0.4684361468038444, 0.2568390201880392, 0.7823998138818347, -1.2073612093817663, 1.6124188834650668, 0.637329716736274, -1.7360540593751246, 0.5272680136568938, 0.5739309617626674, -0.971292790553249, -0.29486234193865407, -0.6759525388477384, -1.4974092558536236, -0.21006208505503313, -0.00501234449117215, -0.2857120215389058, 1.467792894245062, -0.7302347827932288, 1.798840901557613, -0.5091508759489458, -1.3917905240250785, 0.1251740187614052, 1.592548690370839, 0.29458659442891827, -1.7357145207780227, -1.311465817968218, 0.07108113903528679, -1.5405084756040337, -0.5149743887660196, 0.9014904399542586, 1.4142258361950188, -0.08740031428606758, -1.3649129790271333, -0.6924367355228018, -1.1285520374819795, -0.5797789963315276, 0.22099271357973552, 0.6809446947500951, -0.9351793559251531, -1.1452035744223192, -0.6577550144783624, -0.6350372602267251, -1.0482800522726674, 0.49183346698428715, -0.032250598869375605, 0.8140239386702807, 0.4343937739984423, 2.0083941521300446, 1.8561129751055827, 0.8750253093573955, 0.14320966969332152, 1.2203135842838861, 0.43695972858660903, -1.1719303367325027, -1.2012822024652663, -0.08199022544455731, -0.43090030611452146, -1.9462489642796126, -0.9911412816950617, 0.7623872287856569, 0.3267480109782788, 0.14381999161167366, 1.3782977687868223, -0.4189661297783466, -0.31185012223101444, 0.14002899648832035, 0.028204946050525873, -1.338589271742533, 1.5332461603231604, -1.4672340961292516, 0.5767882013931366, -0.487392673562221, -0.16603802191323966, 0.3328844636888813, -3.5323941203410683, -0.676942728929464, 0.4171182782570351, 0.4204313936120812, -1.036059875550564, -0.5712803574088734, 0.017860276313042375, 1.367696670013551, -0.4121545487491344, 0.4413474789052255, -0.1812929650876321, 1.7281311795811216, -1.080286188671549, -0.6600935866616289, -0.5156089061015923, -2.5297011810240515, 0.6992215264728329, 0.11457888009322825, -0.5826271298794051, 1.2950104831959475, -0.6304617798307636, -1.4395877621012911, -0.6680461608010526, 0.4564607664864742, 0.14272011787897101, 0.6639807935104884, 0.03675422959347858, 0.23687281101037885, -0.4501642672899884, 0.33983412509875227, -0.71017918142384, -0.31190216644841723, 0.5482446140293592, -1.1289886438428076, 0.9586099798960649, 0.700911890467347, 1.7455264019307246, 1.7164147564909695, 0.1417902527702531, 0.5911119259749337, 0.30072662438542813, 1.3559115471311414, -0.9189692677015942, 1.403947314676718, -0.4290580189782136, -0.8033429229429441, 1.1269538235593186, 0.5191484017467098, -1.4067040020762596, 1.3395742091247844, 0.19905693285756368, 0.9659584228247905, -1.2472322766937785, 1.2075420355671136, -0.44182229057013356, -2.164729933896111, 1.412754576972858, 1.1515585154668238, 1.6421099681012077, -0.1977032151576074, 0.4331411143389875, -0.07839762313916819, 0.6911160869604583, 0.727276627223665, 1.0671584146964905, -0.8448124642046326, -1.0998404649907392, 0.3110541186272352, -0.5610755882095586, 0.5749332788570313, -1.3987351417410403, -2.370061521779433, -0.6893181772459243, 0.8484701726870837, 1.2537137605805944, -1.1053433543209026, 1.784180363124319, 1.546305464582746, -1.1232650120908858, -0.8181137664857844, 0.3855331864342147, 1.6056967109813591, -1.5454579499096077, 0.71725374491603, -1.4001863839190611, -0.30368153919095275, -1.5427475085953732, 1.4425683243191472, 1.1268063630670404, -1.2788203202321025, -1.3428560987148448, 0.9996087617622087, 0.498601318302097, -0.06207770103028954, 0.3954972701280944, 0.03141469199821914, -1.1216303568103885, -0.5851102816701745, 0.5016105014133492, 0.5017978949032452, 0.7845295040374439, -0.898379073841702, -1.7278748728714106, 1.4899807113512087, 1.028806934828113, -0.32008368993717007, -0.4629408256861147, -1.3043057223464567, -0.27035674482682537, 0.9272803756426933, -2.174329434341272, 1.0478670897339464, 0.5378291432579604, 1.0275893034249584, -1.0551517312181113, -0.14807269424493807, 2.119497902593026, -0.4904164826704018, 0.5580004695096898, 0.5092850823923047, 0.7683812255173343, -0.1386994186769757, 1.0466767154393932, 1.2964231863815485, 2.0579235012210746, 2.3498949568459935, -0.013770522566534897, 0.827649484836018, -0.7550212868371654, -1.0651018190337145, 0.4972209946599312, 0.1305400762133628, 1.0506041078206303, -0.11426476577830233, -1.2785410967835962, 0.579611595707674, 0.27285093609182104, 1.4128549199114724, 0.11547536127098369, 1.75655332700426, 0.34748572189948007, 0.28905930935711727, -0.716322127040966, -1.0379028821183396, 0.6777813921729486, -0.037728358726436116, 0.17731106215789313, 0.08765221272384868, 1.5619237000370914, 1.1766830196738045, -0.13030161501042423, -0.6215141062538317, 1.4683776230780023, 1.348640208149364, 0.58887391638144, -1.634170854571579, 0.6146642996800229, 0.04031054480032271, -0.9298188747545441, 0.8881760815364313, -1.910982778931587, 1.074791946130401, 0.8469904657297533, 0.6236507752338618, 0.3834169971737816, -1.780610490532637, 0.12681897639858683, -0.319193468995076, -0.2568884259328711, 0.6894523952270732, 0.9189582129521415, -0.15807990574222272, -0.9532364914632049, -0.2412938052846418, 0.8670280918686166, -0.4132295880768567, 0.3893871998621646, -1.7841805712242769, -1.8858458606896553, -0.6066770162214812, -1.4054984194551015, -1.2719072740231487, -0.4468670823965547, 0.18217798576224248, -0.7607097986189928, -0.9857817113577971, 0.4799997142984615, 1.2566980017358418, 0.019710090336483885, -1.0107589270076516, -1.0555957734845096, -0.44265532619196957, 0.1932183921221689, -0.36269626086668555, -0.05657368934964875, 0.7397105285637519, 0.5149580101501423, 0.32801848769087666, 0.17364172754330548, -0.46145106492267307, 0.174689130434755, -0.7102160201197072, -1.4893078332581111, -1.2226517380000568, 0.23409635763230902, -0.5728495458906804, -1.2311542940281428, -0.12995518384194965, 0.6071544162068707, 0.5862967768207012, 0.7651519981360169, 0.06305010409202366, 0.3774620180666046, -1.0998813569281665, -0.5141909139356378, -0.798751151436252, -0.14073960395615653, 1.2000607808550223, -0.9125645968687228, -0.7061651416662723, -1.1796133078278916, 1.3639387457815046, -0.3397001103080443, -0.20980871061922643, 0.7017972602695032, 0.3706403096736076, 0.7883575759328195, 0.20701736793416348, -0.6571893040677017, -0.34496807901756327, -0.33763859619225933, 1.2067803404219815, -0.016375284493533298, -1.3999057394120642, 1.3702435769562051, -0.2735021901493025, -1.2977242654389756, -0.6868230320274024, 1.5090972857466476, -1.570276533484871, -1.333559405975822, -0.4877827743874579, 0.5385170469869544, 0.04428287235949452, -0.023963005906079582, 0.2977651641292871, -1.2716583710734912, 1.1737019370415716, -0.4016368073972382, 0.6999192155007834, -0.6394929556245721, 1.4360965482558932, -0.3019306267106901, -0.6066226812696816, 1.0140657640166877, -0.8872535835888511, -1.9140806811282625, 1.1428642324956104, 0.16030511641527187, -1.1066951335091209, 0.08297311533767986, -1.2146286652293923, -1.3018610687056427, -0.1926670018048265, -1.7895047276217972, 0.22583324727548548, 0.32033456930354387, 2.4744654255075695, -0.905394124916222, 1.213159454693587, 0.2055905770777646, 1.7745830277459471, 1.6506082592953801, -1.2273264683438252, -0.9658977157365635, 0.4706471201995977, 0.10098925853956921, 1.135862479589721, 1.9086094581544835, -1.0663899033348136, -1.8868437082128504, 1.729396055682859, 1.29226302034845, -0.39872408517233404, -1.6315353382439066, 0.20662264284497184, 1.6827598637045489, -0.9849116872344092, -0.629925689915161, -0.22866872776726943, -0.28084656965197347, -0.6537144290651893, 1.1738423112562109, 0.3225496695164787, -1.5770002305837274, 0.5315746782263793, 0.25499361503871953, 0.9286974455047713, -2.198679416210931, -0.7461618699823943, 1.0233226134343292, -0.3537472171926932, 2.1233710206256418, 0.7110075055923702, 0.2671204737535948, -0.8361901952365984, -0.45159579255020793, -0.9580298539904036, -0.27006175811710387, 0.43807876974036963, -0.3687130624853389, 0.26346927879315146, 0.759768472791131, -2.50580264590308, -0.3730192878706937, -1.4302288278285773, 1.5504392458611658, 1.073456991867435, 0.5459940818287593, -0.15750336231461862, -0.503326229260694, -1.345138795436746, 0.19478131343514962, -0.25761815239044256, 0.7104919640895421, 1.1051745483054982, -0.8489196229659967, 0.7801431260154756, -0.2254853794309073, -0.6902601969127599, 0.6897098496900755, -0.661586574144525, -1.2986579564048883, 0.6612754422580139, -0.11387965098677878, -0.096001117726357, -0.3694839916785639, 1.3258611271518002, -0.12203594070090161, -0.31190641984795775, -1.4130134903760645, -0.43710554925927375, -0.24891587125930456, -0.26801268477254925, -1.3757752981070575, -2.1672099081692764, -1.2582265435480426, 1.3582087388225053, -1.0500054263240466, 1.5104918907947276, -0.4307005711951517, -0.34245442146028704, -0.3597483067303371, 0.30667699225996053, 0.5149988539533829, 0.5062056766290196, -1.1354808520604311, 1.6969464184089043, -1.435346147379205, 0.060217806003377956, -0.7520114113311441, -0.48301599072906065, -0.3124143961321312, -1.2590197105359044, -0.9303436285681504, 0.11653061436461945, 2.2466913564205035, 0.7194358412763828, 1.4881565874902263, 1.0071731791693883, 1.6813036657944465, 1.3212704357648508, -0.5920444458454195, 2.0418187480933754, -1.3347186581110149, 0.8146332390720143, 1.0076444461375886, 2.7487532230384613, -0.15773364511078766, 1.7345084820423278, 1.6981209232289574, -1.364924467246374, 0.37292326054098773, -1.5889895097065507, 0.9259680222347696, 0.9869062933968948, -0.23083638276603027, 1.0945251616591007, 0.13445361063638192, 1.2167323282998928, -0.307158682363402, 0.7863115359237051, 0.19930591255007085, -0.19088142366136515, -0.37341521869428707, 0.5262535400482571, 1.4189213742426212, -1.3235560548289695, 0.3424394918764662, -0.7124549443813295, 0.6554203447943051, 0.5978361893732814, 2.271359217103116, 0.5726176488345776, 0.5151124369860595, -0.6660770265517322, -1.0506972767779628, 0.3389195213533005, -1.0983294482615442, -0.275249427013414, 0.9007716801061203, -0.3204557910157642, 0.9384632664193635, -0.34617548107914614, -0.6589879453769816, 1.1642559109753239, 1.3643873452620825, 1.0447692452470276, -1.627860609193651, 0.7707465404989382, -0.3593237386664273, 1.8928374475964622, 0.35066701683686385, 0.8008364862309824, -0.7607420469173829, 1.487451038741104, 0.632808717867292, -1.9263708037643763, 2.4911114571510713, 1.4428218326679019, 0.5295554026613537, 2.0146614043071542, 0.5760877770610352, -0.34155517483135106, 0.144063580187429, -1.741246697088636, -1.078828124932118, -0.27733660806185906, 0.66277554450691, -0.7544139965410132, -0.0456836143207688, -0.3486852834534294, 1.236254787431306, 1.947001636308667, 1.2920425408704985, 0.6284718482497023, -0.6941888075191771, -0.8688760865928186, -1.5679430402158105, -0.37544544167463234, 0.07199256342688659, -0.9353575308897315, -0.8866063799005851, 1.7164129397879309, -0.29233276139482484, -0.6430941324441202, -1.4199814550357013, 0.7644078812203373, -0.8924755142443652, -0.4016665762757682, 0.1290749319136259, -0.25820657404737163, 0.2460793323252806, -1.674467891776887, 0.2066503062975619, -0.704238574546404, 0.9033138963236153, 0.36661521037633915, -0.9038252607431247, 0.0960264690424454, 0.35756140582286, -1.5224381803044433, -0.6230346767375481, -0.2561814922419205, -0.34944031974291273, -0.2354489574676709, -2.568089467350478, -1.6192039050078002, 0.9786149396066075, -0.4647066836396701, 0.696011719692098, -0.7954853372567667, 1.4483128879709524, 0.5162212919441519, 1.521842686955159, -1.241408977409259, -0.15132552509794592, -0.20367535007812673, 1.6374278015283301, -0.9007873604376955, 0.008485703709924663, 1.1465245379136815, -1.861275547420059, 0.38299152304642486, -0.8862868346392493, 0.7559182536796293, 1.5047351952273729, -0.21543891524003655, 0.1132576490236341, -1.2822563139668766, -1.1474030542540066, 0.5156695934673476, 0.35731992373485255, 0.07290178276925256, 0.32582961452357373, 0.528198052615011, 1.4944449166025557, 0.39179164357597435, 0.3533555159539804, 0.17919272944760428, 0.3069912853645705, -0.8304137867585882, 0.011769780161344254, 0.019837535679654596, -1.3230369819171222, -0.36707348249127214, 0.09564633863362461, -0.038152357844977815, 1.6517543014619651, -0.19612081641723045, 1.8067802991268052, -0.8778616813591822, -0.6638869853771947, -0.29010319456142863, 0.7623215565345034, -0.7344617280545632, -0.4829978990324802, 0.9159218464720861, 0.40178714604178384, 0.21386264700537663, -0.4432630917937426, -0.14090270741806035, 1.0433661474922242, -0.21036992931361836, 0.0006597013370755116, 0.32870222839965313, 0.5842607671287998, 0.03626645568007865, 0.9569427467791426, 0.3645542937488536, -0.5250458024377882, 1.1545720004840936, -0.4718264546748146, -0.42580159007078777, 1.7732552357503943, 0.71495340247522, -0.7080120082085442, -0.6761525119517363, -1.364782242257116, -0.2628417785271198, -0.12246409591410877, -0.26295274833702836, 0.3422696707461684, 0.16519512102750644, -0.3200095219761568, -0.9450474449485508, -0.6502709296448359, -0.15807932373606878, -0.732774511967372, -1.8971633088255133, 0.5869484488259086, 0.7398666702788494, 1.2985284896467044, -1.3407752232673125, 0.485065718501557, 1.175572425387529, -0.28356628169172166, -2.3535193148360656, 0.6638218928997321, 0.019854671133966016, 1.6109784861709866, -0.16992331399858798, 0.8309822259995732, -1.0634496033409253, -1.1206667646518735, -2.1292911953012457, 1.259393918661466, 2.0473163989312204, -0.25170472922531917, 1.5132451740810506, -0.5291663936425717, 0.33756770521239465, -0.10295872939950089, 0.8320248609622408, 0.5167628518062336, -0.010993127229414212, -0.6657176284597728, 2.173617236096835, -1.243118149454118, 1.1212576922891582, 0.05607322113232016, -0.28859402821628327, 0.6375739455647937, -0.3327857259550169, -0.7906365501680045, 0.07575538447448336, 0.8611250692439064, 1.9051675139902684, -0.3218142709853557, -0.2206136879008776, 0.06226299686126322, -0.15658212445561082, 0.37554814452760127, 1.0288371197796535, 1.732137029857358, 1.2362059461116646, -1.2720762222197515, 0.7463199745084703, 2.4480108287363285, 1.383987316361017, 1.1647385422944718, 0.018499230111240213, -0.16275740739325084, -0.8364228562020024, 1.179470179895322, 0.9227342879944127, -1.0892763548531488, 2.135498947889661, -0.561591164526235, 0.4495899150074046, 0.973232497808112, 0.3342295090141196, -0.31228873728494877, 1.0216356962821398, 2.1856658817118126, -1.5593977451458672, 0.04788611597660137, 0.17417549152650408, 0.20446041901594306, 0.8436906540879414, -1.2985703301363185, -1.129199114710756, 2.6596451746381944, 1.1630328010441564, 0.04725478348929707, 0.7065160649614987, -0.5373578373563574, 0.7639586298143095, -1.1403486571505397, -1.3600455780624359, -0.0726490023843234, -1.2291715935030727, -0.6184040429360383, 1.129507757043274, -0.457468825297071, 2.6587049718166056, 0.16770724344908983, -1.1262972196099075, 0.1298433576051363, 0.4880097955721437, 0.7624994324802232, 0.8048186255786721, -0.914124433914798, -1.5578475181555094, -1.7296886613447242, -0.129952097845288, -0.6928454512940828, -0.7868957344955965, 1.4274164554944102, 0.6771169055561997, 0.21236078849887455, -0.5160726370856227, 0.5974720317381031, -0.05406155365030771, 0.5666362075158545, -0.3517487508066263, -0.43371110534841734, 0.3094439399335253, -0.8999241581967281, 0.7872723682879509, 1.3394736401926002, 0.8092690766802474, 0.3391620422403489, 1.3480229081765382, 0.6656393375970666, -0.1749621728179716, 0.09778706414463337, 2.6951106595018772, 0.7919887584503229, 1.1366617063125255, 0.6423395574744488, 0.9538392949637423, 1.189243961862758, 1.0014493380262826, 1.0595308591173354, 0.313198089217242, -0.4409765780710029, 1.643490364205786, -0.8729343870555499, -0.5008073853194994, 0.5718255535700855, 1.3211405479953866, -1.872672119940068, 0.5296359516454348, -0.26918393108578453, 1.452332405228415, 0.228742629206412, 0.20223224260497477, 0.024128053177880134, -0.12647008610589153, -1.7253826790233926, -0.10007393782208357, 0.080863670940897, 0.005447572053140963, -0.1524764831261909, -1.4965458790794766, -0.2648062898207618, -0.35805215845078986, -0.1364987810276434, 2.358218242177299, 0.5047550068502876, 1.9731131358050311, 0.053575394200560594, -0.3488416387183435, 0.3390618567526152, 1.0436953370464277, -1.053752836369867, 1.9262097007274261, -1.87749220145379, -0.8075085687880077, -0.5721248373545983, -0.505817257309533, 2.1939406357307925, -0.7289939644274659, -0.9450759559203018, 0.043724117473770224, -0.14808459896965337, -0.5004012346563681, 1.0643206064554138, 1.0598620733542752, 0.6352469857103156, -0.9649229813898412, 1.0555360299031187, 0.5004104508496241, -0.28324466123097486, 0.8466937060365206, -1.3081434516402806, -1.6728672814259093, 1.460130425477895, 0.5766427304299288, -0.09378458605806203, 1.3566295982593568, -0.8389507477581267, -1.3101784984660967, -1.4620694772225655, 0.3624348059316792, -0.26600731390807947, 1.1438259793707826, -1.7451079529922242, -1.0765023325072471, 0.022309656289258867, 1.3658835912933274, -1.81359807887154, -0.8367674949683385, 0.23889911317729512, 1.586239191943624, -0.4007398731642651, -0.408371830358155, -0.11595127670338087, -1.088775048714639, 0.13621322518080997, 1.5070640891605458, 1.0300304122087565, -0.10417484679947428, -1.0504646451853283, -0.8851312977588657, -0.019640267497007428, 0.04587666509036941, -0.1554260566995003, 0.8273987725164427, -0.02097022852119724, -0.4275830402586502, -0.2268103238204712, 1.5174086052181397, -0.41815542678724243, 1.1327108453586205, -0.3284451890877598, -0.12331229205832743, -0.8427827657298941, 0.3130932396704757, -0.2918083739045586, 1.0877244192722946, 0.7121880858292098, -0.5171322317401472, 1.4383181378098797, 0.25067259392151975, -1.2325343486565614, -1.4526794472649727, -1.6927744598565961, 1.9440972936871745, 0.516995034292753, -0.5049132676302691, -1.2206378650502834, -0.7925636462340818, -0.0922288487441682, 0.17772116191575157, 0.4983996185413674, 0.7823989041489605, 1.341088373011069, 0.34837873381337214, -1.5487844643910575, -0.2673725253452344, -0.7888188856369033, -1.2390040880905946, -0.3810879719239, 0.2901192749035177, 0.8943610628836164, 2.101991886592197, -1.2344411201562036, 1.212060510245569, 0.7332201205610795, 0.3975302332436425, -1.3523432739881245, -0.22830353003618048, -0.3374808922302257, 1.704179043151874, 1.230458991533448, 0.3700596426718285, 0.004693568883347668, -1.64624932139287, -0.9675131937203242, 1.091810391171295, -1.3823263324123238, -0.42747740699555326, -1.1494423546278707, -0.4780639742932307, 0.19691327706018422, -2.0793088164407005, -0.6487773949994995, 1.2677253597805902, -0.9126217196864616, 0.3806234929373437, -0.9293733298626851, 2.19179485943671, -1.3375943294006585, 0.6165700665056951, 1.5375590183507162, -0.5440265141745417, 1.3742164639332146, -0.5630586050611099, -1.7234816577287264, -0.23128884047849216, 0.4414969733196729, -0.9571622700809319, -0.5036854933476089, -1.7499835200041909, -0.5159763930461255, -2.3043740771851042, -0.5758306686537981, -0.3751959152097434, -0.22952019668593474, -1.3556636415941685, 0.6946965716578293, 2.687328468043737, -2.26957713356392, -0.4467845718757212, -0.21088160713002446, -1.018803844052462, -1.1515743398447333, 1.1302919785636656, -1.0600619065079435, -0.8378115198360856, 0.343035913817421, 0.2305029049905356, 0.16584470707566096, 1.5899719659473548, -0.7633569525652658, 2.0917869137620486, 0.7750627001605848, 0.6229567263046305, 0.6602019468407648, 0.8747807442240455, -1.1435318125396354, -0.8689673834108469, -0.23279223900667598, 0.10440866676241624, 0.543547180260331, 1.6491469903017295, -1.0668953018489147, -0.8919901191967409, -0.9102344894699869, 1.1466044929263393, 1.182384803915059, 2.384241174167327, -0.3705727996708735, 0.2289616351961355, 0.8420551345008599, -0.5796225356531024, 1.3463507979350815, -0.9071460316829952, 0.5044105849513877, 0.5290968226694805, 0.414673473660391, 1.2324813303055495, 0.6838328682248868, 0.5175443933252979, 0.4357456082203324, -1.3661475344998222, 1.9466750507505906, 0.7307715272226593, 0.8497825955476899, -1.9850036734052838, -0.17679490031614653, 0.6999728078061235, 0.6464977278080128, -0.6416895464353665, 0.05492247408780248, -0.42867226103956463, 0.13527753089086697, 1.8907226930466932, 0.4205669566556188, 2.2904084493844192, 1.6791924610990556, -0.3883071786816532, 1.751615803654628, 0.9206244242844225, -0.3304397718915239, 1.4759594267526457, -0.39050706644529604, -0.39719164948533914, -0.5415664735296124, 1.1031020784225787, -0.5458812639493353, 0.7368342755199779, 1.5968485993255819, -0.6513232205126983, 0.47040585074156543, -0.010955374624662778, -0.7504480401666843, -0.13307578692350605, 0.38809671587431116, -0.3279102853195687, 0.1804756437766412, -0.9634097483195658, -0.009836085555814236, 1.2546341890280013, -0.05288640875862733, -2.1263654922419604, -0.4558712332684463, -0.31493979710551673, 1.321824586043707, -0.9299907614610384, 2.558075574768482, -1.2556036322359672, 0.20471687254815576, 0.7080990972518794, -0.2905891034086579, 1.291960380996447, 0.7902473272177669, -0.9730973803541999, -0.5971837442576567, 1.9969860044465428, -1.4577335155977476, -0.6127406816636389, 0.08639172103795162, 0.7793641559212063, -0.6558965890707802, 0.946409644250265, -0.3066133093283964, 2.0627213923812824, 0.24086472068035178, 0.3188512982818999, 1.2435629715053516, -0.6675553463143998, 0.6592455987171503, 1.0547533350779925, 2.98043523967282, -0.5040850550248637, -0.29692456011940754, 0.3106582977431358, -0.9639452027459752, -0.9010574472264241, -1.284341915245724, -0.7170251280065479, 0.6745548228779383, -0.7233546351153934, 0.2643359166659262, -0.33519362687105564, -0.4357305728792785, 0.9030063055676243, -0.24683310681634563, -0.8507532834823918, -0.8537716740001078, -0.5113784964878262, 0.9530916129982567, -1.0226263636212656, 0.5441401126504948, -0.13850043205362447, 0.30892095925291696, -0.8680392848544856, 0.4376286215973947, -0.38354375461265455, -0.9677631869966983, -0.8787460766031768, -0.3291476503282943, 0.32343032520242143, -0.24642763082287628, -0.9655422576492054, -0.5346564329914211, 1.6861536397021715, 0.35053518318940297, 0.68850282530852, 0.18667426230316064, 0.6432448927733118, -2.673565069354264, -1.4797017488626107, -1.5106898957111823, 2.2055244448004303, 1.6112941898911906, -0.9190091984450329, 0.5490160473934834, 0.5108348595151175, -0.7185054489269641, 0.5640806780169761, -2.8552437746691126, 0.21843181368062686, -1.644495140159464, -0.8689023811599111, -0.9142179455918718, 0.5961094119354985, 0.6897887718164908, 0.5187358915478717, 0.7082631464537857, -1.3611956071789502, 0.26194415977502583, 0.13052529940329713, -0.20674350519155282, 0.49832992641273205, -0.24207968245480127, 0.7909547231734081, -0.08612708454656141, 1.2288169661874038, 0.34034351541784985, -1.3634388788227862, 0.8859178988026315, -0.6165181149393698, -1.0500005994019832, -0.5494248624273528, -0.53556097605543, -0.18491600510760595, 1.540517222023466, 1.6558227275399902, 0.6566573831081406, -0.6638527586379268, 0.9485730284775615, -1.2378276201970677, -0.5127975741086174, 0.8000474266525436, 0.1628364066861345, -0.3946584611028726, 1.5460241985420562, -0.4393296345209449, 0.9839336843250284, -0.4933629422605036, 0.23808956936719713, -1.0926641665467096, 0.8630037968592864, -0.016880880214399954, -0.9555257418090934, 0.027068108670669083, -0.3698860608778258, 0.6694319371162305, -1.401491686632735, 1.6265438153317275, -0.5881419442633907, 0.004864106017431145, -0.38345590598686174, 1.0617673198532591, -0.5671339658134726, 1.1944841036256877, 0.23384351952240495, -0.15414725130271484, -0.5745034159291802, 0.5228778585055611, 1.0416767396772586, -2.0684342878566633, -1.207799980281045, 0.7181573629428648, -1.0732946386680216, 0.537825613811843, 1.7658208307552794, -0.9932016219234512, -0.6117834895110765, -1.006265623747441, -0.08287181028510948, 0.2160766634314687, 0.6814329569244312, 0.20050347416155762, -0.1917548780353248, -0.804575168819129, -0.3466874589239154, -1.6078589611333092, -0.12061465101692657, -0.5158969362637771, -1.2238170249013673, -0.6940846010541852, 0.9061898439033245, -0.10417360992340431, -2.3635056838320225, 2.7378109518937097, -0.4121503222563547, -0.025684063519077767, 0.5108150600174498, -0.28111305642704365, -0.9517065925104147, -0.24698359687418014, -0.434794612254077, -0.6291856961990737, 2.1496412070608897, 0.5362706039977048, 0.768176167894452, 1.4598148714786723, -0.5257529333018215, 1.1680491416630419, 2.630779869474791, 1.2312812753759588, -0.3475586336937728, -0.3957143535247869, 1.1889249326130717, -0.9646642329885069, 0.4831178691182514, -0.1706065536798827, 1.0149829705247735, 1.9408276174956, 2.298907062954661, -0.4942560834622721, 0.7219964050445891, -2.0392101627952504, -0.20724510939000348, -0.2845653434832479, 0.29095575259385714, -1.9501197527307488, -1.6465059460402485, 0.9869953533226205, -0.6148403914271784, 0.04815931657184485, -1.0616992990857288, -0.8930305354039164, -1.2958176042287153, 0.6396284678108212, -0.40191108524436936, -0.03327103640707008, -1.545146012795025, -1.0447205070640808, -1.118854636106489, -0.9075765943163846, -0.9647239985179574, 0.33493661433327326, -1.1108046572266206, 0.5805233075740734, -0.639744832040856, -2.054444425228957, 0.10679627686472454, -0.47996945237960287, -0.09913596559077335, 0.10152329251813412, 0.7852951584167677, 1.7150432258718165, -0.11494504040912928, -1.0258802968083587, -2.444402762822831, -1.328409427866073, 0.42239922371367045, -1.151494933048571, -1.2888912382862858, 0.3798910428134717, -0.18122924551993122, 0.0017226007471964002, 0.9351893185720689, -1.2433457551736415, -2.1473377688154685, -1.1512856195479286, -1.2979224688734314, 1.848420508045214, 0.6330309289974438, 0.11051799211296123, 1.5596004564730546, -1.3889176223112736, 0.5036208910037063, -0.680726747337154, -1.4263089100770279, 0.8631204834271109, 0.44969642548106076, -0.9250169908323786, 1.4406746651013582, -1.615281207768847, -2.056598751464843, 0.4062060670272452, 0.17929022542065454, 0.012955182170076475, 1.5756701032893456, -0.12143176840710795, -0.5200420001895764, -0.5514493068690371, -1.1498950322658588, 0.9168775335447347, -0.3496130112123824, -2.001317162655043, 0.48331538462244694, -0.5213988569945766, 1.454281534349197, 2.527071191593205, 1.491910928285672, 0.45117332702706575, -0.7635332457215929, 0.3204500277682305, -1.4717789998754505, 1.5380395051788396, 0.8398721055975148, -0.0653319821063118, 1.995433065153734, 1.0289683919137005, -2.274347364488439, -0.8032332082927514, 1.398435209701221, -0.416294330536635, 0.3649238581411212, 1.2430442614704622, -0.043980306358361976, -0.23926258010614504, -1.2249548109260833, 0.21061534241484273, 0.028298112159623454, 0.8014052395144099, 0.6029968625178522, -0.10464391636624075, -0.9696124093933113, -1.154940529445824, -0.5728053998219647, 1.052241099987848, 0.3348136214203297, -0.3703570754725499, -0.4242817075037278, -1.1131852728963905, -0.26050778952877496, -0.1964277122253474, 2.6372737596165283, -1.1768088740320646, 0.21692069015979504, 0.6227373574528174, -0.23671553583715507, 1.476131535021941, 0.8187418861746371, 0.07096782828944909, 1.2717878518379813, -2.7099241796295557, -0.22157156264480754, 0.06430762578729991, -1.7339370793448914, -0.9765742873079192, 0.28255049413401084, -0.027389330189755073, -1.4112946664686956, 0.9902777004646152, 0.6840516735208901, -0.5764070664577315, -0.2574731019067227, 0.6028899004988941, 1.8506181102543784, -1.7916363195446148, -1.104787594503321, -1.0233104105519808, -0.7758720443524422, 2.0097939285058164, -0.07244900630363746, -1.167915885149549, 0.9428799357572818, 1.0349293118462022, -0.10724232308681843, -0.35053716755822456, 1.1499830756128693, 2.1839180769855013, 1.9648170509352194, -0.6805554500601327, -0.7488017112440644, -1.5467415779963603, 0.6550132692507499, -1.3466117232553767, 1.3371125618862763, 1.0834843736145332, -0.3064534650724569, -0.8832640158936651, 0.2446656887278707, 0.545848025839267, -0.6320256506205271, 0.11634211225111508, -0.7659569745014454, 0.049269898598923056, 0.16268734091507212, -0.9036256710492231, -0.23984192727027548, -0.3757749049902281, 1.4018905544065836, -1.894555610094382, 0.20988435386828858, 1.1344057868957744, -0.37005468196019725, -1.7427436634591904, 1.0576109595468766, 0.10037931658818564, -0.0019489762364826866, 0.5876228250764509, 0.3662630477622553, 1.1839893088100637, 1.1682339516641054, -0.40868276016097, 1.2878903977422094, 0.3114912282904335, 1.0620269541427136, 0.7707529907978097, -0.22537057219700277, -1.0372657154438492, 0.26697610374632735, 0.9217303295761943, 0.19097291203419292, -0.6585768246890966, 0.5110009092199294, -0.5891628875611944, -1.6900856892991194, 0.7914931539085664, -1.2492167982190607, 0.6583425554919479, -0.679360117421055, -1.7581682719805856, -0.27077878473111794, 0.35888282339923355, 0.6274259210957529, -0.7525418772637604, 0.031081977413881225, 0.09059755962047454, 2.2240678815056962, -0.2598430027538974, 1.0202908482981723, 1.1487891090990217, -0.5763127360916207, 1.24653914210171, 0.3886576357238014, 0.3583901750454699, 2.426706333290961, 0.2996076089601772, -0.6234213124489618, -0.2442099222741146, -1.0867960510369117, 0.08464912719982581, -0.5110632147131665, 0.322863376893776, 1.9459216739692093, 1.485457520916718, 0.6899261183311065, 1.041074726724765, 0.2530552365732642, -0.4124767664555255, -2.3659085109408395, -0.01151787278533279, 1.3632745974863718, 1.3717031854755002, -1.296243187178805, 0.26425663653873754, -0.9468516004973221, -0.9545890703089812, -1.1913752514513458, 1.2227375029614558, 0.0695992221549086, -1.0261287993917028, -1.2529987658995347, -0.2884872703613668, -0.8431948440157733, 1.5015458038894798, -0.16247026959011457, -0.585954949358824, 0.7222840944988184, -0.5422702007343312, 0.9407783600750612, 0.123174037386974, 0.5742440196634568, 1.1539846854637235, 1.3640700819066525, -0.6570635151396556, 0.06677704207751238, 0.0435334781429872, -0.47367069029385184, -2.076211804678333, -0.7752896119244123, 0.2849931978356341, 0.20042782295954423, -0.7135971556151358, -2.103924060515805, 0.5633801374708709, 1.0605232537184155, -1.8293032365154238, 0.6473199567808859, -0.3882675473997147, 0.8560213008308754, 0.26775431281869383, 0.10769381672039899, -1.0066017211891312, 0.7737752782256642, 0.5054529874865349, -0.30761127796024507, 0.6304218178110279, 0.3884550029371155, 0.4608266128905073, 1.1104470603992531, -0.6254812446001338, -0.21630349100509272, -0.5184661984520534, -0.14801413865233537, 0.8787245623959568, -0.5866923587415132, -1.161738815147598, -0.23220344929923412, -0.32995103379243346, -1.6408847194912648, -0.5479871361945298, -0.279830548601791, -0.1596653217875868, 0.8740390559152388, 0.712058221800127, -0.06836285902479297, 0.47822310014079283, 1.1475490787554181, 0.6655952150240072, 0.17328992164876306, -0.4201117083683742, -0.33864218286190967, -0.40021221950108227, 1.6033136774473387, 0.17640218566535884, 0.7082886583356477, -0.29953457175509607, 0.17822626783672582, -1.4220817710188203, -1.325254732638347, 0.9602051601314605, -0.1021876357981056, -1.5832499698097182, -0.8293950119243446, -0.21883967289744186, 1.6025666786464803, -1.1256696066060403, -1.254187780933539, 1.415110628729322, 1.7444661333332414, -1.0125877197622903, -1.2247309931493946, -0.43608641890164695, -1.1302340401592936, -0.071410794880462, 0.4196919487329987, 1.4424860583194397, -1.2515299970950182, 0.5883772585006212, 0.1541486659905329, -0.3443237216534376, -0.3091959144080038, 0.005344266403488238, 1.8711296005877232, -0.06323678505336759, 1.2052608964450513, -0.6754690953528654, 0.14903230599558778, 0.6889684522594374, 0.968837496704974, 0.3654244015693545, -0.5062982832884678, 0.2868804834851959, -0.7154643967055526, 1.1359196268237064, 0.031041569764386212, -0.18482925683522172, -2.559654805634393, 0.1290454462662285, -0.5918374503554729, 0.005701560157311371, -1.287813076508433, 1.2118457688221682, 1.0919596400934406, 0.2011390310913211, -0.24803975709903897, -0.6399965676578319, -0.2578789052727294, 1.7630234146492647, -0.39715215883224875, 0.0007889960914600734, 0.608006480354967, -2.5308557524250497, 0.02024141207662254, 1.1809935863733017, -0.5866194981495682, -0.9644261670766087, -0.4055167726183818, -0.2552042927825559, -1.4205499732460052, -0.05052677485235303, 0.4178800563451368, -0.7268869012910116, 0.6674698203997137, 0.009832208158172307, 0.6409721379253693, -0.8483038608743338, -0.5636423552912592, 0.35903291813080696, -1.3806732098332195, 0.38063327696970967, -1.090282262908334, -2.2561967075726233, 0.42089491452020356, -1.2419521493628312, -2.584826438386271, 0.462094719241193, 1.0063151949013887, -0.7243973354906438, 2.1048998830399532, 1.7816094570022618, 0.14794536734589575, 0.12396880692975311, -0.5203086970059668, 0.7377601160779356, 1.2683505445554288, -1.6895828073205592, 0.6123118490941949, -0.637861976986868, -0.8154849591422675, -0.5471774945525697, -1.9459498671139523, 0.10286869310994133, 0.021907332782355456, -0.22034438289656447, 0.14109612685596196, -1.2535604892194843, -0.6470345847096777, -0.02117966232004761, -0.43336556221921, 0.6909566352851002, 0.6852556909238432, 0.046685447991437694, 0.08739883389278057, 0.2604809990166895, 0.8263581008587344, -2.0718360386760235, -0.46192427697934757, -0.7332532047625093, 1.6384011730034058, -0.7328567954114649, -0.6612202362430576, -0.5273461059812125, 1.6408746248376544, -1.3285491010123651, -0.8475212403989629, 0.8050344484806534, -0.5799057593822509, 1.3309772669841957, -0.806431229873471, -0.5146006869308837, 0.5129878203856423, -0.9550786514919045, -0.8197886817304005, -0.5837379959468281, 0.9847522904315692, 0.735586375533474, -0.3507895913022062, -0.5785728875927644, 0.9854446345833062, 0.580386324615893, -1.7259279607437417, -0.19210666111684083, 0.06916165846875146, 1.0208825552824055, -0.21283855004667449, 0.7811640901463545, 0.33006726224154376, -0.051661073946794235, -0.18047424382772204, -0.13151381732873269, 0.030085419006257, 0.6826231210534419, -0.5459692117288597, -1.1218204472564728, -1.844069277177486, -1.0037482533016395, 0.6892139585909566, 0.4370381391147638, 0.5682995870581448, 0.6522297500669318, 1.0164634215213397, 0.42693034162417404, 1.5797190157262124, 0.33262433201857877, 0.349039619408451, 0.17648968137762905, -1.1615702699502057, -1.6869415038529345, 1.4318944050297768, -0.8683408796033689, 0.7868041949502771, -0.5169781423829511, 1.2978524595160315, 0.03430403808713253, -1.4109443734081908, 0.9036178260699321, -0.024947842926279995, -1.2973092840041693, 0.5217696785465868, -1.2671909945647504, -1.8407334510899336, -1.990995846976852, -1.3780841966021908, 2.175804712549993, -1.2902641432539523, 0.10800580201483853, 1.6570094235112387, 0.04603241068783915, 0.017642485527591595, -0.38875639202003565, 2.1205121829997338, -0.6675350396799066, -1.6560553417746577, 0.2379710306053357, 0.307623033513746, -0.09610261923127739, -2.2525683121603004, 0.6128706539860916, 0.41703615367159247, 1.2831621497427856, 0.7147868851964392, 0.20069040401367905, -1.2491010548582828, -0.2557656482365219, -1.6109444297228745, 0.9352181032661623, -1.0476549741791714, -1.4691793264954416, 0.3811426713400345, -0.2191596221129541, -0.3942800148773579, -0.13149361352384192, -1.3872622015642702, -0.8003467134710749, -0.877644639129759, -1.5683254454455318, 0.18829111933572376, -0.28665965737767884, 1.502144112543235, -0.6158489610640038, 0.4084739850075628, 1.2640896855850092, -1.404136284823467, -0.05830423723879764, 0.5384226412782794, -0.06813262351816565, -1.011182351242581, 1.156758906203932, -0.2942377065527178, 0.5444169883846861, 0.2463925998414739, -0.5684391944089945, 0.16756887115055005, 0.48941908289982694, -0.08092600873711288, 0.908731008767498, 1.3540870562450844, 0.48767225937229636, 1.0272626304269796, 0.28795243350988653, -0.8770415361256898, -0.6113876825921939, -0.6679802730191079, 0.9017416743533746, 1.7640449864926804, -1.246295558536153, 0.09587716180492613, -0.12869848486635943, 0.3336645157589094, 1.1742383349117465, -0.3292832366602168, 1.6149059874785348, -1.7559333252872291, 0.3446928461806909, 0.17350264665493587, 0.24442155358063053, -2.229345938569109, 0.11179511463637884, -0.21406045929473203, 0.3490249898273298, -1.3935050300357072, -0.3050580222920832, 1.171704134884828, 0.39045731666033656, 0.8393651728453598, 0.9352728983770087, -0.6433179794949139, 1.3737283523589428, 0.556833269772106, -1.372150589615269, -2.225815863254262, -0.713886751130718, 1.2659041698232625, 0.8090579593401539, -0.5369151588645453, -0.4463057827657579, 2.803268552116877, -0.22275814219798284, -0.29248877246091765, 0.8348841309258078, -1.254269054102603, -0.6227019076831317, -0.9157737136157369, -1.785975587241718, 0.07022054181590687, -1.0296595756001492, -0.738526108993281, -0.6305495689569862, -0.6425923274731755, 2.004967633605668, 0.46907897718691355, -0.6482275894006244, -0.794432264815612, 1.8109348483814522, 0.24959789021565934, 0.6810873286493465, 0.012742592078105158, -0.7127312467859542, -0.5669709738353842, -1.0533761906632788, -0.6404890658426988, -1.3288370604775566, 1.0557612911240872, -0.2447812488318522, 0.23082654128899402, -0.870931395109633, -1.1308391293049982, 1.3439805987835514, 0.7327492891627716, 0.4425354759630067, -1.4703778518067838, -1.4398508404415895, 0.8121753152942606, -0.030331505175949076, 0.003788508605342547, -1.6484131030021982, -0.7543167489641328, -0.415669111624222, -0.9876157886360887, -0.880076668087813, -1.2523417338405896, -0.8919161081303698, 0.6802805398490333, 0.39321983820961637, 0.7210520532135994, -0.6275150217939329, 0.5547878728846668, 0.5882269201970828, -1.561134485850769, 0.428160913304213, 0.9036665906972714, -1.4653632252836353, -1.669960116712601, 0.634381552052917, 0.5831925594354952, 2.6645569101326614, -0.4540048611710148, -0.8263501630188064, -0.24872180331005672, 0.815993073027861, 0.23128507293293013, 0.22088485360175933, 0.4879710059274358, 0.1312156328818138, -0.27249366854676793, 0.3818829341011826, 1.1947951541081814, 0.561982085926852, -0.8281304930922754, -0.34317064098426864, -1.1251439459046804, -0.19022841410760855, -0.0833534106969671, 1.1453549142541117, 0.2706222203893403, -1.3899208931839684, 1.8605900924415084, -1.6853639377552234, -1.896597385839554, -1.7275280787617024, 1.426205757840095, -0.20414095419846184, 0.9294740651123652, -2.739519836367091, -1.2435979096298726, 0.4034569256355044, -2.0732644016951194, 0.38294932885879934, 0.27422181319565153, -1.3366294238590983, -1.046589342741314, -0.3567901266005122, -1.2794356024738924, 0.0058669264032047645, -0.7064068209205177, 0.30136270457179815, 0.6705702159928082, 1.163602318542607, 0.22225336634363047, 0.7638689612085817, 0.3442149804070269, -0.3497087392547419, -0.6607751694768946, 0.5449103531620881, -0.6555718856327394, -0.36978790135196093, 1.2933260329877132, 1.5312610882465294, 1.4727705264845807, 1.77666231424739, 0.43688321077411363, 0.42482419569051033, 0.9748531138408537, 0.8771482722633843, -1.6438722641400947, -1.4776811053736156, 1.2743093772737044, -0.20530234662309177, 2.063461592327848, -0.3151642376472243, -0.12462083940807696, -0.7488338215160147, -0.288248850766476, 2.5676403451485674, -0.15638376885283134, 0.15219694846412932, -0.19546320690150681, -1.0935400182888029, -1.2903777466820805, 0.6852561675652235, 0.5861680660511318, -3.2022443124251048, -1.2394242590680058, -0.9851086466354148, -0.2894594618815283, 0.34334471682305034, -0.25938914453405426, 1.3724536815152635, -2.1836051502371747, -0.5966869811158573, 1.3218316669995414, 0.31286885935697617, -1.4085233374263213, 0.3525712504742218, 0.6639975523719364, -0.1531053570979039, 0.8188302033308029, -0.2438267105914507, 0.05396591356103381, -1.7331114278757271, 1.2640066973301647, 0.36250090531653506, -0.5749999738404035, -0.26010623986454695, -0.7159551103245384, 0.041100154283054434, 1.8747465144726834, -0.29471408961159157, -0.9870701570596789, 0.7526895890930305, 0.0893733100780784, 0.859944632973451, -1.282592765026328, 0.3031255924838675, -1.4547432444322874, 0.4117715383688813, -0.5436511202303766, -0.844149521769897, -1.9491215611004036, -2.1309779203695953, -0.3619637390412332, -0.32868070481194844, -0.5281389310356577, -0.17079786810058983, -0.9828772620335454, -0.09234532835386285, -1.2583624796854966, -0.0966320426306836, 1.2310765091876144, 0.6129340896784182, -0.20140905396176584, -0.7769313527326442, -0.7161954893820068, -1.3290369172656695, 0.7875978393514231, -0.29740620575678645, -1.067452786786898, -0.6622127768806497, -0.18215743766944426, 0.48548834082939, 0.2101151749927145, 0.9982017425068551, -0.22006595880878954, -0.21951488607469455, 1.2811797877947646, -0.5394863241168502, 0.18724132572029223, 0.6561024772842495, -1.312520485813394, -0.6098194888504673, -0.07356057126147149, -1.3679809302408505, -0.6248491564617521, -0.19392094305498817, 1.1266487058297898, -1.8792457176674533, 0.48264181415509516, -0.7494884087010554, 0.4860105776423916, 0.1820309307956431, -1.1384380238999627, 0.12144930508091437, -0.6160256339831927, -0.6678909270158634, 0.7071117931783475, 0.006813437352425973, 1.0628160422651887, 0.9491524402078432, 1.66200612794445, -1.1270345442633907, -0.05255974537825431, -1.8750353676164149, -0.7895403367454202, -0.8068431185971169, 1.2499806637565882, 1.1119620270017996, 0.386855188973943, 0.034942711698302084, 0.43261306444522546, -1.2772493421331963, 0.8929004878938409, -0.0677903388290745, -1.0178280740751542, -0.6516459481674743, 1.6264765936075984, -1.491124852889717, 0.6922001266029495, -0.8704540170284109, 1.8648450964980048, -0.27789417689642654, -0.22440775607747065, -0.5075782523483902, 2.715191618508266, -0.035626684134786625, -1.347508674138243, -0.30778648623373006, 1.8792327134293514, -0.7068752235630954, 1.2066819488826248, 0.6186764281239819, -0.18801483540914557, -0.6793841018435677, 0.3668467510236702, -0.5030587729481566, 0.8308770032805138, 0.05620144608173216, 1.1308719583345992, 0.3081303364031411, -0.5543606643793259, -0.5164235365548439, 0.13812786194883722, 0.4775047989780055, -2.3690037843033953, -1.4211966342856406, 0.7962246231660485, -0.7081420340574727, -1.7448878164492438, -1.3625754686090024, -1.889638996620222, 1.2733933108318838, 0.6511060017333575, 1.2095368176494263, -1.084249481652986, 0.49118573627130496, 0.36830519710558945, -0.27012005724508487, 0.8678657846931974, 0.9048120295256711, 1.102595647029415, 0.7212344885372884, 1.5061655440157298, 1.4800144810713023, 1.0340035571512767, 1.4274527086548365, -1.3622531810536032, -0.8714119698443226, -0.4565831936598852, 1.8121000915046, 0.03498783619392163, -0.23829594051160471, 1.818125788842184, -1.4488421803106175, -0.3998986661063179, 0.10338424602411998, 0.7525794502662055, 0.25487463829430523, -0.23288082326542117, -0.6195233870185782, 0.6922053607597904, -0.08897256998131661, -0.3316881736676018, 1.0356487422264042, -0.904796068404306, -0.34867888947114334, 2.241078818281546, 1.4528382251693033, -2.367739053400699, -0.670200490875356, 0.30210784388204914, 0.6965749348171016, 0.3560647089631145, -0.5583294732737486, 0.8699923665616581, -0.9925039366074275, -0.603781699649864, 0.1917780901754786, -2.9829338071796703, -0.010130022199389552, 0.6990794407758433, 0.8723184312220433, 1.2049941698424482, 1.0884946267447992, 0.30375044274208635, -0.5619990760099678, -0.2261110797565148, -1.1805334627081234, 0.41746935462203066, 1.559823060718468, 0.34330676804414306, 0.49889414922149244, 0.8031940215907005, -1.083513954489848, 1.196919021162625, 0.34262594334135593, -0.0586305205728019, -1.7680033126819954, -0.01769489789830813, -0.4518176849549387, -0.1994871560763024, 0.2867911660528475, 1.5772996705025673, -0.28357583075837944, 1.1065340120630553, -0.44181278124649964, 1.2531036713755568, -1.7176374038070727, 0.23858487397872394, -0.7220679917801549, 0.3312745929387909, -0.3597042319366753, -0.7825460735085035, -0.2728944780919157, -1.4663704102399053, 0.8162930267813236, -2.0373464903437837, -0.650117546735636, 0.5086520167683402, 0.9263153669405987, 1.0949663035351707, -0.791242556866511, -0.4967979501713307, -1.486712556858203, -0.14982813856979632, 0.3646829723007072, 0.7069339943262732, -0.5793700971659229, 1.2891788204288737, 0.09898488670096782, 1.6165001075833276, -0.2851737633232454, -0.3448641662279086, -1.8337619654509976, -2.5239466731778855, 0.4926093141686366, 1.28434114706925, -2.9961520778578365, 0.46598059355275756, -0.23123281882604205, 0.48250827715292693, -1.499197052310087, -1.224388424000302, 0.2473665077668809, -0.26545598972065626, 0.298438071780343, -0.2487689836939655, -2.5187325572816657, 0.6510697707373676, 0.7951628874001979, -0.9710217394662942, 2.488873217346844, 0.8292989176784028, 1.079638408625031, 0.27262039706378755, -0.47594349686848403, -0.7756390595118354, 1.3326458698043575, 0.73488325540026, 0.6197829608281509, 0.19275236000629883, -1.0691622130106244, -0.06151626396592957, -0.04468599460435223, -0.32448404481006843, 0.16618371024963574, -0.6867181766216998, -0.11399633107697339, 0.7022442842008684, -1.0832234345768808, 2.5873865547387918, 2.0155645417471044, 1.1013397369171662, 0.7056897561856547, 0.3935966961654932, -0.17155941549215978, -1.8453172899214723, 0.5829116877389586, 1.7862969478772852, 0.12523917378148455, -1.1670002857847956, -0.7481811904896076, 0.13543564991019746, 0.4864010997890086, -0.4958884822790456, 1.5698937404546927, -0.531704328522636, -1.176240991604933, 0.8311231185552818, 0.7820189021251555, -1.0932385977336976, -0.08967997259882413, -0.015420957593130809, -0.8521842649845843, 1.2236792021920746, 0.56845010311432, 0.6997008613871201, -0.016875550808934593, -1.2109263797767005, 0.7504441059846064, 0.4402038331088643, -0.8176769799625326, -0.21455117754060846, 0.6416394356199168, 0.20854662567283808, -0.0556237710858412, -1.2732012574656495, -0.9642695860046425, -0.03574968249245336, 1.1907170550809283, 0.6112363583541534, 0.47431914039645523, -0.7855031009947442, 0.5715343004349925, -0.07040173447420027, 1.032452365736643, 0.6294576835539989, -1.7827637690605405, 1.9682234354147128, -0.057085079417177345, -2.2892753461034236, 1.029886451274234, 1.1329892867685771, -1.586833962762649, -0.24827191181169142, 0.2140149673423197, -0.809248060764223, 0.7140847210769393, -0.2244194544577209, -0.111642226537659, -0.4805059087036429, 0.9038259652095257, -0.6024338704312149, 1.6076756203646394, 0.08537728609631026, 1.2749744366975768, -1.0133698114693586, 0.4282262569843973, 1.1870659428834924, -0.09248189202691853, 0.15615375775478088, 2.1229805695231745, -1.5233107714649086, 1.0730614690826024, 1.213710578251649, -1.0865388043630677, 2.1790240068798368, -0.798598313820979, 0.821057629297719, 0.8368017891331602, -0.10652629153522317, 0.055405273627692354, 0.35019125540207513, -1.0554102391634006, 0.15724583385099045, -1.3144395534342521, -0.6290249138695835, -0.6944244297578158, -1.3419672720876308, 0.3390757290727799, 0.15004145037058828, 0.4584348344900769, -0.1375650170329165, 0.6727633608527074, -0.9141697070347119, 1.0433417648398637, -0.3825330210793071, -1.987657222432484, -0.44482166587247096, 0.8598272212214568, -0.6195033155713116, -1.40438586509302, 1.486028833056881, 0.16071764648755119, -0.6817709295801899, 1.844289135757421, 0.2701997860707473, -3.166086781138048, 0.46141317126711423, 1.458776240754635, -1.240203874736808, 0.13124445084306616, -1.565720446691112, -0.711727477367072, -2.0167896867123765, 0.34529595985196276, -1.1413248955933921, -1.1103985208022342, -0.6067270901233586, -1.1070915769991705, 2.2786942978748783, 1.612524057002206, 1.4035538137085923, 0.9034666123059674, -1.3813629603133546, 0.9677659935627538, -0.1916742269490337, -1.5106394568396515, -0.9004672476188236, -0.9209723727609562, 0.5045967658798777, -0.207459113381327, 0.0215402520841104, 1.0968625840939055, 0.15692850910564818, 1.2534030377179646, 1.0785622537826098, 0.05831310531475669, -0.5851794149503472, -0.302367701111829, 0.5521668846374763, -0.9166371814808482, 1.1232670876269155, -0.6213120553520849, 1.1316024888762364, 0.8328062292976929, -0.46943301426807166, 0.9977449674649983, 0.49435564650533437, -0.4792433396134496, 0.1534716129494683, 0.8816187140674053, 0.9361826721525697, 0.10979056998614738, -1.2875456545818342, -0.5828903962639265, -0.5818835220765181, 1.6294234715445015, -0.4654073234173799, 1.1889043006435365, -0.05979273153727511, -0.0357558918393708, 0.7359916089565606, -0.20881635062377019, -2.144486617517291, -0.6313748332052013, -0.9398975698045258, -0.30676459276343887, -1.2022260481156288, 0.5985733191703195, -0.6941715954560901, -0.07281973764232481, -1.0308557568145398, -0.6255442032052582, -0.3510165561074991, 0.6966355934996555, -1.1614609740632875, -0.35949895192129966, 0.3574631099035264, -0.42836185006461774, -0.10973383362941912, -0.5103132908422047, -0.33863466964726746, 0.19210679518254287, -0.33521212022740476, -1.193725535751779, -0.32839198807745223, -0.320706951821413, -0.47910988710366614, 0.5974501702736044, 0.27339657064491585, 0.18298349049204868, 1.2587774439322934, -0.7845542382489763, -0.9571823929329786, 0.22406575209280918, 0.6402211211443883, 0.6265787963951899, -0.13353321700538637, -1.287237379020974, 0.5878126183645213, 0.4241094397162499, -0.7977482233134056, -1.4018568551127648, 0.1964817080936657, -0.40979121181557965, -0.21926000789034011, 0.3348700946437428, 1.8846400625589648, -0.887848170011348, 1.117973427479567, -0.7130767029256265, 0.13951675615783035, 1.1528172662667158, 0.7238911588591821, 1.4438643366882988, 1.2472027310882174, 0.004255953721293192, 0.20183391234310405, -0.5246708497319884, 0.7584919168384463, -0.1679491157178424, 0.7298510178877327, -1.1195905918791325, 2.30278740200253, 0.15475040697491038, -0.17412358514693357, 1.0933891170707852, 0.06016568095685528, -0.6656312959995035, 0.7652006877752067, -0.6719033042766669, 0.032441306056174374, -1.8515574742795249, -0.6035396438249944, -0.19875277190000887, 0.9734551328512703, 1.1786841270113582, -0.22277761139458555, 0.9560392620487378, -0.22327821144849902, 1.066141258246076, 0.7326545678259271, 0.7262871363195469, -1.5805777481592318, 0.2704738081444653, -0.11958929502208249, -0.6545752594602435, 0.020574749096088023, 2.4577821262199255, -0.4972002849630624, 0.7401839584605476, 1.6002729857237024, -1.7754593802359184, 0.4801819094414277, 0.02360756878338776, 0.9856940745553248, -0.2982167032841217, 0.036385662753596434, -0.6506516818744655, -0.2680034067386294, -0.20664878230764555, -0.4728707767897795, 1.337675694304385, -0.7032226143795857, -1.6893287545215512, 1.6370071306117335, 1.4263938272541323, -1.0877639958696146, 0.503799147264196, 0.7454367292396606, 0.17240760102965585, -1.0570338188247135, -0.14158141997787788, -1.079536587109595, 0.892633168992401, -0.6072040623611707, 2.2823332296378176, 0.1109478160441997, 0.4332096537082026, 0.811032849579857, 0.9405365293103721, 1.0082733598677511, 1.3377944001230604, -0.3725586796273218, -1.4382452643594132, 1.3278681950210736, 1.975847562690045, -0.5025781683632446, -0.8033492736032823, 0.9656264013361784, 1.109963704021583, -0.5073662119982904, 0.4510647386754548, -1.8324936342234186, -0.04448283141828771, -0.6348252949629377, 0.6648194580781954, 1.1142584351219944, 1.0745812542662199, -0.2966189336570433, -0.9491500422831307, 1.5884672164424705, -1.7978594000978305, -1.73540794058203, -1.3557048440120558, -0.31001148819143404, -0.8542372590906927, 0.8720094857535544, 0.3828152317646799, 0.7740463899298644, 0.3444827702903783, -0.4145231348579408, -0.17142673496662927, 0.21735153837406465, -0.3315829738567356, -1.2729791707389584, -3.498592750608731, -0.30306720644993135, -0.39183323986578544, -0.9043577085373742, -0.624486466729261, -0.49447825312393284, 0.7876335774674109, -0.04961173792174081, 0.4026082944436435, 1.2157350785509695, -0.6447421907781389, 1.0767542929649583, 0.10124290458348616, 1.8771531247405966, 0.26654628881463915, 0.12751366576636736, 0.05999776675223732, -0.03784296956766879, 0.6082972702105688, -0.9348956261166391, 0.23606017806244872, -0.6493827607172479, -1.1953284120127472, -0.20454058071456105, 0.03347360260706879, -0.1540159857041812, 0.4062011509939005, 1.6085542561259634, 0.34561110698147296, 2.042062155862666, 0.1300208644052254, -0.7837023222615327, -2.1267937095985143, -0.765903133411439, 0.30489661246083843, -0.3750522436955142, -1.1752398611376609, 1.9834152927719935, -0.6106708770937739, 1.8270696859617717, 0.759277588528925, -1.2065926466785197, 0.5725150340211914, 0.28859870940661964, -0.6898878802707374, -0.7478015564392346, -1.2559091447074116, 0.46889052918899193, -0.3208816744511658, 0.016532723115750287, 0.45047624802760555, -0.794862084008049, -0.16577336435143444, 1.377950510679574, -0.5536736265765843, 0.8586277433370831, -1.5370770739784392, 0.17916861772554965, 1.46899304058039, -0.017385164275835054, 1.5057245734299216, -0.29997998698273365, 0.5329524375448611, -1.9806729393417783, 1.0304250850931, 2.167742693211669, 0.21142434074262711, 2.3924729100961657, -0.46081790778352544, -0.9273151644160539, 0.90518866580866, 1.1839024552963635, -1.7873748285486797, -0.21995844090188105, 1.279596937093341, -1.168939476625838, -0.047121947690522775, -0.2347198111233447, 0.29236068238495855, 2.2125393923320846, -0.902138438455059, -0.48845525400121753, -0.34530399698423575, -1.1150075795680527, 0.15510079522863462, 1.279194981696612, -0.8244881778049444, 0.4550859752411205, 0.3224322015089781, 1.147842141751139, -0.7650322510074978, 1.3758513743051368, -0.3362952399907375, 0.015303050711013951, -0.8727604561749868, -0.5110952620096034, -0.8103598154886922, 0.16890739657631537, -0.8979787195839992, 2.0997682950040586, 1.4021708598514697, -1.3272247968720141, -0.47512034185316354, -0.495192714145576, 0.40785038077132507, -0.1971586328244467, -0.27124719960715316, 2.171250859488979, 0.6128078442137593, -0.7135627364214618, -1.5500048943632747, -1.2648612805019464, 0.679016018174721, -0.46137633163243946, -0.7297762693745009, 0.30062025263533393, -0.27210144406636644, -1.5464000932334647, 1.7039369869861005, -1.3581954194067136, 0.16328375197834227, 0.10697397259916919, 0.9913179513422727, -1.5125897916910003, 1.0723225183618388, -1.8519734580014084, 0.060220334109585945, -0.7972470562613783, -0.13183500394241085, -0.7933145262958529, 0.33460570542212137, 0.05569660847154074, -0.6735736722169315, -0.6401150785963386, 0.8445202495204509, 0.18409482580926176, 0.4289746917488109, 0.7400735726148406, 2.3899171153158205, -0.6181904772635938, -0.824013759167524, 1.1815111341253344, -0.8958262484020557, 0.07452844638621003, 0.3936085759067716, -3.0853057847475576, 1.9009804374102293, 1.2460510615980205, -0.1196788406229677, 0.5260261420951847, -1.1151647530280977, 1.4150480190811674, -1.0522974502587747, 0.7767189163369166, -0.8042143907171758, -0.46365009476990293, -1.3617124021803422, -0.6435891301425731, -0.33167413888702457, -0.14590881389428095, 0.5852236839306054, -0.8044129164585123, -1.9349470857674673, 1.041116963768738, -0.2361693706201229, -0.2305910888509928, -0.6124699353631458, -1.5886734465973793, -1.394959176793754, -0.4960779951880481, 0.3679240042976458, 1.3706029191518452, 0.5414341637568604, -0.04918838859326393, -0.2016511538932701, 0.325914805433192, -0.3019068115832624, 0.11627226556397166, 0.6745383897515325, 0.7025459647685917, -0.9494638864108431, -3.01572524669585, 0.2708115259220149, -0.8885843677191695, 0.8216236588543739, 0.9858542161089429, -0.6190133687639061, -0.28065763903353624, 1.3380650807953562, -0.8601009760644858, 0.5121741591761301, 0.22851561256324893, 0.7003557271924032, 0.7852909989919086, 0.05408527895869681, -1.7788161442540846, 0.1812239784648425, 0.2341572878122488, 0.9200172951319383, 0.001555082648958497, 0.3361757397265708, -1.812103254881129, -2.07905058261501, -0.714334845499833, -1.2610523741767012, -2.013805732312872, 0.4423397046102065, 1.4164151747565845, -0.17612886441296147, -0.6372394624358781, -1.828380731821571, -0.7340510877753372, -1.9509989565551604, -0.9870759432643624, -1.8832341789531026, -0.5554303409574439, -0.4467522337097972, -0.6815356276286217, 1.756749634578358, -0.697009019437127, 0.4513264030207705, 0.7258082337082897, 0.8135178992267996, 1.4480249410678439, 0.35120614157811103, 0.07600832522129865, -0.9814898290846732, 1.7776940574623492, -1.0670147437907402, -0.08124964480215473, 1.6796191690806144, 2.3283422844314248, 0.9956571549889168, 1.7016217228461716, 0.6687342980145411, -0.02576108971288243, -1.3671524408641826, -0.8235888130014611, 2.0785850541027777, 0.15395616112677016, 0.3331563119872383, 1.2015691251471974, 0.8769520071175622, -0.83455980673193, -0.49337135327237097, 0.6597970733764734, -1.1347195691324905, -0.09721164796610256, 0.2998673953403173, 1.1801251411223659, 0.5392691592136741, 0.7471787494263878, -1.0337460740404225, 0.7728112419421976, 0.03307103113845075, 0.23421562749779173, 0.9172680413522858, -2.180984563541014, 2.4773195317672916, 0.0006156968557618994, -1.1787605102983594, 0.42314285186378114, -0.09331430420592349, 0.25221685951904776, -0.6828760491161948, 0.6000932371170565, -0.4644181130998373, -1.4253137557442757, 0.2858206871176469, 0.7212804620426712, 0.6799488849396027, -0.7847653298171196, 0.7414849804557541, -0.6029258936409453, 0.4274248212356221, -2.068957727094954, -0.4749187736802245, 0.19342034434004965, 1.2044840055392152, 0.061973400134792515, -1.1665645191046352, 1.459425803472447, 0.891241770847985, 0.09988618171924338, 0.3329007009896977, -0.5939629989789803, -0.28580713209318387, 0.7637004384775498, 1.4515148411127459, -0.7510635768448937, -0.8086957681338894, 1.0481759767408512, 1.7135603930268, -0.18026017750673554, -0.054349865464553095, -0.6757650843043949, -1.3858215375049512, 0.20309679677252138, 2.029869543063853, 1.2609380720670544, 0.548162739106216, -0.03080060135884534, -0.8236666766490381, 0.9558394936715457, 0.6097512548048551, 0.31406795632888784, 1.281305078834132, -0.0943974185788417, -0.32747913074857543, -1.0311001944166949, -1.794676869985205, 2.9360179733181826, 0.36258095524331924, 0.10630501932999965, 0.16356022091897432, -0.1693001634940817, -0.5284635549578207, -0.4698870375722328, -2.211467280936502, -0.8038625960806238, 0.4957681820960144, -1.3847702312325432, 1.5319032590600616, -0.5762198814055728, 0.2383171468991257, 0.3603621013172747, -0.9489921171481839, 0.17272368923549702, 1.2620431372697298, 0.04673614677051502, 0.347694685515744, -0.23056765376610486, -0.024501418810024517, -0.2022708727801824, -0.7117812585280803, -0.0749706341770354, 1.4945499279667853, 0.7312009626694765, 0.9886986394825115, 0.0542008064283954, -0.28886106846090215, -0.8454111444866245, 0.18470730641671482, -0.28428572911041383, 0.1901558954752101, -1.2900606562051438, -0.3220407210632983, -0.5918029788208534, 1.5352564855320767, 1.7830274182390384, 0.05990149155212429, -1.4987441293763717, 0.20581318280608785, -0.7985188109998175, -0.4950012955578192, -2.0935951338881376, 0.7269835019830572, -0.7019035088379649, 0.507961190986427, -0.24353331959706945, 0.6163716982230688, -3.177250230510328, -0.5717635068550369, 0.17992276682194266, -1.507484422059419, 0.66348272114316, -0.08114813524274336, 1.056950588910222, -1.2478035015271678, -0.7426708088001183, -1.388122539832276, -1.1267869074084866, 0.1489323575062194, -0.77121414989752, -0.6604141769599794, -0.7854613709557065, 0.5971957390483625, -1.6721877546404549, -1.4070682694016818, 0.1292460002373821, 0.1346613973699813, -0.658842905577199, -0.3826209163559602, -0.46027232940350316, -0.17720211397841704, -1.4374084502945104, 0.3723829569770033, 0.06255623592683969, 1.4386364606791964, -0.2298156719248486, 0.08918650453696496, -0.48948904721871606, -0.7036890059154094, 0.32914863271307493, -0.5793084968460508, 0.6852478721181878, -0.35879476036472874, 0.9217464427453951, 0.897177806662858, 0.3680354294080043, -0.8826556659682107, 0.41961687155870775, -0.5065433521892346, -0.05608343556025462, -0.2881939564069057, 0.6423016546156032, 1.3061635209054965, -1.7888332821255404, -0.32043050693263725, -1.0146030060121236, 1.5442786486357745, -0.4684427905202876, 0.3480479541334337, 1.8326636907047054, 0.1758803270093653, 1.5044795142107898, 0.6566526356989266, -0.19021620362796818, -0.8074508914443432, 0.3181204603025553, -0.2523403033525182, -0.8408528438199445, -0.504450042708803, -0.8543675077758554, 0.8754646580905526, -0.08257468849236416, 0.8187222548171377, 0.901403122908636, -0.6726371841695304, 0.09688135435732842, 1.6284727599104183, -2.294498313556365, -2.7470868079636146, -0.6721083680406669, -0.9382575047428381, 0.9934218627475789, 1.1709066700750383, -0.22685211173995068, -0.219930592222179, -0.48319711458655734, 0.26137849564888743, 1.5985791023341334, 0.8044474601844033, 1.2354513887721053, 1.0390572330532082, -0.22192711538379598, -0.4409343625130272, 0.9718456642060288, -1.89636746428734, 0.690098472523604, 0.8198505350797934, -2.7015584505648245, -0.5946720952789533, -0.4555668309984889, 0.008226042292382777, 0.8593837359846171, -1.0893863210955315, 1.6199774370719953, -1.3736084308783043, -0.6287765284205018, -0.22376076651574292, -1.1274095017536134, 0.7210754989073201, 1.4651769731111077, 0.7060521162619148, 2.019415468647369, 1.1592143732526277, 1.1925014150390372, 0.24755847144366266, -0.3100591448539867, 0.8662672477889722, 1.9490662780991501, 0.6600397973763278, -0.018444252715836516, -0.24732530195474398, -1.532248296601548, -1.326093387694645, -0.20112972357638761, -1.072290888946476, -0.7820419109049469, -0.573486745101664, -0.9226076799747189, 1.6738004482030948, -0.18151788144335274, -0.624220627692872, 2.0099967094578153, -2.2346549335764023, -1.441129342829677, -1.1055546635409825, -0.17212845091189996, 0.0874083103604561, 0.4948457405237214, -1.9359158049246616, 0.05353337991616363, 0.05411459426932629, 0.44517121668095505, -0.44764349053385727, -1.2108945338262442, -0.5637561353224441, 0.8085413094832558, 0.370556357752915, 1.2197382973341773, 1.6489749200789823, -0.8099931476079258, -0.4019123092452023, -0.6927818833374741, 0.07311902692286858, 3.16945615116932, -0.7201046687448764, 0.11249908224219028, -1.4901317466305812, 0.1903824259879683, -0.614626613707938, 1.1586322937769822, -0.43992802122293995, 0.9638355528721304, 0.13204276761534225, 1.067595379387625, -0.14845214826199257, -0.03632847499790879, -0.35666988070428907, 0.0529379444731277, 2.3631228464835368, -0.3244918042146435, 0.22907293085470212, -0.5504236439023117, -0.8900988581892797, 0.09719040277051968, -0.7649099738997691, -0.8366491767155486, 0.32107024050871225, -0.8052983256477199, -0.34958102093157767, 1.827335534792603, -1.8428502855373001, -0.4278564187766471, -1.2732759612160598, 0.0016502546159337312, -0.1379178027801027, 0.38989954743499766, -0.10576565350914215, 2.059964503965548, 0.5262973715380723, -0.29439183176691264, 1.3792746546513057, 1.1607484212717964, -0.95829123649941, 0.7820799773177833, -0.8388541767594957, -0.22661870145953908, 0.6192428281051283, -0.04830496254259047, 0.18839625342640046, -0.22058700154805413, -1.1700957813813695, 2.152781514174436, 0.6247544689483712, -1.932895838657013, -2.020500125930586, -1.0050834971180367, 0.5701317628884918, 1.561802512033926, 1.1455954218646651, -0.47769328638858694, -0.4779000338376649, -1.617999727618734, 0.23222239827931787, -0.7400075399279223, 0.776930557549898, -1.1661773641146462, -1.5468180423493447, 0.12295054371492069, -1.3461980429258809, -0.15747708579833875, 1.0866701639573022, -0.09683044408993542, 0.6706078647418817, -0.022752031422812232, -0.636566740006696, -2.6363517089393658, 1.5152232858299806, -0.40225299484647536, -0.8837762429039894, 1.6743063975723491, 2.009114019406129, -0.6101023165717699, 1.3477473107227298, 0.26305327362678316, 0.5673669755790546, -0.13736126197241233, 0.7849501791270309, -1.0929633673848316, 0.2723236145969987, 1.1683535493719335, -0.8220595077151416, -0.02337349655058092, 0.29223673037312575, -0.8310343101105919, -0.5720276638938471, 1.5601261477526067, 1.8027526708880763, 2.050787975605319, -0.1481653407261635, 1.7010634970601792, -0.1745330215879536, -0.8432406002974089, 2.105723030907691, 1.040504110659222, 0.8690709897200234, -0.7817298077870602, 0.23186393481503242, -0.8632052918405217, -0.8130158062945793, 1.9432423830186576, -0.3914558717459604, 0.4580117769603968, 0.4458459162614939, -0.3173018065124012, 1.8073542089678134, -0.5943972819511917, 0.047360589099529574, -1.0000899578766793, 0.49960049867811124, 0.7362519304736029, 2.6293732020401848, 1.068644928151393, -0.04744255792888813, -1.3283766438162257, 0.055837945758493414, -0.6654565382783671, -0.7371633992884442, 1.414971725239369, -0.19049316739216654, -0.8818089116867655, 1.7891324468938978, -1.3315245045672652, -0.8013225276462197, 1.1217679245492256, 0.9206575951870221, 2.8345667740432137, -0.9350292939103747, 0.5560085209626571, -1.0415094428078366, 0.4195416735636735, 0.4546223016994747, 0.07371673753574169, -0.4583657045508768, -0.5549684469898112, 0.9852398709096425, -0.46638398780739, 0.4917325512794567, -0.19101382995534316, -0.03747590073511788, -0.4128643219147293, 0.6955187185825793, 0.5729326341920774, -1.1189580927656013, -0.8415139259595925, -0.0628251848387863, -1.0848129361075787, -1.0699225497873113, -2.3645704535986702, -1.1620183697231086, -1.261804384983086, 1.2665479560912625, -0.22778381893236585, 0.35521824474816477, 1.176546339508574, 2.0650978881846402, -0.8749558297832638, -1.7757242519106167, -0.08372173098856595, -2.4156382784082657, 1.4023124759470986, 0.9743686714361658, -0.6158267881149186, -0.06695656586452939, 0.41874459574930895, 0.8280184303258588, 1.2304608442080134, 0.2200630204985468, -0.33544942652868, 1.1946270579044214, 1.1895622457381394, 0.1647330238591759, 1.3772925410741725, 1.2307087723864474, 0.5779156825262243, 0.5856996316663886, 0.881971357609323, 0.03351640929471824, 0.7050249311976216, 0.7325395891348347, -0.29617465113749347, 1.299973714137343, -0.4256219041552798, 0.4770706431947831, 0.7529591766456778, 0.9033519220318718, 1.7740983037958489, 0.3136550709905441, -1.5081957229866918, -1.0369998241310123, 1.7154008536457315, 0.9196253093608463, -0.589384036874046, -0.5884072202845197, -1.070401207088435, -0.7522465295805503, -0.4653225378844831, 1.6869801259810042, 1.6545651987842285, -0.9817680186462758, 1.6520770057662375, 0.08799608162305902, 0.36376173154206654, 0.7915805018485891, 0.8657738779242521, -0.2814236147348256, 0.2014406044849079, -1.7406552853692263, 0.6600064134494632, 0.41333858370095466, 0.5438020084383101, -0.49805422923187, -0.06361206425010807, 0.474021156018454, 0.28033902352682977, 1.3096023744392022, 0.47167152437956855, -0.43028009654292554, -0.4408157669868353, 0.9104516808993635, 0.6030022657075518, 0.7447526235944653, -0.02182454172103336, -0.50395630182017, -0.41139792699776634, -0.24409068937362946, -0.9060109992712457, 0.045231297314201835, -0.9291729120823901, -1.683176880588046, -0.25865113916096233, -0.6687978138127296, -1.053908209324217, -0.3845285026562917, -0.19963872445721162, -0.8435354878722038, 1.4735954730564391, -0.7140734685908973, 0.5631988785166407, 1.4765624400619444, -1.3477481611601314, 0.024092184969553655, -2.0414954259526548, 1.2347440961102942, -2.952355870807256, -0.737944524361407, 0.7351081774399112, 0.6610433576277164, 1.9171272608160372, 0.08675014806929655, -1.7310789977498064, -0.5919631652450291, 0.9164127649383738, 0.011640599807883414, 0.12689895434790588, -0.47583737339856935, -1.2248444552201847, 0.20305816295060167, 0.528094707164556, -1.445886791480007, -0.012775096119471033, 0.06336082926765356, -1.2467865156060118, -0.8849071804008248, 0.26784648471592215, -0.5437211902347695, 0.5419801288897319, 0.3735279429665638, 0.8836171686983545, 0.2970371749978908, 1.6052004649336016, 0.2131948385660165, 0.43927368147585216, 0.3954609482622922, -0.7977331747191484, 1.5841590839081918, 2.529524109858181, -0.7822951207668015, -0.34068731098806526, -0.927122388179504, 0.830539767125034, 0.37940248205457133, -1.5079539581616472, -0.568883042405964, 0.48410324750856343, -0.016551312782431347, -0.27116443393412504, 1.0769627656388754, 1.4353868819276843, -0.34370031774841253, 0.5406522190145098, -1.12922458249124, 1.0649549206239826, 0.8214057548009287, -0.44470790697905443, 0.7501061290144271, 1.6791142855581138, 1.1236009286544173, 2.1158179167955358, 2.7516991384932203, -1.990433124006042, 1.472218342978578, -0.269621326745569, -1.0790463794708993, 0.7443693138126881, 1.3590106341146966, -0.1453059640263712, -1.4697887571321098, 0.3803432716850752, -0.9025032732764456, -0.2633867304713919, 0.6142526289338687, 0.21160866716338633, -0.19323457552763765, 0.3767811780595527, -1.156324704042765, 1.5756423955282877, 