{
    "input_shape": [256, 256, 3],
    "layers": [
        {"type": "conv2d", "input_shape": [256, 256, 3], "padding": 0, "num_filters": 1, "filter_size": [3, 3], "stride": 1, "detector_function": {"name": "relu"}, "filter": [[[-0.39365563678137344, -0.07665281016506763, -0.21340506718046987], [2.392810132677797, 0.5337614631396509, -0.021784201931307815], [-0.7404279035415086, 1.711683174244917, 0.07657935421436438]]]},
        {"type": "pooling", "stride": 2, "mode": "max", "pool_size": [2, 2]},
        {"type": "flatten"},
        {"type": "dense", "num_units": 8, "detector_function": {"name": "relu"}, "weights": [[-0.9048679962738655, -1.2451630638830284, 0.35400211592657416, -0.1965204353913618, -1.2473567454256402, -1.0120334183319113, 0.03635825280211608, 1.4324671504363893, 0.860048805341896, -0.3413393589177422, 0.5780079280848989, 0.28994264442735174, -1.1379880931342965, -0.9460021219077636, 2.6782213689756196, 0.10912709286994583, 0.9924376711795019, -0.5768389073922096, -0.38277898206971767, -0.724814773637372, 0.23123038742462546, 1.166686836634394, -1.1448328420670997, 0.8718274623337324, -0.06653699024957807, -0.04464599812820484, 1.031336399258133, -2.1606262280992863, -1.0762664115497131, -0.8024702037514204, 2.4261682041132904, 0.9606191461143166, -0.3176432003083747, 0.058650849870686916, -1.2322542817648081, 0.5334951111554826, 0.21119973073441276, 0.9214072505552795, -1.0665977918927505, -0.006014314804046883, -2.6176901506930803, -0.6480976795707152, 0.6728381450828023, 1.5369715889061217, 1.2980847547316123, 0.5665072443603028, 1.0511767692791378, 0.41321819890627154, -0.44100164466530384, -1.117034051471337, -0.6941616710218503, -0.3586526282286863, -1.3032309253636196, -0.12482089897032358, 0.2371900621541602, 0.4124801915799664, 0.534421177651202, -0.008575985962440344, 1.8419137027037982, -0.13762513717661604, 0.8122925567241619, 0.8986727498056807, 0.4620728649818111, -1.0749188572311108, -0.6396866486220874, 1.1298276097172144, 0.9078849925371798, -0.5447640829502056, -0.92257881186849, 0.6246321308189228, -0.04443941238138758, -0.7650043858381294, 0.12490232306645885, 0.4123336925107985, 1.0130489984698492, 0.8658745679083659, 0.662993701851543, 1.1914853221344683, -0.8917150670567827, 0.5351140744854137, 1.0151036404762435, 1.1344603041824393, 0.7207871823959323, 0.2257808489045086, 0.8362624454908612, -1.1747912768734319, -0.47463710185856156, 0.5817336451133525, -1.7798400063300759, 0.8124207186423487, -1.1970358205595923, -0.5334410125860793, -1.169259179621916, 0.5641711489212659, -0.43766956864238227, -0.29619221284196096, -0.38766843861793077, 0.4346244330308161, 0.509016639673539, 0.9080212193612506, -0.10370680693196, 0.48119453494940445, -0.5646054894550753, 0.4605155297296258, -0.03141318485969029, 0.5031114059417614, 0.5371507532772065, -0.9949705046005057, -1.1597961759652577, 0.9177693334158151, -0.15274956643671161, -0.4857161672373953, 0.2883426829142722, 0.6024981192308552, -0.25383676695594026, -0.42481485214516956, 2.065414213332803, 0.32885063422900973, -1.2556855999322578, 0.4342481195811774, -1.281059771123658, -0.9592892937854507, -0.21543151162823754, 0.28922714690035733, -1.034545032071385, 0.31164944071914896, 0.4783673859983287, 0.864845914325293, -1.5174515424353432, -1.1416359467578494, 1.3126159127367858, -0.890038439743797, 0.18982978107460957, 1.3747960978919942, 0.4708338588703634, 0.20808006078128816, -0.593687975357086, 0.8021391226660314, 1.310408629062248, -0.13560723217743265, -1.0882503498571197, -1.0817831875751456, 1.5184823342225164, 0.55925315343159, -0.4853231561110204, -0.8147928562515384, -0.08761122901669541, 0.03837525688527085, -0.13865282472700485, -1.836169688246052, -0.027399299388681242, 1.041835858631744, -0.4390537790769794, -1.4988212946736332, -0.8759362126671189, -1.163589977723323, 0.6205698879598139, -0.005553050636263288, -0.3815574438127275, 0.45741930050663415, 1.9268463124924802, -0.2769456115809851, 1.17791613674183, 1.4794517877935247, -0.8774589052262326, 1.1870775868492502, 3.098043030837725, 0.17544579184078835, -1.021319105752456, 0.7737793925961475, -0.693889444534882, -0.1688649268704727, 0.9591571078108625, 2.0531368875364264, 1.10611516234258, 0.5220141748208308, -0.169523201990501, 0.37548606131518525, -0.8404065252327823, -1.0139531692916162, 0.03754005945851034, -0.655790723005306, -0.03617558043614579, 0.3207710372692184, 1.759375504748269, -0.03836757051406811, 0.4880495712250747, -0.5326316281205281, -0.07292223906464322, -0.12036130389830486, -0.02836884053529316, -0.0411653486203072, -0.4594293793425917, 0.04212382155446087, 0.48807959279837493, -0.23787907480116055, -0.6461630830029094, -0.8871938191528846, 0.3729525336800036, 1.3059787491874002, -0.17056397477213853, 0.12040525011104457, -1.1230706407739999, -0.8490849149824804, -2.459591096980856, 1.782090237389101, -0.14847808224300638, -0.5577834421011951, -0.9770530734276703, -0.8898240744539583, 0.7334173609133363, -0.5865289293885877, 1.2542909322488072, 0.8283225976354923, 0.8937958999664003, 0.04107516474945345, -0.4690897139437342, -0.8749641062951846, 0.5163500463188406, 0.2592628163388506, -0.5595378323691397, 1.682041025943305, -0.3676650018265066, 1.4634557243112043, 0.11774330776784508, -0.02192105344888845, 0.18747972549164396, -0.5339237769993532, 1.1623370263859887, 0.3905209854197049, 0.033180356609053094, 0.5767590932413555, 1.5932753558161792, -0.49853570551318244, -0.7103227057803801, -0.5459823018960172, 0.8058331855421648, 0.9313817779215549, 0.5358235384944148, 1.2304270372160955, -0.9810501855510466, 0.892558339240358, 0.8562503371405197, 0.018103931311592034, 1.6803700370366186, -2.5376042322509518, -0.01570203039989012, 0.5835464547968633, -0.7756933170589877, 0.7764057110296239, -0.28084833208137516, -1.4174871865410064, -0.40175222238688646, 0.7977954055747127, -0.7941156864617108, 1.9345007034704, -1.3625428876594918, -1.037740241500287, 0.09271537469611456, -0.05013062235767335, 0.08833515387319642, -0.5149470327438507, -0.02909352495203236, -1.0518661314672604, -0.8476970906828625, -0.45991762848406065, -0.19030609504565318, 1.660748188728886, 1.2770571526556318, -0.6483440778101179, -2.3164516986153036, 1.540266758526241, -0.1543371889507897, -0.6899022096927231, 0.5394380902918421, 2.146048308828293, 0.5541649929472425, -1.9493151049830635, 0.16654035685401947, -0.5314322139564391, 0.04745502719499638, 0.7350779180852769, -0.42719268667997556, 0.07350720099747746, -0.8811653498707788, -0.012427579726435701, 1.5263431969605201, -1.2619063950363836, -0.5939999800507054, 0.44570928496550893, 1.0178908206392363, -2.002238993386792, 1.2455713124489103, 0.5174586989124449, -1.4016824268180028, 0.743825082380992, -1.0260958578287036, -0.5680454763230348, 0.8284169866881386, -0.13559151647699816, -1.1146142731395703, -0.3670833342977824, 1.8160673910426193, 1.0462015702223844, 0.2749368868235327, 1.6096444200500162, 0.5053386214014259, -1.4061621522459893, -0.1719243268306295, 0.4478895850879279, -1.4699814817237682, -0.07207044475673906, 0.6375444876323997, 1.6838680258263932, 1.0933755730340968, 0.3688634823716377, 0.8166926139465615, 0.24697140964149397, 0.27019486675514554, 0.610230457776087, 0.1815735213472555, 0.24000425947122891, -0.3688439087218533, 1.9225916250349087, 0.5247961688520938, -1.0223856849099273, -0.03702589550060816, -0.32421292218406744, -0.4136471411904985, 0.48309378618790505, -0.20514242196419327, 0.3377269747888595, 1.076230682193866, 0.6259579570090775, 0.8108666425894062, 0.5323891562339809, 0.800867873749623, -1.1474168083708292, -0.36242795638355585, 1.0237211343345958, -0.1490118944938872, -0.8197879762511028, 1.3127187041048547, -1.8054351650655438, 0.11914669015858327, -1.8430857679324038, 0.10380093185167603, 2.1577886602571934, -0.33461501132432686, 1.2928038356628364, -0.11907602330372451, -1.2462655735649921, -1.1273216092844038, -1.2830493498262423, -0.7000931289009844, -1.6861976847403781, 0.4324557934948999, 3.2522221268579266, -0.11917777888101069, -0.8925938834076175, -0.686164463880834, -0.8779728314487015, -0.2879105391078195, 1.3752431595139378, -0.8926684242044833, -1.4050417704406917, 0.8213650395064316, 0.8301824652469736, 0.9435135495050595, -0.27972862667557796, -0.8969566499821925, 1.9272905950128887, 0.35506002398426273, 0.6573272439642269, 0.30100667710971507, 0.035742465877879735, 1.1352718921366318, 0.7732413517179227, -0.20513469722170713, -0.16542378336621855, -1.8368701967262955, 0.4019389695090612, -0.7255330217102877, 1.6640156969518813, -1.1861108941039549, -0.6836780694718794, 1.0388854991939074, -1.012648065082654, -0.4097168454115636, 0.20079760085102602, -0.2661713012541277, 0.27809024606088456, 0.9776246296150807, -0.18104511326448255, -0.18946197264308998, 1.0447132930826373, -1.4558271423642164, -0.821101754453675, -0.35081413659400396, -1.1924943560953258, -0.36346260591208573, -0.8658940204943906, -0.9508901385388507, 0.7080649862805874, 1.6893388794147954, 0.6866460641318733, -0.6578290761719311, -0.3827804033211274, 0.685592711259501, -0.4610635230087353, 2.472891385451258, 0.3733564194388158, 0.7901036540710545, -1.521308481827625, -0.19987907541932226, -0.20598716368450531, 1.4305686102863902, 1.6492213572810783, 0.7780378882159962, -1.568674588785098, -0.6656853741337694, 2.539392237748366, -0.22957895877640822, -0.9209273420161257, -1.5978410294529126, 0.9939506734228928, -0.6279311754494877, -0.6814290676875993, -0.27939355117882486, 1.0482977269561777, 0.5598359912206127, 1.4718646001452222, -0.43004282148000444, 0.8426772027340897, 0.6114935975153282, -1.8148672504785996, -1.2776448368649422, -0.5889507356140905, -0.22169669999649208, 0.3369536819663411, 0.01179504059887486, 1.7422083112543114, -3.0425416535172833, 0.14500966908407148, 0.006589682580275696, 0.331012491851859, -1.181937228403243, 0.7738591244967364, 0.16720541694444846, -2.501040941953472, 0.19339878501945051, 2.521636583599787, 0.6656225776422413, -2.058215132949408, 1.9059554348019192, -3.108117153226827, 0.09281875752778736, 0.7011591363414296, -0.0498960803892409, 0.8501626604532736, -0.6350410119339759, -0.2809051194828637, -1.6322679421916477, -0.7108666090969887, -0.20521537640838078, -0.4243354339218016, 2.143029735131796, -1.6602332922256027, 0.054885649088363374, 0.6465341692028295, 0.5600825948267654, 0.27607492224377345, -0.7187533100399891, -0.1437241557388632, -0.51656339439579, -0.18691587975795323, 0.2031121858760446, 1.7418416098690348, 0.9862197063328694, 1.1332443624119175, 0.8057022310805152, -1.1439802172005975, 0.5377890955057839, -1.0312103352839082, -1.5053921658864902, -0.21517576681373585, 0.29809561697203524, -1.0400342099122684, -0.8776334043815516, -0.0516892958590733, -0.3517297748756103, 0.2607163810571182, 1.7933190017470648, 0.71174597635238, 0.25816390678719553, 0.09066131510063977, 0.6126694394691247, 0.8081004172859435, -0.13008470641207368, -0.4645369294777884, 0.5062857049252396, -0.7325594208526119, 1.6403150107043023, 0.9352178314465472, 0.5130749568355377, 0.14403790592213148, -1.3015050128507846, -0.9396452470007549, 0.11271389649740093, -1.5189614486363394, 0.22657200317455528, 0.5313180689324247, -1.1844577854494427, 0.8049363924952349, -0.8335576426659159, -0.2666635098015454, 0.4050753060001462, -1.194658804276628, -0.7558254246229353, 0.607635863856263, -0.41531124734288855, -0.45114676712050866, 1.070730488443015, -0.6735496786504714, -0.2872078700820077, 0.20350416430650717, 0.6982143242959948, -0.2220418952679512, 1.683501593134452, -1.6480273898281113, -1.4633997065506237, -0.09262573790926532, -1.307083213866257, 0.09316328447943269, 0.7855113916893365, 0.33138347400302104, 0.8941894667188472, 3.266088445647664, 0.22564927724910444, 0.4540377589741583, 0.2847902502751023, -2.5167022467048334, 0.25154883011944046, 1.420901934763412, -1.8684903164495201, 0.09654432628509318, -0.9970471181425407, -0.40589460305931724, -0.4613569472838447, -0.9829589893302725, 2.0093971645471753, -1.0520351509430814, 0.2674266622239078, -1.1087148511791605, 0.27092489771084605, 0.7992935178845222, -0.7491458418378972, -0.6354787848662049, -1.6488212050063944, -0.5664594871853718, 0.6509610643087758, 0.540152869631344, -1.1846885137594387, 0.7678833550217581, -1.4299821837990259, -1.1861209584507921, -1.2472718346698117, 0.8345714785411917, 0.8986827753555612, 0.2919097283127682, 1.136942790393269, 0.13565046245536572, -0.4739441515719272, 0.45194754411472665, 1.2563931095614869, -0.06797473800842448, 0.9338047921229147, 0.48729471756348985, 0.2609243281795963, -1.0434526877166963, 0.6961221014537285, 0.08888226935159088, -0.6771679486780602, 0.04639214204025658, 0.7933193796357441, -0.19154423203562956, -0.5331917307148651, 1.4524145509818784, 0.283818482045835, -0.02789785501208892, 0.3473558397312792, 1.546518251666538, -0.5166744839519404, -0.3277155407833604, -2.054429133027646, -0.17402104124638126, -0.4367942862444999, 2.8111720340353386, 0.5890413140751601, 0.30266413716913215, -0.802131594723543, 0.3602855304847602, 0.5251475800872025, -0.3823428406289164, 0.2015091069353731, -0.8765558764708263, -0.17674598083282908, -2.154615416683125, 0.3339485875051342, 0.19394815257184023, 1.017955737138601, -0.7655041640493615, -1.0140671304540727, -0.6334507070713767, -0.019295288609632543, 1.1895632810730528, -0.4351599147620793, -0.8043902792646551, -0.01370364611801949, -0.772828397536627, -0.1729488084270869, -1.0017677141798673, -1.4594032362541862, 0.37162323750372944, -1.6832657729066698, 0.6414017921924008, -0.27904131274110017, -1.0977839347248073, -0.8632570909349672, 0.31732262215711243, 1.2462184023233431, -1.3332856365720471, 0.03676564582617607, -1.0884839099058647, 0.034632109145080796, -0.8360787465570305, -1.0146173255400985, 0.6962894602149281, 0.2388124485445521, -0.6414151073658572, -0.0544204532081592, 1.2826837642410034, 0.8069944890771962, -0.5504028721525039, -0.33780046208536957, 0.04287340219973246, 0.5286427623294908, -0.812222571992129, -0.02307861442397547, 0.09876875838233516, 0.014422698767767238, -1.3153601425059118, 0.17182521389633335, -1.0640528795477777, -0.5743275480429422, -0.22755923090982433, -0.20641642229377763, 1.818738335239076, 2.083336305124471, -1.1283160605946425, 0.45133594060093546, 1.728610911746992, 1.287614741766023, 1.1567700555542981, 0.43040292521962686, 0.11049681978866595, 0.42913535784129564, 0.7200592408220948, -0.20494252208844763, -0.14329458064176276, 0.4125247873911309, -2.6626970135594, 0.1872615408539171, 0.5532520653408936, 0.014968459374582634, -0.10576402903037789, -2.101325595445211, -0.2323472311579506, 0.0814036073667434, 0.7864949862030847, 0.405276132266522, 0.3720810444429146, 0.8698664502035492, 1.2487986788500476, -1.3285341881824952, 0.9547323074216506, 0.5288730981487182, 1.309622346636621, -0.060839695209965045, -0.6217188359354902, 0.639735854881113, 0.5164094950003478, 0.5181580743585035, -0.07511381323331418, -0.4687861999904929, -1.2492836413526807, 0.0988587600986258, -0.6392177522473003, -0.3364771801122963, 0.5124600208466616, 1.1510427351794592, 0.824990360603728, 0.3338278917114551, 0.35812302139578694, 1.302226055048447, 0.48500078399337476, -1.2102976608312999, 1.4781639661224653, -0.3787461198476757, 1.0030734513647472, 0.630746200548076, -0.5888865837159191, 0.7574411453529497, -1.1537697369066866, 0.28524895609371914, -0.21891595412622805, 0.9206361180347847, 0.18756653853469193, -0.5051911533759468, -0.53197158206746, -0.01007432831695337, -1.0777016601843885, 0.38869923636788845, 0.3326581472553109, 1.809164140515736, -0.9032268319108221, 1.252483844363339, 2.339310506504212, -0.42440138631652313, 1.506550209616734, 0.07355372055648372, 0.336993362561606, -0.3102103812589683, 0.7311678421842448, 0.35603065438300074, -0.899382819626261, -0.9107171427338379, -0.9209974307596562, 1.175916672611501, -0.4352474671570964, 0.8359160979785645, -0.9372061684610141, 0.0663211084090869, 0.11993880644801878, -0.0946685264756782, -1.1384067968380693, -1.4691145650749808, -0.3343585727683814, 0.3438065124661361, 1.813141866793848, -0.10161945302474024, 2.8522140374244973, 0.39011472413223913, -1.465738616816532, -0.1837940467634468, -1.381825024170377, -1.4676466740233798, -2.1761670346585738, 0.39684703985941394, -2.5682430454098575, -0.1486204167357947, -0.3705275952860934, 0.3988941880425743, 0.3393995354267562, -0.36625161130973777, -1.154413732949331, 1.8572648909442706, -0.6734643041395778, 0.21377904748559393, 1.014248120752861, 0.9288731307409481, -0.6058979127688939, -0.30220557128193004, -0.030394498488249395, -0.8048130376276369, 0.554177010703148, 0.027081546668270052, -0.6569691983886207, 0.5043592636637914, -0.9805653212619543, -0.23529119387431313, 0.2031455526495166, -0.8667922256401479, -0.3698490045430302, -0.504953788639023, -1.0385089701913817, 0.7340079371916932, -0.6058587864807972, -0.7875212525201432, 0.318172125666969, -0.6006872650966227, 0.868293423922945, 0.4770491837578058, 1.2500201144007095, -0.14466016082152308, 0.8050935375664638, -0.7189381301914595, -1.2865458267340364, -0.08341878207904807, 2.0180790928805337, -0.8857420220141201, -0.7927315874186402, 0.352805807197124, 0.7666756075477322, -1.8449979288847036, 1.14057157885558, -0.18252019412173645, -0.14513227344837945, -0.767946212146514, 1.5776522419563905, 0.704232528814279, -0.3796968774513254, -0.9230929108269262, -0.12278590883148108, 0.5964150129954288, -0.09593971031026802, -0.8175711158661079, -1.1513588682402904, 0.009286197157501721, 0.5354174887807653, -0.8584248759637328, -0.27421378678425246, 1.1638409785883779, -0.1878916206131341, -1.0221751551713674, 0.46315689491994616, 1.0355644095377088, -1.1079463420443478, 0.3108323318000965, -0.7476686268090457, 1.5172150330803371, 2.2863344153506144, -0.5042784302063453, -1.650257204586876, -1.199835419551599, -0.7004428635258885, -1.254139642241543, 0.2253480114987862, -1.8052432488219998, -0.7229028763009204, 0.12258593437391573, 0.5404214294149273, -0.9639341037959616, -1.3281121767953972, 0.2933029777691447, -0.08831196509642479, -0.23362609135390192, 0.47948961353650726, -0.9856461410912082, -0.4401024851438358, 0.20064561190807986, 1.3321348314157362, -1.2926691803842745, -0.6632589346741851, -0.5217542215834741, 1.6734194578735826, -0.5678265429889158, 0.45525323621765407, -0.21039165601381696, 0.5612798267922081, -0.23931257625172347, 0.38784259640391067, 1.5951406607145202, -1.4342330008035402, -0.6698731792519469, 0.46105310753092493, -0.5912763928863054, 0.2071718393060184, 0.4103136805014001, 0.6057712373847525, 0.27157012543555276, 0.08822239130850706, -1.139747994038927, 1.7239051319636693, -0.14681537609293882, 1.6600613623317857, 0.4942769782188664, 0.5292976589655515, -1.298728891887875, 0.40527465620093983, 1.4986252470643708, -0.961097309164475, 1.9016733872452658, -0.4453325254649291, 0.5322021160435247, 0.5153589594439923, -0.017808889476904805, -0.3170847789091506, -0.3999784410895199, -0.7240967775159438, -1.1438321137418812, 0.6202667189128791, 1.6219451884131177, 0.943415482680212, 1.1630363592720387, -1.1096506916331703, 0.2797964263353248, -0.30724122868108167, 1.224160888661176, -1.6961904794588543, -1.1911533995399524, 1.7710165016211474, 0.022809392093555477, -0.39104523220746185, -1.0649220675208744, -0.3904938503181299, 0.02695918190563471, 0.2009900831382789, 0.9698731398061542, -0.02977547449705409, -0.0175055943828531, -0.1307269275603236, 0.9115162945283236, 0.5771212036322383, -0.5675505992421896, -0.06662102429105578, -0.0807355948016585, -0.09951392247117666, -1.1203287169476934, 0.11130267020294193, -1.0197444430713376, 0.9173508002462493, -0.9670433962144126, 0.21727711537941785, 0.015378038669680747, -0.1376027241377251, -1.7671792090946594, 1.3181883609764955, -0.13215040466553474, 1.0736171798435767, 0.3102561008042523, 0.4445440858185669, -0.251166218406343, 0.6569257003143983, 0.039044527159305766, -0.31174716449254836, 0.6366987821458384, -1.226636242945691, -0.020313394546245384, -0.04632715116140699, -2.115987695617668, 0.6387221648177733, 0.7875265309687106, -0.12567883774754, 1.2419478457123834, 1.580049035871193, 0.6510468868941919, 0.5024678032823426, 1.462377887791914, 1.122253972704926, 0.7646814819686024, 0.06878029261733475, 0.1668170607380119, 0.12876154914944138, -0.195604764076515, 0.9811665139871223, 0.4848113585665301, 1.995079897730013, -2.122182760980064, 1.4076378510132423, 0.9137977709683427, 0.5155965223123904, -0.4065032138617956, -0.37905015155933686, -1.2907987877368994, -0.08522185395384452, 0.21029476655487886, 0.42831933535229394, 0.5648715210618434, -0.24530929249149905, -0.4365783325144214, -0.4566285601009841, 0.13661460513448156, 0.8788118983168954, 0.25679230888912563, -1.533326334544236, -0.9620647098871811, 0.5061179100022535, -0.31748633116838565, -0.3354728619622061, 1.1778971483576766, 0.34763985532113756, -1.6771798565835445, 0.40918639949834734, -0.1861735231395749, -0.6999944000678712, -1.7071017465133174, -0.48268436026823197, -0.6553966502716994, 0.521388889555411, 1.1021281172079063, -0.5436830470256426, 1.2561130288625273, 1.6709826054183916, 1.3203938442069898, 0.8175319881729414, -1.168522821680624, -0.4286602084618137, 0.024522016020030107, -1.5451604009779596, 1.507161279194122, 0.6759743656732419, -1.283891877739945, -0.6102439170457129, -0.65177505846004, 0.13163316533271072, 1.7692433417682611, -0.4781563834768005, 0.9197151883429457, -1.4993072582464624, -1.2610455709309472, -0.9849548362146527, -0.2313672765069594, 1.1568444928654753, -0.5567065656753509, -0.2469615289790567, 0.6146714021034414, -1.2491136017435736, 0.805575805647807, 1.5254043917821767, -1.842308879184224, -0.5619151659429733, 1.7349264157629152, -0.6836437673792427, 1.6404669570007542, 0.6012161915643754, -0.7366810119131687, -0.6221561724199376, 0.17778549722215842, -0.9447659810196273, -1.2029046676009594, 0.19265808118188577, 0.7719582882758247, -0.8670638137209816, -1.9697648058058688, 1.0419913537566525, 0.12958320190155945, -0.3256876350761668, 0.2583710629076939, -1.3059547744910138, 1.711604378975903, -0.5230716011231648, -0.5541510793772153, 0.8495812303792968, 1.6268142503560084, -0.3837433489225231, 0.22133524084852269, -0.2621319047533624, 0.08757292078758842, 0.7375910251235966, -1.042891736685659, -0.7694647781362752, 1.221365640545577, -0.29611387615198687, -1.1194620495828966, -1.1519359513383922, -0.5655383202239392, -0.5948785584927444, -0.5982137841680779, -1.2958549171319786, 0.09576455448716137, 0.24755023625619416, -0.43314702939764094, 1.6686166297149119, -0.6750477387448541, 1.2130777446730012, 0.9289669036870543, -0.042219993008719106, -0.8347395814802487, 1.1892232863615204, -1.1442453990203838, -0.17331109062930616, -0.011864541139512819, 0.4394660431736219, -0.003931921592216604, -0.7169772370094845, 0.318626244591992, -1.1302236218144814, 0.5117030467471936, -1.0614511830497617, -1.1058894949503562, -0.4874055024498919, -1.8867459963970272, 0.729662268793711, 0.8679825585011725, -1.8143110088658734, 0.3291892801826031, -0.9710120967234157, 0.5150800543214213, 0.05284562122959349, 1.036512326761062, -0.04668485365117196, -1.502944252208257, 1.8959356491419839, -0.7868599463179635, 0.7525378251292159, 2.4855480807849286, 1.7706575270681086, -1.8580388346877388, 0.32577966440292305, 0.6511535556763519, -1.634891837440543, 0.23980777561031108, -0.3483525722042261, 0.3433434377821092, -0.14062846859944822, 1.6052351598729064, 0.7756369722682497, 0.056776141636772984, 0.49085831782979455, -1.23544336198963, -0.2218583211024049, -0.6789132888277009, 1.2426331099567904, -0.10531516992907906, 1.15151913210314, -0.889702295700301, -0.774184622438573, 0.7493989340804686, 0.9564779095891924, -0.5416470216089412, -0.1973774346941072, 1.8653485461453116, 0.4354754631011755, 1.2935924902735816, -0.8992456495342485, -0.6948244807701641, -0.9676547938002578, -1.87291816663321, 0.09415707461363966, -1.2927369969602653, -0.17731236839007056, 1.0951104279851571, 0.8607941264547998, -1.1986646978318147, -2.1254802800480945, 0.05555564085197355, 1.2781139661854775, -0.9820595327526438, 1.0355871937645509, -0.7134462558216162, -0.010242918653931614, -0.6886474774535197, -0.6772985215013329, 0.6106515767900564, 1.223419770405744, -0.4620692918708572, -1.438297221865335, 0.5156307355377701, -0.2257158399182847, 0.32946001520042795, 1.368976741548692, -0.495119356111172, 0.3859077240947897, -1.5188401636849789, 0.7598251769270229, 0.6557748055343638, 0.8597917737112116, 0.9904654447995866, -1.3311602283675952, -0.3026560668891193, -0.5626879717889576, 0.9286828478726328, -0.38083715610390556, 0.12726072820570658, -0.73017781830212, 0.219323901884112, -0.8803149792699434, 1.087939899614878, 1.4863111903083541, -0.29425596716832053, 0.8131056097738335, -0.34818450720075395, 0.46780134950926733, -1.5514311793073268, -1.1608074324793038, 0.3080383836136588, -1.020728158647854, -0.015804528231632767, -0.5482775815494491, 1.22964762107754, -1.667049767820665, 1.024958765001102, 0.4194246289161232, 0.16103921278251798, 0.09668249701424281, 1.4412700813481079, -1.1860499599149938, 0.14522365033124593, -0.12103081360706563, -0.4221539446885394, 1.336250815423839, 1.5532721830130494, -0.8795637181088534, 0.6951852849033227, -0.014023056825305394, 2.034281861736385, -0.7249035201906465, -0.010163554142318468, -1.3486778736647116, 0.2935171143388158, 0.23402632398380294, 1.4020454369066522, -0.11028122072703585, -0.86312964681184, 0.7955669930791673, -1.3017790345159208, 1.8185005163877996, 0.9517919434949292, 1.6248425779229814, -0.7074029737829981, 1.2312452942320837, 0.0856536560416284, 1.068583366563753, 1.6806635419632396, -0.12895459028600514, 0.22007434075967555, 1.006921823047952, 0.34363706669463, 1.2834368597701895, -0.19272750435026875, -1.4974124729424565, -0.05799041482926942, -0.04978686818291361, 0.4531997931169109, -0.051641324636896004, -0.7033405864853097, -0.30343874996465015, -0.4980514933977434, -1.2051281544412367, 0.5637000255127512, 0.31894783422035433, 0.2279087190506994, 0.4715124642395386, 0.9589257525334605, -1.3648218504955116, -0.46692633342666967, 0.8589266648821174, -1.3713724640915843, 1.486987129637895, 0.5529981169852756, -2.1870217744312948, 1.318257705226089, 0.7298299295063321, 3.010389927515409, 0.1427810271596481, 0.6443191278826967, 0.2626727962286874, 3.514650804758, 0.7436893581849419, 0.4331604980398217, -0.9420556976610179, -0.8658063341421695, 0.5751192553538668, -1.0708455423843224, -0.6885165984783618, 0.6572029240460261, 0.5917249430540396, -0.38651545703247203, -2.0898872186157726, -0.10088859564589335, -0.939618403783337, -0.5420274283384672, 1.1578824933926015, 1.3693592014885585, 1.5497330681002093, 0.9328284752764504, -2.0401825149191217, 0.11804341818182038, -0.24544653123221283, 0.6621904714209432, -2.1791892442470266, -0.09971403209191076, -0.1989245987517695, 0.5008904813844905, -0.9827411938396133, 0.46621030426249105, 0.13333003461496826, 0.25875140504372107, -0.9565175110938164, 1.2277837847448638, 0.3172811008789974, -0.0761806839757967, -0.3311647454510703, -0.41238179268187636, 0.4375921238758338, -1.2168987089596515, -1.5010528040196105, 1.16431816399518, 2.7472553511249505, -0.5114739213226651, 0.3280930064907016, 0.4897836784651703, 1.0567593579224255, -1.0238861848377976, -0.814703182618196, 0.4493572005337685, 0.282341615940171, 0.36320723638163244, -0.18634741067934768, 0.14626963602400894, 0.8548059156005496, 0.4139472127344536, -1.108654616571711, -0.2466059923704341, -1.5830321747545502, -0.3972787011764316, 0.7862583605682338, 0.9779115267886743, 0.49894614485981004, 1.0854180293113187, -1.1958319502462176, 1.0893032267348244, -0.45225435012067433, -0.5787460891485229, 0.17106632480915962, 0.15258632712119125, -1.1997201210746458, -1.196660832945237, -0.6728867356298546, 0.0799151785698376, 0.35895352369145217, -0.6920698195105399, 1.6922334462377209, -0.5994731862390356, -0.41391405918066587, 0.9750392291696898, -1.3757350971420088, 1.8121322952763328, -0.804536058830724, 0.29892765401773935, -0.3034071787883835, 0.0671350046040185, 0.851463248544614, -0.9403895852549029, 1.1732878981701966, -0.2850349154170234, 0.5657297712148013, 0.8960319275765043, 1.8980082686749875, -0.36721138456912106, 0.5223866734430063, -1.1040383622374177, 0.3718794271958503, 0.25471258480385917, 0.3434003696357727, -2.1287742480014575, -0.06935504952152574, -1.5699205308616195, 0.5794983922780694, 0.8097719213833025, 0.21951099367342963, 0.9655673618064269, -1.3553875364147487, 1.6411276263251338, -0.8249836091003532, -0.1418032700581153, -0.7148811141489765, -0.8302169848239332, -0.3638908092082693, 0.5622031356130716, -1.43503807631397, -0.38898888069247706, 0.04596845136852832, 0.04885993581651981, -1.0591123396943884, -2.1116806234388283, 0.1460291149911861, -0.051480861729278626, -0.5724228116657326, 0.809902759735904, -2.499213289346732, 1.592573562998074, -0.5550047331126793, 0.21042250436997575, -1.3110125928447338, 1.159664249304713, 0.3406375932917606, 1.3534770038980664, 0.5733355090273827, 0.9743204780797807, 0.17503790528177204, 0.6479577571571704, -0.40852450441698, -0.32056037849710606, 0.7587295083004153, 0.010102089822584594, -0.2575419689046093, 0.8986186408637757, 1.3755181513895889, 1.0034472624440876, -0.010769051532802408, -1.2659377960581792, -1.4703411986065953, 1.1673852039069168, -0.5359737612089852, -0.5274927912179381, -1.7484833853264359, 0.44158280639398195, -0.3268414577925168, 1.5480475885754779, 0.6185170169110378, 0.25394840104636107, 0.4246043130578494, -0.4332228843142765, -2.08665344251157, -0.1694059540708213, 0.13532882233210827, -0.8086778236721635, -1.0186127856291045, 1.818410647011304, 0.8550704229754658, -1.3594162102941685, -0.781687396732024, 0.2966706107070581, -1.1652977690531134, 0.5406608776542082, 1.3019361861320322, 0.19421426233431055, -0.6808660256020833, 0.4593074826972014, 0.15058254353983952, -1.6007516078308486, 0.5306002312264932, 0.19550314479948055, 2.165851076134393, -0.7394473366072924, 2.214233469765082, 0.0924938019100801, -0.28190200766214635, -0.3105058303649882, 0.1721926070306206, -2.206503029565142, -1.099196158119867, 0.8353084848948936, -0.4275617421453117, 1.1192670510034937, 0.7733682099609444, 0.4370578331642899, 2.3929706872697385, 1.1277967684693113, -0.4368192383990566, -0.9704762888027231, -1.2074120299506557, -1.4007032743491723, -0.2640835225320373, 0.7381336473823744, -1.830202869264461, -0.7988058354217521, -1.0954725907863503, -0.05418261537221308, -0.01798588025272567, 0.2682602434579067, -0.6120253122027697, 0.2564821006273469, -0.0006206940540670766, -0.1978710155758797, 0.125949548639641, -1.6752609278721553, -0.041268489522599164, -0.1139272921298713, -1.1496205230736072, 1.3045766179776743, -0.8678373908640775, -1.3941048169794683, 0.9949046510408227, -0.6933069163415089, -0.74498741270129, 0.27824055601019826, 0.10843418884865197, 1.341998146204957, -0.62167721617533, -0.01769976630140047, -0.3528201715212081, -0.10775152289595617, -0.8407770139233417, 1.5418838743928882, 0.708248911803047, -1.353487315475799, -0.9971204354911128, -0.04492681078924873, 0.5306535865768478, -2.1552757119042396, 1.134456211353396, -1.6787177420707358, 0.6112709573867019, -0.8870625013442781, 0.8104017781724588, 1.2038605356409373, -0.601601640437515, -0.4427143181907319, -2.4329308485187706, 1.8911003335626344, 0.7357444636952356, -1.5195962375702983, 0.6353786055953843, 2.017787661704201, 0.7840057085641471, -0.9312671272837254, 0.16154322151571548, -0.7603741245100926, 0.6782178747925055, -0.3424087334337771, -0.6160405467831103, -0.17775587019496059, 0.036852610718132735, -0.6631006152132566, -0.393809418197041, -2.0758309111065505, 1.75331657893311, -0.3711197550328487, -2.2650019576849796, 0.04933075380826195, 1.600842668234919, 0.703075579798707, -0.053598169043689914, 1.4183842294833549, -0.5741658589135472, -0.200103156295074, -0.529131675027078, -0.9377605908699941, 1.5229604356141422, 0.31169080788502634, -1.1087193121569292, 0.2843593893078046, 0.48795498527900716, -0.17359354465036766, -0.7140709901064245, 0.33580833422423884, -1.8197896841408943, 0.41927211244870755, -0.2882600577926633, -1.3481444435553671, 1.2098974157545581, -1.8873856000656541, 0.12200398011833159, 0.11095382745695595, -0.7658835655413438, 0.5990616541328042, 3.249765620413746, -0.1661635456981936, 1.4497233461430572, -0.534024372485646, -1.1561361367493728, 0.6557412180921404, -0.1691055229033141, 1.158300128062341, -1.289646096860585, -1.3821737070723128, 0.060404751159119016, -1.9113807972814016, -0.9728737783635895, 1.3635393273907683, 1.0722000163082746, -0.4065061228173826, -0.41445825490975735, -1.6195814338484293, -0.6510244940415055, 1.097796450309198, 1.444326720154861, -0.09484250308701359, 2.364384932134125, -0.10435291228210797, 0.7735706205428137, 0.13583821789006284, 2.1307082251776572, 0.1456358240008199, 0.1372506289731349, 0.17895870766105942, -0.0897679264697803, 0.308274980189568, 1.383502234964039, 0.3493164729564235, -1.550122354086626, 0.8800247598158034, -0.4444068553552761, -0.40158073577016734, 2.0818479555975693, 1.1067041852247772, 0.06036219781761611, 0.8085021526515004, 0.761856050059283, -0.6052499137487367, -1.478100794391601, -1.7870389304669196, -0.7334339609111864, 0.929517652904306, -0.6745487808082402, 0.760095215424045, 0.39021525148718705, -0.4713409622297383, -0.7766556261272384, 0.8604084218135305, 2.2414517668581255, 0.19839899789074866, 0.8192930231530372, -0.13636243208991705, 0.2513499362727817, -0.5892180165004912, 1.2992814821737557, -0.8591707079629101, 1.167362600206324, 1.4257756079131416, -0.15025801794604474, -0.6564149057392086, -0.591026258981762, -1.624298429836486, 0.7420288846502637, -0.767124326868334, -0.5404610356333446, -1.9259728436153896, 0.1625865306449441, 0.8521977499770753, 0.0764604462317936, -0.595253574190657, -0.4368280636729084, -0.37896824209062274, 1.337204745332606, 0.13387084886538764, 1.2153253404503448, -2.0576827005037464, -0.27000849516304903, 0.04502825318194585, -1.0633478435282446, -0.03370642643347323, 0.7378120389224967, -1.0718192409121088, 0.8976007428797667, 0.22398965089401252, -1.0336469451835433, -1.2638461053639625, 0.32980519343280046, 0.6250382549002907, -1.2789113668185095, 0.16485526144307702, -0.05730749745528371, 0.7746994494099109, -0.4200182611903266, -0.6094872163712082, 0.7266744878062094, -0.9295905661009157, 0.462503842526171, -1.3825002129155535, -0.13996083388415004, 0.9499618849853627, -0.973703075288298, 1.1887030949635584, -0.007768729543845826, 0.6329656743017527, 1.6047808531219832, 1.1131416383350043, 1.7028596421549276, 0.17761915067900336, -0.22473334198736566, -0.4881470598356629, 0.8043964977015873, -0.2958836402609503, 0.519214907982125, 1.9930180102038821, 2.1315005247426138, -0.8117832960377008, 0.08224015454283821, -1.665744976417897, 0.24745547557710806, -0.932010720171684, 0.9251975227343616, -1.731768759058454, -0.9992192632834069, 1.0530687523311761, -0.592980570000774, -0.28829994101911005, 0.21366954720608028, 0.09575465475492785, 0.8998219847930619, 0.42837332536629413, 0.8267724376889426, -0.3831662687794352, -0.37889874401950363, -0.7247428448173667, -0.11211869058692035, 2.663663078548452, 0.9815034350885966, 1.1433029729558062, -1.1562708696196995, 0.08724388017394313, 0.05629663736175255, -1.3490775905065016, -0.3950357737245519, 0.9051026802771313, 0.32367173197678273, -0.24519693462309747, 1.5231783928024383, 1.0076659677425697, -1.2996163282400401, 0.012454739067306386, -1.6074561666666625, 0.665841783670953, 0.16424668868575726, -0.4371656313005891, 0.3800070315124107, 1.5314677457969101, 0.9254467519310843, 1.2873482859592809, 0.7305345772060272, -0.3103649264230656, -1.3431006872541227, 0.653495860774696, 0.17489596782755212, -2.0695303878895586, 1.7057634541386337, -0.7486833950346954, -0.36247600844415456, -0.5186372210960838, 1.08895410771079, -1.0868833916241112, 2.0520311626274697, -0.9290104930531206, -0.04562490153892394, -0.039365639032210166, 0.7285804984227021, -0.805532972591597, 1.139507295883045, -0.4141096586434211, -1.4218746335479913, 0.28486457480012156, -0.9028014271461664, -0.9866319760834268, -0.7710112273434302, 0.8774588902881494, -0.28027550474032364, -1.323563050335338, -1.0316424351387263, -1.1798025559950174, 0.23248218390982936, -0.2880559993229963, 1.144773176419932, -0.5847551215157527, -0.5073199624700145, -0.05583605191700181, -0.08753447495621033, -0.36709864838836664, -0.8429049138120949, 0.6274522559149706, -0.6339857469465798, -1.0548781705637018, 0.378559797525, 0.5867466534426143, -1.6465628372393986, 0.4874245188714154, -3.0675325166828036, 1.016127817679941, 0.006574024259646256, -0.04765026866739613, 0.1906644130371134, -1.658500306236432, 0.863355644816676, -1.6875038719860527, -0.4860842221315257, -0.40240908007544673, 0.9438620458843519, -0.9022943804695053, 0.6593641577783848, -1.251115115564999, 0.8421938783220838, 2.052435796305023, -1.2624288794152723, 0.20760276053552548, -1.3894951353867455, -0.7413291514572184, 0.17480423142689863, 0.9359790692218551, 0.1479425596738495, 0.6355463809978272, 1.6963744445305806, -1.1566279428153152, -0.271476068283785, 0.2816840811626491, 0.3716297728952099, 0.0683969506306738, 1.7157279747440273, 0.26043783219144256, 0.3524349797427077, 0.8159234580066527, 1.4351195263786862, 0.3746968695372749, -0.10078883542530313, 0.25002416049028026, 2.067356489855319, 0.8323585723597022, 0.9293539580384704, 1.1533810400499336, 0.04254173958077424, -0.971453632818975, 0.6746748691057947, 0.4696371514309043, 0.6405771366198082, -0.020716926095944766, 1.8994830038370045, 0.7637872181813755, -1.4885513102404475, 0.8430434352191107, 0.18013114973506653, 2.8661598287048253, 2.0382880729899826, -0.3092397402726618, -0.658744164897918, 0.25962271822868044, -0.44993951285941247, 0.2886155060776877, -0.9231806333582635, 0.4909468111502837, 1.0454990387082692, 0.3582708286412696, -0.941463299740752, 0.41786527690414743, 0.6511673914655506, 1.300681122605347, 0.440900345153881, -0.44030612010503944, 0.4866985067637295, 0.8233755749697981, 0.3996486379859163, -0.8481337551420237, -0.16538097217927084, 0.016600250840066146, -0.43880464746210607, 0.3389579847765358, 1.6016811105404174, -0.5817406061736902, -1.349924610821895, -0.477677399831571, -0.7678830976732303, 0.6011883286920758, 0.5307239053612773, -0.1233842527234679, 1.6060915987094686, -0.5232557584549786, -0.7267892637489328, -0.2930832054762599, 0.2293490966015745, -2.348482758193846, -1.9176697761577222, -1.4450511995177893, 1.5317576723892659, 0.48903689013222307, -1.246269637029963, -0.7859168955839502, 0.548271328255816, 0.09967690174137729, 1.045439512650163, -0.3514914608136943, 1.4400459465355275, -0.8693770686140094, -0.6464786081871534, -0.339781016331642, -0.6158724806349363, -0.06619929320226962, -1.086460079996699, -1.65109763129026, -0.4019746367473059, -0.7526397692122515, 1.0123791252820507, -0.5004128837431537, -1.638928570323354, -0.3464929137677219, -1.9061405222980872, 1.2327143911454814, 0.9546876538767232, 0.3230459130666406, 0.21054611542102075, -0.0116136203011222, 0.45689702888884526, -2.1257965865964423, -0.8058067492720228, 1.0397284957279116, -0.312483273610298, 0.12012660152497544, 2.03661404540535, 0.514927451077356, 0.2057457232816299, 0.507618704721232, -0.37478515364137194, -0.14605817353917136, -1.9562755243796293, -0.6623423241583246, -0.6328021027260622, 1.4919487498797057, 1.5338839061355167, -0.2820336994926031, -2.0570878058562223, -0.1397863236305782, 0.009626386176772184, -0.12990592779024282, -0.36698783327630236, 1.5574993606885243, -0.7835865349524814, 0.7317472868017655, -2.2545649365385625, -1.1010079723110502, 0.932721463325878, 1.7316330702703664, 1.1290526491229218, -0.9049736372190413, 0.618254249660833, -0.5303291077072004, 0.7344794815097122, -1.2689760678051651, -0.8697001306828513, 0.5918924313406749, 0.13400162568155882, 0.5734953275094273, -0.7050357184616398, -0.9278686781045942, -0.4964889251958528, 1.3426872022401304, -0.8419833573693805, 0.3305330376572189, -1.4386454519138405, -0.3128477297671483, -0.5774454423608018, -0.8543100297587004, -1.2715126952500218, 1.061820310543591, -1.674488330901894, -1.6019148813769357, 1.074141114546611, 0.009548990900882223, -0.5034588503848716, 0.009006144954966775, 0.7951944675139505, 0.2626582945655484, -0.3617058584697691, 0.03366960348079855, -0.07115646930487893, -0.03334090886631565, -0.5122874447699443, -0.41937491883315225, -0.6052584605384979, -6.273223713458734e-05, -1.1918426926436017, -0.7854317093447217, 0.16042532008899557, -1.4987973720569525, -0.8403056054216297, -0.21551389357028217, 1.3230368597807294, -0.9298754369629891, -1.7931508202498376, 0.27692131039832285, -0.513379938441082, 0.9747748017311454, -0.6948953940113005, -0.17540287358029683, -0.9744999791457641, -0.8768708324602836, -0.4234242441016275, -0.9071162169990237, -1.1658365167051699, 1.3137684169337347, 1.0351421831165974, -0.7453901413855538, -0.33661226532925653, 0.18629211431296025, 1.4869770440734866, 0.6160174911747366, -0.5841736449547741, 1.3684961127386701, -1.3143417588444282, 1.4417394775704007, 0.417913708608917, 0.4039882653312498, -0.4002339331337583, -0.7838271866035258, 1.3489107723644078, 1.1366229908785745, 1.374628151636431, -1.9493856700734744, -0.5888454788968496, 2.8619652677220166, -1.579227776788664, -3.223743939538321, 0.10029834756767464, 0.8873110040292045, -0.4444241915350562, 0.30149299516035794, -1.1433954726679398, 1.8795945378106627, 0.1721566814628135, -0.11507549363126093, 1.3297798706117896, -0.122199719781886, 0.8921308949380526, -0.5346363855026527, 0.15704957722267524, 0.13547116866461967, 1.3690682218765582, -0.20164150722931226, 0.7630353306720801, 0.2725603066887341, -0.1287080037728284, -0.15932948754911178, -0.07081840990434402, 0.1612065894574131, 1.0022409507176702, 0.4551976491484517, 0.9387034185894876, -0.6537523915617437, 0.82396961684861, 1.0855908055941024, -0.3228924053358909, -1.239897255759528, -1.8290231332132258, 0.16651768497460318, -2.1090257122822513, 0.6340161420409899, 0.3053873564341051, -0.44582584433773714, 0.6777591384100518, 1.9396968758204836, 1.3787832350044302, 0.3526291590760507, 1.3338180024398578, 1.2331919624404377, 0.14186504402077454, 0.05770495271857767, 0.6530613673651592, -1.4066438580965683, 1.4169773332055786, 0.049412686987332394, 0.41169911898699485, 0.7598857513348121, 0.5384630880262569, -1.5152540921151605, -0.917960531776339, -0.9102391202994711, -0.1520468539664954, 0.05677471110027953, 1.0772258221477593, 1.034995932398761, 0.41324136890928825, 2.314998501674189, -2.309625376793749, 0.5045265052221689, -1.8313665048944319, -0.3412832231686938, 1.452388814503591, 1.9832632214283314, 1.229569402143271, 0.06990945773960695, -0.027686357886628068, 0.7651787216743373, -0.13563895100650583, -0.5761412109166328, -0.4224922609727627, 0.05384456967740656, 0.10680035442706746, 0.1738806198572722, 0.44991714443710873, -1.4556082946276725, -0.8981530106327299, -0.45309110625441673, 2.836741902793688, 0.5569287977914607, -0.27920735744580316, 0.17053984495108304, 0.1839234407792405, -0.964427847782687, 0.4760113560286095, -0.7492009891600369, -1.6151008565969678, 0.20471343521001623, 1.3460578780506096, 0.9799877938293855, -0.27163949131399834, 0.19929408119497002, 0.7375372785157401, 0.9478779198977242, 2.033716831196642, 0.5984331606864886, -0.04783119188270892, -0.8664294198163518, -0.004324332622546606, -0.48428434580426727, -0.4416851255450121, 3.3151459923685063, 0.16355516611874327, 0.018462441839716827, -0.31723946823482463, 1.880816916160864, -0.8108670052992987, -0.7125611616293621, 1.3228773871739712, 0.20071217571591127, -0.13500452610688782, -1.0657534594563751, -1.3847338889830583, 0.39351164936563116, 0.12070722113020922, 0.47847672930761814, -1.0982040491882838, 0.45001898434945486, -0.3254694623819224, -1.051154904376244, 0.9864688002616008, 1.3167572707331832, 1.9745664757035568, -0.16296393340785575, 1.233983288655139, 0.4571803755620911, 0.0836677273318898, -1.4295880579445484, 0.3424025238082633, 0.9331944644493964, 0.9795933097792682, -0.5366581314303981, 2.412640127757311, -0.073365881237217, 1.1957163041594097, 2.175721720904083, 0.718691546885419, -0.7559080675937101, 0.8807634668623928, 0.610163002372013, -0.0820521172552196, 1.091622170623377, 0.3614048045745438, 1.0396527876586825, 1.3125831930366079, -1.1054930104885246, 2.1754423282024433, -1.9626426113490518, 0.008168975364809549, -0.5477228304440528, 0.44769156875088306, 1.3914359622084607, 0.5837514356933641, -0.9827631370447945, 1.314582077682352, -0.6853986283874128, 1.3949204593407243, -0.8617501625919584, 0.17306901468547206, -0.06482887692407362, 0.19495234617228463, 0.6898697363303448, 0.14717842414222781, -0.6596042224391536, -0.4193868308725985, -1.279665110180981, 0.07451658100394204, -0.756503233726233, 0.7227107787926055, -0.15667374437928325, 1.0656379174303368, -0.3839057525457592, -0.6702045734462707, 0.2815395955860872, 0.3642541388079814, -0.06904758764580576, 0.04510492424664086, 0.35891976325756797, 0.36476100501472225, -0.1438638058164491, -0.37670924218946733, -0.995539330456969, 0.7529602101994886, -1.52307942739938, -0.628605402427087, 0.5118388956932052, -0.9361032364233132, 0.7766338987330513, 0.3191052664762498, 1.4435453471314807, 0.36728640271195295, -0.10940438687961927, -0.13137107667258294, 0.8528925184976013, 0.04097851576363685, 0.2208172498277136, 0.5787390842646357, -0.19254879105156075, -0.07322560780284029, 0.702012239837709, -0.8997640278038139, -1.7316321008692832, -0.45193669668849445, 0.3795125500728737, -0.034834053662663796, -0.6062675530636318, 0.48019677526075694, 1.9605639291498607, -0.5006418029312029, -0.33683986993411785, 0.18220081121869472, -0.685686661928411, 0.00029075730016210946, -1.020034828428874, 0.33269077475134984, -0.02754278410218386, 0.3773692204427791, 0.30784802412794027, -1.328210258617183, -1.1872397826638255, -0.21406073591275396, -0.3305905513482362, 1.489939967016973, -0.8718439726320043, 0.8615367784172374, -2.0237498474805724, -0.272913136901447, -1.3710264334618378, 1.0579713348442026, -0.7384229095071452, 0.2469401831860757, -0.6222057826415651, -1.081628515372348, -1.9040525462728284, -0.831321725677917, -0.4603911468690101, -0.33872115945069026, 0.35684198372750886, 2.824158235379001, 0.4906702350009275, -0.9133240208407414, -0.45441141803493695, 0.30797579684580634, 0.9226479114864967, -0.09031604326695193, 0.07651478181534822, -1.666851424317441, -1.0644292009885623, 1.187591004423748, 0.9367872894075044, -0.4931152080927405, 0.7989058009642733, -2.391065859758007, -0.40956666968165073, 1.027143870842322, 1.2771729646090568, 0.6455271163072113, 0.24343434336086658, -0.21970413214228146, -1.5748321190130705, -0.7895119695589882, 0.03705780136777236, -1.4674827437867886, 1.1891554806071605, 0.6039601355536917, 1.110694753084492, 0.3637600516857616, -0.022159732716481098, 1.032716864133834, 1.5132002843520713, -0.0032846931911274416, -1.165242290631487, -0.30572118385291297, -0.06668492961549681, -0.6149340035785281, 0.25697059804888844, -0.30052804089823704, -0.259928769037354, -0.1325590689037251, 0.11211132781722072, 0.7091170960265099, -3.2084710356466557, 1.2881157719002234, -1.0059022796680395, 3.253365023721886, 0.5064323557140409, 0.14144201458352723, -0.8130753299311997, 1.3367576372772298, 0.22212022340194518, 0.43542596467669464, 0.4443292432775604, 0.856005269973983, -1.3011564712035497, 0.3489335607737498, 0.6024490643307572, -1.0357791833248433, -1.730891921570969, 1.1942305195231724, -0.2486693270739426, -0.6863689777057925, 0.47144718404200947, -0.3344853747533863, 0.7164696905576471, 0.22756121645201216, 0.8084251687773552, 0.4793158415037279, -1.3360284339866464, -0.47038169180932715, 0.3024255970322344, 1.7474439880701198, -0.002811526604761241, -0.599496318848459, 0.7128506025275158, 0.8621418554801422, -0.12834606021287406, 0.16843081376235114, 1.3111328629390389, 0.1300827723217792, -0.4995822972006685, -0.24347053241636937, -0.05814713997361318, -0.5405448475807159, 0.35665477300414217, -0.3396478699100331, -0.24183781512902416, 0.6419305221133389, 0.24652909791005187, 1.5462377639389104, 2.8571290309810573, -0.3557503788090561, -1.0638636814296027, 1.6441844818523472, -0.01707693916179252, -1.0439531995702176, 0.23020324245936843, 0.9215717458973591, -1.2526958111808397, -0.30232181134077196, -1.3011996071157121, -1.3798532378696753, -0.211772273758795, 0.2569278122620648, -0.7332746729632438, 0.2516051861072165, -0.7045794316633562, -0.5319371309728004, 0.19602954131383926, -0.019551600021875868, 1.1179387870133746, -0.41481924039455814, -1.7699136030455809, -0.4927100904479169, -0.5944331219749378, 0.5569994448354979, 0.8057519895691643, -1.331002855079333, 0.7668934427419145, 0.03135198183477219, -1.5175545811721736, 0.6114128388522828, 2.5138876031578223, -0.606190543720085, -0.5001040802130156, -0.13260352048359636, -0.6597888650492414, 0.6924315579835257, 0.5457492405469923, 1.2026862646197245, -0.06949219183132756, -0.05237006355111822, 2.644625952658143, -0.835003426511401, -3.332197205033353, -0.9673587736878324, 0.2559111122925114, 0.8794910323275725, -0.0009359756347080559, 0.6687590701135739, 1.9909613036736318, -0.8772424604586118, -0.030719885816718237, 0.41540672120452016, 0.29258941781580594, -0.21655741952740123, -2.0006950792540388, 0.9090974378903975, 1.625993025697994, -0.6606194784766927, -1.342880900499354, -0.17156314858629718, 1.1491500397615124, 1.273559356942723, 0.13425240454202222, -0.0017000277899288478, -0.3472877538930065, -1.7876741783816006, 0.4742405303362373, -0.8554761753999339, -0.7473038559065214, 1.3202713555542442, -0.7128323337867446, 0.6970235932901496, -1.7301846044147258, -0.4856823426966536, -0.8054388529743882, -1.226440950824809, 0.20726510836881298, 1.3690388607775503, 0.5661421293588367, -0.8707053184932367, 0.9820410406051353, -1.0171520804322571, -0.45397923096066156, -0.5488770273298974, -0.9354558925132583, -0.33039406042847724, -0.7283005983954651, 0.5978622270530275, 0.27265641479601527, 0.9158947483870963, -0.3318360876462126, 0.08797976082562058, -0.2845687180793651, 1.2785126204913346, 0.02067573176142285, -0.0074683724784737554, -0.8428399585192057, -0.8965403008961103, -0.14454406456733326, -1.9835501882138775, 1.6450992407195146, -0.8592018776317525, 0.009349616814559123, 0.5438770718562794, 0.15341714434595133, -0.6171333214126321, 0.25620875613568167, 0.3350951420525721, 1.184748781945049, 0.12266970621915707, 0.15001477348143516, 0.9365816565291322, 0.250130495534998, 0.38158166729975385, -1.7213888057372628, -0.476016621683246, 0.31767021219552016, -0.09160020803077379, -0.6301021420862336, 0.7536633573860521, -0.7060770314750117, -1.290333798702212, 0.5056322787485933, -0.7100238793696436, -0.8671244296270011, 0.476873344362028, 0.017615174434819733, -0.22270925050469592, -0.5655884709628157, -0.9390577860613847, -1.9244261871623018, 0.5517033395138323, -1.4267734202619837, -1.3942243974774107, 1.6223789820109333, 1.4810272076772486, 0.4047493897151237, 0.2889111981791501, 0.44243129449558843, 0.21855873349747157, 0.47458110191532427, -0.4850783610347853, -0.3218491767547523, -0.1864599296573317, 0.6215486006077785, -1.3808455006752676, -2.6648896817917995, -0.22755261717368166, -0.2916192463130279, 0.8798003094403483, -0.5557837444582087, 0.7092024482726416, 0.6159618684229295, 0.8888360000033891, -1.2586713380700085, -1.1249408892169632, -0.5967072327139215, 1.2622228065526275, -0.4957767680640472, 1.6200953210785816, 0.8848549213379675, 0.4566915267548403, -1.5739301739153193, 0.02722457796616092, 0.4826413433956013, -0.7544921522455489, 1.986375394199467, -1.4124562338302564, 0.24035798614773904, -0.3079437390658307, 0.16368804833108944, -0.18018908519786783, 0.1004572349774403, -1.5046236274369464, -0.7978057047661162, -0.5123930070909177, 0.547754032409791, 1.2908055388417874, -0.7229053110406377, 1.7430518147428309, -0.1619572278899532, -1.026724015156648, -0.4514769355323813, 0.01176987304404175, 1.5205934403236148, 0.2207118229869322, -0.9620078282899597, 1.4252630066253358, -1.8266328187771192, -1.3749754249062642, 0.45986968484743146, 0.7012894516453237, 0.05491735562943581, 0.10066855954555068, -0.400962996739641, -0.13715594837915937, -1.1025286145906543, 0.7086370479239709, -0.6785693954269768, 0.6388021381120103, -0.09155782028885959, 1.8184990891886366, 0.11533070355664043, -0.04915826094668053, 0.8050629135238205, -0.9141463659303337, -0.9184365197897676, 0.014506534953472648, 0.285716293209255, 0.2728965572769786, -1.4007089496353724, 0.22171235254977822, -0.17805328950852725, 1.5598654564055923, 1.398606933181451, 0.23078040218435367, 2.353410463386269, 1.465031758203688, 0.021697668136291728, -0.4172917200156142, 1.188121612847001, 1.7499257062562679, -0.4376896636827601, 0.49551967774020417, -0.8643267226695898, 0.022475461898279953, -0.7807404081817756, 1.2734073893981086, 0.11474284710880053, 0.05734660375982143, 0.7555105500222541, 1.083803696089007, -1.33053174663077, 0.19174571555257838, 0.08123368642294011, 0.3171006145488201, 0.07035920322388421, 1.2147884470526964, 0.9537508434978772, 0.21008515343599105, 0.9169842139255573, 1.1629770599502327, 1.1940218487266272, 0.2881882039935625, 1.1075148577296772, 0.1209516699264999, -0.21371031716689412, 0.5918100721797829, 0.3561852094413225, 0.3517732718575484, -0.7871978875570558, -0.8483999023401826, 1.0447580075582197, -0.7898679244819999, -0.9451454953922854, 0.5196125994066455, 0.9080371493633176, 1.5248449705183909, 1.2602380642877582, 0.026765282981150912, -0.5897697708216972, -0.05388090098019801, -0.06811151110866533, 0.8696442411436288, 0.841745809654572, 0.9269647358172058, 0.24545836972052984, 0.5476496854556493, 0.11317220124593196, 1.0588371314993081, 0.7858426471443043, -0.3036477830839715, -0.6249070048260067, -1.4562621295563032, -0.3729349617264514, 2.324106003241491, -1.6397629070980506, 0.36058922330062604, -0.7934343162220594, 0.7144584412692095, 1.722687928530763, -0.7011733528493381, -0.41254247491093066, 0.06424081863686178, -0.829791095701671, -2.680640642453889, -0.4887822340659265, 1.7588424994243275, -0.9657774708766002, -0.09181367569745237, 0.04539705521647384, -0.64596225623833, 0.16139933675441523, -0.5311071947467947, -0.5607900551216793, -1.7365750397368271, 0.4729450340982526, 1.2798528007417271, 0.8029883564067539, 0.7139504446640447, -0.05337916071445839, -0.7324165193142799, 0.32547600922771547, 0.6282934089817432, 0.16284049793474786, -1.7400239336052723, -1.9724546512545855, -0.07462583367893315, 0.11973420317722058, 1.5450901022354064, -0.2012317387517708, -1.7678835503530452, -0.02641489181722917, 1.920893831608444, 0.5536167926516263, 0.13716158920924534, 1.3469141309860722, 0.1368517279093512, 1.9776451441498817, -0.22786310843306865, -1.4860431271142878, -1.556634763786001, -0.011552032359659311, -2.457911787689054, -0.16936293560398072, 1.0902277171088555, 0.3324992214496178, 0.36150168288866913, 1.17831775916467, -0.4421915356337331, 0.19024421315282367, 2.156214586075859, -1.3958515100993947, -2.2444317017878097, -1.960103650265439, -0.508557362707669, 0.3409959229271387, -1.571214148273964, 0.1272140573628946, 0.9033205160555716, 1.3255128612966696, 0.6069516748303592, -1.2129479985532126, 1.0556854359114165, -1.5646840305688188, -1.8666819464797832, 0.7562383898134186, -1.1461238716624358, -0.3088825818467188, 1.3755719692856392, 0.28485698659926917, 1.1996521987992623, 0.5665281803215263, 0.5564421972806551, -0.3489363538321135, 1.8192142009123167, 0.9997336782451496, -1.5950503338419113, -0.16344624747015352, -0.042827983976739405, 1.3790847313639647, 0.5632064744286854, 0.9426469146997356, 0.05032361224090669, 1.8599922257969748, 1.7068846523166554, 0.23504257243094875, 0.15253944218786325, -2.565904305842135, 0.8831759062754874, 0.7295198517477575, -0.5453466294600126, 0.6318857310144108, -1.3333687740691482, -1.7389351541197526, 0.43862504613545655, -1.0076419789514974, -0.10854315606517813, 1.164072441232562, -0.5344303044184918, -0.0918400765385587, 0.40066745326924, -2.6535546193975126, -0.4353775366575571, -1.0979003461621764, -0.3370027791065032, -1.0183862359971656, 1.8233206599389102, 0.6997905284320324, -1.586762938259081, -1.0089645240890186, -1.485518816499326, 0.08548006638325759, -0.7817809417457301, -0.3421531020089008, -1.3005240292138207, 0.19289687388319174, 1.7660315953581396, -1.5950873755407886, -0.009926589981308194, 0.4549169041310976, 1.4423258761638567, 0.6076455915575874, 1.5814561115289352, 0.4583378518518399, 0.3107357009240176, -0.028000799124757086, 0.4995799747580698, 0.46771248925519227, 1.2273752182380038, 0.8629980621119865, -0.4686906462959122, -0.3150707982156007, 1.4673888860930635, -0.3063036492440908, 1.4136173959846616, 2.0332529902058574, -0.8790274391936761, 0.48659488402608025, -0.3844379094218601, 2.7364974376501094, 1.9980108537064492, -1.5791024480660127, 0.041331404274882674, -0.5881586344046327, 2.142821673223536, -1.598434196427929, 0.7611666459968072, 2.0509196404662955, 0.6351263041998384, -0.5131431147738857, 0.7444082564397733, -0.1833372062115673, 1.9438585301737665, 1.1526195112127633, -1.4188730630417672, -0.3831155638168417, -0.9338901629998699, -0.09759287016669102, 0.8467048614552909, 0.32523930820271857, 0.5332262303279178, 2.096048632020976, 0.6761018987047681, 0.467969156779354, 0.4805446666659793, 0.22859696020316153, 0.6643994363847288, 0.09132458357764078, -0.5117286663991423, -0.67243051543665, 0.15603613971218844, 1.0780451560419533, 0.21035798633529346, 0.889680571702973, 1.4543708463730374, -0.7429876994943169, -1.6429398370465662, -0.04340070250447552, -0.5188923567932322, -0.32775249841291165, -0.37965649730547324, -0.13509921639749523, -1.2222319641725221, 0.1355880302726537, 0.32524033056908686, -0.01846569843406453, 0.6578504492246819, 0.30506514741382895, -1.093135885329225, 1.4456609650153889, -0.31679357664788904, 1.515032113296995, -0.09623368068678512, 0.48465256761476794, 0.3189315094420028, 0.470448381912938, 0.2745204666321221, -0.5511935930206968, 1.0958879739515939, 0.38063416564516717, -1.2529933176168024, 0.13184132143779256, 0.9921013605850288, 0.8667721519917674, -1.9098331276732474, -1.3856754182058324, 0.095691040889428, -1.1907518024879666, -0.4969193359499039, -0.7229480513488717, -1.6808874146607915, -0.06530250246457565, -0.4007455477584864, -0.009178129338326416, -2.085533706708432, -0.590967367520685, 1.2260205675932858, 0.5674000371968828, 0.503472855068643, -0.5506651266484003, 1.0018501297033269, 0.47454849146713746, 0.7331556687063229, 3.066255333454466, 0.38344937318096384, -0.5724687431347599, -0.21108986914522382, -0.25076311046326294, -0.1705513347259065, 0.5959114458063653, -1.079998882488528, 2.729912846313445, -3.7984647843523285, 1.1463360743977882, -0.38995910692099744, -0.2485176471170748, -1.363673692965968, -1.0554493360980919, -0.4370407461386989, -0.3006484406458488, 0.5154177197814693, -0.36294035395617147, -1.533901511092766, 1.2692899293797404, -0.4024241141715984, -0.703835513027617, -1.4535962805626743, 0.528802833207237, -0.7813276922010932, 0.7088807653671053, 0.21523327031801834, 0.49726420467832777, 0.48773078854198487, -0.9967478921598013, -0.09378200723060588, -0.10669392108000705, -1.4579162032670236, 0.4897513692156188, -0.4689444761892786, -0.2154688486720607, 0.2192246294614988, 0.8472826807377803, 1.0395731571877378, 0.5156815129609346, -0.1341865621617022, 0.018473368526264248, -0.7118310738083109, -0.9247739064202402, 0.8469739903893118, 1.1707446331983933, 0.28780698226310397, -1.345594465625088, 0.5925163561462375, 0.811185050496407, -1.051088099972939, 0.009979250402868577, 1.3932502949184333, 0.8556287507215704, -0.452650758311696, 0.11941078342013861, 0.2043412885342228, -0.7075601400364725, 0.5453751565063294, -0.35176185257857445, 1.6359102958974012, 0.5716743249149544, -1.1931964606647516, 0.11199848803334914, 0.47404547370299516, 0.039754311077673125, 1.6721723726749178, -1.3852658171380978, -0.00376570946387815, -0.44325415755088077, -0.17505969625100878, -0.1666967005019408, -1.8501812042773638, 1.4271482302964675, 0.2008316314130446, -0.603478966256604, -0.8437235430625595, 0.8399154269002045, 0.7393852810666776, 0.0869133275132935, -0.32965902271374536, 1.1041329966679683, 1.0875280808416576, -1.3441718417687836, -0.04750893171453782, -0.9511335674408254, 1.4315287014931384, 1.2100655943427807, 2.560393891492757, -0.5490806551275408, -1.4221065987138604, 1.4538072383327794, 0.6348418502114801, 1.3377263911924093, -0.3653100462694889, 0.9337122530687314, -0.23972361160067973, -0.7022365031594804, 1.3035805794271476, 0.21430989257765085, 0.5033135979097147, 0.21395916576601928, -0.6284029188645558, 2.365612713500502, 0.8464176489704354, -0.22692633518731967, -0.40289280980455955, -0.023215324032406667, -0.7696993880612085, -1.1758917305187093, -0.016939333058244313, 0.7322558675927797, 0.8151069475212365, -1.0928422008239718, -2.4425287558329773, 0.8648827715182638, -0.17322226241193397, 0.9287640478242779, 1.0768302326102357, 0.5965628443627067, -0.4718036335675337, 0.06701999845380019, 0.35036097401593713, 0.39755330335271977, 0.5654034341643015, -1.1512415175275108, -1.0951655169513574, -0.35769533512818136, 2.4273254710940755, 0.8618826708031099, -0.5935466746027119, -0.632339714065484, 0.4748005434628716, -0.5353515841395593, 1.2258752885327138, -1.057877962571126, 0.5762069803374832, -0.9667901746324069, 1.0289089128581013, -1.234132215620661, -0.7377538325458707, -1.1464260372008384, -1.120349658120352, -0.1487035838585847, -1.5245346742725683, 0.46954550263834016, 0.8511579983753761, -1.988307161710595, -0.09049231680709272, 0.034830868459208124, 0.35698996450568754, -0.5609161667607018, 1.656375430307504, 0.13562298169765144, -0.9699556511366867, -2.053775163286478, 2.2301200881890484, 0.43048682885133316, -1.0630430621191944, -0.16528113515951715, -0.7012862399738744, -1.25531406498657, -0.39801910498510695, 0.39273311225020574, -0.6350624625147157, 0.5443089953929509, -2.6618933689919526, 0.880806700139459, -0.5867796011624138, 1.4825014941346544, 0.2771348684099899, 0.029860392203066757, -2.060269970228814, 2.066609743893643, 1.0191431444157164, -0.8014277544451418, 0.8166503110611283, -1.094442583786238, -3.0409235793767553, 0.08056811963062259, -0.26320510806639225, 0.003557512425793775, 0.9679587172621715, 0.32380864586136016, 1.4670423861421666, 0.7455673055719189, -0.3145891999079117, -2.3255901120401847, -0.503161970654781, -1.6578303598121689, -0.6677758367375015, 0.3636307870760266, -0.11662450715850615, -1.4130626086815439, -0.826069844636241, -2.0264977111901348, -0.15791884000631864, 0.47795548629277435, 0.8264250046298125, 0.23374918403623549, -0.641068423499411, -0.6449047591650704, 0.28248536224027465, 1.3769539188268114, -0.5878301579045369, 0.12365651413844753, 1.0792385364979806, 1.9652826159598094, -0.9391611804850434, -1.1271057587477127, 0.8119822728325481, 0.029239520701377347, 0.4638211815208339, -0.4997978067875614, -1.0571409253598665, -0.2638277336350044, -0.9251364545387153, 1.9138101264347298, 0.7204541276989965, 0.3720945758882092, -0.2765264167995533, -0.1596109629690427, 0.7476083283556111, 1.668754161367808, 0.2700866255373824, -1.1860996210779677, 1.4341015276508413, -0.1765367606742716, 1.703083284497701, -1.4817891000775012, -0.6920146130274055, -0.2640012019685097, 0.14649383615527603, -0.26133758015189734, -1.0075657719946116, 0.18756975207092247, 0.5301585815036584, 0.47697119685744915, -0.4717378430326803, -0.10003430788375559, 1.501079243943437, 0.5114584446899691, 1.2523014602495846, 1.2433619935569893, -0.038334435284952575, -0.40387741941145494, -0.07787848329127321, 0.2995007623252844, -0.056459941751978625, 0.39967182393924866, -2.3651866747933745, 1.050052516162024, -1.1553125498515344, 0.8985449655723832, 0.23648228455178755, 0.1318600556399951, -0.6210789983493641, 0.777797185957839, -0.3063226817999956, 0.75285034671977, -0.21950298576528793, 0.1871158138445401, -1.4493454433910646, 1.0674834163922475, -0.8304978131683205, -1.3256835663867517, 0.2885495182928343, -0.512134487540106, -0.6993173360209755, 0.6104266963192011, 0.3156689444939438, -0.9053050164153313, -1.840281879322435, 0.26754022327335103, -1.0978771781138095, 1.4369108294726634, -0.7822225451639702, 0.12960028759184855, -0.784796466776689, 1.6652006455593826, -0.6467537751442511, 0.038450583679459034, 0.534661247330642, 0.28453177186822465, -0.24229758834890996, -0.6381196402769184, -1.118073235700909, -0.06305218887954049, -0.3724637257624671, 0.8644966630570095, 0.3011270074391926, -0.5876365206282479, -0.5331613174860113, -0.9295104406966925, 0.3127419189229523, 0.5348258959113347, 1.78835776502021, 0.034993551512825, -0.9147599710763452, -1.813767364761838, -0.02021401107706498, 0.7415303346947143, -1.5637104964971282, -0.24648115022640127, -0.11946028376183244, 0.07946298456774634, 1.1088613375916525, 0.9139213270912325, -1.057136462676402, 0.3717016735937726, -0.3399548226572625, -0.5389132469470619, 1.6728783541188041, 1.6484859239889604, -1.3038514800690384, -1.3849328353271033, 1.341758407318806, -0.8949438279668648, 3.111954131897628, 1.2915884713245638, 0.47389309586725115, -0.31129075693810293, 2.8013852036842914, 0.4240788593193134, -0.11758490359090641, -0.0606035663162875, 2.116186664657323, -0.2647759927521586, -0.8288547362272151, -0.19953299551323944, -2.355939880227752, -0.9887767129924068, 1.3847074316663728, -0.498872162138855, -1.2630180609716466, -0.41866734161097974, -0.2643813391046727, 0.2504099702002084, -0.5013504818988558, 0.8889275792247712, -0.7477473179116727, 0.1890108391008843, 0.997636424011091, 0.5038671980498379, 0.03946489210465233, -1.3814212771479866, -0.2371994213886482, -0.6396133090349575, 0.10736468257354, 0.45449009499946186, -1.4271971910524777, 0.825539035616048, -0.12699599295036867, 0.7477033464165461, -0.642303094063813, 0.37931563747130276, 0.4551456414388816, -0.6230679017918045, -0.8055311048769058, -0.03175507691838036, -0.1856576143969193, -0.22413537939514147, -0.7970802062455828, 0.945783065706514, -0.9647164217628093, 0.550542408076184, -0.651216725250256, 0.4086281521037944, 0.9262608967788486, -0.04987936764174955, -1.9715375960725718, -0.037676036363687916, -1.0894670511561686, -1.1653410057713247, -0.9573829139773301, 1.4908275478268647, -1.392506459877309, 0.15483872360049117, -1.0946774147852163, -0.18610305970774363, -0.879771555355247, 0.5778251932000745, 0.07660383084944078, -1.8539335551861675, -2.118724184993159, -0.27857832424329415, 2.3133479081189248, 0.43575504793246855, -1.4761942516051074, 3.068294556298436, 0.037652411802499085, -1.315149185901404, 0.16946125665541356, -1.4087254289554672, 0.8767448483598624, 0.4035903287606814, -1.2838346342919897, -0.15235619204617395, -1.1951298299635793, 0.26769177357830365, -1.0145340926226056, -0.76336895906754, 1.7831106787976547, -1.1062660151344739, 0.037756240074675596, 0.806507848374481, 0.812271500633433, -0.4909340195349729, -1.8578371484356109, 0.3106168561342881, -0.379251409655551, 0.6663780940577914, -1.0199459184966795, -0.2870068168478315, -1.1920122270186, 0.9705287169520028, 0.9820318432070801, -1.6996038539134888, -1.6236250975612918, -1.3341085773807269, 0.5292400237047978, -1.1191214734038042, 2.0654515337488393, 1.3465284814645657, -1.1821789910185434, -0.9832574115068154, 2.2198329295937165, 1.298485840743182, -0.7984128273541946, 1.0772718620086443, -0.09041716920361732, -0.4674508210405466, 1.4489269959363162, 1.1906574650250596, 1.4504900020256184, 0.48451386868656315, 0.13298037022712228, 0.9350190347982079, -3.4759155564256656, -0.4659942031311343, -1.0417550208786426, 0.6563304090596804, 1.2786214849035682, 0.47458999868183155, -1.2117269702433466, -0.5729763547652864, -0.784017342908627, -0.7783623798502943, 0.8960825650151039, -0.566979768856181, -0.45039760167778536, -1.3853930259352822, 0.09765145620361776, 0.38849120159629696, 0.7089682468606084, -0.7343555884241986, 0.012721772077600679, -1.0354720708048897, 0.20500728625697576, -1.5004994614745302, 1.2920557097677428, 1.9305561849506692, 0.9481161204608692, -1.4416880715259293, 3.113523514581742, 1.4402513948650468, 0.6730182898042911, -0.33173999112223135, -0.20361532326241988, 0.8119843853418052, 2.0756795766876035, 0.1622200969437201, 0.0704730470396505, 1.5783663163720976, 0.37668343276330774, -0.6442663810581053, 1.7134332118006936, -0.7372790945165173, 1.3310388105147049, -0.7255223464847078, 0.9537987236921668, 0.32240671469161836, 0.40326107619660234, 0.9298872461516685, 1.3909448685951276, 1.4027308555192373, -0.6638063882659876, 0.7151820992539305, -0.8485502270964215, 1.2400197909994592, 0.26269653932837816, -1.0794387159242482, 1.727670085121521, 1.1338016989978295, -0.8469269280901058, -0.29820129951018265, 1.5396184574077094, -1.3480848363680384, 0.5255525474273106, -0.6695901282462469, 1.767349075470842, 0.7756447538209669, -0.4076073982729766, 1.6697999648032211, -1.3415677121882836, -2.1827007238996115, -0.4801632393739656, -1.5660126325069703, 1.655292345093938, 0.17959799232669782, 1.2309558183871747, 0.2064345855748799, -0.39689124281994353, -0.14771154251264845, -1.8273338720251684, 0.08868991951321055, -0.5843588640360624, 1.1570711151079653, 0.5723433979667729, 0.9180883016132403, -0.023416250002941914, 1.602935425131936, -0.8052892240482868, 0.9672882923831274, 1.1773987150197325, -0.7897871209944396, -1.3486236380279266, 0.8997041846423697, -0.9116517481217065, 0.517160917629805, 0.717074655736633, -0.6113772131620852, 0.18416324184499316, -0.9765909708039512, 0.18923946511576545, -0.32643172030224865, -1.4388014087258394, 1.3165379720262225, -0.545968706866624, 0.6052218059881785, 0.7833010449809762, -0.5128253798825047, -1.1250778311437415, -0.7342744958254668, -1.0393830490776896, 1.0403979600328745, -0.7789659449885796, 1.8912574113408676, 0.9043187675824926, 1.4319655901403268, 0.25111596569387706, 0.011589131494644267, -0.8880556775470827, -0.40425314330868123, -0.1686959875198329, -0.6496782558562475, -0.6841275754243016, -0.00033877226747215737, -1.4091623376670959, -0.5596213635799601, 1.6962880370301447, 0.3512509214956195, 0.22749226699736333, -0.08296423478950929, 1.8645588762863696, -0.01881133032533883, 0.36748525960438694, -1.3669162242306303, 0.05838309580176275, -1.6231239285944201, 1.4187061558443101, 1.7177725980751146, -0.8829691582072106, 1.4646257808707421, 0.19922383135349062, -1.313309622958915, 0.7602904587163108, -0.38203936298760577, 0.13271881601054056, -1.5048411244652617, 0.4204797392254949, -0.7667779225589573, -1.278100513450157, -0.8613752633984789, 0.4786983395908325, 0.5051122400481514, 1.0742546041936454, 0.15964236550373692, -0.7398097666864921, 0.6719113251108442, 0.17031291748139044, 1.7909130984147474, -0.25003620896737455, 0.48539277981041956, -1.2975725938101683, -2.228766248715091, 0.4714092302102719, -2.360874956245041, -0.15804456114382434, 0.6662040461885962, 0.9164043093394262, -0.9162634788528853, 2.6889658036771302, -1.3546017188916846, 0.32198795313520856, 0.08170671080610381, -0.5906429245881708, 0.2860311874743099, -0.29687459550749856, -0.14868792289782085, -1.0910852082000264, 2.027230580230451, 0.8180563840914249, -0.40511851978733365, -0.5829074637693746, -0.15472437350904575, -0.353815201834443, 0.489819614984545, -0.07238962970805803, -0.5324560672391033, -0.8581370545214925, -1.177928679168175, 1.005093889766616, -1.3633465157818714, -1.1647178190480543, -2.3837176198211085, 0.1981029857408736, -0.43437170787492746, 1.143846057576587, 1.6273414367949355, 0.03615352654075592, -0.7098425499023091, 0.42037572072271834, 1.510429234601237, -0.2534900655106089, 0.5937200412809195, -0.612698138783406, 2.0291890868270945, -1.184404347979731, 0.4770076013788993, -0.634445452975934, -0.021872508067312422, 0.7668423435342795, -0.5092109564051372, 0.785784744525089, 0.9942365089546359, -0.6206429339118541, -1.9713705677162086, 1.0629211294229721, -1.2602033266853159, -0.04101638244144893, 0.6854234929918451, -0.5586913549718975, 0.6486258048768105, 0.5515030151551008, -0.9786842470551056, 1.5221674684620912, 0.2652261357410138, 0.10571581957619411, -0.7467432721090433, -0.5418216677517194, 0.371166381391192, -0.15777561309286772, 1.081133557727806, -0.43536006044200104, -0.06088676419580714, -0.56501007932069, -0.7457264339156867, 1.2941335353478827, -0.7933594810399169, -1.233815254574895, -0.3417161748774558, 0.6175153407775826, -0.2076435396023381, -0.33999410870318475, -1.5235385315667058, -1.5602286213160652, 0.698781220144622, 0.4518048364314508, 0.5571338798374676, -1.0386862679604745, 0.2223309745610874, 0.2866155480059025, -0.7720531891292554, -0.7079152969958005, 0.9030583030867694, 0.5399426821290091, 3.2552462360205054, 0.4677053623964222, -0.2549045552239891, -0.6720240818439895, -0.7620698672629258, 1.2812925317096535, 0.8998175355594076, 0.6153865244506738, 0.21041663681113354, -0.4963802553962999, 1.1521794329338537, 0.16385839282806802, 0.539338884540576, -1.4581042326420264, -0.48218283537778944, -0.1819585876954475, -1.9790373615336088, 0.7518168328240348, 0.33890336922761255, -0.704245798793308, 0.7045910220816959, 1.1392429366979762, -0.17868137489482827, -0.369426250594219, -0.2073799737310471, -1.32640138736951, 1.7613961354433383, 1.1886030738758304, -0.16941098002531244, -0.9071862309635181, -0.2474322340201005, 2.228543204786858, -0.6872854595140663, -0.7559516084578629, -0.1288961128420668, 0.4789315386146326, -0.4582640063031454, 1.2422559394587185, -1.6421534345220923, -0.26006996271032273, -0.476701003335163, -0.4512093614314592, -0.531908107982417, 2.0285123439321624, -0.7415722701022902, 0.5736222884262443, 0.025058928284015222, 0.83114272909792, 0.19502760156069074, -0.826153260095521, 0.05392963778546557, -0.648855958544142, -1.2278229570487844, 2.396815124486823, 1.5353109565708596, 0.033446921687152784, -0.11603006282413633, -0.30242451485727856, 0.42396570849667886, -2.181590438578006, -1.2809696678072466, -1.8513131322316332, -0.2817419747590592, 1.1378550054944223, -0.9183808316555404, 0.4927636989282575, -0.6665132135021291, -1.399161584731912, 0.40243940327814004, -1.4313729115877487, -0.6027836708708776, 0.7158808656370248, 2.395107681767978, 0.20364391223998435, 0.6662484196963034, 0.5851707431215262, -0.8677771784895846, 0.031966884512166775, -0.7968589375526506, 1.3819489403207146, -0.2206458793764434, 1.051206308756175, 1.1804789357094236, -0.1844916764019363, -0.7710271547968824, 0.0977269233030278, -0.028073168064222585, 0.6913765492194391, -0.08115832060823643, -1.080280230027831, -0.32752136902022844, 0.5831180223789741, 0.12990742149706178, 2.0966127348500083, 0.5571680515251264, -0.7239090341054915, 0.017067242922936758, -1.0219985934719078, 0.11204840753292153, -1.9750229781927204, 0.8425353981571195, -0.8493732865304361, -0.8827186015354375, -0.9674069005362926, 1.60561159087907, 0.926286947183731, -2.2933756131552516, 0.3115720031791178, -1.4511407836548362, 0.9516128336328923, -0.711710992108877, -0.4738406151468531, -1.9554019365015367, 1.6430221685493442, 0.6484729170763401, -0.8564083835908979, 1.1072150690346096, -1.6528055834297648, 0.949705244443724, -1.6282948422030643, 0.7955041625397977, -0.46875019086137276, -0.5528616898084816, -1.076803510317168, 1.4663080151953756, 0.535253211833949, 0.7038825838538927, -0.8940653514750944, -0.15659880242434332, 0.8889284126762413, 0.20162180723271467, 2.6178129810196094, 0.7503335282132002, -0.8792590147750526, -0.2811127621701765, 1.2244581557376968, 1.7068424480695008, -0.140985055452692, -0.7003442040638932, 0.2889363582909259, -0.1195392286976768, 0.46041070129665945, -0.04597235439491834, -1.29813585723987, 0.8239266910694569, -0.24959813902782793, -0.3225350709945403, 0.9161780248044824, -0.9393858481164242, 0.43021435303098954, 1.9683236060687415, 0.21949434759948416, -0.9243792184124648, 0.30334495082319873, 0.6465996563743639, 0.5773042951141674, -1.110844644298845, -0.6161505357898033, -0.36344915594483723, -0.879194379478978, 0.1976944200688032, -0.42443468496588416, -2.5504059938780643, -3.2325167345211536, 0.5922092163402166, 1.6961382834254768, -0.6839490376940027, -1.2245187635863146, 1.4978728852180447, -0.1919287735127312, 1.3966365469997337, 1.1922271796770993, 0.19416606436290862, 0.3220592722186603, -0.2818591533615402, -0.8855070271535884, -0.12104689685835815, 0.12688398428787387, 1.3809185151651981, -0.7544648178974368, 0.930920763829787, -0.08175006852922556, 0.5905302705211903, 0.571430146157917, 2.386908680998792, 0.5705376938212379, 0.331968421194727, 0.30669809410583626, 1.4593399896432973, -0.5038440498844717, -0.4933601736153879, 0.17759695295637487, 0.6508064964414096, -1.2972367496889574, -0.9053058680941868, 0.0708710880892863, -0.12819324087246903, 1.2267406735134418, 2.056522128287789, 0.31972393046831377, -0.2758578548786691, -1.1347966206394673, -0.842760198929562, 0.02248964262441405, 0.5654702923783732, -0.33601699777923, 0.8852811541924792, 0.707592610454399, 0.7674552641450934, 0.24301158294042882, -0.5561304888078509, 0.561163385630254, 1.5529123341444553, 0.2535912941105018, 0.15207653970576365, 0.44329235000301537, -0.08779574811756355, -0.7193338969668179, -0.8677760007068624, -1.8240855376197016, 0.08157853744217657, -1.575960464140357, -0.334493827553158, -0.5166998216955525, 0.7159790851901895, 0.8793787221648488, -0.5819625833998686, 0.8564576586755446, 0.8478103041336356, -0.15785859037012318, -0.08158573217998616, -0.5453971293964327, 1.4167790317779776, 0.04339169520923473, 0.21228208538654592, -0.2659013509069105, 0.1882218942849506, -0.23332528942907513, 0.48020733584380465, -0.07800433762317618, -0.13476607796756418, -0.9616730851247464, 0.25140544490995276, 0.7092870546189153, 0.579959843990344, 2.5105064958805663, -2.5944938789169454, 0.4242432262362571, -0.038510902991318, -1.0791709369840292, -0.04394483543910782, 0.3850277900728807, 0.2635707988864705, 0.9768119802234719, -0.6918266612993309, 1.4312689786880977, 0.029845082478191728, -0.18718983793290297, 0.46013268291079273, -0.8622731163520149, 1.6550087804686022, -1.144280882677287, -0.410162377965218, -0.2650767640477725, 1.3737265743125753, 0.3584495665706382, 0.5881594549199156, -0.6575167937429377, 1.11449085018428, 0.6676820046863784, 0.6846145463341807, -1.307335177603002, 0.05961894719903659, 0.27440353533416373, -0.7770024991252682, 1.682593822583385, -0.428003707271923, -1.1118244257146384, -2.316261738647106, 0.6225321366479077, -0.6340759723383137, -0.3160822869664478, 0.45295131645097675, 0.8896813020593164, -1.5072492270579876, 1.1354063207073488, 0.5489165202965699, 0.3208949577180201, 0.9987303856777054, 0.4113942920277367, -1.222471613779275, 2.717352969194446, -1.180905042700768, 1.0373737131169405, -0.24966712998615617, -0.8902699630913751, -2.651867484538786, -0.4223015047769839, -0.27440024114386846, -0.4871246019727896, -0.41180544135976976, 1.2757006493850198, -0.4882853884643327, -0.5748064525281322, 0.030456077921952266, -0.8000127089778686, -0.6509333724110018, -1.9582435228476467, -1.460879696413347, -0.42644208537858724, -0.8952320595736134, 0.9268697675628762, 0.9372372412240606, -1.263294303706198, -0.330347014715563, 1.6515026833893482, -0.3377451961725649, -0.7269852029424395, 0.3288814838540355, 2.1080963406006137, 0.20743585167700995, -0.04268509131634585, 0.8688627769937332, -0.0702488451622727, -0.25957935005746946, -1.2297748949501581, -0.10032236149317647, -0.6714796726419479, 0.7906503015922278, -0.7928370623178798, 0.5428343716519893, -0.9768605793101297, -0.2173828746283159, 2.605385849654162, -1.3459320790173577, 0.5622967439284856, -2.202462291414394, -0.3985694479377021, 0.5636759830087916, 0.6713394674390449, -0.5951374864312294, -0.8089998067390333, -0.8813170540868456, -0.6395294027190924, 1.2988331198620773, 0.030600904917514635, -0.6194382309351776, 0.5325069587936633, 0.3460574174746242, 0.5869110092387508, -0.9408230340432131, -1.0752635298221291, -1.4567417965364604, 0.5841641778533768, -1.0905173359360656, 0.596885033088262, -0.18458337304615172, -0.5252031310337686, -0.28052943280561393, -0.3020362157593073, 1.2731431910482938, -0.6309640124212565, 0.2621749559744414, -1.0214626051430689, -1.8393123626488643, 0.40998595928654974, -1.3136513932013076, 0.4348380006250194, 0.9389360169741677, -0.2865647038576524, -0.1916612733400388, 1.421456843330482, -0.6443802803862626, -0.28295638579778076, -0.4980060897899295, -1.3561327696649206, 1.2672638457807892, 0.18628473634137177, -0.5007582243894642, -0.41758331052816505, -1.1738489900789515, 0.4002703313627213, -0.47045975959213604, -0.366436146564249, -0.39188039094334076, -0.448473505133171, -1.6995694000923993, -1.4395519898755247, -0.16397027325281258, 0.9668734088168939, -0.36225903728866204, -1.8371642545097333, 0.6111576339782085, 0.6870807426909881, -1.0969296115971556, 0.10231979851644647, -0.865248666513122, -1.5859548960171095, 0.6073246559296958, -0.9178037793384527, 1.833185187302424, 2.482868280366618, 0.009510982784154081, -1.3897695024153884, 0.28266036775724784, 1.149263482169626, 2.0794211203095028, -1.902029392772012, 0.5988380316363634, 0.5294962335785826, -0.2869947040767483, 0.3903724217663837, 0.92732541007556, 0.30054315162747985, 0.2747814964385661, -0.023821897677483026, 0.062403698503916874, -1.67924782211598, -0.9734960315756486, -0.4056884700601961, 0.13831181434645598, 0.1432369026362081, -1.0671112313054751, 0.4696496898498409, -0.26000486374007425, 0.49381653640835815, -0.943082913548649, 0.22193759816588085, 1.8775143537132057, 0.29752328300616954, -2.0199454173804328, 1.004706683301472, 0.20320414638934642, -0.38054280884751684, 0.3509078191926494, -0.8780088639621548, -0.6391452432500131, -0.29132188288949323, 1.9372578932363471, -0.31810634796299325, 0.47086885732358563, -1.278999207036593, -0.9869587495896351, -0.7304863376694212, -0.1544226583056161, 0.20749315606221588, -1.2708089314816637, -0.9129877179531319, 0.3614495412087034, 0.8837721824642022, 1.2751176460495353, 1.9105828736674828, -1.5395153003647764, -0.1597853715829364, 1.13846311061154, -0.4564946765018699, 1.013458369220392, 1.1863486172369544, -1.3351890928475112, 1.352384975391469, -0.999253944825376, 0.45737222144381284, 0.4675295268613306, -0.16054407222369121, -2.9783540255629792, 0.8380105737482069, 0.7581183232781399, -1.0241120852449532, -0.34087607908528134, 1.7737402114267664, 0.4113029830798579, 0.3935078906224967, 1.198932451338278, -1.3309259893855865, -0.3379543893752082, -1.2678808326680617, 0.967453476286263, 0.26315063879339856, -0.31689007315549456, -0.546375416587931, -1.3338374349475577, -1.295868508840847, 1.5445407423003334, -1.0072249769070438, 0.19036021987369675, 0.09312032084601451, 0.9144935190632879, 1.8162524799689304, -1.4186378242308932, 0.11308033380282789, 1.9257268854951137, 0.5763628810860835, 0.46344337260886503, -0.6178204314831652, -0.7177182757720486, 0.13778064730624673, 0.606784701899344, 1.304044334142198, 0.900896499299216, 1.0814235484157713, -0.7517267081380806, -0.238160266877405, 0.18788118485318264, -1.0674709123355008, -0.33000931612847617, 2.1584995824411757, 0.18800668581650926, -0.9899040869019136, -0.264548777511995, -0.46336987321228684, -1.5186253715746059, -0.6865984322803711, -1.2443315691445611, -0.5812845291156468, -0.6614393316555273, -0.5612246258161616, 0.10627607048658727, 0.7837661405028661, -0.9774604835975638, 0.952372252727324, 1.1491368907884243, 0.7070726747831576, -0.2213012980649552, -1.074027867584313, -1.9269310098700538, -1.203716202943724, 2.705698438891912, 0.1601357801341654, -0.5956840353521347, 0.665423316333928, -0.6419631685175915, -0.04816951912076595, -1.3263434367904439, -0.5186483126554123, -0.2624805264191176, 2.6969429458841856, 1.7399121532973643, -1.4926370723700058, -1.6910417269806717, -0.21038316281348757, -0.9977699831469509, -0.7453734676725863, -1.602554513149533, -0.9476986395653029, 0.41500388038623487, 1.4492960074162338, -1.1531893655814416, 2.4225851445152813, 0.20784936052205072, 0.5407114236563817, -1.2698875946940658, 0.6555130973648146, -0.010816966007722792, -0.24370568981359492, 0.6553143742754213, -0.2676558391812893, 1.2874110988608978, -0.11212977040059127, 1.4544234259770568, 0.6613006923021219, 0.5150915300816786, 1.535593670337535, -0.6542957317156463, -0.6832941930108025, -0.12445688299632567, 0.3543681069559433, 0.5879343220526928, -1.1312423558022227, 0.5909063688754642, -1.0136585148251072, 0.8777601159491678, -0.6660254265436286, -0.264794707743412, -2.1948597763859374, 0.0923730741900574, -1.4852913561087076, 0.5536780587757936, -1.1573848047476385, -2.0128264785467214, -0.05761034584466432, -0.8108209614692798, -0.3029818206973606, 1.0000738808463834, 0.8134316237147432, 1.3534790792734663, -0.1596611268405088, 1.1115895594668765, -0.1557697226943411, 0.6994981642115224, 0.9081627700258158, 0.13119750629474, -0.3718478704144178, -0.5696881683420179, -0.06505455433299552, -0.46340934255133553, 1.928034905950185, -0.7854718217519558, 0.8741633671955403, 0.6019147331698186, 0.690300807316764, 0.6381061300764334, 2.2765378602019837, 0.5092577709574033, 0.10971929021042903, -0.17833569943963862, -0.5265459506305407, -0.6353564099625822, -0.6507966622450635, 1.2328276419547817, 0.4690801778367466, 0.6664374533768965, 0.991671320762037, 0.4292611933281406, 1.3801710425080502, 0.2035991664619023, 0.2804026983414056, 0.19586468764301934, 0.003122438509078684, 2.2510394775429625, -0.7522738856672008, -0.46819589746814344, 0.1898639078557993, -0.6914705221029214, -0.39197757645119785, 0.7752251520658733, 0.6589209406514114, 0.49736324120447395, 0.08031057581946882, -0.49053238261038756, -2.2814534038757217, 1.5697033205311333, 1.2882863951897847, 0.9932176567846036, -1.4135769174059898, 0.5737338823697574, 0.6806545319176295, 1.9667332598768967, 0.3372620317351458, 0.8772137741939239, 1.4578252170406232, 0.42041299581085495, -0.05157177213377576, 0.52599192000978, 0.03904006538587751, 0.9531300796291856, -0.05825923879529403, 0.9068687012507418, -0.5054672347410157, 1.3599437299184458, 0.9236092656942363, 0.8779526411655755, 0.8321230763830237, 0.38694690180453256, -0.08899359561612358, 0.0942196155605976, 0.5569454890334279, -0.30712076584138936, 0.5312270505718167, 0.5274979360818142, -0.8651939032409678, -0.0003471329404926502, -0.005171941121556586, -2.0923928485980996, 0.8724988433864735, 0.4262183543017538, 0.8217582528572897, -1.9373482170365217, -0.510373828875156, -0.33114905979478354, -0.22023885721993344, -1.3914996645158508, -0.2486723914990993, -1.3706434007529398, -1.4866177751255718, -0.9643906619073835, 0.5039683834009969, 1.7790687548259152, -0.44494109351725963, 0.35940294468955897, 0.8474953860138963, -1.4748026316996263, -0.06888142261254993, -1.717244780533344, 0.11211402924294107, 1.0529965056385464, -0.5138187875819481, 0.24387051433644386, -2.2554659627873512, -1.2339428902207712, -0.4349809523781846, -1.4289892225942176, -0.39027106574735626, -1.4826734481952255, 0.9266405588134906, -0.5695958603745488, -0.07252809735641999, -1.8335011363999918, -0.622674414991919, -2.719273509522524, 0.6150430353018255, -0.04536200246586417, -1.8551312388468069, 0.18579482272077516, 0.5556274834554851, -1.9164970626108375, -0.9354059886657439, 1.8113767627517539, 0.5685729637477613, 0.31473942106480385, 1.0128048828022365, -0.3673818190005942, 1.1048237552632671, -0.8125251232476531, -0.7696556532197489, -0.4969119284550138, -0.4506236603838524, -0.23198855020398915, -0.19251454333649137, -0.19281592446853504, 0.7042054916248931, 0.616317954945476, -0.39029041946729015, 0.3201047759753991, 0.24719119822730493, -0.12058493334035954, 0.021492622790759697, 0.5466531124067404, -1.1347078765828293, 0.2867843230626596, -0.9934427664516402, -1.2829989502586927, 0.9744000761063557, -0.9478304667752221, -0.3819754036518359, -0.048027237282488915, 2.161683046926801, 1.104752717825752, -0.5670956513327085, -1.7377148897612442, -1.68751836021139, 1.0613001865906053, 0.3275816719121229, 0.9259205451118284, -1.3753488635966906, 0.3914666624181747, -0.20086311277730284, 2.4530033317799633, 0.5146397077112436, -0.15549950418089148, 0.23544165523217353, -1.729481687754311, 1.0834879044077044, -0.6750305844388624, -0.44195666510316095, 1.560192391023112, 0.14233151942869726, -0.4265485386386709, -0.39275137459363213, 1.699892682709522, -1.1234586240165227, -2.1327557021439993, -0.3036745204528267, -1.2392618217928613, 0.5412234810136916, -0.9424202087966007, -0.5018649930690493, -1.9705869232396052, -0.8225745639894921, 0.7368183367030516, 0.13847105602543425, 1.2831299464828252, -0.7164485883123118, -1.1888708063066709, -0.12018512256898037, 0.3745512149166604, 0.7002868874430365, -0.7557867315230735, 0.10889223304650529, -0.7222938425166006, 1.2677153814657576, -0.9040183544298617, -0.23201026010095085, 0.3258755338087823, -0.04289929682686447, 2.001995695644277, -1.195225874920611, 1.1282785586806576, -0.6599737180887715, 0.8200456346498294, 0.6510243234441245, -0.009570430134279665, 0.47425766049075785, -0.9118355669034137, -0.07747381615596524, -1.4172104955242277, -0.1359815890122646, -0.40567723771841424, -0.27784376751783674, -0.41814943806571286, -0.476378293790208, 0.6833025149237838, -1.2269673197212019, -0.44902562693881504, 0.7105166211763696, 0.31208728210856823, -2.05774837535546, -0.13795877404335155, 0.013772403909314267, 1.3906536965193335, 0.6834150345320457, -0.7433100214638896, 0.7720572821999004, 0.9604101019140066, 0.5015635085589946, -0.018902242271801397, -1.8050431092061117, -0.5240071158497759, 0.8088885133052984, -0.6380913159453357, -0.7473577769418026, 0.612932940729629, 1.289472950540096, 1.309852390076627, 0.26641806428146936, -0.3336990181061999, -0.64403812492896, -0.6682001886667942, 0.0046646141745005434, 0.6157713491468254, -1.5496908235146245, 0.638438120286293, 1.8899071652912358, 0.07445702698967595, 0.3844498618201584, 0.14666023290325048, -2.4309390640296815, 1.401326082499816, 0.32770951366295603, -0.21095622633640693, 0.2025451552682727, -0.9156886477176145, 0.42242630116829905, 0.19103161192954524, 0.18249120967835267, -0.956521379994695, 0.97156514676649, 1.144948462018002, 1.5914746003237823, 0.7121561076293655, 1.5137458201725777, 1.710709312371455, 0.05128649066369177, -1.5588396334188883, -1.0327808620148315, 0.42749564384224376, -1.797979093313362, -0.6861290417613585, 1.0847923872821252, 0.012926037680277893, 0.15958706204520884, -0.5759813820598524, 1.5002397767814004, 0.4150846784294058, -0.14635924833352426, 0.9593094063843626, 0.27764065992425097, 1.3554847266029393, -1.0129783949481932, -0.6649857466748067, -0.2118670452257223, -0.6714790646929547, -0.3640834688484171, 0.7193293566022787, -0.3323445298083625, 0.34835866106599894, 1.272457425850378, -0.6203170358266383, -0.11750500270257049, -0.6467932890295275, -0.9372812984836065, -1.7232065788177775, 0.6030408450694079, -1.372664949460469, -0.7113176080463947, -1.003580443220383, -0.4249095253726917, 0.7529634977561045, -0.05765536287559199, 0.3125174449950089, -0.0904862090174531, 0.04819683700356674, 0.30255728992363684, 1.2011297008967228, 0.9085708405870234, 1.7142395844745113, 1.5404866261842494, -1.4548045148139572, -0.05041655951288095, -0.7280534604063341, 1.0170211167227228, -1.3285216304675902, -0.31482051199242667, -0.5261225116557987, -1.3934314009138276, -1.4458855373912567, 0.348538503275017, -1.1693719829729887, -0.49288530359976823, -1.6239372725297547, -0.980219885690099, 0.40628386398009825, 0.13103868259735346, 1.0266790566946968, -1.7816415879213061, 0.6339909522241838, -1.1977281969395048, 0.031126608452012507, -0.36577637473202473, 0.33585807921983385, -0.9121748945650605, 1.4200404535971007, -0.24099641077923442, -0.3553419501446481, 0.20645398225061432, 0.47868450078716673, -0.12090468404393681, -0.7051969561449418, -1.7826867091311998, -1.3612324225626689, -0.2923450529516962, -1.3112842670109435, 1.6134750940844431, -0.98167625643428, 1.1696002209185627, 0.548657149753468, 1.383106389402129, -0.4409820418647838, 0.13053212905873784, -0.09332567132397966, -0.8014315904518933, 0.4649714258320461, 0.4211939969725105, 0.7891499853867551, -1.0849374769927358, -0.1783297114642116, 1.1936345455569766, 0.9757842529003605, 1.3707005572046198, 0.942845283129234, -0.6862282772200069, -1.2025845962857649, -0.7721928770524383, 0.12249233700152401, 0.7808611389466268, -0.9452102325894987, 1.2615272072934545, 0.7694671292340152, 0.45751462380142865, -0.8584495025061252, -0.8721159924768969, 1.2431686432431686, 0.6001663310669519, -0.2759093713285734, -0.6661873338542739, -0.340456017211936, -2.596028470615576, 0.07407055993572031, -0.7681616961998532, -1.0064235096297935, 0.004615765484275898, 0.5959409228897959, 0.8351633841766668, 0.2762313739738845, -0.2754395607113013, -0.2065931156887408, -0.11180918882287999, 0.7272697274226032, -1.9383367720864266, 1.1591805249321154, 0.5188735248699264, 0.7912816432257908, -0.46840259353899355, -1.2916596861084733, -0.5473073441489263, 0.7815098598297598, -1.0776706057368937, 1.2853259458552404, -0.7158899044003624, -1.056525389350675, -1.0524134334015165, -0.7337597117427449, 0.28089236094344533, -1.5614666984404295, 0.5257028681208484, -1.0059996242908278, 0.2285128452487372, 1.1501065026934711, -1.3121295529373864, -0.7811081508309891, -1.2772050398532047, -1.3252982386037029, 0.12508001634307436, 1.1920944805507052, -1.4159899920043146, 1.9375037089930942, 0.2116918604346198, 0.4716398301055175, -0.9984814113135395, -0.2782571201826864, -0.37563670193109555, -1.360671918245417, 0.4139024542067334, 1.9370731946925202, -0.40974072707432846, -0.32065897568569296, -0.8274321705379991, -0.05591732504382912, 0.045646634120530064, -0.8830412482881603, 0.6508852218100093, 0.7540847335013642, -0.4208146547587435, -0.2082096434401403, -1.1397446266643525, -0.34310706131453217, 1.5153142423598298, 0.08950736157633819, -0.4991151598192171, -2.0767457290223437, -0.6416715933498439, 2.556927275847466, 0.6297136685468085, -0.320395241110507, 0.9322387358097426, 0.9949956855806553, 1.2671829919927162, 1.0899015634321727, -1.3402837385925332, -1.5069207898138701, 1.1598431949568315, -0.6101186237532735, -0.2418860174625902, 1.2063352049620972, 0.46771013696400454, -1.513021646988078, -1.5409238767544278, -0.10563983703933945, -0.6827721858318726, 0.16003734373342499, -0.510603624170033, 0.0371177302812409, -1.5774751450313425, 1.3475530417896757, -0.8179704524645515, -0.2447062806882328, -0.8407382352610702, -0.8223439364015377, 0.20469263857747902, 0.26069042675100923, 0.06455670511650195, -0.2970796017156136, -0.7365436591096115, -0.8955800250711191, -0.5779849877894426, -0.2706305025572974, 0.5603198083044735, 2.444918546555997, 0.8917670161680921, 0.35076335784548496, -0.7002318904588836, -0.9624262419560916, 0.3579710988871708, 1.6139041809352526, -1.7292869363517578, 0.46512918408956616, -0.6655660510068906, 0.8111052090922798, -0.5326472783105782, 0.3129526413981468, -0.12423252186782767, -0.8896104279851033, 1.126992985152991, 0.8841119324905177, 1.7540723723838285, 0.07562378906534133, -1.6128118280114103, 0.8136726309045362, 1.1066888944007152, -0.018006851541617436, 0.19054099020865223, 0.9098032618703064, -0.3048178034530576, 0.7369931186712978, -1.2622212946685827, 0.2446866344170633, 0.11712988184547776, -0.175704296959656, 1.406084020306719, -0.7667559711221019, -1.6395374011366313, 0.4213359821531202, -0.06120153648506438, 2.68708529866345, 1.3948911710397118, -0.2313690186082574, 1.5447620799242419, 1.0303976127191325, -1.5468524307020297, -2.0174411217169945, 0.3589224826630905, -0.39792023414252603, -0.9688643234767317, 0.6056066446992221, -0.6629323985202907, 0.5232856007689615, 0.67322850581393, -0.9135324160661142, 0.4276389737433429, -0.29547822521199724, 0.9830861857830169, -0.9366798975602266, -0.04457716323534035, -1.685632700776275, 3.307010238455037, 1.260367605878188, -0.1817803885994467, 0.999544399480092, 0.5011661082423922, -0.31207450758185207, 0.7822091780037377, 0.28258847263153647, -1.135657418349463, -0.009698334489185141, 1.1500172233350332, -0.9114449251356951, 0.1540110446004644, -1.5724249821621383, 1.1585853960102797, 0.2179563182916419, 0.37286528321520296, 0.5431193624770181, -0.008475399549708966, 2.372984850339947, -0.4303134695087133, 0.6888255990430042, 0.2429550088665193, -1.5479000683212556, 0.0616699597101384, -0.21255816707235836, 1.5030688094437017, -0.22228791275809154, -1.7330882945045136, 0.8904982908530696, 0.012686669220158125, -0.1664091224023545, 0.1011149397668196, -0.96488770757553, 0.7780362801893367, 2.7684736455900616, 0.21342343919605566, -2.0904388621061325, -0.22601528509381402, 0.048667843370123795, 1.8834302605747306, 1.6475654634439387, 2.390390777297993, 0.9588920335645913, 1.5401932696048508, 0.6250909581780324, -0.010869034948466264, 0.54975818232564, 1.5396442992341235, -0.020991118370622824, 0.21179252860447992, -1.1023246788175072, -1.807213042315181, -0.40627923801326976, 0.7696547809555611, 0.4077738508447668, 0.2580241544323941, -0.43817701333690534, 1.0954605710982293, -0.29494091151115426, 0.010535440795500232, -0.5066930096264467, 1.609946042952724, -0.8086688140209404, 0.5274687175103927, -0.678236018248902, 0.13400968275654623, 1.0198399152625248, -0.6653060446622959, 0.7084383102109185, -0.20762139742339863, -0.6107979373042469, 0.1631834272615536, -0.34705640055022996, 0.34079213736665404, 0.062358971078269855, -0.6223511838698813, 0.9973513099008499, 1.3851082459575175, 1.4605956753858882, -0.9983891570266797, 1.467692202764475, -0.6175986771125009, -1.1834634911024327, -0.5083618688360044, -1.9281550290677516, 0.6790231699948374, -1.5350655430501936, -1.3996257791855873, -1.4148052776173412, -0.5112212712057554, -0.1204493471153966, 1.0763925329176753, -1.3320031764811149, 0.041792257910289135, 0.35669176041579637, -1.3284468188858543, -2.6402358818577816, -0.9282279025807919, 0.5412097733707406, 0.9384207322478014, -0.909034112896514, -0.41197525531603113, -1.462396106408416, -2.255747455376563, -1.920790860493618, 0.06035404035828454, 0.4314526406062463, 2.8790094444320085, -0.502090235464346, 0.1921990386427597, 1.9541541078841826, 0.2964429624476451, 0.8854916427410645, 1.036842721172136, -0.9923016052466537, -0.25608162368755033, -1.1303701528050285, -1.3408377819237236, -0.1938789844546527, -0.21804242466338886, -0.7122672767840578, -1.4434305160595766, -0.4476843570172786, -0.11026324869905385, 0.7435317868371181, -0.12100597149621489, -1.1922536756621378, 1.4040225544324065, 0.48787571431998716, 0.09128416333455493, -0.6305294520520648, 0.19035545055923295, 0.3066271191955895, 2.3626909769018227, 0.07319824018795655, 1.4085831799671218, 0.3748037945681005, -0.4128764775704911, -1.2891006258305304, -0.7630718056979428, 0.5834740824402358, 1.3632383955243017, 1.0601763873143264, 3.0985056817108463, 0.7546757180276037, -0.277443999695991, -0.3822120384640518, -1.3430752381216853, -0.17799727103309765, 1.051919125996635, -0.17640728788760174, -0.6936443780317838, -0.9959139311343072, -0.8960824794815246, -1.0245556534096576, 0.17310660522188923, -0.560742907629232, 0.24205201255210385, -0.46745026324741745, -0.3040273534757477, -0.06028841751361063, -0.13108314427501364, 0.19695969690174805, -0.8555396126275991, -0.5399335619945883, -0.4086820380673049, 1.0329356562287684, -0.27898463733714823, 0.2502969086281022, 3.049137660722827, 0.5947169434137244, 0.26000092743135966, -1.1134299878165481, 1.0141913642127296, 0.5703197545092156, 2.2636606651114226, -0.09225516230811588, 0.46277038700444345, -0.18112668581291688, 0.6355465780424371, -1.0655662383398312, 0.12300758172543647, 0.60877551599189, -0.7039417001190351, -0.527715561154168, 0.38779028002568927, -0.33666068916391667, -0.6934029154858236, 0.5963998693926876, 0.2283787679049659, 