{
    "input_shape": [256, 256, 3],
    "layers": [
        {"type": "conv2d", "input_shape": [256, 256, 3], "padding": 0, "num_filters": 1, "filter_size": [3, 3], "stride": 1, "detector_function": {"name": "relu"}, "filter": [[[-0.9909453133155409, 0.7285677348057318, 0.4117279196570535], [0.16988799419197972, 1.6606722730586876, -1.2687598991506965], [-0.5869383096205162, 0.5688277085204785, -0.37029865891516833]]]},
        {"type": "pooling", "stride": 2, "mode": "max", "pool_size": [2, 2]},
        {"type": "flatten"},
        {"type": "dense", "num_units": 8, "detector_function": {"name": "relu"}, "weights": [[0.5837558536204291, -1.1155504887738497, 0.2444440844731216, 0.17906692510545452, -0.6713538696415963, 1.9198124740885139, 0.5758334717801387, -1.0441069028543548, 0.3633597553359669, 0.4542707444919097, -0.04801832529149984, -0.9150521303903806, -1.0530559071169698, -0.681172004053584, 0.785562163364032, -0.14279943123922026, -0.5033560280313931, 0.7180143654356381, 0.6859939441816695, 0.4200955488193299, -0.09727066360122867, 0.8206120857710089, -0.6339245429674937, -0.37622852900031556, 2.6287555265319282, 1.4109736586722041, -1.4394993932264872, 0.09880655349262546, -0.4652575818442855, 0.08966443447983463, -0.26716563321570325, -0.783903590281935, -1.2196667868623354, -1.2345854608196623, -0.36343667934997453, 0.40953739007823503, -1.7261100352630985, 1.3556055622062366, -0.0875060360651691, 0.5151092791154678, 1.818799710320765, -0.7655654792407899, 0.8701110887918097, 1.5326383537195254, -0.5263205925897159, -2.1292783628603393, -1.3340514990714671, 1.3198295685794081, 1.153209544807938, 0.7106832406135276, -1.3059692977891275, 1.5754255539707378, 0.8187856383199661, 1.5322173541345139, -0.6687049493989913, -0.20847859300901486, -1.82512461947561, 0.541923769575705, 1.5083761424487279, 0.37618453025579707, 0.571097580965038, 2.5450683470024797, -1.425711224544509, 0.9394177481180391, -0.718766100354666, 1.4722326596927955, 1.4913535557130442, -1.046030853542965, -0.8219984524897711, -0.8979112321493786, -0.6243642844275509, -1.8933200015925506, 0.6794084996462175, -0.9415511073401687, 0.1364540553747963, 1.7778400176583775, 2.004411580735283, 0.99880060448665, -0.15487204859965886, 0.36224381840140507, -0.23634528848866032, -1.3649017558323389, -0.6354932556829124, -1.400656703857623, -0.5475764815081531, 1.5145118893948362, 0.113718870426289, -0.12476114485658475, 0.15923015474912539, 0.16920206868746773, -0.5140973331890784, 0.5865420616428195, -0.7942684574639965, -1.5226773582085849, -0.5061118584710939, -0.7415361078136378, 0.8363772925724038, 0.2739878859569957, 1.74274013470399, 0.9390536463674003, 1.5210335698366062, -0.9144236269768999, 0.8223045449723952, -0.6303310888507234, 1.7039074133370222, 0.48141000465779193, 1.4122737380369879, 0.21031738904988279, 0.8340241210172596, -1.4164862641182345, -1.6138827282640817, 0.9421017126173202, 2.1537759617889938, -0.4106985638263597, -0.4482328035930706, -1.0343161123828335, 0.6119963359748293, 0.5264486228364912, 1.0357104359339964, -0.1096623848804993, -1.7274930815033755, -0.5240352037197652, -0.12347130476702425, 0.7472629204809668, 0.3261679603459159, -0.5678423462988842, -0.6425704401328046, 0.8765455284047693, 0.6435816711105227, 0.4174798681308052, -0.07440465166360939, -1.2446014328117296, -0.0362932644198392, 0.6530675369073082, 0.8345303141896778, -0.8076555051458485, 0.3271791778000058, -0.502680511702441, -0.2908376478897999, -0.5366610309973474, 1.6856458627511701, -0.6800116704031948, -0.09411593382878014, -1.4361896094277529, -1.3163654446535544, -1.0536374077483333, 1.1229059055482147, 2.387316717655712, -0.11658864634143838, -0.29393068747714773, -0.02303601611429015, -0.05186370963735836, 0.29406434364453743, 1.79498548110262, 0.3512867409931315, 0.4359893406332781, 1.6769139978964218, 0.2241477318759331, -0.6976725234964319, -0.45737767908821725, 0.18018786739226886, -1.342195883481852, -0.8376532622902879, -0.06393384064283258, 0.9162766408383028, -0.5317792128734152, 0.9465590543476221, -0.21908365507885685, 0.06408465932311322, -1.4066073093960203, 1.3004148587950393, 0.5517350295307926, 2.6898438969219063, 0.08312244326769282, 0.6905695940691835, 1.3588692941060294, 1.6125930166237792, -0.5902931120425181, -0.3278479602642707, 0.05283038403187982, 0.4315536795528032, 0.13561319918316503, -0.5930157119120252, 0.6606051132179447, -0.8437451120434053, -2.143408476212717, 1.0904487387439403, -0.3841349722960633, 0.046644473472504125, 0.3255502655918105, 0.09112004736190665, 1.166256864531892, -0.5694575242786558, 0.4856809768241903, 1.0737292274563501, 0.17567624432257364, 0.34292827275645693, 0.8335119509940406, 0.7608385421000439, 0.8177438865969386, -0.4673269361758364, 0.5618962191871594, 0.8238792620635849, -0.6586886365663244, -0.43287142502812403, 1.3478647675551505, 0.639089147603934, -0.07627438087653594, 0.15016849427938886, 0.5320795587882485, 1.0843850807666264, -1.0575344088104524, 0.5464125788147033, -0.14079155786395262, -0.5833591832124844, 0.9707032492483803, 1.4323442534820947, 0.5580069584046746, 0.20811110783224349, -1.1562430943179776, 0.2188149280966104, -0.1633460482912224, 1.5975884971452605, 0.9595460968682749, -1.3644317872969784, 2.6201809846265114, -0.29985710260451726, 1.2611173068135835, 1.1445156295328933, 0.6609740850507542, -0.8601744909583205, 0.7187762516832087, 0.799432068934946, 1.2069033054929021, 1.0036042747998524, -0.6390857505552792, -0.8618555219526989, -1.1163815535503123, 0.4983452494763222, -0.6895080993041094, 1.69061586117389, -1.3953221093548163, 0.2752779119351359, -0.858266775814586, -0.6301085339172462, -0.7628249518996393, -1.222225777174733, 2.1614062355618073, -0.8927245526959624, 1.1347260897239588, 0.5116679890358997, -0.4292596627463605, 0.6555568433541141, -0.6026959981602994, -0.6894494879084876, 0.25011558400914197, 1.5088906670976008, -0.8511588900723753, 0.7173808168963272, -0.19196252147545584, -1.3139465704759614, -1.125139189784049, -0.2469803369170186, 0.026946349863235044, 0.14910489445061292, -0.3916388371247678, -1.0373711631264815, 0.18713339719921515, 0.8383661694798407, 0.979626043279285, -1.8109057227666303, 0.4734034786272023, 0.27934761555483023, 0.9498440795403678, 0.1516842550854564, -1.0596869502103505, 1.0856383423595435, -0.6818127529548418, 0.7476897686147773, 1.372489553641809, 1.3241991245086557, -0.337122290794652, -0.9630456360291686, 0.05573807190085492, 1.523653796382035, -1.9731621660647807, -0.3598682721433496, 0.09643156406079527, 0.44232616001441427, -0.7262064760071529, 0.9576416862888566, 0.24784959084086658, -1.7648709337441517, 0.5729798093277545, 0.4763810731046698, 0.693820133928427, 0.6992717116465901, -0.5461250056899658, -1.1042516139066176, -0.11593831286194617, -0.4576386434321136, 0.5904713724955573, 0.3015730134295091, -0.8726740630983394, -1.507899946830118, -0.5209051885348556, 1.0485791811451337, 0.5869999670792971, 0.7472457892754568, -0.19795379979302277, -1.117623042418244, 2.6030118863734533, -1.167791464052118, -0.33910272007336, 1.7779625922424467, -1.896928314543642, -0.8714516259583669, 1.1969354251462787, 0.03392041715298827, -0.35005253317995755, 0.1926629130070086, 0.25435313223302547, -0.5165918102916711, 1.6477111502856425, -0.8833529672065046, 0.5506624187345991, 1.0418663262077157, 0.6113401072926381, -0.13378465308606646, -1.523412757013449, -0.39159779357172275, -0.16412120105017888, 1.6325172065465348, 0.6633159036665258, 0.21505228239675675, -0.2833229890672077, -0.20416236724700576, -0.6612719509449332, -0.8498772696450614, 0.12258370065581846, -0.17306581565998438, 1.030697550890155, 2.0814520405123935, -0.08516317368263847, -1.9788668588129485, 0.5732457225029423, 1.2074232106052478, -1.2561883072460787, 0.9111962416318156, -1.4133858387538891, 0.5307605955750317, 0.6955434680759396, -1.7307780088520166, 0.31802135272013465, 1.2800594467127544, 1.0211262524065026, -0.690276529431695, 1.1325318312631851, -1.5324885900728227, 0.19972525373135744, 0.3441517516352221, 1.3942297175449874, -0.43073735437615324, 1.0403120052395813, -1.286945457714737, -1.147093076729474, 0.6937366339093413, 0.9152434808867597, 0.3342772787392952, -0.8854410690047488, 0.8265555674214798, -1.496995939298609, 1.4775785164742996, 0.16451856671766865, 0.027705541742247805, 0.12754521863927926, 0.55938519166255, 0.9716563430812744, 0.3084851749004046, 1.8324248549986393, 0.49823278415271405, 0.8349390426251637, 0.20025306549930685, 1.649372446880977, 0.032602555206059335, 0.5754443935987864, 0.11488017954415075, 1.2679910799702296, 0.29764395736058474, -0.4684706270510088, 0.8369337443004959, 0.5131474103196404, -0.4108733619547679, -0.032346111037948704, 0.2588853121967558, 0.41426089891221873, 0.08270106538631675, 0.6592812721674954, 0.73627353721145, 0.39987094900311326, 1.948654137474914, -1.1682556731985054, -0.29791483602475993, 2.0347247904396313, -0.08094911819714216, 1.1525696467977324, 0.812066026699579, 1.2872387184755398, -0.5380109504648658, -1.1369761243842282, -1.2849196736421313, 0.5155534093999947, 1.4639665397842148, -0.26583766539864595, -1.3775743766024533, 0.6247931346307077, -1.401153258054087, -0.3266089167312551, 0.03141852038896136, -0.30007286946904627, -0.6714772608080286, 0.005423815801949137, 0.31044766922526534, 2.001497449356648, -0.43027790364388474, -0.06620909921142558, -1.3725835648220588, 0.03690151829227474, 1.1693379166978988, 2.057750066276191, 0.36721773747948017, -0.33356595294219377, 1.930234761838232, -0.3936656330504514, 0.8912798586010292, -0.1468743633744977, 1.2257889879990138, -0.6069190909043712, -0.32627719492258106, 1.5176028712199416, 1.3248739932483378, 0.2034495863545768, -0.2220458692056657, -0.8697713100044113, 1.3873793764390878, -0.43224929509138865, -2.7095282993725807, 0.8387428988972756, -0.9245180528070123, 0.0667110599862199, -0.0001468424208910666, 0.30746238378220475, 1.761170615317876, -1.5381763913728694, -0.40469124069871437, 0.301601054445953, -0.7710115736752208, 0.6622850578271438, -0.8185296210845282, -1.0458153737131515, -0.3143989085277449, -0.4741668798107255, 1.8027444188458261, 1.0293471900838926, -0.6450984632075412, -1.9769317364623316, 0.15837034363921276, -0.4710266157827648, -0.4783938927034016, 0.9246151804405084, 0.09506159956648282, 0.3991105110074407, -0.5949086047743282, 1.2048312136405077, 1.1846277843805026, 0.07881499148799023, -1.3453413389678786, -0.9406482114266488, 0.11099961188947127, -0.2423316429945938, -2.184712040464739, 1.9628252356734142, 0.5149331610737361, 0.48241616886530836, -2.149379062656328, -1.2238838355460888, -0.744148562844232, 0.5773794437154819, -0.7871536188600928, 1.5810846951375528, 0.6274061375994032, 0.7404543619188084, 0.10207134733022342, -0.06653042998568452, 0.6811962125922407, 1.5279360405265283, 0.5011463448367569, 0.19201983822597307, -0.5457754178565338, -0.0291428010560213, -2.324397569825969, -0.8948729347081801, 0.7552816480810878, -0.3032765236385059, 0.9457274398435945, 1.3783514253114706, 2.113756136837487, 1.0057981953337494, -1.5458239568503924, 1.0880701538379165, -0.4254174033310244, 1.6856271181108562, -0.05720016759261851, -0.4146806134426365, 0.5687533340226548, 0.5217193157703948, 0.4394111637323646, -0.5202801397230566, -0.4095038294598969, -1.4815583224308535, -1.0499302301001137, -1.2603643201114958, -0.125280371445019, -0.8116404843380096, 1.680796427669577, -1.7474646481530023, -1.338615167177969, -1.4171656107270396, -2.101020915152613, 0.3961251704510978, 0.9720999177858937, -0.6086414842329672, 0.6542104874732225, 0.8554822255069298, -0.34782126483449294, 0.6919337327018105, 0.567170348205745, -0.5454176609048618, 0.08001074030268186, -1.4891269038459494, -1.0764139493139113, -0.7093479991376901, -0.07900169873572006, -0.2382641879622233, 0.17914544209875738, -1.3064188564520463, -0.18904910732664137, 0.9908422701728529, 0.7856778909737119, -1.2720020499676143, 0.5695592035011865, -2.050025239422155, 0.8990163201421417, 0.5738474855715582, -0.564851806637909, 1.8006426077537445, 1.0895983128678979, -0.07651635593487427, -0.5202596153446504, -0.3374135135544081, 1.2081983838883736, 0.1641106617124148, -0.9288926974401936, 0.41763261192025564, -0.33987162193802145, -1.7975992576040607, 1.4088958345774603, -1.052436011219249, 0.6127769762290146, 0.699166396957345, -0.3374849501746892, 0.4922119825079691, -1.155563125367297, 0.6386537044893307, 0.6547666824102383, -0.37621786917636985, 0.23517059310409735, -0.28727536108909335, -2.428287265045976, 1.2193677100447071, 0.8883144441096231, 0.2940272242683804, -0.3618663264276745, 0.8741808255929522, -1.189894081016158, -2.0149665208965235, 0.6171288458863334, -0.7840138512152369, -0.21042442524026236, 0.03829144491904275, 0.35293262461127434, 0.22606899291445362, -0.2859473554754081, -2.115501302857207, -0.5134031693769995, 0.2351930951653734, 0.5123143626231745, 0.9046732683477883, -1.4630091530081026, 0.23187026645928788, -0.5869153027764146, -1.1780996018063143, -0.8516105789357256, -0.1591878246831693, 1.3774743968742493, 1.1439059127230122, -0.20169168750599925, 0.038111571295248906, -0.179277116285529, -0.5077600851492474, 1.5826699311851848, -1.708754533347809, 1.1928563516506436, -2.0169358054605997, -0.06873648093532832, -0.18252834351892788, -1.4546391510079193, -0.7930875884641012, -1.386398707541599, 0.27243884649821176, 1.2456951964743659, 0.14107506242261145, -1.892116263158943, 1.986337949249817, -0.27405792726097084, 0.5849479602724817, 0.17553928190137705, -0.3151727668949702, 0.6513886201440411, 1.32775270106392, 0.34395942275313407, -0.6481704934553887, -0.9003135665689533, 0.0873350517433078, -1.0572586500624086, 1.8627644060136859, 0.5690473218787867, -0.2405111522973123, 0.01417426507192914, 0.5886878093091132, 0.6210082218157551, 0.634837536356872, 1.3683750814676627, -0.42365877072299685, 1.2771328314174037, -0.17689922780956002, 0.3723043744892486, -0.9875254247753322, -0.6754394378729652, -1.5796119120160224, -0.7404797309314316, -0.6656182730273658, -0.09473553644770537, 0.6680324622202596, 1.3747694243100086, 1.334332978920741, -0.3755853486259421, -0.5077654474217072, -0.8376057809464253, -0.11800474612405257, -2.610318113462985, 0.275539336049377, -2.6163356593034837, 1.012834454601273, -1.8285775461436098, -1.6513625956216293, 1.1569068188720744, -0.03384068349336817, -1.5978897059185215, -0.46729323026743147, -0.40731663241518246, 0.08252666487531633, 0.2508350790799406, -0.03778562390606227, 0.4720849904947546, -1.3538437003256314, -0.14931172150504363, -0.17050164534364612, 0.9001631873169611, 0.28735212659130915, 0.8569104805454021, -0.5752148886980998, -0.9276825436357793, -1.0226759707921955, 0.5793639379720598, 1.1007873837533324, 1.7573559928412876, -0.748489452437999, 0.39750350892088415, 0.6663255669203935, -0.12439715425613992, -1.1533256433283132, -0.5321550361165717, 0.2944751089263898, 2.4044136352713608, 1.282871742425914, 0.19687222015790992, -0.32611644971577397, 1.5360985454045253, 1.8028437119020708, 1.413713967939165, 0.6561449471123215, 0.11723224487016258, -0.39659206627957405, -0.810256422271999, -0.4789305551964364, -1.7210852677427582, 0.11919107212391071, -0.10031971470313794, 0.34667422757114336, -0.7871194782277705, -0.37589778579440314, 0.5776532162819453, 1.1752173515991646, -1.1748202078083054, 0.25322189454645205, 1.3654634436536304, 0.17148995245103282, 0.9407061900722892, 0.5105874429252584, -0.34218534942470874, 0.2980313763445886, -0.7420742063129904, -0.4788544640945986, -0.14111500139938882, 1.2652831113928453, 0.3431790039302158, -0.06624496202664294, -0.0455166333644848, -0.3931533354023105, 2.165075211115174, 0.2652255403796958, -0.6378334280910961, -0.5311667177142532, 0.9042496207237307, 1.085121389775906, -0.6937524167884868, 0.5928310254742398, -0.6207379904269591, -1.2786456061755147, 0.03718541243189832, -0.8687817036821901, 2.887109028979005, 0.7431742670366004, -0.3328905221919891, -0.881128985541113, 0.678171204836429, 0.7237972468383064, -0.2207899867391949, 0.2869605021519667, 0.8731987615500281, 0.8860903595533776, 0.7315123087921245, 0.5110551921419183, -1.322671714493003, -1.4676375197707283, -1.1534489966763253, 0.2945362949417857, 2.2757899497563656, 1.0509156571347382, 1.0184307965437382, 0.23830892389345146, -0.22149234750438454, 0.7702454043055994, 1.056951029612264, -0.2506921712982033, -1.3019181809755642, -0.49932548554012046, 0.7204885986793982, -1.7138550447378493, -0.47106245609503405, 0.7972475221270723, -0.4825393364665453, -0.09867624894233949, -1.2382988214359836, 1.6019219574126555, -0.6569641356443218, -0.6391555103357774, 2.083451105747749, -0.20619456289576626, 0.7782660249061567, -0.645278573843578, 0.9585611790392848, -0.30523885803330414, 0.580690487978723, 0.20794914299227915, -0.8219670445290364, -0.1362141975727579, -0.0014674753408710924, -0.36471719312739376, -1.689618068331562, -0.8045000236234139, 1.9490487116657265, 0.6386068708808119, -0.14267624360241885, 0.7440041907336842, -0.16952169047512072, 0.867691236554057, -0.5174981259377645, -0.510740043945503, 0.4111549675998423, 0.20171064274905615, -0.3667995644511933, -0.0330383444518963, -0.47564675664737344, 0.04502133738929979, 1.9900747211721062, 0.625066726119476, 1.3651807588127922, -1.53505074932153, 1.0133398529783273, -1.4122354351074031, 0.5066696525719807, -0.07525790950419092, 1.8741147948235497, 0.11519219253173826, 0.5574094917712478, -1.6180795558439307, 0.8343057049835159, -0.6826145541153533, -1.0588794153276184, -0.7156101859339034, -1.173823384703073, -0.46007412275775666, 1.5052775548413726, -0.30145558328060845, -0.5377101700968985, -0.6463329590075219, 1.0600680884464644, -1.6531424013147624, -0.1713897882958035, 2.3090989904610852, -1.0409401352686347, 1.0167130629447467, -0.10217514781924332, -0.10740037162022222, 0.5086322578276485, -0.06365606198581185, -0.23922978616590024, -1.9099030093594271, -0.9329228264066146, -0.1865653206014649, 0.5163825772594114, 0.03109401934690551, -0.1384339375761558, 0.5613209627023327, -0.2417926224529778, -0.6187886627536877, -0.8859469587781039, 0.7925318472192645, 0.11275037937801324, -0.8194480435367829, -0.7022757198956416, -0.12974591790518622, -0.7549448637955557, 0.943935478293668, -1.3153559133725579, 0.47973792786513403, 1.349835301920617, -1.3181066984941108, -1.568504244070466, 0.4430410875604318, 0.05661054928199177, 0.040328656318745805, 0.762410260031196, -0.7288020798842881, -0.2876333494977228, 0.005715771534954486, -0.5968959084934604, 0.9539779204649271, 1.775041346122085, -0.043957439959731226, -0.9068993031344837, 0.016059369501654788, -1.052079292180136, -0.9228665154191171, 1.0170812306805295, -0.18541730115324356, 1.3870999431469797, -0.15124583075621825, 2.206158073873147, -2.0035877902481314, -2.412727354987147, -0.6126669168987028, -0.83594587755794, 2.0509227705292825, 0.5294376381486116, -0.2724754353029135, -2.4946109307965707, -0.46611079915634096, -2.7739444193166154, 0.047160507004083696, -0.5205077588890913, 0.5097381332455537, -0.593043259821174, -0.5681105513612178, 0.56362108974082, -0.29515907989751256, 0.07860872644277865, 1.1206514729436816, 0.7121127697444882, 0.3826833190543004, 1.3624878613354816, -0.025802013082287144, -0.3913579801306844, 0.8581260550606059, -0.5071744523797092, -0.26666570860131866, -1.118460374578214, 1.1862826097054453, 2.6189448012216183, -1.1666768007327863, 0.40670734973506, 0.3701234097024429, 0.4260295560983439, -0.38547261048530157, 1.6461025162038074, -0.7231932054722964, 3.3807367371587254, 0.45080878823149206, 0.8171239904020995, -0.08737634270450238, 0.4498753071197502, -0.533192777481781, -0.19391173173096207, -0.20623150186830497, 0.6860177922267869, -1.4518845413226737, -0.017657417050118453, -0.8677511925851593, -0.2736960413274643, 0.36545028704849947, -0.8996996412784094, -0.4499091668315742, -0.17930949073524474, -1.1804373911734518, 0.03863982359719335, -0.5347821010892648, 1.8618749922345363, 1.0175489621754805, -1.0561319448872242, -2.0976101483895193, 0.026958310095427537, 0.1800567508022207, 0.06237507135850471, -0.5506180511023163, 0.1412206203944992, -0.6529362204705389, 0.8850497387411628, 0.294007916325322, -0.02373368352533339, 0.7652732286039474, 1.5924198940248329, 0.9802791398130715, -1.6204691032654275, -1.1050552600674592, 0.2898916752738495, 0.6874445670365582, -1.2593704196238718, 2.348924523456804, -0.12125279064062389, 0.20471251074251076, 0.7309684476393088, -0.09630151812903728, -0.21211858323432303, 0.9454505915108795, -0.0904387396464583, -0.2633974080708761, 0.5646163360813188, -2.3000610123281024, -1.027296191206634, -1.0798156397948615, 1.1237381134263518, 0.026257072115878063, 1.1971496290672414, -0.5629189735584493, -0.871746653157533, -0.21183020028927294, -0.8513716056800338, -2.221140353747132, -0.012451739208633775, 0.30370165785032593, 1.173489070501044, 2.182180611322872, 0.4465207881513315, -0.1858864686516074, 0.8938884001097928, -0.10127115382050107, -0.8462486584557294, -1.1270352126783243, 0.45362777074585187, -0.3638905843329115, -0.24173902490417348, 0.6525059042999553, -0.6079157667407511, -0.08437730382715472, -1.5809773568182233, 0.3434124083252947, 0.35992726901049193, 0.9209075085333396, 0.8440590717121562, 1.1090015976849499, 1.106043046036469, 0.5059473856702621, -0.5834140351339756, 0.1600618538232656, -0.05669888119683792, 0.3007436607435283, 2.086374614397012, -0.3623000935387447, -1.3438994060386218, 0.7541217500148526, 0.4249910902798709, -0.30132962858393475, 1.1624456230234168, -1.0825090952914105, 0.12539968511215951, -1.3211657789663138, 0.4959032851068931, 0.7984216030257056, 0.09410926593231143, -0.6156051422093606, -1.0565180142470214, 1.0646085973598767, -1.75318460766183, -1.9482938882339929, -1.213322235671489, -0.036625142966529516, -1.8027553506883647, 0.9783732276207433, -0.8027564256347096, -0.7455804438113343, 0.6636017634334918, 0.6837228586317317, -1.1082397876213215, 0.850871746699744, 1.259413951551662, 1.2978788632538434, -0.41023590495478507, -0.8384713890850425, 0.9658365553528355, 0.022915397203217513, -0.5226107878346817, -0.7031037890692896, -0.726713074258344, 0.13032825512433407, 1.375064651475083, 0.6350105186553732, 0.1949209320532559, 2.119916208730099, -0.23240089875851372, 0.09752493045635498, 0.4141332929428235, 0.5771110152815092, 0.1178304145644653, -0.7371207186134127, 1.9917271334011004, 0.699276933997673, 0.13656753755155251, -0.33244430601702973, 2.5467689490445187, -0.3802265881701121, -1.4378602455661604, -0.3246697094244578, -0.985131419740724, -0.644521800351545, -0.11350187650103, -0.0035906610088213722, 0.48491954198328024, 1.1046545047041085, -1.1979885641867656, 0.39269326347000355, -1.5365388827862008, -1.1196907422139655, -1.4517473021158753, 0.4471184347580321, 0.9414978743423829, -0.8304865545945935, 0.015938515757701412, -1.2520045669941224, 0.32215500363986255, -1.180366017272715, 1.55718437541172, 0.49687334129810584, 0.1785075158685684, 0.2880834189511573, 0.12369734767752141, 0.2911428485766387, 1.7241016653541807, 0.9259658574408943, 0.26346358040156154, 0.2880665992433439, -2.0311746774507693, 0.3119259750101513, -2.647949954518928, 0.9594550115150051, 0.27684577211376843, 0.9920798757880125, -1.4465840015493059, 1.4061374836908465, -0.7314063308109667, 0.7992879200033558, -0.7513330790629082, -0.7247390942919937, 0.5111140428957877, 0.740250889293821, 0.17792551135355164, -0.1927265770414372, 1.306213236349334, 0.12610332262762894, 0.8411261445301135, -0.9981796313562473, 0.47662755525747946, -0.37111905195866823, 1.3205786089611051, -0.4194546620461287, 0.8491292636106093, -1.3013980970197028, 0.16024673711448403, -0.045124009232309685, 2.2357233216176433, 1.4959454586329186, -0.8602395116764125, 0.35053205652999236, 0.25920837179319656, -0.6657308755109821, -0.28988358827880867, -0.4856299552367579, 0.20309092212608995, -0.9024441531802654, -0.3576575445994529, -0.112727699877893, -0.2737299908985032, -0.6756007958668863, -0.16570966654999875, -0.3055827291213319, 1.2473781664860508, 0.6802534109705872, -1.5536513453125265, 0.9036469818495076, -0.16299534129844082, -0.7331230681045575, -0.4010212594435487, -1.0573207908225577, -1.2596025992776134, 1.369298798250501, 0.5993186022089629, 1.0674678706258245, -1.4655359735085869, -0.0718027859661907, 0.30273091557519066, -0.9993598656472698, 1.4406012438713054, 0.9758038762164549, 0.8661796336502291, 0.4406956849878171, -0.8263062154892841, 0.9505661619601029, -0.3456227859403545, 0.09069337505801449, -0.6893334474533476, 1.0336187713674956, 0.5279916780805808, 0.0547313250710383, 0.1803475889302778, -1.0126962707472518, -0.37714983433439114, 1.36063322987791, 0.3483834976478564, -1.182192038849579, 0.4942493499733817, 0.10714178978637787, -0.6148108209422217, -0.22557067782448637, 1.7096769476692801, -0.968285024956779, -1.889120837148218, -1.3807771283022865, 0.013125202584055098, 0.6611718097108539, -1.4918215238726427, 0.2051534405719447, 0.21683235725290256, 0.5487831332234939, -0.5827633954782646, 0.6890542403641579, 0.3953012807324691, 0.7579256250040264, 1.4075806705626075, 1.5343037510725817, -0.5215889336813081, 0.077546467485577, 0.31888781574271724, -0.4400071256642454, -0.017788095141727075, 0.8597396851424346, -0.778796787061963, 2.923235213322554, -0.3153908873473041, -0.17847331474073613, -0.023816932767030646, -0.2874833135278773, -0.7813357291223946, 0.3206365051406079, 0.926019536837018, -0.09678199087456295, 0.1802591383128765, 0.5858138402255096, -0.7128602688238227, -1.3692286479780467, -1.0077548267959149, -0.11112453263826622, 0.11594665781849113, 0.8573035899088138, 0.8519957949773731, 1.3469686093392939, -0.43697267952225916, -0.7660203221537697, 1.2420126357087706, -1.3281132698713594, -1.8986987403168598, -0.7954615302546101, 0.2689118173098614, -0.9010970961905979, -0.4885452583531649, -0.4354536077541817, -1.9298462939932681, 2.4425314421019344, 0.998214069412495, 0.2562706016720929, 0.10216795585727143, -0.1457686332288694, 0.6002025069326196, -0.9083472698609933, -1.0567332425289764, 1.447165251117512, 0.2067407676007722, 0.6437267149085966, 0.8673385493448083, -2.3969732198371934, -0.27793011496145903, 0.30186276254710676, 1.8643564667989034, -0.3766233058252711, -1.7373627402759122, 0.4249522170403255, 1.400411143697186, -1.428170423050171, 0.6097416680576689, 0.8022702265490406, 0.16822217459815214, 0.12645251178399036, 0.004266818538250685, 1.3674702357478636, 1.4285452045410487, 0.47076140795447624, -0.18707289040932112, 0.2468741898256085, 0.5506010924718673, -0.4584046199111299, -1.5813547797930367, 0.5298289761077143, 1.4769546984588797, -1.3774497111417805, -0.8585296071497615, 0.2465831987299151, 0.9767666781922862, 1.301409014087929, 1.0903169894095088, 0.8521227120077494, -0.23177442716073413, 1.552662976076461, 0.9642173960608894, 0.6774491693530544, 1.972852694645508, -0.15762790295761478, 0.24644591575210523, 1.2757695924053107, 0.37075263395945207, 0.09610029551045816, 1.2571728573577439, 1.322904221670941, -1.109243590365069, -1.5264953131135168, 0.40385827701296384, -0.7079265881222987, 0.08017888528921024, -0.5075959834017953, 0.554818798081312, -0.5284417353712066, -0.646468134720063, -0.27326913189522894, 0.37158060437250545, -0.1794689156606149, 0.30752901525977117, 0.2871858863220755, -1.5096895266643646, 1.6930339831457912, -1.8095773655514162, -1.4149950380028997, 0.7016987852291328, 1.2846160645118454, -1.2303075602411688, -0.8904270513727439, 1.7060473475427924, 0.2978646436342912, 0.40398153152587907, -0.7013403426803846, -2.4755931013856967, 0.11199382735737767, 0.9222568686590817, -0.042339008585984744, -0.5656771101835029, 0.032655188849723425, -0.24600773517532662, 0.24691421871928662, 0.06856868310944184, -0.10620525246378669, 0.6817539325355941, 0.30907517828814574, -1.2649138568106253, -0.3723856964474212, -0.7979847180759443, -1.5417739774522687, 0.2604838789128553, 1.425747389164666, -0.15802233702535023, 0.24936863458373726, -1.2810141628535172, 0.15545404145578984, -0.2502214460003614, -0.24514995910426074, -0.4219759642133748, -0.9035256316494361, 0.2135751010291502, 1.3137059563953946, 0.32237124254252236, -0.9384425313729158, -0.49913637335131766, 1.5545805907768637, -1.0523471265769777, -0.38647595482240005, -0.31448835029043865, -0.21944818825480059, -0.1322557242266937, 2.673124791714302, -0.47720192943828127, -0.9120517443142324, -1.052848055630744, -0.3187113856369202, -1.6216066030284184, 0.6523087443345793, -0.9235987467729379, -0.036903971641482944, 0.9308401743308693, -0.23806072591874927, 0.4660292468053945, 0.041213540303073976, -0.2517833451881581, -1.6302397869161873, 1.2705036291103793, 0.2790375981498517, -0.7635964057519913, -0.008177153754071296, -1.5987347115892472, 0.10805816374711325, 0.6005385945230278, -1.323968593011768, -1.259127345221594, 0.269925972246049, -1.797554992276878, 0.4031846400170649, 0.8182322412626366, -0.1694915990664408, 0.11081893436651721, 0.009273214116243418, -0.9166136442697969, 0.6947945013285834, 1.1163166743257702, 0.9603404336561852, -1.6888843932738953, -0.24778387533611787, -0.02983747440515842, -0.7654517536392412, -0.3309655655907849, -0.5456224113688699, 0.2257944365625734, -1.2681421089064, -1.6771301175437028, -0.9588256218686156, -0.5610288722627534, -0.7273266241388278, 0.8061884957527404, 0.9949743518976171, -1.536459656375274, 0.7492181479079134, -0.8777891159668466, -0.12591552575224435, -0.7237545279870633, 0.6894192637234735, -0.5192735658526356, -0.08864581486453166, -0.2590232335338748, -0.5720852148352892, 0.9649891071445563, -0.5040641242728297, -0.9845313809942785, -0.26901385472530037, -0.19821751125731718, -0.7251440991423944, -1.0194076431853005, 1.1925314440697166, 0.6446608939546471, -0.9873646305754924, -0.10320878295336622, 0.834663051939487, 0.3756049752437054, 0.5262963805681057, 3.3212471864960484, 0.8603862245281562, 1.1394503764508597, -0.262767487585979, -1.2933411259572039, 2.0281502094491968, 1.3078362772290208, 0.24279975306831478, 1.3020372100899589, 0.3782938832342365, -0.29107160904331325, -1.1169392027485825, -0.15773200568366547, -0.6103892271715068, 0.8731673188381588, 0.6970890933043254, 0.39688971942741125, 0.0767271597662146, 0.8562533105944549, -0.8050507691767677, -0.9902907304921604, -0.9393434268125593, 1.5760932248176225, -0.12981191719524834, -0.028474847953911604, -1.5912904138315582, -1.0510871076341994, -0.12137403125171776, 1.5869057847596042, -0.9710689904523312, 0.3303878068211541, 0.33472960661607265, 0.026972586873939334, -0.054008574495545685, 1.265613858244944, 0.43773342203336035, -1.171608406550063, 1.490541009505226, -3.3472792040499653, -0.7271573821673516, -0.55452065702417, -0.3891820632391221, -1.7984146405094459, -0.24204398670411298, -1.366876727914092, -0.8784236263331837, -0.2993836994563417, 1.1893710761382232, 0.9881278008837049, 0.5979187246333582, -1.2039481470868039, 0.28043346041016687, 0.2088193226766161, -0.41485127474326844, 1.4717615660946133, -0.21062556613644623, -0.0693895663756606, 0.26117303657635643, -1.8194399575106408, -0.8961658104855553, -1.7490047451100728, 0.8085167354628053, -0.03452834095095069, -0.18676641945177472, -0.047151404445275664, 0.16308640917151693, 0.5541969990760945, 0.3943965460989211, 1.3799380910680703, -0.3248304108189513, -1.2039126883471172, -0.37796295219291126, 3.2608213138416797, 1.8159852105701393, -0.6964601433836772, 1.2339951223524679, 0.5102703951318783, -1.0063714958752936, -0.8457036099869646, -0.6869384056265475, 0.15126830096782548, -0.06032292573467225, -0.0914443879561651, -1.500712683193706, 0.1832713312042762, 0.5970624187695451, 2.805172850651933, 1.659457105225152, 0.5089892508737197, -0.046367157102937887, -0.35455525190529075, -0.9255777929471487, -0.264461293245082, 1.4921978637486046, -0.030722460660563302, -0.48993650106969194, -0.510158285524351, 0.6966125192208956, 0.5969720047416522, 1.2251038630014395, 0.028900109983004584, 1.0899323883082377, 1.5277935052832292, -0.8336063218815735, -0.08231681291427118, 0.2982162985647475, -1.0165255987694815, -0.8843395472167228, 0.5481328911923323, 0.02104079087955246, 1.4797340561661165, 0.5745106586835993, 0.32860467561925966, -1.372369164062673, -2.221276699816808, 0.2209143078004824, 1.000459548592005, 0.2977014327812045, 0.8640961687193623, 0.7968800944663618, 0.38050915792031154, 0.766814925372192, -0.9146195587653246, -0.6535326385425516, 1.5966300503677129, 0.6303013252834454, 0.294279459764936, -1.3437577547628514, 0.009495919436536115, -0.48139107564963307, -0.659184651545337, -0.7928412941345766, -0.1700779748097581, -0.5251188381953681, 0.553739667424252, -0.5258874674323835, 0.5733714066609997, 1.445957686572126, -1.7686055280435946, -1.250634421683214, -0.030905225966138185, 0.4514731104378245, 0.026637704738224317, -0.6222594399909743, -0.4258958476638808, 0.1871719232656221, -0.8598039689348103, -0.8857340846597543, -0.3449790034630687, -0.5072314560383318, 0.6249707462820772, 0.9095459004710227, -0.7022345292124531, 0.11576384792559669, 0.7824288815516952, 2.051517999925862, -0.2756755182487746, 0.6828105525047373, 0.6448676055985996, -0.8816214726340226, -0.8808417116228537, -1.3187878151871235, -1.0827510039890138, 0.5755893851973422, 0.2914778483837661, -0.40602473215339346, 1.6828980274946015, -2.0487427478127036, 1.0986193021726682, 0.9559440709022577, -1.5745427191236394, -0.8357422931189528, -0.10569279530032545, -2.1050362832070406, -0.056263975083675165, -0.6264944559222801, -0.6468030228731196, -0.45295494682633075, 0.8232580919511232, 0.8844736877271189, -0.4971742814228824, 0.30087267316251837, -0.6173847177611972, 0.5725177154349946, 0.3587168332878424, 0.2493486632208386, -0.8615075399026739, -1.1678178762839806, 0.68540902721731, -0.02011696293755874, -0.07785591198704804, -0.1423597458979616, 0.5048949795957959, 1.027811673851567, 1.0661380481108278, -0.08404353361015304, 1.0672663688972455, -1.200789933336591, 1.1727325379189346, -0.143616050536963, -2.291712328866868, 0.6251888030681025, -0.984855566398413, -0.18580016039451205, 1.8227239723461979, -0.3475066631573628, -0.41412846423993954, -0.02009626058910913, -1.3324109189753515, -1.0382827071156422, 1.252949407949882, 0.05185668108244559, 1.1377124394861484, -0.8437406061402134, -0.2585106093175348, -0.4064179349867891, 1.2850222140516923, -0.5657726137483892, 0.7262556114031103, 0.41884630776344184, -0.7489668807835439, 0.6396185218255336, -0.8162041297496352, 1.0869236555455843, 0.5780654305214641, 0.573329686020305, 0.8804973801847281, -0.18014249255071318, -0.3191381308867594, 0.001792643178552801, -0.8240111198339766, 1.883029090294847, 1.6237729590582437, 0.03245683672763426, 1.6012126953603747, 0.37957189831509364, 0.16195715709358985, -1.0122388665472717, 0.5433820176500932, -1.4296244857676617, 2.056937922354353, -0.8856389072641374, 0.33453402509328883, 0.8303891590129906, 0.48192012224718755, 0.8487112529284999, -0.26914586934276125, -1.209565006935418, 0.5030584443487071, 0.6682228246283927, 0.21255597432601062, -0.8586253915461313, 0.6243685797711871, -0.8359025089507609, 0.778294675012109, 0.28440092586375765, -1.0563009417841178, -0.571352336091262, -0.5622228585337711, 0.5703386618873967, 2.184693046260298, 0.36357079705635936, 0.10397414444197997, 0.7378748441383987, 0.8686517394393727, -1.766557695637384, 0.4191172831649554, 1.5673520329572317, 1.1328568859430097, 0.24899522370631555, -0.5843921563871877, -0.8888996411329714, -0.061217097439377526, 1.8412709234895712, -1.0435025647438032, 0.08325472638144663, -1.3857754973965475, 0.05271706006599936, -1.3773208964800265, -0.0753486397095099, -1.2429350292561752, -0.43940517910309634, 0.12709238086324678, -0.2243022111977699, -0.6697797105521752, -0.294087897101669, -0.5088576375322214, -2.584330385453034, 0.15353467643974544, 0.34713187082733243, -0.17430081961898627, 0.5032147928875191, 1.2758018721302449, -0.630403168699468, -1.0764486015568409, 0.2784794303897892, -1.4359311516023463, 0.9929905260320854, 0.3830198020533651, 0.9135136196184834, 1.1206155964015398, -2.3808113338967845, -1.3350743722894713, -1.4028953054627755, 1.5096430649756971, -1.597739658036808, 0.728357612785824, 1.3505185076332906, -1.129190188885887, 1.6678258315233632, 0.6845473118048344, 0.20544484013132952, 0.27034046618575724, 0.331363562271304, 0.39886049696631126, -1.7257720726386803, -2.3797428089845103, 0.8532432768827378, 0.39395230346854376, 0.6105527689432819, -2.2816328156139565, 1.7138318092772553, 0.283797825685014, 0.6640703929627039, -0.36177068806450885, -0.03882168718457201, -0.6646723749232485, -1.4598008408724958, 0.15151576118874754, 0.3224852822215344, 0.15973386028986647, -1.447905519544715, -0.10757448152524145, -0.4518924607052475, 1.0959954500495623, -0.31926180128003917, 1.8659614631568109, -0.024213828610005435, 0.45532887050299603, 0.07874175957223702, 1.3435366040031194, -0.4637160609212795, -0.9190045729719336, -0.730773865446397, -0.7553873746429661, 0.42328891054663437, -1.9436875923581594, 1.2754172896143492, 0.35497665463663697, -1.877825411551049, -0.3387231760470629, -0.9326300744103628, -0.585090458697535, 0.656977276360009, -1.2996486966171394, -0.23481584998431201, -0.059169390327066605, 0.3854527016669716, 0.13319940482720602, -0.08162164883188334, 0.2919909783728867, -0.3026046971286772, -2.781083169172396, 0.5686142464855505, -0.14426071845199967, 1.277458322839825, 0.3344563352687948, 0.18060490137711624, 2.4984349348835586, -0.4978821462919128, -0.7964816411051353, -0.0875496921615625, -1.899299531707975, 0.49006491216084785, -0.8349067069252776, -1.1331364974572062, 0.7596222890747919, 0.4853224727043772, -0.1320182956315665, 0.4005266922324732, 1.1419573545840631, 0.7735039067283327, 0.8103951164894949, 0.48625594231669955, -0.15633579909626535, -0.5611426493281968, 0.7126298456153789, 2.89879005260881, 0.36391608156318056, 0.24391017531313203, -0.7460483874510676, 0.16932000130728905, -1.148449122772679, 0.3334389019246008, -1.9302065144371197, 0.17555873378206918, 0.1567184614226995, -0.7573686871116146, 0.33902370550131417, 0.6314078002826211, -0.14235381623611326, -1.6788010769338049, 0.8128248770136183, 1.5237232860189167, 0.74254864104088, 0.09029129873631253, 2.71676221580723, 0.8592087199587171, 0.5634240886087838, 0.7124442611883953, -0.5485621657785973, 1.1389847940481128, -0.014543909167048896, -1.5993514646151787, 0.5460275987234332, -0.26051401571114113, 1.067100456979668, -0.27835648376162114, 1.9260411501255377, 1.1814907158346528, -0.3226634354317612, -0.5716493067389609, -0.36227752877297736, -0.4177024095792166, -1.1150134781735914, -0.7025890132068013, 1.2175765344630622, -1.6103053605449824, -0.07104304692273779, -0.6449904127281461, -0.09819176191030297, -1.6232119472018396, -0.4421928179034104, -0.7928058430327121, -0.48238293339200894, 1.7743561377121433, 1.6478508849573588, -0.0987385493719091, -1.4977323863359515, 0.6686739623356257, -0.35635639350824183, 0.3702394008769268, 0.659596759899615, -1.1824663451487674, -0.8013341328477656, 1.2476499608908984, 1.6865955179343002, 1.9596713658937002, 1.0697839171276875, 0.3131386498988621, -0.6135370170359817, 2.0017083299519958, 1.4047377523885163, -0.050331873864393355, -0.6159334876404906, -0.3064057516134709, -0.384576195231586, -0.36172767849728554, -0.5116312810796793, -0.36891727647742334, 0.4864906621847869, -0.3439565447093316, 0.08475264720010996, 0.6704883881350594, 1.357033682988715, -0.31727317698850305, 0.09418797071944966, 0.09632488906728809, -0.09434555851030342, -0.046604764011800484, 0.19790200888339435, 0.1780286247317875, -1.3926178463324563, -0.5359732198771093, 0.10027242226753759, 0.5361588868492825, 0.49479949315461275, -0.7886675937418909, 1.845405702554604, -1.432966898739167, -0.4447692507469988, 1.786185049436007, -2.481663578236385, 1.1767601942654335, -0.33128416446010894, -0.6447639963867989, 0.103223217491688, -0.2625095944442566, 0.25827239314825484, -0.8055453900344611, 0.09015512648281608, 0.4830934799518959, 0.05159464176035376, -0.543074519267422, 0.19825490533513437, -0.7698351265283224, 0.3087109292620841, -0.7156968273074548, 0.1535455833162615, -1.4324878336939824, 0.18313062287872922, -0.02992763892826846, -0.09044007840945979, 0.5431485411750928, 0.1739047594683696, 0.33518957147976736, -0.8338913830516455, 0.29610606356229285, -0.016995922196190727, -1.572785807539344, -0.5082785660396114, 0.3926840242679926, -0.3729914894128995, 0.764893623072539, 2.1916529173559116, -0.7470323374131579, 0.12646503844183055, -0.7016088043772298, 1.0882090453674462, -0.8077307700042926, -1.6559693566219482, -0.37683764538206355, 1.044319812148978, -0.6137375429398442, -1.1615286940456573, -0.42915578723662945, 0.008218070390424942, -0.21401167350741668, -0.38414180256362, -0.2029448581510148, 0.40758634147688333, 0.2736427330699103, -0.6281471595010321, -1.2014222839236381, 2.6264594173286224, -0.07714094395204345, -0.3041086203424256, -0.529147305944425, -0.8559027881171273, 0.7790413984703821, 0.18824647228223945, -0.034242458772009494, -0.04003271155196701, 0.49849937623535334, -1.967939765613389, 0.31147735014394234, -0.6886942704969499, -0.10917160014378077, 0.613960767718586, -0.090967455967954, 1.1912198563118102, 1.104771575794432, -0.7287143827990774, -0.8350440358415131, -1.4280681890853617, -1.8884920633650613, -0.6249683970784485, 0.2842307964860223, 1.0752418017062262, 1.2482875008089638, 1.0498707565444625, 1.8472796095480264, 0.29745613064413623, 0.8513211339816404, -0.374371247237341, 0.05690555268937265, -1.4474242133542259, 1.3831535858655968, 0.5873970466547636, 1.2548548068116676, 0.4315951119309458, 0.7484662074813526, -0.43349915271434525, 0.5978011526385273, -0.3914161302590258, -0.3990538523716503, -1.0378295514942033, -0.21175763381853463, -0.2037813045302803, 0.5205913642193266, 0.9075269961003865, 1.9669769197270273, -1.1182820052673275, 0.2872270427675993, 0.21599393274096335, 0.23053132196900938, -0.7549559553690586, 0.7569292756645147, -0.28712162334431285, 0.08304605043141487, -1.0264808579643379, 0.8085197206412459, -0.3635436590439818, 0.9573134116252969, 1.4550589655427753, -1.2809020722382385, 0.41304281111809144, 0.4340922602929489, -2.8460591570206035, -0.0002496999772058964, 0.20911458295738655, -0.5791712402677578, -0.22789809628019592, 0.7818051332693375, 0.5226822966748305, -2.022373109593455, -2.122595040572244, 1.5914353956844953, -0.17194248849748942, 0.15681550280549333, -0.351646384130062, 1.7123473875397375, 1.3485209857973848, -0.20055582689537502, 0.15581586505267492, -1.319715009778627, 1.3555011257307623, -1.0327992460745363, -0.6494654433060649, 2.4764976420716067, -0.9094795596917924, 0.62834189517006, 0.9547603154637438, -0.45110725737013796, -0.36652073268272883, 1.6434286870375752, 1.205551944017304, 1.1712469188473305, 0.756231478517094, 0.7115572308620658, -0.13559220840832567, -1.169855065094664, -0.8756429970960485, -0.13250444496949568, -0.2829121137323535, 0.555108701638114, 0.4824541574252533, -0.08779632887614086, 0.8563466924752448, 0.6445140807828453, 0.66669688993125, 0.22646187266999038, 0.2922346909580839, -2.750112998440161, 1.2631182336326934, -1.770365882085357, -1.5866337772007049, -1.2330795501185412, 0.4192402117708936, -0.8869317004893128, 0.5135451679621813, -0.11879717891429394, 0.008227234226992881, 0.04538772449320636, -0.23689513189694583, 1.0495746979003844, 0.6712690703796492, -0.37279663298836035, 0.2438792340465245, -0.4908522816854866, -0.8735491364171879, 0.3682566982747382, 0.5546319173716723, -1.122266616150959, 0.14341049653640606, -0.030044699678361417, -0.8308170290166446, -1.0645337924727833, 0.38189322530059466, -0.3759212052438014, 0.465935793650081, -0.016164445805897203, -1.4478572373694742, -1.270323803165434, -1.4865359988573705, 0.7305597673059225, 0.7759409507001666, -0.20357192489338857, -1.5013369366643727, -0.13105646440412735, -0.8324433116317311, -0.6144656432823913, 0.4972913572667491, -0.25399391148019607, -0.7256944571036292, 0.7175604628228622, -0.12308324702214112, 1.250989471628581, 0.9043180876443636, -0.41386873955352843, 1.871541958635657, 0.38499326729729627, 1.1667563827667875, -0.20535379837774123, 0.05551885900033844, 0.17485374877017856, -0.23094128611275397, -0.27267984237707144, 0.9162776483865072, 0.8862872310120351, -1.450038832944003, 0.8344234668338731, 0.9919492234450522, 0.0415198102454215, 0.7657653577494816, -1.118800672935141, -0.7600240657653045, -0.42845138681243844, -0.5226585409566158, -0.6605319266481995, 0.15507448539236082, -0.07435923318421546, -0.13809289843155195, 0.07177449930369822, -1.3969811137260608, 0.5821468673060325, 0.6072687799285654, -0.8628827624189517, -0.06283816165392092, 0.9661200006662622, 0.616915375174511, -0.6330196296565211, -0.725712128595963, -2.1178916475638614, 0.9436838520651919, -2.1904030006219775, -0.2424723864013674, 2.8916754634080073, 1.9427814787734956, 0.11110063404767731, -1.4419408860876655, 1.1580814367123928, -0.09747703783379591, -0.3200862891418666, -0.002044792891066056, -0.07358669410881546, -0.6732279551448964, 0.0823266700483504, 0.055692819967263545, -0.22279166812876514, -0.07007316411980546, 1.9392656961508068, -0.4334051611119821, 1.3507076534715488, 0.19305136824777813, 1.8940861698977327, 0.5259287153831381, -1.1299145127781487, -0.24547922676165296, -0.7949487628336622, 0.24362176604410513, -2.441490105445166, -0.7219669498492184, -1.9492187608996794, -1.4890107883930064, -2.192750193176562, 1.0005791196631406, 0.32912158634793415, 0.10878276522057083, 2.0154934459738367, -1.5428985931082828, -1.3858079877329006, -0.8935909297233032, -0.47644926342348953, 0.9782343692437993, -1.484771669636765, 1.9067976608390278, -0.9678410298125216, 1.2089815251241878, 0.36096966483533, 2.6549512239439985, 1.8272271740289021, -0.5123359600516523, 1.9649153586021968, 1.004866606507913, 0.030914684961314887, 0.44104697916551, 0.04495935110535612, 2.0283265963600114, 0.6580164389237966, -0.15816981713891826, 1.3444896462628064, -1.212848495908528, 0.5100139140314618, 1.1738462833388266, 0.6397391353922847, -0.1836590988127436, -0.6370293702118027, 0.9534894656487692, 0.367787535226743, 1.6579562881320256, -0.07718418695284474, -0.9443526865186407, 0.2649133116717643, 0.24721219944801656, -0.6617453794538266, 0.09422217842684891, -1.3079164479741026, 0.8775027768407268, -0.07507655745169929, -1.9205716706840592, 0.6525224296643892, 1.736256699584884, -0.039669728829394665, 0.3830317000911197, -0.46519655717331176, -1.208067893801636, -1.3891471978266021, 0.7496163998278665, -0.47839219697800905, -1.7315260282782516, 0.08691933067245723, 2.0010128894744894, 0.10423555137200857, 0.09396645499158214, -0.4918814254038289, -1.082757874151947, 1.1323561237585562, -0.8555920932082649, 2.5000522241255076, 0.46731009655625394, -1.3696024752514713, 3.680652150360784, 0.14187766362918564, 0.8853358300060281, -0.4217135875258554, 1.2402833303125227, 2.1256701062792085, -0.4802596413726848, -0.4996727458954656, -1.672610429036612, -1.7902838151592357, -0.09361707490100964, -0.3775199089202607, 1.4045087361275195, 0.0348175987630069, -1.2760962834793348, 0.38110560906273233, 0.01493931879058945, 0.05980069329835814, -0.34549826847853704, 0.6270352216759943, 1.3202756425860565, 0.9495984823852625, 1.5751855094860299, 0.6870914283662838, -0.3364309046422994, -0.3575887673374018, -0.8779565295922246, -0.6630796820045731, 0.4863764803054553, 1.1565244009239672, -0.8021749220483388, -0.4786353180474388, 0.19493187175425986, 0.7768113794696611, -1.563167608485799, -1.1218428263422608, -0.0024625617440309972, -0.34890448195555707, -1.7955117355999013, -0.7574658093881514, -0.7407340095090197, 0.14178735451158814, 0.4883428125657832, -1.1084250423225412, -0.30682057548500286, -0.20936644583391228, 0.24918991829929923, -1.9116721455852685, 0.0982857683055717, 0.29457854942030237, 0.96703297910791, -0.5806297851610225, -0.15528766725648954, 0.4538277714178399, 0.958997420055356, 0.015937090088441144, -1.5170245876682162, 0.7269627356672258, -0.6896966399594585, -0.5450374586398172, 0.4910934762100981, 0.31474881058342385, 0.051511932913790415, 1.157485920480521, 0.0007443125382047918, 1.0601109245385492, -0.5826916928800291, 1.8181682258675183, 1.4552795263336225, -0.06903884776895716, -0.7961906945870726, 0.8211181123445699, -0.8844520500393462, 1.2815132006735623, -0.6527920909661901, -0.7580961812150369, -0.6661230078880953, 0.7034716159805112, 0.036896367523001364, 1.2151837471232387, 1.24004649389502, -0.6138606742693314, 0.552023660949883, 0.10350116313643089, 0.1921102029444717, 2.3217172423377397, -0.6480649749409285, 1.4957262731146799, -0.14889715240760443, -1.4174106802028725, 0.4997481206221297, 0.3294132266961259, 0.4132984662119766, -1.8896356016626639, -1.1942431900358979, 1.242997559345345, 0.20353546590063148, 0.18322418467054938, -1.3467617638846674, 0.059257890771093155, -0.9373792184235458, 0.3384064643604529, -2.25298096393263, -2.289697004307754, -1.297895145068493, -0.6739892174744282, 1.2052157602819593, -0.5155751259574716, 0.7183648981661259, -0.6026727043998762, -0.32870382470674825, -0.18143694322619722, -2.3384151500789065, 0.16554604075846244, -0.0437741971381826, 0.3379316463247655, -0.6044757409194351, 0.3596125169877575, -0.6618430013172566, -0.3352794025584903, -0.798935104297452, -0.15238795404059424, -0.9039744061827922, 0.06730028466523774, 0.08864899461002569, 0.5948890507067722, -0.6554064476428664, -0.174495308525973, -0.1979608222595139, -1.5845011350391698, 1.2466425076988035, 0.07969465889435794, -1.1309528003915454, 0.4262137343268756, -1.8628058776004057, -2.098102075328088, 0.6413615578149383, -0.3664052031857267, 0.3804651143345265, -0.20446970224889066, -0.19099562505350207, 1.4355214231406042, 0.09940420692868049, 1.116955224808452, -0.5195748497111627, 1.305505055679951, 1.0372551617570396, -0.49307978087288756, -0.7921224117957198, 2.561559599553994, -0.6008965818785923, -0.8816549414205286, -0.25177103749686797, 0.3431494033733429, -0.48186228071348497, 0.5283268982882564, -0.8435885649696158, 2.002980828551007, -0.37085386239512846, -1.3897232858225812, -0.04143085207747122, -1.7473398266748692, 0.3685147781475867, 0.2651769428855946, 0.34521604679562684, -1.4150899753974746, -0.5454227297264281, 0.6159210276933968, 0.5817286359716023, -1.3604910034284847, 1.5993805294734045, -1.7857711358382586, 0.5456071044982822, 0.5634252779755602, -0.2703871945979027, 0.4205509966412545, -1.2052389527501712, 0.12182605743397633, -0.27037466522954634, 1.1999483422685076, 0.1532479087004457, 1.524321598351017, 1.200837907704173, 0.35599316319532165, 1.9066095933870677, -2.1914446748484226, -0.9470840985541386, -1.2832717758352603, 2.149772331610372, 0.24478376332606935, -0.9506308857135272, -0.7106375423209677, 1.6591230445637006, -0.968384572943158, 0.655285017955872, 1.7169686328411349, -0.00703634200793741, -0.945308498673634, -0.30202174276203836, 0.5840221347766585, 1.3524266446423245, -0.06571872151765096, -1.4409244030259212, -1.134959495171202, -0.5542321194742436, 0.15115911404995577, 0.1288423467345392, 0.2083219363221129, -0.7594344487997435, -0.02188458169017465, 0.04314468574873403, 0.3180438034162296, 0.5897359940973265, -0.7601174312618292, 0.4814447941385226, 1.3876489694959593, -0.450080119207351, -0.1606108425828588, -0.5029823235963178, 1.1598631728139186, 0.646967319781326, -1.116874987820043, -0.17018164586659296, 0.44564012623672977, -0.1051529904212232, -0.031919257828791764, 1.3188539594183202, -0.4450352596631146, 1.0418965688866506, -1.7018830761079553, -0.21302639478718358, 0.7218627792052045, -1.7373947289882994, -1.0862442756395467, -0.15001012122272678, 1.2896963255048541, 0.9804991498165468, -0.6533722474525792, 0.8799522334869866, -0.8106100390687587, 1.869809607165313, -0.26973263818768345, -0.6259771460997415, 0.6565466439977161, 0.3411539564445759, 0.046747390311780344, 1.9365032958630375, -0.5717982889573315, -1.3532335919050817, -0.9632828036355157, 0.2784792079740179, -0.13982324635080448, 0.46263517724108755, 0.9993753701438935, 0.3603904878961586, 1.0442633827095693, -1.7158665576058072, 1.1703606167638008, 2.6188184518068702, 0.18756106981405515, -0.04748080493794152, -0.31193849615647734, 0.2926546871574909, 0.5517818966928701, -0.8988398250962516, 2.1644229645529216, 0.12396529698514513, -0.8088841703705727, -1.6943112918736452, 0.07254072556621281, -0.8757504562277515, -0.22971590635605021, -1.9154850010477389, 0.09393119829755738, 0.18303460541878191, 1.0407507521634127, 1.5610627300551305, 0.7207777015538875, -0.12312987381173345, 2.6851222468669715, -1.2511248120496312, -0.678244629936971, -0.28923932861808693, 0.44651481562162504, 0.8933015862944741, 0.5277418565921805, -1.3765677514616244, -0.1685263396593307, -0.28703830702463073, -0.48086376682638265, 0.23446807532030917, -0.8005837963353487, 1.0383969988307011, -0.010092678375783473, -1.6688879824844605, 0.9012870996699439, 0.5129510893638717, -0.9867307482195268, -0.3423755837540199, -0.41178811124007086, 1.388844653670546, -0.7334156830935902, 0.879021786335918, -0.23543641549913777, 0.8452502256510521, 0.531050071023794, 0.7051301993280603, -0.8366507299118526, 0.09853854635857084, -1.168795210005083, 0.7628339032185693, -0.6043776800881813, 0.8082058273459387, -0.39846504155076384, -1.347272442848032, -0.4988464581294161, -0.4013858273845035, 1.9986280020114264, 1.0285052437739857, -0.33665290325211505, -0.5691555766433724, -0.6016455488074919, 1.1952261537172988, -0.6249147083197589, 0.9937915975307343, -0.905117308490292, -1.002643833631567, 0.8826516257524242, 0.6564741376876102, -1.0319258531338569, -0.7663699508466509, 1.6474464132161024, 0.9004196047055075, 0.9056614073105556, -0.2887308352058712, 2.0463895659492284, 0.26047335786348275, 0.7584314909943684, -0.8934162609943092, -0.4209668882453601, -0.3330806406691486, 1.1272946085676823, 0.7891404589141997, 1.3442730721625848, -0.2190828184815279, -2.071959464985296, -0.25715188661653066, -1.4989325147079509, 0.35463019905570925, -1.5662023276979637, 0.7274560807394115, -1.717590414101675, -0.9320548111815453, 2.5891984696151296, 0.538146436149285, 0.5349090483172964, 0.6300391921868542, -0.1942652408473586, -1.2028712798254395, 0.3467135765413957, 0.0027782623407968336, -2.0055679970495373, 1.5918448146273576, 0.3905805607933288, 0.27405518188433764, 0.04305685461409564, 2.1006537914512458, 0.995587740840169, -0.10578742875350337, -0.43654671561088093, 0.7149502372460483, -1.040421860037348, -0.7861112963510141, 1.083410799957166, -0.33733209400667924, -0.06052793181652681, -1.3975607341336502, 0.9855614780543316, 0.34493676537811235, -0.4516798555071218, -0.8605111332189032, -0.3604205688050342, -0.38646358010741955, 0.5939763884274127, -0.15431479728653896, -0.3789835589338851, -0.4441518005599642, -1.4602217342009944, 0.18697479833084005, 1.7034282440265032, 0.1277786027558876, 0.20978634003390978, 0.7947471188629811, -0.7680979840277533, 0.4296653806052318, 0.5516476292951569, -0.8206570992657166, -0.6603343080053493, 2.450088880721651, 1.7881234832283581, 0.46184585152327307, 0.99405993447698, -1.2078801570284805, -0.8383000510467963, 0.8248768070436909, 0.40549809371377354, 0.22154162609764447, 0.07869698776149454, -0.06388772309261503, 0.923696895688376, 0.9124497818884051, -0.0047650794623812385, -0.03132608760306979, -0.14934173744826576, -0.16921640393984202, -1.4892391498745554, 0.11676275667556271, 1.2167638840633896, 1.3974054391037845, -2.175030302665299, -0.5019103361512367, -0.862371795704342, -0.07753934833366272, -1.6407144473687707, 0.43691998944332944, -1.8812137732503895, -0.19283341732819415, -0.9585168204740069, -0.07776204660691408, 2.1819428021373435, 0.2761469381618542, 0.42853592176572175, -0.16801135429992878, 0.28893241977025297, 0.0616844284310219, 0.9535706724725412, -0.3022862820576176, 0.11266313331179134, -1.1828622942092324, 0.6953801933438452, 0.2881200954540469, -1.6123518649465158, 0.907185606582469, -1.5708897661235695, 0.06559934668797379, -1.093899642276113, -1.7466420227145267, 0.5340586813110624, 0.3511999167947927, 0.7597386730329514, -1.4417831085688846, -0.4881209990363654, 1.2849485416900577, 0.6229810763832051, 1.123675832338681, -2.2926064133656934, 0.2822558068819414, -0.05752494184322326, -0.20430984174138678, -0.2775435366070121, 0.8784377860246645, -2.295274005583501, -0.6395092358928874, -0.26239905296431143, -2.078804669537326, 0.6301177526831493, 1.1647992769550493, 1.833064016951302, 0.08262546194521114, 0.11382408352607436, 0.8435290682304165, -0.09607534936927048, -0.271931824237515, 0.3407572505696516, 0.9014174241102441, 0.42945445299706153, 0.08211881165941655, 0.4946409553071464, 0.7044008220206744, -0.04383077619159317, 1.9428959392247078, -1.0243784881380238, -1.202867505878751, 0.14940196628213817, 1.571764652915133, -1.8703993543714161, -2.0412662840612352, -0.06881344245039445, 0.057371738895151514, 1.34272034947963, 1.7506981236118637, -0.27634702753606555, 1.1471852325899534, 1.9715452131932103, -0.08479680510655196, 0.3549560573277656, -1.8307939648665963, 0.012455854905979688, -1.4314428898745566, -1.130494842337105, 1.3002168502017735, -1.2834567436882496, -2.4086409654464402, -0.7636628118908255, 0.3235874313175336, 0.4943253370741909, 1.694484313932595, 0.9885265318959784, -0.8308838227420544, -0.8361726169049863, 0.7441912529702183, -0.7422011899029701, 1.0219756221728131, -0.22000595164628733, 1.3606369616107645, 0.07300634830797226, -0.7022123161994702, -0.8396665069213921, -0.7281656639702664, -0.6638948547386317, 0.7870044121720158, 0.25555026628998756, 2.5508948874242074, -0.595563699185516, -0.322132438550388, 0.4690038731542036, -2.007334727670798, -0.5454100683586304, 1.287169648575616, -2.18331667116834, 0.17536154043505228, 0.7109576787405649, 1.107638856102946, -0.6702680192812388, -0.5249949763530994, -0.24768842127983398, -0.16571826379733434, 0.2277800462530729, -0.6939553370369985, -0.27119143172103843, -1.0105661588357746, -0.7961288155910016, -0.7105875975840205, -0.8364368450935387, 0.07926559638156731, -2.293139042705229, 0.06443414024176508, 1.192455480875576, -0.34337054465212985, 0.9523771295803496, -0.226866343769719, -0.0009739210512336489, -1.2415799976865518, -0.6334628837384574, -1.2012248272757309, 0.0883258532249768, 1.2533384387251998, -1.417400068464182, 1.3832962633011, 0.7657387209368794, 0.19022070303110708, -0.6638448623011547, 2.0463971303016497, -0.8584607734485568, -0.00555095156304741, -0.6080737923371244, -0.30700044985786173, 0.7913811789929517, 2.3027630093972116, 0.4298463430569415, 0.06920493048355679, -0.5205613778083524, 0.7065550445479726, 0.7488852108552254, -1.6029243785575817, -0.126893500742606, 0.7427134845571937, -0.28871175787277614, -1.341665210169408, -0.4482732001364625, -0.7827240700511541, -2.23368601221231, -0.46391841149639257, 1.3045616858010474, 1.568051047538473, -0.5608721931121144, 0.6449965952793875, 0.5692270077340601, 1.0564394706333908, 0.0915908103873418, -1.2580320886075385, 2.1284994253134912, -0.8446816425159726, 0.06446803302610776, -0.12827015513590506, 1.3520709146076924, -0.6120745021540053, -0.9709294936724544, 0.24546756401425351, 1.9148613212054222, -0.31344785552393833, 0.24357212967214223, 0.7113020490097459, 0.8022548698627624, 0.9988018978432872, 2.5708801850854006, -0.3386731685355043, -0.6057283013037424, -1.0864405749115877, -0.13117265614221071, -1.4481272634451932, -1.151353002984341, -0.4111884091257148, -0.9295789382242321, 0.4223750623880735, -0.26357234535066953, -0.45392056293506755, -1.427211597558962, -0.30300369508889147, 1.6461240818937368, 0.3322995415983502, 0.33998511667770814, -0.987517957241388, 0.8463837242381974, 0.7122054484405184, -0.03402916772298449, -1.145792047437128, 0.06046357431165448, 0.39841668965813826, 0.6463363495821057, 1.7493192930600405, 0.6570906317182652, 0.7719280747783253, -0.3167091896163084, -0.5718684912239366, 0.45511150143572704, 0.6589238055842663, -2.230808802003718, -1.3238692534222198, 0.4307554295626738, 2.072026937588942, 0.5127664229848915, -1.0047851078098287, -1.146091667362238, 0.27176663208153146, -0.2837463813971666, 0.011898000242727573, 1.5329528756698576, 1.959564687681421, -0.8343013979347085, -1.4166871939325372, 1.4551867942651215, 0.5445860271845828, -0.8657757704367328, 0.4039211101903906, 0.6715697009126563, 1.5643325790880298, 0.1956288971539362, -0.9244963459948992, -0.3349427279928235, 1.2634552297537447, -0.49037115987491425, 1.297364334771512, 0.16677047790571312, -0.24267610517404478, -0.2948486559444084, -1.923317325173382, -0.3228903545690193, 1.2706222570605408, -0.9915114389358815, -0.479779411220966, -1.7971514609444135, -1.4819578841092407, -0.17822834534381302, 1.2022754866259575, -0.11737242304207286, 0.49874518851493294, 2.217464592644452, -1.6959727105714228, -0.767273645356531, 0.48733952222182975, 0.713991456549523, 1.7443827437828254, 0.18386549994875162, 0.5858972898810556, 1.3747366661116904, -0.03126893365819879, 1.174223699052244, -0.9991079078233542, -0.624222416057121, -2.0677947333958895, 0.3618925166547784, -1.1439277874597051, -0.9753168796132248, 0.5102245755849187, -0.5797033662123098, -0.016554615961740696, 0.8647341648132004, -0.9508915985003841, -0.6208756797324045, 0.3036880908889891, 1.004320033211853, 3.2111713959816206, 0.08044591357525262, -0.3792065070800996, -1.5728061947669794, 0.05368029332393652, -1.004913367342251, 0.6451931051780355, 0.36543753266924456, -0.22071400883774828, -0.06676687892871766, 0.3717604588180014, -2.018641768015811, -1.1615504019501293, 0.18406633472057607, -0.18327189511343245, -2.042811150589078, -0.4785687756927907, 1.0020221624723642, -0.2874314314603271, 0.42986713970750257, -0.034579135971213495, 0.3593254743489666, 0.9564705007107234, -1.4279227991989236, 0.3175010747405799, 0.28571306945420066, -0.1878618809995197, 0.6000892101552613, 1.7217950187776367, -0.8105223879955252, 0.556575412219113, 0.4996216546009044, -0.3998813639312063, 0.29085600681174806, 1.0433561802647373, 0.8222910361853042, -0.40062400329045533, 1.9657385091418589, 0.0463521450956508, -1.793103330397861, -1.4444187604878913, -0.071245971907505, 0.6091278111379419, -0.9062331831094148, 0.04820919860261609, -0.676480452125935, 1.196187478858249, 0.8411730512823566, 0.3511758479699554, 0.5227517017768712, 0.019583688156425357, 0.7559339234234508, -1.3372603801983194, -1.0798356999701082, 2.121362707938976, 0.5531760335835624, 0.3931394827362776, -0.8052856805556389, -1.0426273605016028, -0.4825121486705852, 0.4784964913888511, -1.9861979329636832, -1.6762007689037355, 0.4667055337327472, 1.3905471239258291, 1.622143125771003, 0.5758163940292924, -2.517863171198728, -0.6631658894068351, 0.4857185347022841, 0.6547798331169083, 0.9891684218853126, 1.220230126792564, -1.4397989384998475, 2.168333803992033, -0.11295150308490616, -0.5269487207862151, -0.4700822990542576, -1.806963584477214, 0.31313221749261005, 1.2944394583055532, -0.549698779250503, 0.13309117929017567, -1.155084414179158, 1.2052207289848755, 0.325992083837971, 1.884355476262361, 0.7202424022547932, -0.3041866559188807, 0.037545201608603376, 1.685869027255484, -0.663751023867755, -1.1680990903358914, -0.739195417396737, -1.3701628847309126, -0.24727589482217155, 1.1181274278396236, -0.1878156026773919, 1.3328521943345895, 0.5374616637397926, -0.04694575657184948, 0.5754415621118297, -0.7948779630195335, -1.4263971448886588, -0.7985447393974023, 0.8436294044852541, -0.47874331250480084, 0.8652727369730054, -0.20552905679163083, -0.507915071411479, -1.7136567928833035, 0.29579118083661765, 0.6907244585025152, -1.35147723112967, -1.827357628532848, 0.3722476026282809, -0.6271552118397895, -1.3721630587350149, -1.2082485433138053, 0.1928147761337809, 0.5960783800119103, -0.18966125104567905, -0.3316156314330831, -0.23799366612672743, -0.22955964998568237, -0.9713315213741636, 1.9174782224281601, -1.2904727690279245, 1.1589310355305171, 0.9175879514042813, -0.6529933398883995, 0.745729463428996, 0.5983276921642797, -0.7241570935686048, 0.3940226570543676, -1.0531838277901393, -0.24105850430578185, 0.12170879303537531, -0.03326559819638735, -1.0235802255579374, -0.6764005841440296, 0.7799165442259303, -0.8342574021865106, 1.2975284739481838, 0.42013601569597714, 1.2136975801189214, 0.2417939490421828, -0.4001715502253875, 0.13192129061122687, 1.183449074846178, 1.773918619930437, -0.32175220653069503, -2.2963846953233826, -1.0812146186059364, -0.6256246588051637, 0.4489211306642368, -0.4089869944419327, -0.2732717653640206, 0.6194532507300821, -0.7226551518231277, -0.25727350936843774, -0.09501068467804746, 1.0894494513387418, 0.2628066342948531, -1.009196685626185, -0.02298194252524533, -1.9663667199595973, 0.5947230500606678, -2.0971374514274927, -1.253623051499393, 0.9166593923763944, 0.050819986702102846, -0.5929714960899657, 0.3932663067044261, -0.37279821785672745, -2.0953919060488335, 0.21008609978695356, -1.0201418393543331, -0.17285154176658216, -0.3031646835466339, -1.0678816861797358, -0.39513014738089136, -1.7350381788972038, -1.2224982722645212, 0.5400318604924718, -0.979745960010621, -0.16722687743089276, 0.26066217173764955, -0.2042557573117976, 1.0221045938339428, -1.6484204548275816, 0.30695800515478544, 0.08561228333892111, 0.7095253803090217, 1.7580060112355311, 0.9993675214243201, -0.43787201851671453, 0.1766825205799114, 1.0789820123415326, 1.183642757339008, -0.3446640908294715, 0.6581095375006087, 0.0033098369582702522, 0.6450463612967049, 0.0062222346863994825, 0.42381106255033174, -1.0958527816123564, -0.24757984384251583, 0.612276641475085, 1.308900106293669, -1.6576281207039802, 0.8098745354349441, 1.0195949619928872, 0.34972499625497283, -0.01474651803671137, 0.8925915349471926, -0.5840647809593211, -1.6191086348051553, 0.5875675086122655, 0.3157370566355425, -1.1323528456905156, -0.3019340382498586, -0.484169464230587, -1.5723597089266566, -0.6985308416450814, 0.0963856758921147, -0.9319471426983665, -1.047560883798404, -0.23643450034322444, -0.2231153896537361, 0.22455367255106481, 0.4540633756396081, 0.6744763393353309, -2.190475723205356, -0.43375052039957823, 0.7561140241245351, 1.317893942012338, -0.11376079839411272, -1.1730534917803337, -1.23498226515168, -1.8965782245465053, -0.8092889920340325, -0.9936019556463943, -1.9542889974606192, -0.41805784686511754, 1.4173475629071635, 0.6708541659089929, -1.435705778942025, -1.4232499866242183, -0.72770141162005, -0.6230648718591401, -0.4868798292158125, -1.8777355678401313, -1.8765519503800268, -1.9317893314732861, -0.6789202675768415, 0.1351568662103947, 0.6564991637336668, -0.662260260299174, -1.624679322290531, 0.03414074847538148, 1.514105062837195, -0.3130780980039108, -0.6000543237293754, 1.4893004982148437, 0.32363973535661594, 0.8530108327121276, -0.5428458421707805, 1.9739159426399349, 0.9979433176348133, 2.55181281748872, 1.1102245771813304, 0.03010633148357516, -0.7390529714310229, 0.9448499622294675, 0.6689443261340818, 0.4068976247782303, -1.8257866948824975, -0.4856076774507249, -0.9739895488222917, -1.7774754621451203, -1.4287500764088064, 0.30332817556940717, 0.2903432776771278, 0.1108587038740842, 0.3082486012299575, -0.06361271898194805, 1.5440728641988097, 0.8395624921968188, 2.838850013636994, -0.226140702745152, -0.17086308589252533, 0.809184257109301, -0.4725702537822247, 0.9696236521194894, 1.6168835902808414, 0.08870933208070912, -1.019806602358632, -0.6439675252639462, 1.5922746053081784, -0.09078647038329496, -0.576865696879228, -0.19864472233408703, 0.6697661776190936, -1.4527166914755758, -0.522084474300265, 2.023465458379383, -2.701082857330942, 0.5561805000212701, -2.0854616501592433, -0.9575607594154423, -0.5847773649089506, 0.41722505370834106, 1.0908438230692483, 0.6436362866554758, -0.610090439963691, 1.0225160482680977, 0.8861753266971077, -0.30388341248660306, -0.793849574657226, -0.07156137003343882, 0.40028160761097104, 1.6184946003577243, 0.35858533605448256, -2.275257223996263, -0.9826467453535409, 2.1951653118665817, -0.050484165451942245, -0.5247621896881993, -1.3298383535216676, 0.7402758818874245, -0.4847135329844841, 1.0859512211369544, 1.1469450210316008, 0.6951219320394022, 0.37684770713921545, -0.7175443979291906, 1.0143722385021083, -1.411963326688682, 0.08244703995535274, -0.9175421442907552, -0.38709823052999326, -2.0608378874215574, -0.6777507406192608, 1.0693596593101986, -0.9260922978380184, -0.5492888474363856, 0.8311925910727833, -1.192413232817978, -1.0667825090359178, -0.324038371381123, 1.726298505992957, -0.47403309336080324, -2.1446473416042866, 0.43266031649357684, 1.0953215159681648, 0.8055848470607067, 0.337829174265788, 0.5946349557449593, -0.15562998108154466, -1.1417930157230243, -0.24008072778294745, 0.8793958737602501, 0.11638988367124907, 0.03267552261112806, -0.09572755050025647, -1.3490508754827357, 0.6029920640259901, 1.3650315120266512, 0.6225580694194705, -0.04048045458320844, 1.7038281865669123, -0.8878931036842065, 0.33750790963889965, -1.3736201111131845, -1.7140439867527901, 0.4097578686612267, 1.347897997787857, 0.2604467391292892, 0.14415577778181862, 0.32495658397853633, 1.5607658765423678, -0.11044662375839474, 1.6491590069619468, -1.81583439890093, -2.547475721720605, 0.9632791467063191, 1.126694302899197, -1.032355540481788, -0.15486945186214196, 1.4988507324130766, 0.507744019785471, 0.43499818141775376, 1.433553507795289, 1.823079368140604, 1.086915476288886, 0.4705314674911584, -0.42116853851388825, 2.1123707142760346, -0.150067676573976, 0.28308667612021804, -1.482181615169729, -1.0509092372486057, 0.11863976975096578, -2.200493351582464, 0.4674661853376821, 0.10359417077957898, 2.1295678557056963, -1.9402521289123693, 0.0995356083504366, 0.11112234041589687, 0.23531634992184108, 2.075334677159626, -0.2558698584331423, 2.3182944360121285, -0.3867362606463928, -2.0875718646545125, -1.218697786897028, 1.1667284425716646, 0.8349221849253771, 0.5900132760603672, 0.7473745989941791, 1.3176165825379336, -1.6309614243625283, -1.3673836617454551, 0.6180537562933064, -1.16297787142446, 1.838487438840121, 0.9972634995538864, -0.381075158705553, -0.619004791873419, -1.8926506436605193, -0.9511499808475322, 0.23939577560420164, 0.7403482296910898, -1.023497689849541, 0.13498329722780456, -1.0365995794597704, 2.0238810764526596, 1.0373510468274847, -0.21663701597674337, -0.5577382139411667, -0.14967711688172278, -1.2760661717851949, -0.17822752619684548, -0.44686605236328714, 1.300818370659511, -0.13856986938015703, -0.6877110483386913, 0.37010302910318815, -1.3908930535380333, -0.4554008913328841, 0.1596905278632545, 1.8413777903967243, -1.0627476127688833, -1.3215832983204365, -0.6691077142769364, 0.17741469506979354, 0.641936578345201, 0.12078429461477772, -0.4232342910361457, 0.5506453144893512, 0.9065448417711792, 1.6056540920351652, -0.1948867804643677, 1.2494383034574463, 0.9600777967346249, 1.4333776786794292, -0.7635153325260715, 0.12330915818470652, 0.8978088481338107, -0.11876229179715443, 0.5719207466700741, 0.18983450228180493, 1.0653723256561378, 0.6280527861703621, -0.9821958378907317, 0.29796498373562336, 0.6747070274066901, -3.792478706299219, 1.2191924082127628, -0.973784124351144, -0.5498266063796787, -0.36717232274561135, -1.2481580416245945, 0.07910132006160756, -0.5949980381107559, 0.11354462967499897, 0.014868647417270037, 0.6617935022660166, 1.2422334055108157, -0.160172740873422, -1.086691731930059, -0.5793719472664128, -2.172344015089687, -2.0257654156117213, 1.0561605930105034, -0.5370768864443024, -1.411482350697999, -1.3101382254682914, 0.49043087492216186, 0.4574349573927115, 0.438541635432398, 0.960840547613324, 0.6952236426340176, 0.9032271544997513, 0.8374954554116866, 1.398397875516772, -0.7082374017305427, 2.623490402006983, 1.0302149248971046, -0.03253650411639022, -1.4522420291899396, 1.304779170860826, 0.023774610408411466, 0.13114008899467844, 0.01416366242471244, -0.6807849154995633, -0.4351388975675367, -0.4714855078707247, -0.9978886539600649, 0.21311839042010025, -0.22448215474107033, -1.0617271475018795, 0.3132957456794826, -0.3136769245814368, -0.37355806434711514, 0.1179254506469734, 2.144219078073087, 0.7455257841751629, 0.1552541032270945, -0.9153759646461993, -0.19871529639943877, -0.726186685511489, 0.052178841491811775, -0.3046777603299919, -0.6038747204547582, 0.38657727435673994, -0.7301476676305755, 0.24875962259641168, 0.9756994220314236, -2.4877369184758957, 1.0041393901263116, 0.9037775599664704, 0.9331087329452822, -0.5016091804889407, -1.4819635321771742, -2.0837386063481667, -1.9192550613460668, -0.8824314986080043, 0.14273235745080842, 0.41042484832538617, 0.5253525599843686, -0.5106591776704039, -0.6590402734465833, 0.8828106388152944, 1.1053146890721488, 0.7022236504940379, -0.7060900375747217, -0.42282760107772355, -0.03907612929826417, -1.2823332334101272, 0.8956099786183379, -1.7847691150009484, -0.9499672810854539, 0.4181352389025792, 1.2209196508917521, -1.0669064590229955, 1.2994078161079214, -0.9981879829660617, 0.039244585289153214, -0.5308198989485231, 0.07216262712698632, 0.6165093595712692, -0.6112264650707466, 0.8360851803209965, 1.8257404617007833, 0.3610868974335832, -0.8821243060537829, -0.3257883114439283, 0.3008390220737114, -0.388327445138844, -0.7044648138686425, -0.6319745868779673, -1.7543991666130394, -0.4793274386290401, 0.7985215175279521, -0.6618113937504491, 0.37031194323944816, -1.3913912840055243, 2.010999599796125, 1.0212239954809428, 0.5269308350327527, -2.059476431101685, 2.9986301002302187, -0.07474439710280315, -0.9659391471429233, -0.7959544734365974, 0.47218694952772056, -0.7864790347098353, 1.006177778240363, 0.43592163646485793, -1.0437035472014073, -0.7863681071441073, 1.0203719174584351, -1.36402745856821, -0.8064791508109135, -1.1360980383482224, -2.2670061686593854, -1.2541527045898428, -2.235569126614157, 0.038257250222228936, 0.5445780131081536, -0.12437820158867176, -0.2003653537240743, -1.4123381225240184, -1.54211706912643, 0.3832734063001497, -0.03452820220249012, -0.6255212289695078, -0.4835132717140045, 0.44852658038199944, 0.9976632988308817, -0.9477265133146578, 0.6775271448466043, 1.12358944914689, 0.2838272052644985, -0.027795150888863807, -0.625205520292732, -1.4495867077339002, -0.9791724363955607, 0.585183595148837, 0.6055617754623761, -0.07512815782772889, 0.8917457179762558, -1.2756214365975762, -0.26434103820834753, -1.6236568951746477, -0.038183015239001736, -0.5793671683040202, 0.1449057711537989, 0.09737755232461984, 0.11558334470430869, -1.4456208443393217, -0.41154609451909485, -0.6509058823388415, 0.47885085275356465, 0.9292776513129087, -0.6066743737572784, 0.33048722477563225, -1.0749958226433727, 1.196862852662642, -0.6551274304461676, -1.8109576561496603, -0.6675947029845956, -0.5403005276238704, 0.922869599279463, 1.51765736277276, 0.9769817367150951, -0.6209021182155624, 1.158063656293399, -0.18576874265275511, 0.3099595861631733, 0.16087097269346232, -0.297480419330722, -1.2147141069827094, -0.22383787003881417, -0.5401919621138258, -1.0270624773775872, 0.9684304262363654, 1.1113885249639885, 0.11121497397400397, 0.717976753825414, 0.057054366268520444, 0.40754251371091, -0.14850775853815498, 1.3740967647812705, 0.5478991503848437, -0.3899944441801953, 1.0864528110018417, -0.9788854407355286, 0.10021082725637911, -0.555487428894169, 2.205864895847866, -0.490795131421847, -0.6317945901475681, -0.18982160345803636, -1.0400095087268928, -0.27224252403828825, -0.642313430901854, 1.140872475273464, -1.1347039239660166, -0.9488183453920602, 0.47977929723240265, -1.45062644725405, 0.37927679191681457, -0.6913705098764118, -0.27797016742374187, 0.3586069506260506, 0.11386066404528894, -0.30999143350134134, -0.7920974087379193, -1.2354836193345775, -0.7497992473476265, 0.03547957928128317, 0.5286152243610912, 0.21306143608413594, -0.7566627252925604, 1.6516565218129795, -1.1594892500579284, 0.22072476982013148, -0.4723104777444021, -2.967663858745315, 0.7139874485623356, -0.9907152023248667, -0.5552895062988581, 1.9228616935467993, -0.9618855104627702, -1.691793564836055, 0.5394755796514951, -0.1339108623670361, -0.5523261568798281, -0.19905518253336807, -0.8711425154649133, 0.7220573685593308, 0.16206726337599375, 0.4104273764150245, -0.7601167747999767, 0.7795660599263972, 1.5630485750424024, -0.22472757969608564, 0.1674875202801491, -0.022541929391558378, -0.7845448772532976, 1.7205094472276516, -0.6261755453436755, 0.49769966369446567, 1.7085597165386592, 0.5450445925968616, -1.816782403327319, -1.8904161166088511, -1.405191115722182, -0.2813647075304481, 0.7972643596658615, 0.7359755813762505, 0.4336702850875631, 0.917494883425981, 1.3349905460687514, -1.238104502966143, 0.9159979863845475, 0.8838330290727525, -0.5563666620015766, 0.8457772378330507, -0.5542208712835861, -0.8736413635816707, 0.9618171127466371, -0.22172574812576165, 0.8626081071416243, -0.8477765683658967, -0.9772671722860125, 1.465042815486422, -0.24645605790753178, 0.7153213395817151, -0.38590477399748985, -0.6907311510465408, 0.3857893006444847, -1.5265798075761217, 1.053996018117478, -0.6622697943304358, -0.4822608725428026, 0.8286300809289953, -0.6034341690537585, 0.231859902602896, -0.5313711291665925, -0.7338176934470734, -0.7378930913949289, -0.45219095562583295, 1.2802728511914807, -0.131887922764422, -0.7289712549747915, 0.9631215916458096, -0.7800556232909032, -1.8978389684825239, 0.3566471122669237, 0.6039172028965132, -0.02627977672213351, 0.5849423486203579, -0.0840803746327455, 0.2619305311205643, 0.12345987481630083, 2.954062859957203, -0.9818472563613696, 0.06626202617472027, 0.5482166431240089, -1.4999575401018888, 1.446617846962341, -1.3569573669698434, -0.7194096154053414, -2.1541938994496777, -1.771132878136818, -0.025228207839943218, -1.4276756657664698, -0.639594354729838, 0.0519698383690008, -0.11384253018028238, -0.45108193610665576, 0.12294421490361672, 0.9378482002639228, 0.20201345290231434, 1.389457006811127, -0.8027088184640064, 0.5596057262231083, -0.39865371751879186, 0.7013850053564487, -0.3838693488108083, -0.09121326411940828, -0.2353757160395482, -1.120450681968499, 0.002116648164460065, 1.534251113036189, -0.3175252074471649, 0.05690510067221328, 0.06438102906974241, -1.832090073837188, 0.18778656664030002, -1.029016448477241, -1.3643064439453154, -0.40893353960825124, 0.49182504741927396, -0.7291989688064188, 1.8696853722397533, 0.10250046874223007, 1.6417882862452924, 0.45426725525599015, -0.23823194547400697, 1.4070443498796064, 2.958670809521221, -1.2532800638574837, 0.36933292263262757, -0.39329893448255826, -0.5228528736210271, -0.20597516712020622, 2.0367438621238696, -1.2431012597979878, 0.6888836751823567, -0.8484279682229823, -0.7783893408690947, 0.10845091807379256, -0.41313452037316767, 1.2273907982702996, -0.5633572707764896, -0.07684298653299775, -0.46798375965184497, 0.9470435685988954, -0.6280777160214193, 0.5637430546104806, 0.5779209408241766, -0.9440299277928978, 0.27366250002981585, 0.40157471667427824, -1.2192814410874757, 0.51320583693383, 0.2216871101647507, -1.4878516566199278, -0.6533816561281217, -0.8668915418017883, 0.24023880334178097, 0.20586185763235962, -0.1625645731245253, 1.322259909376285, -0.03890326837429476, 1.8147064598398852, 0.3742007571519857, 0.6167260861844265, 1.0466910296270855, -0.6244772518907862, -0.8636321307542936, -0.7141599951942627, 1.4613515962764478, -0.8932747850496601, -1.6544138346322788, -0.7123725759415114, -1.598249400962578, -0.637397332779632, 0.234506725203727, -0.5056213097318348, 1.200024967110794, 0.18760202790336197, -0.2263528264529416, -1.9069206736482522, -0.4867078358234517, -1.030616832527685, 0.9945428478402579, -0.1131433486575097, -1.9167326329106755, 0.7978501183842724, -0.76224144560895, -1.4929934408438388, 0.08258110447485485, 1.1667296548612205, 0.2958765967678163, 1.0417069915372734, 0.800136240505302, -0.3569068861881669, -0.11342529738691422, -2.4445035239632675, 0.6397260897458341, 1.3592655220928225, 0.021546361442656918, 0.3885348896759163, -0.7785310895276883, -0.7585686520503281, -0.12529301796870881, -2.7945510807267855, -1.4190314100339751, -0.34125926553556374, 1.0569303997991408, 1.168709249344594, -0.28670254183183014, 0.03470233830408588, -0.6922159591427367, 1.0482772020994178, 1.9843721838362676, -1.092576750113064, 1.4265357667482739, 0.9659575283390532, 0.21885556391167224, -0.0444343127082423, 0.0035788531735951486, 0.8809657159838917, -0.5954192316862259, -0.46559269458413644, 1.4302992129800347, 2.062898945009475, -1.1667630650635519, -2.504094202098029, -0.5065100170960526, -1.8904574955559723, 0.3551770972185625, -0.5067242180686976, 0.7838216145932468, -0.65728100944303, 0.752561611377531, -0.3113789304786812, -0.7262675333725174, -0.9303846180413529, -0.6364755401509223, -0.3310026254921223, 1.7816708955292218, -1.7174940279759094, 1.7013704773769165, 0.17095603865724332, 0.1621596601767372, -0.04825976519748802, -0.6738920454106375, -0.3499511247144626, -0.2122935792899371, -0.17559732372670395, -0.18244452358135063, 1.4234542340199232, -0.9103280791684918, -0.6413722528841672, 0.7764010999751894, 0.11312422941910422, 0.7172987924928772, 0.06098435430745795, -0.30111896561333285, 0.41310828218050455, 0.1347437143956427, 0.05108932483332027, -2.3416138777473368, 1.3726203878307242, 0.31692444257597047, -1.6402649963884497, -0.13109339439358375, 0.37145021462865374, -0.2767599781001887, 0.2722687708004161, -0.09594075770883169, 0.45228007393198505, -0.647546809383912, -0.10803630386227962, -0.25648882706208903, 0.8441927478498796, 0.01211203987271496, 0.49222875499814084, -1.448971488925299, -0.019049454812466424, 0.21777397428367976, -0.30119485063679247, 0.5148453433815118, -0.11287025049228015, -1.0133297348647032, -0.03888071626542082, 1.4684734607109078, 0.7538165099090299, -0.9548370891288742, -0.8384148520522383, 1.0171712468466139, 0.680465036429869, 0.0025169610447165354, -1.8679419524233445, -0.5870108664000889, -0.17943516320423541, -1.5578791504620093, -1.1516864358362275, -0.976291955918709, -0.11534110141152956, 0.41760790633337314, 0.781980878280395, -0.2409625855874284, 0.27935572727617686, 0.2457397333205205, 1.1269844242053066, 1.8225810731135483, 0.7044538322365332, 0.9836400454991242, 0.5475207545717587, -0.8540922012679972, 0.4156289471924457, 0.9835635612065246, -1.4490024782844044, 0.6092771787116531, -0.8868628319635279, 0.07711127369961031, 1.9764208750928087, 0.4491630262874327, 1.2124433134530517, -0.5021502104874165, 0.9953440558789279, 0.36177040627160434, -1.3580763690316622, -0.6289837710902478, 1.1922188028270357, 0.6278243539381062, -2.132248538361665, -1.2045320239941137, -0.8506640980504441, -1.19669421027564, -0.7388896990105469, -2.7917595515606055, -0.7360769761543531, -1.1043338719821487, -0.14787715195898835, -0.5794874226178339, 0.5611661702362978, 1.1922249019254985, -0.6337263112249651, 0.6045140987290344, 1.4415102070182786, 0.4549703254099863, 0.04812669213159225, -0.4250856426512277, 0.39413984972858473, -0.30902163123064114, -1.3001346680450332, -1.6421336743739094, 0.0060789351966401735, 0.9786096223393562, -0.8429965298974105, -1.0993065608733064, -0.1725688477158682, 1.9694261366834316, -0.8141753179108262, 1.067249278150129, 0.694613388237947, 0.30127392162842453, 0.6609289019191036, 0.052254857659160894, 0.016613146651311132, 1.3053455524472675, -0.9730598701150404, -0.6138257384979072, -0.4663901962969074, 0.6354624136572247, 1.3611650858723046, -0.6909297497778433, -0.4090972290314586, 0.1922138905255022, 1.4129436823955506, -0.9414910164648534, 0.08799354250602122, 0.30084628008147607, -0.7343277250799285, 0.18757916297401078, 0.08756924255554482, -2.2066679919133665, -0.170310207095259, 0.07472520977281039, -0.30295129247403624, -1.3415729918527592, 0.6845602738656171, 1.5118092623110522, 0.7685531497812423, 0.2179990356279559, 1.1821290314286055, 1.054860686522136, -0.5124860321831574, -0.950441337015909, -1.9025241974680147, -0.13454037995204932, -1.0613197111901411, -0.26678785984025644, -0.9497061036836202, 0.2958876567198142, -1.3553681185509394, 0.9430011298102767, -0.4180758136858314, -2.2611868970474966, -1.2281844298754263, 0.8977887001602507, -1.3138062371660164, 0.2435631215989798, -1.1702712620209594, 1.1793220210975557, 0.25270490073201113, -0.41883557413827016, 0.35198914799725045, 2.2078293534548448, -0.5647366913760445, -0.9302850256086606, 0.5208140379030511, -0.01238915861638587, 0.15070000211290846, -0.36688511380260214, -1.5733732426695533, 0.11261216465233984, -1.9585187207213262, -0.6633107124560064, 0.5311760188251811, -0.5413900940588895, -2.090300839852616, 0.17112440731361384, 0.1971648562843913, 1.5135717873850936, -1.3707104877876268, -0.7402601187928856, 0.9269843281435163, 0.047839958924247424, -1.3392254705941984, 0.5379936214302147, -0.672638392809769, -0.9812163012425709, 1.8462101556552133, -0.4931065811899241, -1.5194753645258121, -1.1682012250540867, -0.9951235701616995, -1.666159914292752, -0.4620944243078553, -0.47495555479649354, 0.14505699099568795, -0.4508399692866111, 0.03539795178954661, -0.19326463050685116, 1.971270592491158, -0.462692470535699, 0.9745676717196079, -0.40451034118413337, -0.0673012008595093, -0.21403840951094716, -1.581541369946775, 1.1800234696889687, 1.7352714761829702, -0.11472790812663271, -0.5503515002495544, 1.5555136900550306, 0.6343956046386696, 1.2413279172201677, -0.9768568006386517, -0.1882323973844585, -1.227678592684845, -0.2159605944531302, -1.2206270047331418, -0.17325238221548359, -0.27155086137095075, -0.8893804091167334, 0.8076834946891777, -0.5005150326965793, -1.5644084619020449, -0.8083529893319485, -0.4514395832641704, 0.6129606836102816, -1.0804671689786431, 0.23722379772779636, -0.9201153776382918, 0.40425726502940207, 0.13723022074954283, -0.10469844710559245, -0.8084736134095298, 0.5443967087414767, 0.7373238709057489, -0.48086580332712114, 0.375147832570586, 1.150749911110189, -0.06833671869647986, 0.617390452656866, -0.1424255029826069, -1.1764797597322503, -0.23959436867032044, -1.129938375888921, 0.06592515433576551, -1.7692378873685022, 0.5929527589136316, 1.2215576876675438, -0.8407351418958646, 0.10427083850482853, 0.3019989357821006, -0.1627700744812653, -0.5100059683701959, 0.13784274736767577, -0.007996306583444494, 2.9226096638411994, 0.9578659095850084, 0.6511677367259742, -0.2893514894916815, 0.06349415270175396, 1.3562898110443617, 2.048631925221866, -0.6297759570118775, -0.07069398535633699, 0.5989863453827491, -1.7905432829357228, -2.3721354635568916, -0.20508555918198468, 0.12513746536054668, -0.8009080720781684, -0.4465924031305751, 0.9065852504124781, -0.8897688524152202, -0.04000635723330268, -1.2721679302104247, -0.6254486140410014, 0.5215430564819339, -0.5993249182756879, 0.16141721352604532, 0.12992640823627805, -1.0984737983835169, -0.28455409173053625, 0.025583180269737237, 0.904542524250803, -0.4407457578556152, 0.6892518640263828, 0.5217803761105099, 0.4407458614856, 1.4097627295836772, 0.20951533612327924, -2.693797191909821, -1.0078959732216193, -1.6176779523809144, 1.0950697846220243, 0.837052146861867, 0.30657986549442345, 1.1777530491636259, 0.6795076037038049, -1.3705095809744399, -1.4404721525848394, 0.9313919702210027, -0.49526442858702213, -0.37851966663331993, 0.4724797624119983, 0.08276944460965874, 1.3899010865994192, 2.1758170950187026, 0.44034164892791755, 1.4306675821582606, -0.1518622447542551, -0.21643312678768722, 0.8188876398410019, 0.06603339065748459, 1.4289515845437495, 0.03908736627115895, -0.3072957336736742, 0.42421135281133476, 0.22495394273034408, 0.29999525488313344, -1.3846829922448827, -0.037192072023577306, -1.9104810429581294, -0.5164293204804314, 2.0798858434073213, -2.0318532714588673, -1.5586919435635451, 0.7318526640572112, 0.44913707587158364, 0.29995928385831194, 0.70945648180248, 0.40266729863959444, 1.5786344086365376, 0.8371476529878218, -0.01988408289837726, -1.2119718671487854, -0.5035175243826544, -0.18132120031831692, 2.3571782000489665, -0.15390647904055624, -0.3687021486929008, -0.507698550094002, 0.9686127775943845, -0.23160588424182213, -0.8839582625767918, -1.6630708254513036, 1.2147521150780543, -1.177278290045879, 0.6879093271617222, -1.1235168688810693, -0.868844366554816, -1.0842705053155821, 1.6066526291813257, 0.27471523327130026, 0.2600462979607589, 1.470474023398948, -0.10370739971419984, -0.38990157858101687, 1.2561537877483213, 0.2506796314866595, 0.17193243118549684, -1.9838892391807286, -2.180293456426699, -0.6637570934846762, -0.0990882202964056, 0.47232923038002006, 0.022050388942390826, -0.006590455346234902, 0.1563432033736952, -1.437833464493317, 0.5581269877576149, 0.4826703488193445, 1.3542826841182412, -1.5320592005554667, 1.4170093691718275, -1.1302850083259497, 0.4599625084704133, -1.0367434592677907, 0.6974197849707263, -0.005728467882124876, 0.5081186718964447, -0.19199571600405596, 1.0660047677523008, -1.0190571303503455, -1.5185207861493988, 0.7666649233973022, 0.06858070584313204, 0.6772638518733382, -0.19079840749953345, -0.670553893841289, -1.5311545161499462, 0.13130829034856398, -1.3388992089769494, 0.9749414353797768, -0.09875142246366887, 0.7462576948102337, -0.64639914174229, 1.151649537915536, -0.007295464235874681, -0.7935535408683334, 0.3595772114946555, -1.060276575853412, -0.04658930845565878, 1.5172110363562186, -1.244575570299344, -1.5002731050600548, 0.5369327878425467, 0.14244158891060102, -1.24449231692053, -2.7337624880698788, 0.9015207538799045, -0.1844849345092858, 1.4373040275045286, -2.7406233191457083, -0.32342027942617907, -1.1776374540624264, -0.14410208520586903, 1.90585663702496, 0.9141347511784892, -0.35986983506751463, -0.4023688530443549, -1.3422203659495564, 0.7879618643690319, -1.1904647366543186, -0.012524253650688804, 0.8307502599480383, -0.5610874038346095, -0.6245929341661041, -0.611032777940643, -1.2960468187422498, 0.4536788354989765, 0.9316598955040545, -2.0585222707313773, -1.0895106514265238, 0.06455067906348501, 2.122439583045331, 0.17796824002684491, -0.6695087680735913, -0.6680485152299758, -1.431080381674936, 0.4994481262082077, -0.5165300539583056, 0.255636995465403, 0.8442938954752649, -1.0485566858961008, 0.9612512995018649, 0.000694329028260418, -2.004420898068914, -0.20121956835018018, 0.23862224335986068, 0.7309402153037137, 0.8623347053001233, 0.9724326739531728, -0.9036439805813851, -0.8513886441360574, 0.01613354871140526, -0.7742053967662885, 1.843848001206002, -1.9725288018732057, -0.3946175233284119, -1.5506268996520416, -0.7799627498897573, 0.8203349502782149, 0.6719486684916373, 0.5653609978792956, -0.98225606383265, -0.5773324296969208, -1.0292713007655936, 1.3659766917592717, 0.01654360851349231, 1.8201526196220181, 0.6563063404702159, 0.7465972714249888, -0.6000278352788638, 0.7355724467437789, -0.6695775425624204, 1.0284748538085455, 1.21425117149173, -0.9221711436564388, -0.5142705351036092, 0.5179961366492125, -0.31741997308910797, 1.6359696638361816, -0.6042281044991001, -1.7173138173198719, 0.33282358325147354, 0.2549565521553165, -1.339358921168591, 1.50866524453591, 0.7211056867463785, -0.06944902663437956, -0.5683653497056919, -0.7118044431983923, 0.0931803651854169, -0.001656350742343458, -0.6258520408067746, 2.2756826595238944, 0.4733922727867166, 0.6644118259268128, 0.9943269712476936, -1.3211892628100246, 0.23465802045059558, -0.5869521912378575, 1.0111379544417025, 0.8171625363252728, -0.39108539226414324, -0.022497203211054483, 0.2227783901318437, 0.8982056794877326, 0.8453790211828047, -0.3592748514872139, -0.6667922897052548, 1.922692552596713, 0.009379872021374804, 1.4087409659037937, -0.5943546656414774, -0.7051751061702641, -0.40626444299612585, 0.21688198050848617, -0.7553120001567757, 0.12603360861634597, -0.8971272529687945, 0.3965794511063968, -2.3870416174947895, 1.5855736027918526, -0.11238679291121882, 0.06556923732908829, 0.766348452209023, -0.3476883599870976, 0.5538850780305055, 1.7961181622916689, -1.1129228739913806, 1.3144828775874202, -0.8668979332553657, 1.2411440434734777, -0.1934129663801841, -1.8328233833474656, -1.1087132916959916, 0.8162820403385651, -1.143993479806094, 0.677456165808572, 1.8404551733673489, 1.4499897703130933, 0.4992158375061117, -2.11881537372529, -1.2989335321760833, 0.7825711424833647, 0.6984155280642321, -0.6081875404312392, -0.38686017485645086, -0.969899965692325, 1.1237984945085568, -0.8610105606316428, -0.7324000135635323, 0.5148974300155504, 0.7744941502212057, -0.22654127001833185, -1.9204046654731466, -0.23251507446873956, -1.389111375323637, 0.42148966650468206, 0.2512577724706963, 0.23673536907726875, 0.4916147324231798, -0.9095485529751391, 2.216579793877997, 0.7075266212014344, -0.10325056009899883, 0.7793614972630737, 1.701136528560446, 0.46338378074737396, -1.3721071746962594, 0.9334646362378513, 0.5868835576045814, 0.47968318803786125, 0.6277244728814522, 1.033499828270075, -1.8127895815831756, -0.03072722876666582, -0.5967718216775363, 0.4317277995245241, 0.7742673816704275, 0.3560211103530444, 2.132566329072954, 2.301314169628054, -1.245243884130604, -0.6094002485622304, -0.3452259118474297, -1.8877521599519909, -0.6796843903680081, 0.8837853669163006, -0.33682170428097274, -0.8306100752537743, 0.45832333442983597, 1.6168060020098336, -1.469444546320296, -1.532239202438714, -0.25510796407225317, 0.30972554182910766, 1.2261402103684715, 0.30500834724457326, -2.2051007146447064, -1.1283102973966581, 0.6149155360148502, -0.2167493887623305, 0.12358467804835623, -1.0299261527023666, -2.241843166495423, 0.3889953956541694, 0.968876088471239, 0.39213784269080404, 0.11661445786920994, -1.947551769201738, -0.47645038686125657, 0.8462252888317529, -2.432473453745501, -0.7207623375080405, -2.064118516783981, 0.21662183888113706, -1.7395021358039329, 0.5214956790041388, 0.7046544149621718, 0.32792180178482644, 0.41711859906520093, 1.1191875093578216, 1.674929903082742, -1.372827941849051, -0.802897753748571, 0.47987130116139126, 1.1872835302200457, -0.29747331207174565, 0.07096792771238242, -1.1826379226310457, -0.3301616438878929, 1.3010074362361674, -1.6383960090335472, -1.520788663247448, 0.6530649517716455, 2.3443324396385368, 0.11288997317525361, -0.48504321700699743, 1.1500867803899282, -0.032976373244052, -0.6790019892533983, 0.6533560265825259, -0.8265206736789991, 0.07150581152628226, -0.9260207320278123, 2.3715753074098, 1.875673915537048, 0.8155770930395717, -0.13256058108579868, 0.342375313044759, -0.4085739302132115, -0.20052439248045784, 0.5227016550589038, 0.4922993539959568, 0.24837298184825138, -2.094321981501623, 0.7031368987725335, 1.7180035975085672, 1.1402656149027315, -1.2171061822326583, 0.056871500064596056, -0.236688919033535, 1.3035667190207487, -1.2173301421512746, 1.5219538027610535, 1.3443026489641337, -0.859637885121863, 0.411082309795765, -2.039059945217151, 0.7298960811530377, -0.9071084656092274, 0.7755652200344294, -0.5711999182192431, 0.8990736403035885, 1.8450306306604083, -0.8876635419468161, -0.6116210062985596, 0.07854897395765505, 0.19627105022355498, 2.298903170107824, -0.39443393311063357, 0.6554811192688971, 0.5921082041697064, -0.26101063474199104, -0.18909627525474343, 1.0873066662803061, -1.102656357796971, 0.40103512174165035, 0.06059685393307363, -0.9399831909418034, -3.0357200035033927, -1.6119687187503264, 0.184700292208369, 1.3558191353302724, 1.0641914549774403, 1.026011066693521, 1.1569956138071427, 0.682291056926922, -0.14975080029229618, -0.16231976947910937, -0.2101930262290141, -0.9176953913313416, -0.8665263140639669, -0.17811965632638135, 0.5551269698898409, -2.073604578330398, 0.5911611461703786, 0.602511521689028, 1.2332703222658612, -0.650393861992511, -0.12271972967890721, -0.18976780742735122, 1.1141316777108308, -2.151263073295554, -0.7632385203105848, 0.5653292721172515, -1.0238326505766406, -2.1303492820717023, 0.20236025419143217, -1.4366991927532822, -2.1647428965177884, 0.3601177598966687, 0.029305991365476833, 0.09579793293068958, -0.6709501745510115, -1.1020480805993413, -1.3186595229095417, -0.9198410398045768, 0.30525162713784476, 0.456553202164883, -0.03142525433554651, -1.4490997013315836, 0.5248144091396749, 0.2397891121103805, -0.5381549631141713, -0.15527140238246107, -0.823930048803273, 0.8301722846616088, 0.9557855191235339, 0.39791913122890316, -1.9412943453514517, 0.6546485705605095, -1.5556531427271199, -0.8883317688799971, 1.0244591082879717, 0.35170047598649434, 0.07802872517132976, -1.114163302861546, 2.0823292092741816, -0.9382792071006669, -1.0573198121907192, -0.24507416787287306, 1.1417493444739204, -1.0380199098444514, -1.1727890002878472, -0.7394565885154912, 0.2931893385198447, 0.211500101743735, -0.33843920585755194, -2.372250772325109, -2.4233077336598337, -1.0577412102077801, 0.3118059256095568, -0.7397148386806881, 0.5664614810161658, -1.0494660760953023, -1.508959950143853, 1.0292851037955637, -1.198000382314813, 1.5078661753358737, 0.047079528444003337, -3.007781514832015, 0.7085434484558685, -1.004360126924747, 0.5420471807620281, 0.048631076734330966, 0.6760951905498119, 0.724147443241234, 1.8783054827562067, 1.5345198343536848, 0.49629497719159427, -0.42114112874210713, -0.2658777402032679, 0.5674580564811137, 0.29540707786785997, 1.2305451612355092, -0.4099323666933174, -0.2813114757637458, -0.11361241830206298, -0.33023808021956985, 0.2697631400364582, 0.9442921495489586, -2.5771999437685613, -0.7909566351004004, 0.18157883338720154, -0.21033191171430346, 1.5358966939343701, -0.44235381642073535, -2.045619453990713, 1.3097314955791393, 0.4224134044895194, 0.8747999747916818, 1.6628858599107, 0.08006564822421527, 0.8542461447875256, 0.9351751228960028, 1.8188007728362185, 1.1444986804555886, -1.4633300105657208, 0.9551542601048977, 0.4982288069405343, 0.1301214771357151, -0.23062137706916852, -0.8075191003162729, -0.18747829462510454, 0.9417807713489443, -1.987598002718303, -0.8426587130176078, -1.0287409820675708, -0.2641264547583845, -0.8025864900155434, -0.6974453681379639, -0.32097106662217123, 0.15218977816689883, 0.9526589233126324, 0.5165711819923969, 0.1759095780375617, 1.5533066658191699, 0.03522351249125939, -1.3551723650233038, -0.8356133837132232, 0.0504605824670375, 0.9375613250955278, -0.8413756951939058, -1.1052150678970194, 0.36302183277531835, -1.644856990265134, -0.21580303260041309, 0.6094445825768485, -1.9455802482330746, 2.3848665587320275, -1.000685798475616, 0.6749052736192415, 0.014114594799512067, 1.4668320779737163, 0.4271852915212772, 0.7172146382870707, 0.6740371756140745, 0.15154754072371415, 0.4996752102870843, 0.36090705784403543, -0.3949287107006179, 0.3214060546829268, -0.1617221772241986, -0.42112042402893735, -0.5507137214720634, 0.9611809381633527, 0.37845781105916526, 1.0907371533152632, 0.6206187345418671, 0.7953493515444562, 0.31900534374502876, 0.5194658263729744, 0.05955621382550482, 0.6790159898594317, 0.12307123150606958, 1.6459110807430102, 1.8620631355026458, 0.4223091911093454, 0.9336638153125445, 1.6409046498761064, 0.38593015029598693, -0.889566174289149, -0.25853346840541647, 0.7207778834788132, -0.9972960675130484, -0.3292085441810203, -1.4942100067596245, 1.6459298939996903, 1.1161129915127797, 1.1136800875494823, 0.7159653001994338, 0.38591892914142956, -0.5489334893153215, 0.4330031443394757, 0.4104317856090882, 0.49984470688368554, 0.9107708626767205, -0.6312612183672568, -1.521412082322577, 1.7977059384385172, -1.6244892066872554, 0.2739693157214159, 0.09302367801156879, 1.8446271060093393, -1.0255817287431521, -0.42575488340368733, 2.202018424246317, 0.1283455983939182, -0.1693946775684063, 1.528922526236471, -0.6784809642193321, -0.30995874783589467, 0.5830355511778302, 0.206238685397599, -1.5052474585025593, 0.6085610102963495, -0.8207688431917338, 2.1908426409563173, -0.5311743565863682, -0.467690117783001, -0.33025392332603637, -1.2080547563178434, -0.8578966554662117, 0.0077298669435737965, -1.041942504196313, 1.1105564671033292, -0.903949768157496, 