{
    "input_shape": [9635, 10, 6],
    "layers": [
        {"type": "lstm", "num_units": 15, "input_units": 6, "forget_weights": [[-1.90772144394157, -0.9937564362149104, -1.0978258284119191, -0.05102936749428678, 1.2624756721696095, -0.8869721846477658, 0.6536100101330218, 1.895852303647388, -0.2776810440040489, -0.39633950002466695, 0.7822934941818808, -1.7224288269322192, -0.927049486770798, 0.22992846902349712, -0.8169110230271474], [0.7749751245956402, 1.375271457330437, 0.4789093436595648, 0.09115124501058622, -0.4386250310366558, -0.03852088107780011, -2.4149822577538123, -0.5885321680717289, -0.7976118247673798, -0.9027721142169208, 0.35600234930659225, 0.47554322274544286, 0.7906246582728242, -0.35886225637558483, 1.1840779428887185], [0.7008250892445727, 0.4569283926260872, -2.1840409745023206, 1.119330252320221, 0.7300257938074122, -0.28153497943690275, -0.36435533627262623, 0.2423309971386437, -0.24047528728033174, -0.7895757740281536, -1.3812423049424563, -0.8502499343988363, 0.2727417295908215, -0.6543812728007398, 1.7692696869941844], [-0.7877722178375162, 0.0719441079820703, 0.20890420228773796, -0.6302029021243758, 0.7165378324592702, -0.20310650733210206, -0.6112582679211639, -3.7668039866891925, 1.2848459298158816, -2.0008567023046777, -0.46079348008858223, 0.29106203656181295, 0.6831302540438742, 0.7201653591016728, -0.7557572184984165], [-0.9673987242664597, 0.8418398004670061, 1.829113926099312, -1.0068824069153788, -1.0790103916133769, -0.2603917957819252, -0.008260940686250147, 0.17126992105798725, -0.23215210377247636, 1.132289642975383, -0.23810539598646416, 0.37938683230884157, -1.084548031954687, 1.2068055455192488, -0.6911266444678319], [-0.2541446728247665, -0.07716187449751484, -0.38471870713611395, 1.9534497866857743, 1.1595012370118465, -0.11257398675126337, 0.21417892045639803, -0.7728829715096818, -0.4157644268469004, -0.16159847820487544, 0.8550563404543511, 1.0082516909512065, -0.9066183522249833, -0.15781227808344528, -0.16653802022265934], [0.05801229460494226, -0.053247817554003346, -1.1087361114800443, -0.47126075477044305, 2.7479827418617595, 0.38456771873374634, 0.4701364257043028, -0.3787295136308822, 0.41021833934522584, 2.106947408535031, -0.09268136585129122, 2.058441810727946, -2.6421316429727253, 0.7330584825579086, 0.3812299605121306], [1.4635055825027194, 0.7190141846992877, -1.2968184061940597, 0.3829233221599571, 0.9388175663265146, 0.049405990658109446, 0.054818372608457386, 0.6592215452706146, 2.389872569053807, 1.8329286031645498, 1.3590577675156643, 1.295856032486102, 0.0069170522701871105, 0.4661373610294778, 0.05838135572533785], [1.2147563735774158, 0.7837505967818308, -0.018728433245380725, -0.5213372200491644, -0.68722102973355, 2.4641311277206928, -0.2402854375052259, 0.9662314314795781, 0.9846670297890788, -0.16240249830210257, -1.7915590198948548, 0.04977952017926902, 0.6491473711689175, -1.8833936620294551, -1.2464039220110845], [0.9706389807201377, -0.6871630873268469, 0.775280310584421, 0.530618353959096, 0.057258656230848456, -0.1267845790637766, -0.30521612860733927, -0.46666807641638997, -1.9369790341419988, 1.1566764253676156, 1.5159234110573652, -0.36792085536850044, 0.4728953850757671, -1.2486538514338255, 0.18951617736116616], [-0.7408188780512781, 0.7475431102084812, -1.4764789439512847, 0.9693568660300161, 0.1919261986337352, -0.5239214216929214, -1.3814774556642666, 0.009168489647836288, -0.002388766186658322, 0.5471255057527805, 0.006945638845365938, 0.36935954917676345, 0.2748171317185149, -0.020130618731869637, 0.5478236219550833], [-1.3002247292647997, 1.1914868252200908, -0.12129303762794523, -0.4188774876331593, 1.5518494847705278, -1.6149168768271691, -2.0102098757748763, -0.21948691113783875, -0.23412173259645322, -1.0109463256514606, -0.6516654730693355, -0.7695750771791547, -1.2050897554416076, -0.6411861178133225, 0.8593502435485246], [-1.5816282940001696, -0.25748040899653235, -0.05930105848550756, 0.09018104910215993, 0.6309811796416372, 0.03664063692128342, 0.8620724489054291, 0.057974671854460674, 0.8362492311292646, -0.9439680385781196, 2.0883068836478023, 1.375420131036343, -0.3742136284279029, 0.1608369408711613, -1.0156328530060577], [-0.6791964527818272, 1.117362219286087, 0.670628180710547, 0.8999810161167743, -0.4007048727991136, -0.5502725500196815, 2.315117067573968, 1.3904166780988116, -1.3459762588942068, -0.3358530564443207, -1.6122113898486523, -1.9568404583291483, 2.4209231321552243, 0.9174875691187927, -0.8817510690421596], [1.061434356003779, 0.6604798254197701, -0.5341155330535028, -1.8163871943722938, 0.9812785544288979, 0.6042532750109953, -0.31288016867951285, 1.3788430673170662, -0.4134236548486073, -0.39188324444462685, 0.8999122930010063, -0.49691407013066297, -0.25557360014258645, -1.3679380365473286, 1.825962476456146], [-0.3701031199426878, -0.32869494809461913, 2.0945484513248984, 0.21286506201416494, 0.4792312214621505, 0.39630084070360316, -1.409097016978077, -1.5997065049517547, -2.1179980964726925, 0.9842301405810914, -1.006568355522148, -0.11992848997220402, -0.48899777400747524, -0.1790884928984946, 0.1644995357496363], [-0.1731207439166724, -0.08599659016632218, -1.2701416790994036, 0.23782642398224155, -2.0519031209185488, 2.0899834526374614, 0.4843706968478628, 0.007605972748360469, -0.3365055159057988, -0.20467664176847045, 1.2846043536415428, -0.6989823744643245, 1.4615523878306704, 0.8107365952389296, -0.9766798976895709], [-2.1804839759235475, -0.08971973851981337, -0.4643540682727189, 1.062713983491443, 0.11219560597621428, 0.7750719014306345, -1.3458736224168504, 1.414077627277781, 0.7589750433866824, -1.6981475010714804, 0.5373229560316705, -1.7576617323788022, 1.0632281543464825, 0.27272691103878727, 0.5949403352008557], [-0.9996544481471129, -0.49724897367056503, -1.0064219429284542, 0.23963586963000597, -0.6938850831508112, -1.8682752514784977, -0.34076296101338444, 0.23384891009562114, 0.5134869325282753, 0.18855511986735154, -1.5329583955393566, -0.4340324389656973, -1.949607882297337, 0.38293846266592363, 0.7611796509809441], [0.044534875921645296, 0.8338804380044875, -0.7753206260813739, -1.4789324323297521, 0.9339502723050699, -0.16565254165304444, 1.8330690458909176, -0.023916686097930177, -1.6663013422027184, 1.781315774716302, 1.168795335961569, 0.8107656398517782, -1.937673780556316, 0.369752650133044, -1.1466456072937687], [-1.3887383621782716, -0.9038591917707222, -0.23970488838443693, 0.5033266242139846, -0.16169523999582877, 1.6798730947545226, 0.036878511681253806, 1.1800714715262934, -1.0532069966195245, -0.2735843987020249, 2.0609726071751227, 1.7998831305891276, -0.49105018702672804, -0.2673668667901553, 0.7674628650063616]], "input_weights": [[-2.0154046409467923, -0.6666333810056754, -1.3201148382522716, 0.20337225428119976, -0.8989560255495581, -1.5429821659649776, 0.0169723401955759, -1.0082133505710111, -1.019585780594812, 0.0395030440783852, 1.0332878392925582, 1.7373971908572032, 0.6658869931956118, -0.7895631121545504, -0.08368612649949], [0.2864482489400566, 0.9929700859894157, -1.2214897867610746, 0.09379707340037872, 0.3188836478274974, 1.3378516175422674, -0.6826449008340947, -1.6161330118121608, 0.5666632717127229, -0.9931677725240754, -0.3487064855799825, -0.9104168284510786, 1.2727896554183762, 1.053917065718427, -1.6173986212690172], [1.1812448971869203, 0.0388439427742372, -1.1193471706272755, -0.7145987349115783, 1.2618656325700033, 1.0212482215043648, 1.802210077934161, -0.1815594523895758, -0.40086451460905836, 0.6235814381517532, 0.8030908413838752, -1.2008000046583505, 1.04893878493879, 0.06151050923711153, 1.4503196486963355], [-0.10471866218521218, -1.175934536333556, 0.25283983339712196, 0.7244232313006713, 0.6450344357107992, -0.832997839988378, 0.45890247805748, -1.6772195344016103, -1.1656504774072947, -1.4808477484884277, -0.37286432065016156, -0.8597383269727001, -1.112719919070403, -0.10910174906539642, 0.44087464090462375], [-1.041237981178311, -0.09085805692931051, 0.044506541286313664, 1.0195293384633919, 0.76887750509128, 0.43185402712641197, -0.719259402951207, -0.9843646461773052, -0.3866163633086107, -0.21253235729253772, -0.016539772088585602, -0.9129669161421917, -0.7953209360006019, -0.260560760901643, -1.3438890181416476], [-0.9227695046307168, -0.8802417762706889, 0.5028446452710221, -0.41964538931029505, 1.6784224673426995, 0.07161919453763542, -1.5045971498834065, -0.17753509000646184, 0.032976508686772404, 0.8169086225108676, 0.8300159505378487, -1.388492261949792, -0.5510036847909803, 1.6801824831107328, 0.6234983656300508], [0.587054647069237, -0.8065104456321545, 1.5143224585840347, 0.2223767195319167, 0.13619148566033742, -0.5194331762454321, -0.7699832136899146, 0.3071825707285362, 0.15155458234156102, 1.815566358693236, -0.41556964106300964, 0.9906783200553836, -1.2351040730528762, -0.6822468539713503, -0.03351392114128538], [0.7263504763351625, -1.8762545559684864, -1.6077071948498682, -0.2727523594045548, 2.5974323145757907, 1.5679538013414618, 0.5328745012422386, 0.7355776878070164, -0.8032834589038914, -0.8316005938795837, -0.1585079217552794, -0.12882980361390609, -0.05502163955455513, 0.2751131911091438, -0.5760688887425386], [-1.8329530989184888, 0.4978876391090752, -1.036958373931195, 0.6158366785662476, -2.1849934321349065, -1.4098457720678863, -0.2829671606498489, 1.3739077652477694, -1.893297168091704, 0.03150552660818816, -1.2627960226285226, 0.4718344522077207, -0.9892818613074557, 0.06553792923598388, 1.6204079601766097], [0.20528171531496714, 0.448882779305253, 0.7013124744022743, 0.21601374299040524, -0.8660805802405954, -0.17825652980800855, 0.7800880634131998, -0.821987508778401, -0.10670589496575614, -1.0284189216388226, -1.826755391314093, 1.016196895352902, 0.9834794392209859, 0.41869600220219083, -0.1675666178768822], [-0.2346383335425727, 0.38194790418781965, -0.7668542904506747, 2.4641256708863644, -1.6705605422672491, 0.7221658498417751, 0.9232281810916197, -1.0721055028636932, -0.22480633223951946, -1.812033899891956, 0.8976166155565863, 0.4156736553125757, -0.6301724353626296, 0.16408694485992023, -0.25405986559140536], [0.23156273561722804, 0.6085022364978053, 1.0881439356302554, -1.8238967471375709, 0.09989844132704412, 0.5385093425358585, 0.1391042730476037, 0.3208904375924465, 1.3012387034416388, -1.1032225418526016, 0.7286469032579944, -1.9204833095075733, 1.579225108198898, -0.5603837274657234, -1.063314703935173], [-0.16429855226431664, -0.08754240249202805, -0.3102273609425511, 1.5169979445976036, -0.5860085359080462, 1.5392648751758153, 1.2738405107112976, 0.23696503139183409, -1.6046805655813607, 0.11841802841246567, 0.44301601108116934, -1.5720337671084341, 0.5221879459644642, -0.2854830527856497, -1.4112393159384076], [-0.4607403466678588, 0.5747094347225279, 1.67998056540781, 0.06398560265140266, -2.7916333107702, 0.608102557969724, -0.5992926967644948, 1.5904965162284883, -0.7786559890331234, 0.18556714323022427, 2.8513898113247467, -0.5789150720830579, 0.01586568960596971, -1.0410442731703968, 1.0038918186394155], [1.9004313897514922, 0.5296048114117797, -0.5525933838916204, -0.7463999245012111, 1.9220294744254725, -0.0057233595774987605, -0.6055333577099399, -0.5073987740113264, -1.238358471068656, 0.6178532868612581, -0.6733863209590993, -0.032822736262580775, -0.27153866850295083, -0.4124194028233464, 0.5721282784410385], [0.7800553632776748, 0.5464053534722201, -1.6136292243616448, -0.49466161069517584, 1.191099214097395, 1.4025322955704271, -0.28375566991249734, -1.8398801246562753, -1.0373808898853092, 0.002391271413147266, -0.3307203748209251, 0.24479261314392395, 0.9490216102502148, 0.3638012070691578, 0.053393523095863545], [0.3137619776033043, -1.0365513947333185, -0.06489648111078834, 0.9968608117509347, -0.1756783808427824, -0.4940498776014654, 0.019597170306716656, -0.35940308374094226, 1.110338335951526, -1.2438221134111027, -1.2270248981482796, 0.1870999615936182, -0.40763639180512856, -0.07644147861135382, 0.30388225331126784], [0.8544101721830778, -0.3061779907665037, 0.6890284476844647, -0.301429901084931, -1.3622516105417424, 0.6965587681604649, -0.46652991225386886, -1.449903222841653, 0.8277371858933429, 0.5558458348733067, -1.6062923126864352, -0.45125037249296157, 0.7584941971200059, -0.3030568601217858, -0.0675148163048802], [-0.8216407434064678, 1.3026633150741338, 1.8109849779563505, 1.3669305124433637, -1.3158338421398228, -0.8283126628064014, 0.317487863938385, -1.8154490233475866, -1.3015018469365727, 0.9899922648368225, 0.7216299412519298, -0.21226274273769766, 0.01940870221079904, 0.16186795920451524, 0.6481471776494814], [0.12710573435622494, -0.0009459555250143732, -0.048469199834296026, 0.9850500034951392, -1.944790302263479, -1.4468064404157188, 0.0638173840651621, -0.9261734993869732, -0.009454770882478411, -1.7684022070310472, 0.08046481579689536, -1.4729504823720256, -0.7203597633563796, -1.2492747905936104, -0.3482598946213468], [-0.32151271024319084, 0.4561597857878475, -1.274775783890662, -0.8616305630317835, -1.0205655284869108, 0.6128300929869045, 0.1358288002735383, -0.11293818240926289, 0.6511218746219866, 0.42864433665431256, 1.672285957721488, -0.950719166140628, 1.1120149439975733, -0.7337696630265663, 1.3035184867207883]], "output_weights": [[-0.6415376260727395, 0.4737091599315596, 0.7687633333838801, 1.3128570211066612, -0.7008985134075983, -0.4757740016414011, 1.4046675371602, 0.4994918212885387, 0.6979560828386884, 0.3860019946132165, -0.3811629014725517, -1.5757664702075165, -1.2746462951926367, 0.027062344900554557, -0.22257387729863437], [0.353851285030829, -0.3865790020205252, -0.9288428499737519, 0.3654558547378904, 0.11170273030403716, 0.6911054480777798, 0.14732397761236918, -1.5658320368421874, -0.23659725944668128, 0.10925068047210425, 1.2914762947502827, 1.2365806346186485, 0.4927104515849682, -0.8831648380362193, 0.5298025217944126], [-1.647791310122409, 1.259779534643589, -0.3722867682179568, 0.14449113577536007, -0.11223765437866441, -0.7148776600466218, 0.9627069403115284, 0.2928183582329922, 0.6900438601673979, 0.9898466454591063, 0.4209574721942711, 0.38782959315789256, -1.09710595634218, 0.8607248800252979, 1.3649842025963206], [1.6411899911128036, -0.3847978639471121, 0.7632581727576347, 0.57131555991113, -1.3024161627293676, 0.9758960966835548, -0.715525580513242, -1.5500771329210041, -1.9521201098991279, -1.3856575093915098, 1.202880742406727, -0.0651150288820236, 0.2557373538041611, 1.0670298858720457, -0.11783503540275697], [-0.4156035814853323, -0.8415533099038649, 1.010752672182984, 0.2169222756103223, -1.905470730124135, -0.30908113771265433, 0.5063669594986385, 1.746938441072901, 0.18858060871981547, 2.197438157225621, -0.05426031129546279, -2.349538329738691, 0.14575222200365723, -0.12240493572899121, -0.7542201454992495], [1.571520103621978, -1.404864611225426, -0.2038568754373531, -1.0131607009068404, 0.9525288771040981, 0.18618447333603885, -0.40642999663619267, -0.8364395476441504, -1.9899652181872622, 0.7060440983673844, -0.7033636388400029, 0.35177515179275326, -0.6466018121163662, 0.5001722029912354, 0.5488209504738587], [-0.09080455658693697, 0.20768826628170006, 1.6895436064086806, -1.3119598214962724, -0.34160867149647284, 0.7700291863450083, -0.40035273782817876, -1.2204432592440955, 1.188078119316127, -0.8266917345819325, -0.07828009226575666, 0.009203442006153875, 1.5357191508492207, 0.9914352083343301, 0.30508166113319685], [-1.5337756797723607, 0.17088521434898113, -0.4962271693483929, 1.8716799653997018, 1.2376084806232985, -0.6579423835462432, -1.1108509210721054, -0.4277823038336697, 0.33493972695764407, -0.14679087639744373, 0.08547982138083227, 0.3758133938455764, -0.5793012448120761, 0.8678611527803674, 0.5094723069117146], [-0.16022581717319154, 0.47649369793191787, -0.024922199830348588, 0.03490639367964218, -1.4857800919591917, -0.535728669836394, 0.5172929128439899, 0.06532119954722439, 0.7322765649609976, 1.754562414684917, -1.4128040891488085, -0.8106390680565149, -0.13191366339921526, -0.7963975601395282, -1.6491232358161831], [0.7167820593950031, 0.577172622854365, -0.3540346226165966, 0.7688051310649124, -0.4686486291480812, 0.041492288397774205, 1.0168716372017075, 0.7004974305713552, -0.7531349301432438, -1.2004790338330185, -1.427338423163156, 0.03767594377563651, -0.7913475200960021, 1.4798561618550508, 0.5551603541748789], [0.2726624369808281, -0.8097488120009004, 0.6734195093727015, 1.2041120246954693, -0.07538002203878034, 0.4540230730229389, -1.3701558690804332, -1.3537265944187586, -1.090322884183594, 1.0190896379502088, -0.41773623773043, -0.08223485635039648, -0.4904433278726889, 0.5635411407935919, -2.0406956801352965], [-2.1159663540362446, -0.275251242740827, -1.3878476152696146, -0.4564335291178384, -0.5077274311408956, -0.9639773581602744, -1.02419474427829, 0.20490572740706986, 0.9350373921716244, 0.5956891141875247, -1.1630856834294645, -1.0697336839538316, -0.4362325482514375, 0.8754453979710228, -0.5265944044595766], [-0.05079449712092705, -1.7526834655120116, 1.0676147062213275, 0.49443602227632766, -1.672809649421009, -0.900234344862409, 1.2238826040109365, 0.4493365545236134, 0.7387811430045363, 0.4708166371646711, -0.014993818784756004, 0.7981279533695138, -0.08365428771749478, 0.5216878055144083, 0.09204937655796881], [-0.4996365661588743, -0.26620606284874043, 0.6476064679132145, -1.5204168866979164, -0.01710327288044649, -0.37962915845786804, -0.0454120698543874, -0.863221200451758, -0.08822831708208859, 2.398205807893382, 0.4055387123050612, -0.202384512959067, 0.8596336523311415, 0.1758661400761104, 0.8015949456477075], [-1.122534983247814, -0.35944698226690625, -0.8567939636933573, -0.0862976347588643, 0.594445823009412, -0.32557233150708687, 0.4631244877081455, -0.5396677191349296, -1.3338456047980318, 2.6063587523484446, 0.9294037232214568, -0.08937356084267942, 0.7806834717681662, -0.41466812596212793, 0.7822326886564986], [-0.6625274511753774, -0.784706270359125, 0.775475257825431, 0.16340275521980788, 1.2754124214421385, 2.9057066170714787, 0.2386331549240595, -1.4625056389283466, 0.5293223575368485, -2.5557381246597473, 0.9784889829355556, -0.578395197138628, 0.6459632154523581, 0.07276382601759421, 0.7819926439219737], [-0.13613068446747897, 0.287060452415383, 0.9859787812098976, -0.5722237427951301, -0.6900183735391673, -0.973054388386943, -0.1464501040869116, -0.6392160656740195, -0.5721225725574165, -1.071697306545661, -1.3868778128220833, -0.7911576228535624, -0.8822628873012598, 2.1517523679693378, 0.6265414330945365], [-0.7712329041362165, 0.967128142347585, 1.7174563303305677, -0.23360130764697262, -1.1904245730035905, -1.2192046971137176, -1.255706171138823, -1.5300522160719692, -1.3027739730494607, -0.7940041128422061, -2.0031983763514187, -0.987160350248597, 0.9458802197943499, 0.645965576697583, -0.5408285874014186], [0.7690940760414328, 0.15674698507373938, 0.7925207680461094, -1.8320949892011698, -1.500050761722886, 0.33138547067131857, -1.2919712601283213, 0.17984490311385368, -0.7444893663264781, -0.24345648192710345, -0.10695728132495519, -0.29685491792560104, -1.0667363519738782, -0.32378551297850544, -0.6912383163218498], [-1.4462419760070941, 1.079809394867227, 0.7604925310161247, 0.12479189184483427, 0.8321681752967436, 0.05121794964224019, -0.07287586763513401, -0.023659407814858733, -0.2722338673720135, 0.15032465651141533, 0.514359516738557, -0.4955217368878673, 0.4270641127045472, 1.3207323032814284, 0.36858713312826263], [-0.615991030910269, -1.155789246454756, 0.6489800928729362, 0.24178325395931113, 1.2391376231423552, -0.4199051911511172, 0.606224780684436, -1.7073105457305235, -0.6175356139371427, -1.2971314694535188, 0.9223157284529131, 1.5134900259694544, -1.0320294525962708, 0.047189744907039914, 0.505767878377246]], "cell_hat_weights": [[-0.6937153934387433, 0.719503144688913, 1.8693691480585244, 0.9899511269364626, -0.7745383056894259, 0.8752373758878781, -0.05600001664710398, -0.6277204231588389, -1.5960161536907986, 0.3047852427839856, -0.944333300893378, -0.3473500429389859, 0.5307292030405888, 0.5061136138946195, -0.613014560237612], [-0.009364462687406873, -0.494867407933826, -0.027776977495933032, 0.32407977301359914, -0.5843949244805, -0.21850577585559955, -0.597830517789403, -1.4342476625477787, -0.5052751730571912, 0.5143934438123255, -0.07993080165661141, 1.2319889008642744, -1.0043047641369083, 0.7465646106198411, 0.30799676781382385], [-0.7881584824588641, 0.00012951165705598808, 1.2296016910141243, 0.9152088415748658, -0.2994699778434335, 0.22527896945407608, -0.029755445521875947, 0.42208771614574203, 0.06269329578938566, -1.0813120569934949, -0.6388070969691682, 0.39488678300523355, 1.1799447569305155, 1.0257088246158719, 1.1960659703830603], [-2.130539504945018, 0.029583222309073037, -1.1718474139524957, 0.5439561242616019, 0.18095881049177973, 0.09467124313265336, -0.5091363114725502, -0.5366713197561576, -0.40198470090679767, -1.393151045686622, 0.7875503536272679, 0.8913174166947897, -0.5672343418971678, 0.7465214322173193, 0.9708203958898911], [-1.8339795158480958, 1.438728812590877, -2.0032253785772514, -1.0585295482654882, -2.5546216516747644, -0.04093760182504616, -0.45587640594518103, -0.6166362759063658, -0.8096897492563718, 0.6320699534298478, 1.3704926561108237, 0.4782808716787478, -0.18450402404943358, 0.08476569386087314, -0.6830688396826621], [-1.158766344945733, -0.09961318961217863, -0.7803956301703906, -1.0371626192595742, 0.6965723213414275, 2.096947182031529, 0.6175488756277584, -0.03979005529162298, -0.046772961108340075, -0.6148079042203238, -0.015762206326716304, 0.7101241955534113, -0.5770310196749112, -1.6810822497044033, 0.24856104077633853], [0.3029271138149989, 0.8786973667867745, -0.25811643066162276, -0.34210601885297026, -0.23270772873995088, -0.007688226113014536, 0.30522996752249626, -1.5282815291550393, 1.042775970749562, -0.07147289320048236, 0.19636026773033982, -0.051857006068020794, -0.3609170939715639, -0.618933920913899, -0.028620289676566338], [2.447646996289974, 0.3569619640608273, 0.1341365674633882, -0.31808931970692317, 0.6306507481550911, -0.32216794634229134, -0.19421302202491744, -1.066948301513285, -2.9284132098070392, -0.5909138543481364, 0.07398904761075827, 1.0738232123634217, -1.6747649408357994, -0.8025325645082946, 1.2027224487712365], [0.025862176976524084, 1.2892474052469158, -0.6755700276316348, 1.1878257324675077, -0.08636050432040435, -1.5831983063965136, 0.9138252707565961, 0.2529620380454779, 0.6301246312952116, -0.2335610751960997, -2.8587077043287152, -0.15851758248431022, -0.3587092661238542, 0.4288036477095249, -0.01217306234419777], [0.58619512485695, -1.4366782615481795, 0.4090752099149004, -1.346202703340664, -0.37395651527742624, 1.1092076172779686, -0.4967826750664145, 1.2580887504117237, 0.41585425189735686, 0.5143479166725662, 0.06764101262023088, -0.011420367276962043, -1.7938238762656584, 0.8885081724210835, -0.4987242391759993], [0.6144745115726544, -0.7009255932212971, -1.590131678083215, 0.18619632063256147, -0.5638824365468775, 0.6107952127457223, -0.5248414638583724, 1.6437784638592552, 1.1912283294651624, 0.9464293439995655, 0.5469769085513553, -1.4802163068042433, 1.951484188751368, -0.4864153555967932, -0.8725277989428181], [1.9550371028145197, -1.2088263597713254, 0.4399616909133124, 0.438052981977027, 0.003559338692817639, 0.7870469949750155, 0.004309440648432316, -2.1336121297663353, -0.5640670620665927, 0.40198903671475394, -1.1368063546701386, 0.04376863949304792, 0.764571521905802, -1.2736390906598536, -1.8093014444123403], [-1.055729414366812, 0.6188855998325312, 0.39134948625852634, -0.8929344236927187, -1.555716539399956, 0.9090352766637878, 2.500459440021601, 0.4444972654783253, 1.6943156161976298, 0.8226590175642164, 0.8979950929085407, -2.1590527096119283, -0.11111733185359751, -0.49647515390052777, 1.6753103918876517], [-0.5589626249896111, -0.17974603668429356, -0.17968294255846048, -0.6489248225462851, 0.05222108072342995, 0.8502670384227676, 1.0773051956178088, 0.7063373002994635, 1.117115449113552, -0.313356396544481, 0.24219872603861728, 1.1844534956314525, -0.28753264443747323, 0.4178013009956293, -0.8154442151242134], [0.64618902933534, 0.0019993717985696247, 0.6820206772296824, 0.12417093527585826, 0.9320437055103769, -0.18159003798527937, -0.38444460593853946, -0.4296299038976057, -0.10544203994243011, -0.6236197735144032, -1.2989893430724262, -0.4533412289706044, 0.5203688075480292, -0.4989561053695936, -1.3913414809266929], [0.16996065648890193, 0.15868838745053848, -1.6659713791364275, -2.023017152632294, 1.0521659161888235, -0.6456748931008608, 0.9964066678886507, -0.21583511390846655, 0.35300172791816586, -0.3460688609657309, -0.8886485446887906, -0.43297088313906795, -1.3414184780799923, 1.5406049277716436, 1.0989016499393343], [2.012979392254385, 0.591519451712915, 0.42779763424014705, -0.05111087495631254, 0.34763649251813233, -0.9780983463306036, -0.3582025455197028, -1.294689714133918, 1.165746710842263, 0.19194209777003374, 2.106768819738051, -0.44215504223981617, -0.6146073724544026, -1.2276047782199782, 0.01456280012200103], [-0.5217579428302996, -1.918738468525875, -1.2183047545483117, 1.008598762404224, -1.0147631663957442, -0.9747545499750102, 0.3376282499540747, -0.3509472362184751, 1.204020514058598, -0.8228717258731066, 1.4391594476960308, 0.4401762028586932, -0.05058941109911665, -0.8156872303670764, -0.009388195898538341], [0.6085794834859565, 0.8463188274804957, 0.8413482803826893, 1.7803821606809889, -0.6883386675482215, -0.6908882324644569, -0.10630157191346172, 1.1656222557063263, -0.140713499875598, 1.068163191824644, -1.223766608299569, -0.10645022051525313, 0.1472133818667163, 0.5047043778133408, 0.6008226375610903], [0.12699795077734594, -2.5339446151912624, -0.32628000216267034, 1.1628226950652403, 0.996560017020787, -4.08568658520215, -0.07191895190528295, 0.9698037187085914, 0.22450271239094766, 0.5150750939843544, -1.5372167542551423, -0.6460184928824451, -0.183368447042305, -1.4005118930193194, 1.4692654975455024], [1.6266108336397862, 0.7114692467727053, 0.7996351108879108, 1.0310543275112047, -0.7107972791486363, 0.24534760665540897, -0.644509088642727, 0.9012768380980647, -0.9250870024734354, 0.0024197856308174987, -1.257581341286838, 1.3277133776047951, -0.7470596316182389, -0.13311592213473877, 0.11450971009991243]], "forget_biases": [[0.1584974854685578, -0.30985043315784133, -2.3529625603290367, -2.491614594252932, -1.1622986783998297, 0.8581841886583621, -0.6356585405303501, -0.11948778538965904, -1.0165866594606658, 0.4838751541790356, -0.5944529943262243, 0.576350588430722, 0.7898094788940919, -0.21066307167473095, -0.9012825080764577]], "input_biases": [[1.5896276364901207, 0.161079155663483, -1.7181490077399242, -0.8710006846842175, -0.7502219787691409, -1.2948119588592963, -1.603637892941884, -0.43899117960453615, -1.6708026153586437, -1.6330946304063407, 0.6209446467184477, -1.4549282189091977, 0.7066292924419185, 0.6456816121612052, 1.7558984945429084]], "output_biases": [[0.8133348768105386, 0.025440665998413436, -1.057135345066185, -0.7966239409567315, -0.1225608164423184, 1.1364783361561523, 2.049962190450556, 0.9093109202520522, -2.4107541275522695, 1.7704062593114906, 1.0644825628480294, -0.030414711497074472, 0.20853944800910196, -0.7558151393968855, -0.5575595577337065]], "cell_hat_biases": [[1.2282208959475853, -0.9979501759066874, -0.29923574560558114, 0.7416228881081033, -0.5956008257364868, 0.5157952034263469, 1.217301058672784, 1.3983385464069555, -0.7531147850847066, -0.25959315179083103, 0.47647877086282947, -2.0186353301332995, -0.6938425984035546, -0.10933496756403553, 0.5296352958720464]]},
        {"type": "dense", "num_units": 6, "detector_function": {"name": "relu"}, "weights": [[0.9594854539811886, -1.0153220745596396, -2.11061783122214, 1.9143217568541613, -1.2216639242626195, 0.0597902482632038, 0.22234062586950426, -0.055074944021390126, -1.2216272661166079, -0.07372239685334629, -0.5541882797487553, -0.7669889360589618, -1.8263825183362858, -0.542980924918886, -0.6403789860299655], [1.1267990778905908, 0.20475746727858424, 0.33336364972538984, 0.031253748659542155, 0.04031611892483682, -0.20078941277955542, -1.323527588957374, -0.5101017261983277, 1.8661641337411263, -0.9472101494557184, -0.6965974086631189, -0.053957799672864556, -0.7066686988296882, -1.0318697350387502, 1.5728723805187979], [-0.02298887626312673, -0.007927051975498567, -1.6104582896785153, -1.884873158618302, 1.2117553958871763, -1.4464925844481638, 0.38059019304344077, -1.4445056463853965, -0.5676621396071818, 3.289585933999838, -0.1441761643731034, -0.14446336756734102, 0.41583407233277997, -1.383980869921437, 0.9120045514878564], [-0.9586536266154596, -0.3751072928927474, 1.015353544990601, -1.0634312043850693, 0.42458308713973014, -0.13353782369116818, -0.6114319228020266, 0.9162860341463166, -1.7016253476016148, 0.9793053144045627, -1.1738309504579547, -1.4891406928265978, 0.25943709090919487, 0.535021940220533, -0.706839907230688], [-0.8469122194610976, 0.38272112167985334, 1.021843775124103, -0.644805062324355, 0.05197676382222126, -0.8098407340915555, -1.886627373824601, 1.1539305805766615, -0.5564846859715611, -0.29020248255929965, -0.5795065169125212, -1.6750914668204122, -0.8160450848324584, -1.430098579116896, -0.5448935741718297], [-1.1934733188227744, -1.6062398034540668, 0.36911376624714626, -0.6857936844421568, 0.8177729882111746, -2.1346698396855883, 0.5592937129806432, 0.6206722893934794, 0.19716662430148282, -0.8388104207491106, -2.71927492054413, 0.22956110259829093, 0.4337480390233022, -0.6675810907992715, 0.5304924568311343]], "biases": [0.0, 0.0, 0.0, 0.0, 0.0, 0.0]}
    ]
}
