{
    "input_shape": [9635, 10, 6],
    "layers": [
        {"type": "lstm", "num_units": 15, "input_units": 6, "forget_weights": [[1.4244680478316702, -0.86921218213053, 0.5958261571409542, 0.8607042913868119, 1.4038716220811551, -1.3365192438111317, 0.9529059425366799, 2.0554439342229895, 0.26706272080927934, 0.3104600536934727, -0.2272767553939779, -1.4000250146026614, -0.9349156302615492, -1.1555280191917439, -1.238621392638638], [-0.3752095657334509, 0.17210760368764896, 0.6205091499711132, 0.985407769931892, -0.7596591119285203, 0.3240536799293862, 0.7121176164227881, -0.4004429602007455, 0.03929121665947136, 0.5545721537779876, 0.08557732937675933, -1.3705440173388252, 0.7226685477234033, -1.9599896585187446, -1.0904797948294784], [-0.7615188537765754, -0.061559631942644764, 1.853361320675356, 1.1297985383291556, -1.11102753922284, -1.5194375549698467, 1.1485871163595833, -2.9272191851668303, -0.9879432373897783, 0.6277156794277619, 2.151678622855717, -0.04706326468146693, 0.6571586570106352, -2.039147799160794, 0.6135396027168799], [-0.31278640383822837, 0.03165760614503093, 0.589285260513033, 0.1604076335987082, 0.9966084786003514, 1.6300012363874703, 0.7871916155168365, -1.159639600026879, -3.543297933071984, -0.5966803885958748, -0.4049112729096633, 1.061595611526547, 0.8948249379937542, 0.23385566059983615, 1.0553286380393614], [0.025216094229775835, -0.6488901695325973, -1.002025547893409, -0.6201722336957644, 2.066111780344569, -0.16983067871794258, -0.9509590610599381, -2.2010298727084514, -0.9946251767888011, 1.5861457270295432, 0.92369100922972, 0.882644062277213, 0.8192263595152504, -1.334232614614811, 1.2191040762596024], [1.0738757902333569, 1.2198234211509578, 1.0366794811763558, -0.1856085090761072, 1.6524206727940454, -0.719332486522882, 0.14370698352954644, -1.6316941093107862, 0.6523508436764762, 0.4671525164278499, 0.053105428387788985, 0.16842297753653107, -0.8667563114006038, -0.5931351417883229, -0.41729885594594335], [-1.3324684648959018, 0.8834513016808349, 2.287086546051586, -0.0008780248974794912, -0.7225213512402593, 0.5910959028552887, 0.2859255628363438, -0.6459142115047608, -0.410258301454934, 0.1476153154435021, -0.3711359219289872, 0.11051204196812013, 0.28251269234235293, 0.4534493777376467, 0.3916634807676459], [-0.7131397656492652, 0.7059025167511644, 0.25499332262264124, -1.060850974514871, 0.30457624089481644, -0.2603468968982203, 2.0069922108404956, -1.6659999105197625, 0.0822438865476398, -0.08008003798506208, 0.08025294522074064, -0.40251835505106187, 0.2870132570447729, 0.01562702590673903, 1.3925909016724383], [1.3817381346928355, -0.46369918369662694, 0.9882893894175546, 1.297004120414437, 1.7020051117274706, 0.27560048575625085, -1.0109736746432045, -0.6729493136570975, -0.0060576584497415925, -0.4099276445885364, 0.6812956567836935, -0.08787294311259354, -1.1412528009319662, 1.8269415688491373, -0.6963885022552396], [0.47166865761941146, 0.8422932065047485, -0.07950099837856066, -1.761144397796566, -0.6077871701692109, 0.011864351038134364, -1.177743170756165, 0.5756858110625428, -1.1317861839823335, -1.1121345782690037, -0.6314436121797291, 0.1566783405335132, 0.03913169762208987, 0.32619950788269125, -0.7558775127796803], [-1.8076247586774234, 1.6599272495773594, -0.587696916379906, -0.22705994177186345, -0.1377068549258116, 0.22401495156053278, -0.05116955238670215, -1.8134415993655246, 1.3799348894298658, 0.8511327320449732, 0.4115237708155916, 0.46124699862078283, -1.5156452263254991, 0.41177291833461, -2.885744056970124], [0.8576774651705097, -1.0040076340411301, 2.2611762984704797, 0.2616926112480681, -0.3866403428077295, 1.7442046866491203, -0.18310470479630905, 0.8385825672564401, 0.10618895844185931, -1.0205478314679273, 2.6001764237112157, 0.39217509482388124, 2.0577713925371506, 0.921715994979234, -0.8200847991800051], [-0.6460439883649394, -0.8253891279728856, 1.3936701551107789, -0.5304425286721792, 0.48358498394154015, -0.8208187356858506, -0.7892799664115376, 0.8936410278421653, 0.6403598663253803, 1.314056718622285, 0.8441414566785391, -0.6375486294670689, -0.445723475470124, -1.656994071708656, 0.4245430750132177], [-0.741500259427019, 0.7813582442652736, 2.0374344014127024, -1.1411016282459014, -1.8443015903131041, 0.8569093436583901, -1.336720417259769, 0.5227225721676344, -2.434930036877291, 0.03022795916097338, 1.510412483937752, -0.3322069439067361, -1.0969125747174788, -0.09428787357789008, -0.11159891118939655], [0.8658840523176589, -0.6082820741054799, 1.7971500150308521, -0.021951197110758932, 2.2526203905633757, 0.8842914690302767, 1.2007244869317886, 0.37754617857673256, -1.411584973157774, -0.004315822246512433, -0.8407958382591765, 0.6627534062799681, -0.8031246633526957, 0.9949573562321232, 1.0201305439582171], [-0.012881200161388686, -1.0757721884297027, 0.9031445727105262, -1.3957763687652796, 0.6428543715033208, 0.539917845652993, -0.23564010107638234, 1.816501758808868, -0.5626321292408616, -0.7424109532122242, 1.4545002542743926, -0.14823365452281184, 0.34668267801217534, -1.3351533309207622, 0.3155497911220599], [-1.9611771146026864, -0.6623337995414206, -0.766539834718296, -0.5635729645758966, -0.9224592976514723, 0.25283159487593276, 0.1792372142725232, 1.1285462114403808, -0.03807123829779182, -0.5752204332904137, -0.35275666766206853, -0.4907511889351151, 1.6047904469990957, 0.7601702992470346, 0.2403357513550145], [-0.1626528541444553, -1.1874971962946392, -0.9581456116468136, 0.13590039517644698, 1.171806598098709, -0.5542345255299158, 0.7873974397955847, -1.5881171622494794, 1.180956975361419, -0.6066002371717819, -1.5789313358416368, -0.9688070519687084, 0.20740266793880624, -0.590720336049198, -0.22398890699741414], [-0.3540201566691186, 0.7690217395436484, 0.5591328546846891, 0.311524029535131, 2.2174599460475233, -0.596941260429593, 0.49211551510586954, -1.1696565558282932, -1.1116477889447913, -0.9327822409653541, -0.15719846035114982, 0.05600115967422569, -0.6838250489443679, 0.2687029496267232, 1.2937186075452853], [-0.9800876594593942, -1.3009546648706265, -0.565545222787925, 2.068138137929282, -0.6413960984868311, -0.020709814936208572, 1.1589980854557576, 1.8533571250605858, -0.9754231899668065, -0.7891734837401911, 0.1090839182102427, 1.0530635112673756, -0.8401457700760565, 0.15908252480337212, 1.2444750954439086], [0.18681133339969946, 0.03497452496060358, 0.35486777321604696, -0.7052061421517355, -1.0246102860021291, 1.1150115841096075, 0.6799540451920717, 0.4920564291505121, 0.4190359409508632, -0.9221018292093589, -0.6242915151860862, -0.13513857522226472, -0.6135874296501129, -0.925681819790642, 0.4958017936146795]], "input_weights": [[1.2914443213783877, -0.4163922301355788, 0.2994939488160384, 0.32812153105657976, 0.7863997681035534, -1.1166428478194734, 0.7753558760946293, 1.802461210954354, 0.7082429256004961, -0.4802025550980521, -0.21993908135807055, 0.3161640369773623, -0.07798590393507013, 1.1567925719246908, 1.5583039366076292], [0.3756385763658043, 0.023376417222891088, 0.33245608221733036, -0.57366327036458, 0.5343978077146795, 0.5073559254991803, -1.367529301112205, -0.5244197728933832, -0.17920446620032246, 0.09276615449089905, -1.1903019530756385, -0.6042600020005773, 0.14992969333391956, 0.3980054300046725, -0.3421111488735642], [-1.4312454064878544, -0.7775746781313494, -1.8903968445063195, 0.42516152090772036, 1.2991499898788248, 1.1157511562784748, -1.6164893339479918, 0.458164080704194, 2.0640750487930677, -1.5038354006971977, -0.6193371703201124, -0.9830181337498511, 1.3757137938605932, 2.4415435383079056, -0.7679971656365413], [1.2748240855819977, 0.27868834014561966, 0.0020896541053446365, -0.14919188628564553, -0.17965632173434387, -0.7259800256854942, -0.163400419539714, 1.0409471614616028, -0.35142893135449205, 1.3000981808459084, 1.0977704363442966, 0.8438302873051265, 1.168936798877677, 1.092596347035661, 1.0189804860050595], [-1.4635810792164243, 0.517322560235492, 0.28575922290402284, 1.151188908944843, -1.8260510233619458, 0.09529018863315368, 0.7004809905162869, 0.4202648151618491, 0.6073468443161849, 0.06405500024180288, 1.7887637858116168, -1.278437634969342, -0.7986887862878245, -1.5830415265107138, 2.3535223550713416], [-0.04428632102467517, -0.11618643760814856, 0.7406569530708924, -1.0920585674464185, -0.8491060611215951, -0.9501685938415954, 0.8604905761573327, 1.4020444997922086, 1.4997619485485716, -0.2489997847076663, -0.21754936698727145, -0.5392145990887169, -0.7992893216104076, 1.1185664762751977, 0.015891836603363955], [1.0868404379357288, -1.081838827199081, -0.5804169289956106, -0.6630887706312407, -1.2894449033304816, -0.022773884594898066, -1.255586808863269, 0.4508854556757699, 1.09549224388054, 0.12086997905112151, 0.7754514617982116, 0.02749064651849064, -0.7611423960899236, -0.6292785714764674, 0.2053871445566411], [0.6981826921501383, -1.2362890811149054, -0.6379016476530831, 1.0455236773547854, -1.3074752950177437, 2.375715721628943, -0.0982816884186892, -1.372677178078117, -0.8296938251380395, -0.6316216085866063, -0.004887549401464751, -0.5203397597031683, 0.7901748866975896, -0.4721173777030349, -0.3725525548134985], [1.7544663174438488, 0.6788414429276434, -0.5944641459792154, -0.24798051823445555, -0.05699068695130465, 1.55514360140078, 1.9451676960806068, 0.08122755913005807, 1.2052634134313858, -0.4475153748430015, 0.6500184545837423, 0.7451338263478777, -1.5223327734606698, 0.25663382474701935, -1.062802929492115], [0.6923643418105678, -0.5003323808034222, 1.047833034286608, -1.033556482805595, -1.9290805023418816, -0.5730709836581804, 1.524788480257235, -0.05430642855729737, -0.27801139187903895, -2.5805104680697, -0.5965626812187033, 0.21978988936383495, -0.4701645537245032, -0.22059723992261016, 0.427043513461273], [0.6543448796286789, 1.337807147358476, 1.3903166994624674, -0.4490334381008397, -1.4402298472306245, 1.3613086022905527, 0.2245814257793586, -1.2417813983914583, 0.13375525301824717, -2.090070829459655, -0.9496922168568102, -2.4827617484195166, -0.6807520626544418, -0.03489348082024112, -0.19890766831239592], [-0.3050425521308786, -0.7177719116243061, 0.9784067982955503, -0.07735700709666611, -0.6473353106930301, 1.8453683847509643, 2.369508239054275, -0.4099818652055619, -0.12899087626216257, 0.916504645924825, 0.621335293900839, 0.31546117527031164, -1.1515831762932385, 1.53608215846179, 0.6552408029541057], [0.4613666072456046, 0.33055017989328483, 1.0615158837278877, 1.1885647557418126, -0.9232513204841671, -1.2968210172124075, -0.011464848253251812, -0.14837357703770207, -0.2224597374308545, 0.634245785705244, -1.4993844595417893, -2.271844133524394, -0.33379338883453175, 0.05490709763295794, -1.3565625360384372], [0.18005635586058255, 1.0094036231298884, -1.0091859278092479, 0.5930723623394443, -0.6053959789199446, 0.19862583268820108, -0.4432142496123932, -1.6139101661717878, -1.4921844478977855, 0.7405093456725189, 1.0029578909560721, 1.7590229572203204, 1.0323260550891733, 0.12979284412009248, -1.8006893296612605], [2.143656226684338, 1.3217407206550928, -0.739780473035763, 0.25083142509016026, 1.4437871947690413, -0.3587316511008372, -0.8760311688211455, -0.6327278725920309, 1.1524254759844323, 1.0700008343439447, -0.019990268426685193, -0.27224497928296987, 0.9887263881490332, 1.3302118043373587, 0.1737000528848471], [-1.4383191739969095, -0.5519729515707731, 2.614905476793584, 0.17223728949835856, -2.3077344314616655, -0.13059895213022638, 0.3263678838226617, -0.42814719050329114, 0.5962818890302881, -0.9962368029705528, 0.8780915304509266, -0.18223490405947998, 0.46259827671076387, 0.1580242634282333, 0.010248139611155139], [-1.9797155140873592, -1.1012437132194517, 1.0058419725634575, 0.3567341710001831, -0.17982929657967117, 0.168459533876808, -0.15470672173780087, 0.1491737829243116, 1.3540302168386886, 0.02600656775572717, -1.3427405344390784, 0.24356516693833113, 0.5385482504728683, -0.7653793077034042, -0.04570250709662974], [-0.9103379894990061, -0.06807413533411356, 1.016638220332877, -0.4142340357526398, -0.15467352750895969, -1.9631432235593786, -0.32116111202367653, -0.6129843167405709, -1.2755244475855618, -0.3521836590085046, -2.0488781138442, -0.17075279935223003, -1.3334901175749876, -1.2320863940523847, -1.0573246457108914], [-0.5431754527580243, -0.9490296497907219, 0.9373439428527559, -0.3857197523411959, 0.29186151639278785, -1.3968745022762603, -1.3919437011500568, 0.395247769586534, -0.9369351382383373, 0.2522207824168112, 0.40531378296539755, 1.6662208740265185, -0.44709482485686874, -0.5254592347957766, -1.0136723675040546], [1.171183179920017, 0.09515027873754507, -0.10787478806125682, -0.4553623653471969, 1.101028540561384, 1.2484050939103966, -1.337321797922496, -0.5936632588154853, 0.7988960756760743, 2.0990489889966875, -0.7184528928601864, -1.2797239733931804, -0.39336616305248817, -1.6141881266819242, 1.1610041555867576], [-0.5851976725531903, 1.246901468192371, 0.7766782660740685, 0.4778999878266914, -0.1481819784010461, 1.0042695775286394, -0.6301569785935426, -0.40397106017504786, 0.3576468210616511, 0.47088520421479, 0.8926029382506824, 0.5155811340497755, -0.733989860454077, 0.29754947062734904, -2.0426402781278603]], "output_weights": [[0.5111148545954777, 0.5419894903236357, 0.08618713052874698, 1.3411214604564083, -0.15777900155030267, 0.9225774432433062, 0.9264553447509217, 0.1471042670336904, 0.46534686489955235, 2.3413682910878784, -2.1291687022147263, -0.0732780766133578, 0.9813101213650001, 1.0380647453134462, -0.3380270869053995], [0.41038241350903637, 0.2018827275873117, 0.41376161955473434, 0.026072318720666468, -1.0145655369065174, 1.0794185222385968, -0.2804713994141475, -0.4786014847100463, -0.08952715707627984, -0.5062464922007358, 1.3862761541906676, 0.9161687670334466, 0.041366440337963106, 0.19139748474414917, -1.1927900976513894], [-1.4523400369300172, 0.005263828373472614, 0.7375903748740131, 0.8601748833039907, -1.952093811128485, -0.5355804218221063, 1.08694394552313, 1.2886684391558485, 1.3775553379709324, 1.6212388711125092, -1.5766714079121578, 0.6112399166855673, 1.2968038065616951, 1.0634021431990839, 1.820267428015389], [-1.7953297024488626, -0.7022617743068365, -0.3478694464935908, 1.4144882585709644, 1.215315336781354, 1.1601834477530761, 0.05143053377167981, 1.404671445459996, 0.01550356393759465, -0.06076443340454821, -0.08641041447033639, 0.31258213590381984, -0.4626998331169708, 0.07582148269111048, 1.4490037080569456], [0.9769849593504297, -0.35748649119515175, 0.27983213066548446, -0.5153950974663516, 1.059191820586807, -0.4101037325038389, -0.8329416546145861, -0.9293932665693252, -1.003042581333926, 0.1314460091295706, -1.1311506722434141, -0.986852957666228, 1.5363421696729154, -0.8614397562134548, -1.4851967133887285], [0.22372704294699322, -0.024319718464015615, 0.22205338698141042, -0.7225593419434746, 1.9636578851907056, -0.4993139033298719, -1.258906508436549, -0.05659989917759234, 1.097803890203119, -0.9945634223472709, -0.5764214292324279, -0.6146575350383382, 0.8353374864518711, 0.11335357198087516, -1.1764117765767708], [-1.483341471543321, 0.6479699200932836, 0.36989271293152154, -0.5145333225034926, 0.09565590133081056, -0.029216984961918237, -0.055730678373782386, 0.1264237293272313, 0.6304795386921491, 0.2726739851610861, 1.3099370810529296, -0.9964560314603961, -0.7956821561240897, 2.0858404398593673, 0.2640682475603065], [0.9627904445071603, -0.09655202864395906, -0.36921031517359437, -0.1486443857155749, 0.019809545260476107, 0.9191333941266537, 1.5329038585612638, -0.010294854191995105, -0.292853653529448, -0.6603708532160572, -0.8360779037950844, -1.1709808938264992, 0.23644375895530903, 0.05023862482952094, -0.6233607026353986], [1.072316950833729, 1.3544406231414567, -0.35919973457472726, -0.3554502162888481, -0.4637099668107061, 0.07310402431259051, -0.09754479149633748, 0.7264006445502662, 0.8646160375840167, -0.24571966636961623, 0.06032045394290494, 0.8284102491624834, -0.5955357729665227, -1.041839195174142, -1.3925542087133667], [-0.8064510957446137, -1.6330534587378944, -1.7665186525729415, -0.3740535395129076, -0.8717123350476722, 1.2367771803091807, 0.9098779155520297, -1.1348677650416898, -0.2902735950500663, 0.22885060535019802, 1.123133546241586, 1.2946579097090065, -0.211418946482533, 0.3084985652875804, 0.4592223886403551], [0.04746387333777858, -0.05111235523832348, -0.7684511703617509, -0.02958998345450168, -0.3450832875799274, -0.6550314690757788, -0.7695206185349533, 0.635263136525699, 0.304835104724725, 0.04292758026363797, 0.3699015809886491, 0.13236742862592105, 1.6327863776099762, 1.4647665439410984, 1.097119809278427], [-0.24127580820842323, 0.9496475712493052, 0.029150530089161943, -0.13547198691947945, -0.5489306304995847, 0.2722372844578097, 0.2258329326420957, -0.07396191730479425, -1.0119117164998317, 2.5605697367251756, -1.5582594072239682, -1.0011593408240276, -1.2847584443795455, -0.2052399474076227, 0.6635775756504106], [0.23949025784134367, 1.3861713011899544, -0.12655599503480341, 0.07607326476278803, -0.5639744894242018, -0.2705111940248113, -0.7756070827799602, -0.3495102102821386, 0.9991993867301485, -2.277880412468849, -1.498433505931849, 0.6285333306947487, -0.6262428620872103, -0.3615692529200901, -1.5821146089163571], [0.41559392862005196, 0.735853736832278, -1.1128855846493955, -1.0899029312942867, 0.3535122265253908, 1.6657653431360666, -1.2110567736710187, 0.24528618458587598, -0.14739278016646262, -0.3899286294480682, 0.9876548319036844, -0.10152508706002217, 0.6268702981016275, 1.527159773326586, -0.21777377764121314], [-0.3521622907550034, -1.8959884546914267, -0.19563883840117172, -0.4192633957313247, -2.8587706859166473, 0.23522515427918508, -0.7915040389138847, 1.09721441685475, -1.2168471969695291, 2.2066715908482273, -1.0014337521190126, -0.4066189823536578, 1.254520183188807, -1.4026839160357722, -0.7091000726312696], [-0.630643187850968, 0.19164806760927713, 0.7445587400042533, -0.24847643742454606, 1.0650093300472159, 0.09215177272991622, 2.397673952659263, -0.32430632189832503, 2.2247922967205986, 0.43615989039303754, -0.007522214450065382, 0.5497509311027412, 0.9687815058827555, 0.9979275815327674, -0.20515850246519937], [-0.8026565400763261, -0.1685954861265886, -0.4111010582475217, -0.624036892297513, 1.1125575960697034, 1.1319388967056137, -0.22015590920669192, 0.1519030232547994, -0.046721527287792775, 0.055703949667739845, -1.6993279487149378, 0.30485662085659876, 0.9718325368766312, 0.44144246981456897, 0.033462834372099], [0.8235414369591405, 0.15334404449636577, 0.4190784241836161, -1.6649283279241935, 0.6547707276993877, -0.6278404194905597, -0.9751359097866675, -0.654126440499614, 0.11154233002764806, 0.2993570500538009, -1.1556165777007061, 0.3506297199922494, -0.7858869136308277, 0.8287370165566222, 0.44790622448833634], [-0.3287939821938305, 1.6212435613208245, 1.7330608033326371, 0.696496226809379, -1.1917988344040182, -0.1641485020229532, 0.8059724777550553, 0.8108254229396169, 2.185913512121497, -0.14791373949010087, 0.5915617105297497, -1.2318541633086082, 0.09744518535359496, 0.9425275963923492, 1.475911118088433], [-1.7429764316060488, 0.825028758869716, -0.5599052155632179, 0.2846405201349711, -0.9541477981904352, -1.5888999006764455, -1.1449427386183386, -0.08180808919370373, 0.7558665327436144, -0.44483800628222697, -0.6170116055153824, -1.6337693851209003, 0.11557909414566056, 0.12976541787942716, -0.22993124156133082], [0.38887526529165994, 0.038554541213725736, -1.2268904980329651, -0.09545555082315371, -0.5075611119386758, 0.1918632847067039, 0.004509390121197181, -1.44591575350842, 0.3926755462052267, 1.874366439809053, 0.23889594428293406, -1.268541351957434, -0.5204754299541862, 0.2472172421510144, -1.2239730785759038]], "cell_hat_weights": [[0.7439294839279552, 0.060625812920888596, 0.5793977358206714, 1.808289170935356, 0.9169121778100616, 0.33691034898944877, -0.7707087310523916, 0.1021350869361631, -0.012344530573731716, -0.6428906659330137, -0.7063126202249458, 0.08934258132379333, -0.5616610498142888, -0.4187988406716707, 1.1579997781192717], [0.22774243858830842, 1.472836824142174, 0.2964747560778519, -0.011179293005987492, -1.33290479363794, 0.37231581196478086, 0.6572369377139279, -0.32584022537732016, 0.4037808841724755, -0.0523030055624183, -1.1652894476374878, 1.1883720298932785, 1.7677507138677278, 0.6061503147727484, -2.149272372614263], [0.16762492301044615, -0.17856245953226946, 0.19062082847314643, -0.830167466690245, -1.7791531052278953, -0.16350265874629552, -0.8328420189883714, -1.2015049628316579, -0.1397464403928566, 1.7265890849370165, -0.43584411588327393, -2.0119924228575257, 0.284236799520542, -0.48283443139913307, 0.23192710003815306], [1.2675654407782009, 0.014264609869053483, 0.17914004629654443, 0.30299575478633994, -0.9353531226808361, 0.4444253763205703, 0.3624462253806026, 1.8703280795842105, -2.233970293616388, 0.19494577101931135, -0.7144124974883572, 0.17587466235912777, 0.05266445787010417, 0.1256606325966219, 0.8663927249296769], [-1.940477405365125, -0.7375853389102582, -0.11405032323749252, 0.13701649235151564, -2.297523682017494, 0.9011586586612296, -1.2513978266371757, 0.015255731308520344, -0.4966977905895855, -1.328271057114895, 1.395955872771205, 2.765101099813033, 0.022181894474624323, -0.5880321868972861, -0.3824800050627022], [-1.0621103533411882, 0.31654202760963646, -0.2497549707608582, 0.2262945518661679, 0.10103099509312224, 0.10727892075208437, 1.6688729323706468, -0.3528468690656394, -2.276862713734427, 0.3783605401135215, -1.110740913039714, 3.231860497682171, -0.568255231732154, -1.659423177710889, -0.4330225476470662], [-0.2677899451470563, 1.0967573469448064, 0.812111168698708, 1.394585660309019, 1.5376124953118298, 0.06371556324725297, -0.3334669300440658, -1.2458242804961157, 0.13836788419256, 0.6384843886788041, -0.09621379064554254, -0.28724151169698403, -1.8399319623442445, -0.2783748278755778, 0.15709964929986414], [0.8544509397764243, -2.0377606642068113, 1.4579864628651327, 0.4061598675861123, -2.0833786684690088, -0.9474831117540772, -0.566268925646543, -0.9502696284135103, 1.356007767680153, 0.38655677498907287, 0.41791149336210653, -1.0196137970531334, 0.8398939212884267, -0.40151762195237156, -0.7186006082517595], [0.27639416667868294, -0.09783681198942645, -0.5557018543896718, 0.020125792777324302, -0.3563979347483554, 0.5290308654350968, -0.829987177099872, 1.2051162218800702, -2.1076586077980575, 0.8699721710577564, -1.1348848877792979, 0.7772675634325126, -1.1795416691084697, 0.2472301367377975, 1.917822169253366], [1.603062746381672, 0.9559137407610528, -0.6554389904075887, 0.828147048301997, -1.4619091444472971, -0.9138120706380459, -1.4071247604345376, -0.09179361705607425, 1.3936224809885662, -0.5623649960187773, -0.3407009087658035, -0.46473500801416034, -0.13888898824593598, 1.1787052799762467, 0.3246294535600291], [-0.36617261304614873, -0.6254952664747228, 1.9231471579549781, 0.2640368023102847, -0.07417815234135375, 0.057943482231941984, -0.4123417225543632, -0.03971420767594605, 0.26918624729559804, 3.4600067539983512, -0.6765450135628283, 0.18162832526963923, -1.205498062374441, -0.6651939212327478, -0.11277257636086593], [2.4398725719596706, -1.4096500427392107, 1.2189621536444644, 0.457997273465691, 0.8901292884878633, -0.9916278328012658, 0.278302137423821, -0.8924929623552604, 1.2349493137678187, -1.6678916969587474, -0.6436685199816754, -0.2468799080888982, -0.1756358933645505, 0.1380097578717209, -0.9611612224642624], [2.1793415489550005, -0.474915253707538, -0.541470129037019, -1.007398463089834, -1.9518147961467918, 0.7624921647664576, 0.989703439018218, -1.33283513899052, 1.7365776584118595, -1.2757742959652112, 1.5627886658378394, 1.0796875440430593, 0.23626453935619696, -1.5575296321134613, -1.907516106008604], [-0.01964496994025455, -1.086750077275735, 0.4651966971843403, 0.30096792803173916, -0.18426814454101423, -1.2606816409746817, -0.23533662832713384, 1.352954246667694, 1.0699854738202785, 0.1352568539170097, 0.17764031793798452, 0.37863286161061954, -0.33784405504806414, -0.19565919779081267, -0.8056752519208473], [0.1369909469265879, 0.11671642280911326, -2.193646199844337, -0.14684126992686058, 1.4693315591749128, -0.22948337645990113, -1.1577602509442066, 0.375903732353118, -0.022270951050365577, 1.7006653162601455, -1.3795023348049402, -0.39270640999285666, -0.7404959405298402, 0.8623533137128636, 1.2387438268858026], [1.0741653676745084, -1.6865017117663597, -1.1663314176455666, -0.1765223264615359, -1.8304542767947252, -0.21115419871169896, 1.3257297576036555, -1.1670108394085534, -1.4191795652037364, 1.3795305498858519, 0.38421624606775406, 0.9725362491183009, -0.7662854530946939, -0.36519350166646103, 0.71587438180623], [0.5587045526434699, 0.39880392517015273, 0.19830332521148206, 0.8124888457024827, 0.03653907578877685, -1.374767768902621, 0.6993219661330544, 0.4360406159652373, -0.003748733346486843, 0.8925977556213472, 0.546773061427875, 0.2497650582879786, -0.23810422832778075, 0.48871962778350775, 0.9432404630321062], [0.5288874166966422, 0.9273859812555874, -1.9918843487535751, 1.1099855494954938, 0.17311607998057846, -0.6868046952174723, 0.0058640708971741595, -2.1171391037308327, 0.3571103104714088, 0.738264615934535, 0.6451725549114085, 1.853775127234352, -0.9957536012252786, 0.8164747191952073, 1.7167427740418941], [0.04040079952962834, -0.1283217868604552, 0.3629983966299917, -0.8738699678076668, 0.18383761977766216, -0.44306420716249634, 0.4293364182240024, -1.1880736874426392, 0.7488375892297627, -1.434359044514205, 1.6601500562655462, -0.13739907521863604, 1.0838327146846347, 0.007990877455247132, -1.1344858935758084], [1.4616292607324497, 0.18688867058983719, 0.12754737814342806, -0.03979446707411283, 0.8094474529141296, 0.8648605823791294, 0.19007412738729912, 1.1301423341489483, -0.04098624555672215, -0.23705236910139726, -0.45620426630058736, -1.129627236740148, -1.4904268419503128, -1.1700002250501174, -0.7021631463199433], [-0.7627932944118571, -1.54646676704172, 0.2256438471719398, 0.6113529775294405, -1.2703945240959966, 0.3770070228523372, 1.712374744635175, -0.4550346414930963, -1.5265782425974028, -1.1181386061442686, 0.1913821221883544, 0.0814589804922885, 0.03724971739905687, -0.5099781605602597, 0.16849362980450483]], "forget_biases": [[1.38069353420187, 1.079544249370914, 0.43886387923646153, 1.093021823812829, 1.2409341169664547, -0.2808375901246164, 0.6093280672152065, 0.8889657181908067, -1.2692086029133514, -1.253954636984643, -0.3875945884562984, 0.4495489044354943, -0.14849750189905334, -0.14235575225796004, 0.0430564053034184]], "input_biases": [[-0.16640758471033856, -0.29122533166787623, 0.8672646129677872, 1.3520012032403244, 0.11747655528241736, 1.2916892570852678, -0.9716957677640835, -2.51800056539679, 1.2869730160253054, 0.06163780990834178, 1.4938923335025698, 0.946080851229415, 1.0231354392022554, 0.28459624846434106, -1.889875798888019]], "output_biases": [[1.6068674914942707, 1.2404781535090386, -1.0611463623017947, 0.7274964260160419, -0.2018596343450508, -0.7594834280376668, 1.5298380996581649, 0.6478128287487419, 1.8628598001821286, -1.906427368162711, 1.5486811053046772, 0.306073572085186, 1.2670720584172945, -0.9848926630282825, -0.7084782138121095]], "cell_hat_biases": [[-0.53547075620069, -0.5201695147771928, 1.5463731969852528, -0.641607380318289, 1.5774904746572558, -0.027707932903452352, 0.14631323658513545, -1.077086769833979, 0.2339937252201527, 1.8864550977323182, -0.507675856319817, -1.2439174536435136, -0.0877335029466658, -1.0325891784451438, 0.6200444556659637]]},
        {"type": "dense", "num_units": 6, "detector_function": {"name": "relu"}, "weights": [[-0.3611543623988256, -0.89353997407543, 1.559169132111471, 0.06728261892368473, -1.1396809527317906, 0.04529413167675724, 0.5533134597172584, 0.2885330615290365, 1.15139532536604, -0.4816697360957077, 0.5482085496806738, -0.12010479448865892, -0.18784679038138463, -0.4645081434539343, 0.046767554406579724], [1.697988482907345, -0.6310959565193373, 0.2025565082237874, -0.5990691325638677, -1.3633863354752773, 0.8983442771287484, 1.7438629562908667, 0.4466668631156818, -0.7178240792852104, -0.5299876544771859, -0.23572711457722229, -0.6430157539482972, -0.16065762470539477, 0.9041278837359081, 0.3784961203579511], [0.5214984875783343, -0.6767187658353553, 0.7481260280992641, -1.3971914613310026, -0.21493593775584838, 0.6017502711082724, -0.7929777713995165, -1.5253262942829198, -0.3179691562483315, -1.491632385966581, 0.2222482782664684, 1.1312621841617596, -0.5774522323385951, -2.4014423788926083, 2.011153703560053], [-0.2069080027802731, -0.543344562485067, 0.10123117701050302, -0.925239518876492, -1.6110045497355154, -0.38593150053660313, -0.6710243621270544, -0.88916577109711, -0.33576205965841593, 0.12027586321365082, -0.7459123515341148, -1.9635706745328618, 0.5062499561605657, -1.871780370038366, 1.4969525498852942], [-0.8036237034508887, 0.553973023609984, 0.8444053766118882, -0.5643518848933519, -0.25318858770335434, -0.38816802253852317, -0.4289645692815056, -0.8240409991689789, -0.8752165717047472, -0.700995321225573, -0.1118251722626984, -0.05974245536577831, 0.6566172566499887, 0.40252705043572945, -0.6694345016650955], [2.567653757547053, 0.31310545076435886, -1.1969080619833536, 1.8636038444785905, -1.0862408664687655, 0.8654345221084015, -0.24683490975994862, -2.0108415499183194, 0.119666248247261, 1.1619003209863052, -0.09753628016012143, 0.3590327649720348, -0.948224834834763, -0.7433533040663998, -1.5711316087736507]], "biases": [0.0, 0.0, 0.0, 0.0, 0.0, 0.0]}
    ]
}
