{
    "input_shape": [9635, 10, 6],
    "layers": [
        {"type": "lstm", "num_units": 15, "input_units": 6, "forget_weights": [[-1.7504034294753257, 0.1892960499241276, 0.2591599435576643, -1.3689381714669409, 0.7729692466263544, -0.11525997574890035, -0.985951566391921, 0.5270747309136448, -0.9933299834229768, -2.2166686478242847, -0.27858378172184356, -0.12571862655206792, 0.7453640673838966, -0.5804237776909037, -0.8081215830867865], [-0.7991899333818242, 1.4234533213674336, -0.7455940820510163, -2.085812903182507, 0.5796468477245705, -0.2022548336744159, 0.07779213744686646, 0.18826675946894075, 0.24008224769568676, 1.2046841355205709, -0.985547618480145, -0.21988188727203528, -0.8409319897751445, 0.9725809410426274, 0.6637610120550003], [0.49303811111371126, -0.22345381210027654, 0.7346363931286193, 1.2754430198652866, -1.5260788919519022, -0.2820114825517131, -0.6386662104688144, -0.4986157623033972, 0.08775998426397241, -0.21625851652400033, 0.12978769620689826, -1.066587205756331, -0.021959748479504913, 0.23478439240712756, 1.331124128091087], [-0.9950118278307285, 1.3411250448215128, 0.6184908772035715, -2.097510538740693, -0.6670251985460928, -0.44524921618071406, 0.1267342098817578, -0.5231453543611286, 1.0046181438254207, -0.504262775923616, 0.7215760176356811, 0.6897586333996628, 0.1061584527342175, -1.059677343352625, 1.876977701008504], [0.9420943451985824, 0.6162786143729169, -1.219490592065122, 0.5554174070561247, 1.592302670453768, -0.20194858186890702, -0.1774954478095848, 1.1961603980985405, 0.01487027218765557, -1.5677809981381572, -0.801603276472411, -0.1117179231267812, 1.0929074106526298, 0.9794261930157113, 0.18167367806278498], [-0.8374677453792724, 1.97024172840025, 1.103256877407181, 0.8545302309086349, 1.3074989149500933, 0.4380315273683292, 0.15432134370907352, 1.2698410458909701, 0.035957377657499984, -0.33909750515010734, 0.6000066890646014, 0.4341750872708808, 0.7168935656569707, -1.08198862553024, 0.2740882524773994], [-0.13113841408714072, -0.3029730442354612, 1.5638043879093095, -0.33756972794754014, -0.1826556669431572, 0.6258039400625262, -1.2209765065983345, 0.39776312944330294, 2.0946809861743088, -1.105928458152431, -0.1740752352140307, 0.10492294532027253, 0.489247838860872, 1.1839223510961885, 1.1068716343421525], [0.4481043952980389, 0.15622919993563564, 0.3834257988462296, -0.22465860165717394, -2.070694904217231, -1.538267216779747, 0.912412930633152, -1.2039663618080036, -1.9625778768204825, 1.5193921868285567, -0.8752087369737439, 0.656653951068643, -0.5435796716803454, -0.3184212797189279, 0.6738711731461382], [0.5131342229569354, 1.7670472512052398, -0.7814331829592983, 1.2365280141932484, 0.28634879186700946, -0.1933301571218293, 0.8627360674206237, -0.814995235659004, 0.44011985131441594, -0.002462383840198332, -1.3311216889157325, 2.051208556871235, 0.17540444641144043, -0.22352464082966647, -0.8010680956669572], [0.21734923961333996, -1.4420656487765056, -0.7491082115990418, -0.4974405514245079, 1.240584122395613, -0.89449860282302, 1.1517537114227847, -0.05246052266923926, -0.2926288173568817, -0.47749722124044325, 0.1638967877541938, 0.6667556770063686, 0.10918257945754836, 1.0629176417796078, -1.2877807969898583], [-1.1421874023347174, 0.28642794851166575, 1.96149099414117, 0.13928604790623678, -1.3661669152726712, 0.12908458720255658, -0.3595569440843637, 0.39633707062584994, 0.27016683495296323, 0.38332046235863626, 1.3435735572914937, 1.3021803857568097, -2.07108761049095, -0.03172030953154902, -0.2359368584677866], [-1.3743196190323745, 0.6343302529316914, 0.8467493593702905, 1.0387071749875374, -0.06553432640795344, 0.29349898184562406, -0.564723722259333, 1.1829367902196393, -0.8830927500721959, -0.46574410261433025, 0.6532793320141711, 0.5321733261046167, -0.33745624406264846, -0.6329550807780003, 0.7302700081886211], [-0.1333446486193179, -0.6257403924084326, 1.045974166439001, 1.7249658799950889, 0.4312230517290626, 1.9325620198033, -0.3377291710926153, 0.4393666301443697, 1.2707159613532233, -1.0179994511630706, -0.5512405171556158, 0.10684670575961484, -1.0374815729966125, -0.5658127719166524, 0.552374644455274], [-0.8419968287456248, -0.44127080815662123, -1.9812778643057924, 0.7087864018651115, 0.6525891154077925, 0.9601631816167606, 0.2295050062119384, 1.5676028935228077, 2.7147606670611215, 0.9123271777010059, 0.19382014593773686, -1.229367000518816, -1.2512927947883805, 0.10940997716707378, 0.4258548837039707], [1.1007612494270989, -1.4649301258432184, -0.5212841537389078, -0.2379073527984908, 0.6236284324643053, -0.7560671914117904, 2.9498955762862735, -0.5660159606770448, 1.4560101562649987, 0.1406153649960624, -0.3725806692875574, -0.3041123272987681, 0.7630634090234292, 1.4027255705082924, 0.5319441451077802], [0.3446350773975565, 1.4051561954553984, -0.486859234524608, 1.807354305437811, -0.9265171321801762, 0.8187009336139397, -0.2848235323959016, 0.8707813274775194, 0.5934413713910998, -0.2931586755649697, -1.040485114574196, -0.39337435559886896, -0.746616865506081, -1.6504223593086944, -0.15185930683707707], [-0.06497434203282434, 1.8546485420588095, 0.760689136350034, -0.7561100362246094, -0.17875357926654187, 0.1978844017869543, -0.22160612018380596, 2.2435798601685146, 2.5165428925152393, -1.092875426954094, -0.3788392147472048, 0.819497229886105, 0.92761072430051, 0.527655759586422, 0.19080240914897778], [0.6164753024899419, 0.6373257637205172, 1.0939167691311564, 0.25604732928239704, -0.03887516498955408, -0.12553222598995217, -0.22086013421186093, -0.7146518470887384, -0.07793357899640595, -2.00453176223933, 2.0712824542366732, 0.9367049175779038, -1.1956094376997453, 2.2036133574895955, -0.6462505263563106], [-0.06891940530948058, 1.2421133915276605, -2.3479545408142495, 1.090361734043125, -0.7408849108555854, -0.38666563896225525, 0.975629125636853, -0.7923258066680371, -2.5551389350819034, 0.5070037405153998, -1.4029322662356087, 0.38015773165502365, 1.7182278720630995, 0.13247636303456264, 1.0536475895960435], [1.4450724961507366, 0.15191338825697343, -0.6239789046016845, 2.743568583014392, 0.10026777250974366, 0.4190729595300772, 1.274575076590123, -0.03947772437978189, -0.8620949086861138, 0.9554456755629458, -0.019813534149631076, -1.4752560363772633, -0.35752759258023564, -0.12202487226621704, 1.5926660801618364], [1.115268405607945, -0.2491833586526707, 1.6136147387093227, -0.6184918224486078, 1.194280351288269, 0.4223871002169432, 0.19648321453033338, 1.1446032291010446, -2.0879230108195115, -1.0444306284962266, 0.23119450129045535, 0.6156235868893409, 0.33147059268447193, -1.148299713926113, -1.5817353687727034]], "input_weights": [[0.4307843342736528, 0.629179210412624, 0.7371688695027107, 0.9494569470426358, 2.6306642516161745, -0.4130162652480926, 0.19056989120776693, 1.8466859583273638, -0.6265920727441467, -0.815978028735328, -0.09754873421572903, 0.562329302262225, 0.78973916497467, 0.5708949840758717, -0.05410850479187763], [0.035003118004183285, 0.7745707527315856, -0.5740273675020253, 1.2281447379203256, 0.061972460091839425, -0.23660932357798706, 1.4897159835682874, 0.5589775417742515, -0.5398946816007355, -0.8878324679727838, 0.3481629465859678, 0.2247845553611243, 0.12193037954514126, -2.079742272562158, 0.1486201028016926], [-2.34813441779913, -0.5010950359548778, 0.5160383819701317, 2.3000668670735616, -1.4336877367076115, 0.9576416865066969, -0.44455774842152745, 0.5011279014044299, 0.21624306900261897, 0.48195367417203255, -0.818637397226257, 0.8269805206383081, -0.8332922512564253, 0.4039984420526972, -1.1842549765495036], [-0.39055518047997995, 0.8510747053905511, -0.6057311726284896, 1.1237232882767014, 0.41805018615945333, -1.063453815074818, 0.7572980360680154, 0.4815000764427106, 0.4906527688316332, 0.7768743760382387, -0.9467321547563653, 0.4464747078517996, 0.2542913297539781, -0.4362385362241167, -1.6663852957754173], [-0.7782475614423475, -0.557161595178285, -0.9703564021274104, 1.4795232353876728, -0.900534375187198, -0.7249184654355904, 0.5511164741828675, 2.305772812349903, -0.8198854897321386, 0.4014734053687341, -1.4510891139681146, 1.241400893996209, -1.46991637820999, -0.08131072418270525, -0.81598303828278], [1.6117101965623617, 0.5210279332838448, 0.12617036695746947, -0.069954354522183, -0.9045787299283524, 0.6709224176420188, -1.170519816249484, -0.3080386465074056, -1.2067263931798897, -0.8194168545205547, -1.7829784996516918, -0.5167997243220058, 1.3658059372681952, -1.327127417883447, -0.5015931468989744], [1.9320835218447796, 0.24659438646645107, 1.1066840123110955, 0.817482374591198, -0.021575387129058578, 1.0453461142883533, -0.8338422882802002, 0.9326543855922205, 1.7272644153035424, -0.005066222846133626, -0.36212702750027276, -0.6746651043060632, -0.9857376482319516, -0.5139808208145601, -2.41172714727296], [0.4183406191775739, -1.3676001920990724, -0.2723877565209114, 0.2935712262942882, -0.6485288764087661, -0.48947437737862515, -0.20823015363181355, -1.0523448125185162, -0.29239890513088773, 0.38081031780988917, 0.3746035981936122, 0.6830371895307924, -0.2808876265794884, -1.116818573295386, -0.09435973269563151], [0.5987798652180275, 0.31814665303592343, 1.1597960147876325, 0.2838961172311574, 0.8040552346915051, -0.6246995663691498, 0.8104589112547469, -0.8297320299338496, 1.5261665071611719, 0.2995738586533624, 0.45266903321003277, -1.1785211446708739, -0.6499927092105855, -2.0855595665987336, 0.6026492579037904], [1.6521216005945814, -0.3901484684907756, 0.7925472446779811, -0.23822245022348962, 1.3914803184052655, 0.6378809735340395, -1.6403918803552098, -1.3902242284201318, 0.5772436667797833, 0.31644859692635907, 0.5995346594575683, 0.026514639400657715, 1.3644241195646798, 0.20739290793356252, -1.2248247658982934], [0.6216503568740843, 0.43279629836481903, 0.9032858379057632, 1.9450740215268922, 0.22368391899419557, -0.22495078340035737, -0.09323730568965792, -0.2007762429120494, 0.45600721219735935, -1.3436679339215922, -0.5241489245546795, -0.9727974595580973, -0.20761601045908665, -0.381344970229815, 0.12114548043656553], [0.6496699083427726, -0.07704917906738022, 1.374346758281172, 0.3854332396983107, 0.7883377463464847, -0.0442288957732729, -0.03196576262039717, -0.3486371451049956, -0.5135966630061817, -1.567570412865715, 1.9366522442940326, -1.6739285239607185, 1.2684229286887891, 1.1155815304337027, -0.4050244710922462], [-0.2905125777999546, 0.4500255082865013, -1.6154668659206193, 0.2552973753016915, 0.7047452609838638, -0.10910156325360233, -0.6045959105209984, 0.0835776617729114, 0.7498426484991129, -0.12598619476114092, -1.3288351846529691, -0.40483532297660624, 2.5658117152137465, -2.79207271589444, 0.12909562071966732], [0.6518060860117019, -0.27275680370331506, 0.3385290310428284, -0.40059689365919543, 0.41852209378504324, -0.1065417302133594, 0.507161552049233, -0.07922126378969047, 0.8333078930066853, 0.03791672035794256, 0.1574806560138124, 0.1453453479986956, 0.1380660481425151, -1.6877926328599042, 0.9496825983982194], [-0.42356977625295117, 0.9596165903659121, -0.1485505822400019, 1.0222545677083121, -0.3488887755400902, 2.1081993502756977, -0.8352457699670002, -0.5936215546869806, -0.266925587962944, 0.05070946203017915, 0.44731584993761236, 1.335214966842791, -0.030206518160524318, 0.3468736009397863, 1.2512490600782045], [0.42242433572175053, 1.4096647591286093, -0.5798860816915793, 1.2374642320895541, 0.5739780910898761, -0.3072910071416165, -0.426001145632382, -0.5971628833588205, 1.004460221060385, 0.9189287773024283, -1.4340610789158064, -0.8765760296671534, 0.1351102883620302, 1.3343591916905897, 0.23825305185449192], [-0.7293868743484577, 1.1154867621865414, -0.43480812188345325, -1.8168749450239632, 0.42634417841145844, -1.2987998736436845, -0.945691913471759, 0.4607626800589794, 0.38875422847887153, 1.4110486050050013, 0.13845700828315585, -0.32978575161987195, 0.346999169043193, -0.516225895172393, 0.3865613139704835], [0.8425544032761204, -0.6063143392472722, 0.21119425538077113, -0.6322768701480381, 0.028725168349032004, 1.1996696393868551, -0.41350921807871993, 1.145139045506778, -0.03613986973382146, 1.8033237371710302, -0.7598677303583278, -0.5024067215849292, -0.5771041503849552, -0.1855345565809829, -0.1042379452504406], [-1.1092173573977298, 1.9994476586604975, 1.3752119020859856, 0.7915331288275821, -0.0992639770440305, 0.5352631267141148, -0.6343775335510843, -1.4994217066486177, 0.10558347613195371, -0.45031222856408876, -1.8785272372256414, 0.23255544525111532, -0.1846620650388461, 0.5874586328079144, -1.681601879449649], [-0.6982504259140113, -0.1360058627031505, 0.32258052170684853, 0.8136404864229101, -0.6224229460997567, 0.679178872777454, -1.5255538240873463, -1.225910158241639, 0.16204577488388328, 0.388416796400673, 0.4444587840884543, -0.23687894009770424, 0.8821889535985032, -0.21567382476154104, -0.3111644216506886], [-0.22708223733623928, -1.4043660310476884, -0.5776832892617262, -1.1487086712265844, -0.3318363977020186, 0.336676322490044, -0.6158032376166375, -1.9704015785104387, -1.1545546888702067, 0.32659374328268337, -0.1444028116791714, 1.2582716644709713, 1.1614072701204068, -1.014073202118674, -0.18028015129598232]], "output_weights": [[0.28340779492495005, -0.1290995775724584, -0.43304573252912076, 1.445909623713389, 2.1646060486746466, -0.15406277917708142, -0.6184018651748449, 3.0183924905898594, 1.200356556120961, -0.9073929970426885, -1.2868315871001967, 0.47385653836692593, 0.4128098745583428, 0.8518564167834484, -0.6806298577714309], [1.0277729817178443, -0.5705177695157964, -0.4409111096272204, -0.5212558820662461, -2.251587133167702, -0.224957425727713, 1.6215423434130958, -0.2932221450270575, 0.9845199993841174, 0.660370217100423, -2.015308328443144, 1.9712860862252057, -0.985465597893375, 1.2562601618015183, -1.3084325305051365], [-0.09330052786790025, -1.3034008426545256, 0.25327651858801264, -0.41104102752150695, -0.2727033730246901, 0.4027652649109608, 0.7905666524615179, -0.08342856047644255, 1.2007796326680102, 0.11871527374806116, 0.028626385891557544, -1.5330232214434436, -2.149219160099079, -0.7632084278995025, 0.12386813476630035], [-1.2050732822496102, -0.42034375774741406, 0.21955288713893006, 0.35949278855155586, -0.6620031724130784, 0.08058441557751038, 1.6770540411976873, -0.1687698333558766, 0.6981068447056527, -1.0198860092939517, 0.292379730677602, -0.33511522037194563, 1.0865323246376957, -1.1388902728572328, -0.22316017688733178], [-0.9945792514445302, 1.1678449560372606, -0.043816392415489167, 0.5745021335464237, -1.2613787535318437, 1.3569950429388484, -0.14867796367860422, -0.3431062870858487, -0.3972692123939891, -1.5114807531187036, -0.39092480261887946, -0.21660081566273562, -0.5824307659117842, 0.07812729443885458, -0.32599666689863877], [0.8257924589562582, -0.48335241428830755, -1.7471113760773371, 0.23207310671761916, 0.23091309284976713, 0.35839255828307565, -0.401484031617681, 1.203737045514117, -0.4021179033898651, -0.49206063073356726, -1.49382687839033, 1.1290210632665618, 2.042841192624556, -1.158112012098023, 2.4021792604708634], [0.9269160168846688, -1.4127194837343442, -0.9781632623205377, 0.18330869921529439, -0.19921268898897765, 0.5833560673326728, -0.054505102121459384, 0.8132188069370679, -0.8455559018252709, -0.36890840940139985, -0.7472371951251137, -0.5586874821136381, 1.6811134283280527, 0.37375299119262634, 0.9309401929082889], [1.2750306192794227, -0.6744816663300524, -0.6937190100499456, 0.6563559555036697, -0.9349638208347613, -0.17697016550201702, -0.48850568130187627, 0.6926146643214316, -0.857385127298304, 0.5766837115649581, -0.8530644159459643, -0.643142676223803, 0.3932293549083912, -0.7468917952271182, -0.5815530538116161], [-0.18778138945091644, -0.6224919255368226, -0.894752482836171, 0.6324898905422105, -0.4175364905162444, 1.97483976208717, 0.9625471051667968, 1.795444651030436, 0.009298830749384854, -0.5040682058268738, -1.6998832515879794, -0.26425864422392176, 1.9479580206237728, 0.11840469559647261, -0.4285091046078515], [-0.9592913839521964, -0.4041405195556611, -0.9847417420556165, 1.0159350074504179, 0.19860586440289912, 0.4651903170394066, 1.0801679787678333, 0.1103329344707936, 0.6763178876376503, -0.2174777834909625, -1.044167424967771, 1.4213427808691652, 1.8722415773231016, 0.6914911520946179, 0.3966501951984392], [1.5240243987576063, 0.4942181707020699, -0.11982488426993679, 0.4497236080494454, 0.0650576227768784, -0.5667021758558766, 0.032609614834263785, -1.023399398241976, -0.9345088200799332, -1.137293347886771, 0.508713966460219, -0.8442718770166581, 0.24815007180983484, 2.0140733182578927, -0.6642885256214331], [1.0550855202896514, 0.12997592769622446, -0.28799521489125773, -1.0710400116251122, -1.353958522238482, 1.8022560143033322, 1.13500546594766, -1.5303170176306617, 0.3639010677852213, 0.9268488130612812, -0.17937746902095164, -0.8804792130013894, 0.5707230735065524, 0.3657069668284134, -0.07687878693816583], [-0.3753301891118408, 0.9182648761551053, -1.7375674776819805, -0.28303837061916287, 0.4252957423906428, 0.9905562525618572, 1.0874626083868186, -0.17480663582828554, 0.8965660512547096, -1.3624824090596743, 0.12044885694626797, -1.0958435280642809, -0.43615616144681485, -0.1250586284490681, -1.204476720333833], [-0.3710059872748068, -0.3595226811488357, -0.40183586779222547, 0.3655609570007671, 0.8786568398426561, -0.15499385770380944, 0.6964375221992019, -0.09626023293945296, 1.2878820431631546, 0.161127311753827, 0.7991867998711163, 0.4349668362528794, 1.133137915646724, -0.9078559461100646, -0.8094867979461353], [0.2217255881648412, 0.04969344457898587, -1.621492738349826, -0.07070385405724823, -0.1652637809037706, -0.013420141530045091, -0.30156671170089033, 0.5023830671774523, 1.0996034646271604, 1.9219948304752354, -1.1449836377772273, -0.4524426736048207, 0.9586113017011648, 0.1313192328534884, 0.763585037816493], [-0.7887179030755508, 1.5576576342625406, -0.30179880080881566, -0.020298627194318433, 0.42131515142849824, -0.7036039005779641, -0.18959198639998776, 0.4073193307659243, 0.9523124998523192, -0.645841321209884, -1.2091445499540283, 0.9817581935118118, 0.16564682636241018, 0.6164911790363049, -0.47607565818662656], [-2.0446191558863074, 0.5584425072858364, 0.36582063772920403, -1.1334892311717075, 0.35099497972029925, -0.7322757947692872, -1.3015215463771885, -0.015086205394105297, 1.37972672669303, -0.09575862790141224, 0.9804913941532081, 0.23092130528462518, 0.10295755847934361, 0.022798281782933756, 0.6828419988679445], [0.12575578976589, 0.12829345037064308, 0.3212150121184057, -1.5062313699312362, 1.0455380679523614, 0.5774338352326684, -1.1184814093897297, 0.7299068312946146, 0.2953664001810065, 1.5137911682295684, 0.294595922234912, -0.5951710546262471, -0.7024751605336453, 0.12364286927521566, 1.5647438309734816], [-1.8782724799894261, 0.2680628631178861, -0.8606855881486877, 0.234540047259289, -0.928633025646551, -1.322751329872633, 1.5240052028646145, -1.5463879339887614, -0.7859458094688625, -1.1615887994218572, -0.34997865630591285, 0.09883220827420368, 0.7719980882663284, -0.8139617168950543, -0.37744248792360063], [-2.3433433229395884, -0.1773394584910244, -2.4127512430683256, 0.4703551333841581, 0.31639117747947665, -0.12031033363770935, -2.36020622059187, -0.7387854672443778, -0.08952885686221744, -0.17473691437744127, 0.807317070494248, 1.0701709834098088, 0.5543342842642476, 1.2556620011722628, 0.28310769331086577], [-1.1477647422912456, 1.8140272406550884, 0.7213312487614902, 0.7577390121101957, -0.034521210129346856, -0.883436318760632, -0.25254161523468993, 0.5628055013131698, 1.927856390974005, 0.7126365578809283, 1.2097129544656398, -1.8722143885013056, 0.02088246470577577, 0.24899472467553344, 1.901296612228303]], "cell_hat_weights": [[-0.014157041804121306, 0.06931802236260654, 0.3386447157457717, 0.6894109969123254, 1.3005599654497304, 0.33876955090861216, -0.4950429934611313, 0.40158901264166974, -1.6686080310461613, 0.9025052138910392, -0.33000207549943616, 1.3935436960435152, -0.9560584585609575, -0.927416001774935, -0.9801757057175227], [-1.206762964354987, -0.26618382335799123, -0.35693656134376683, -1.1431285328072496, -0.23363351066065227, -1.4983248116037904, 0.04157266663036512, -0.3249656523149678, 0.27033789394318386, -0.7693395442084798, 1.4674957777849713, 0.07097783989171513, -0.4836286840993505, 0.20289242317213727, 0.24022401163616736], [0.3799723242095803, 2.495563362724901, 1.0762542314368473, 0.22958894629501714, -0.1534415226157905, -0.06787002284177658, -0.06597156238274474, 1.500689258503932, 1.3484271137596844, -0.8739883846049548, 0.5719742467219936, -0.5621135778147597, -1.6359535729358838, 0.8867863896461692, 0.34996982639979934], [-0.29598886710696204, 1.9628438656579745, 0.9713800910455217, 0.09826315863105253, -0.08848519653712057, 0.002297122702384994, -1.472633754496973, -0.34639692474241907, -0.7290895425861742, 0.09941027724174926, 0.3483626657833002, 2.2382331486802123, 1.4850387294981997, -0.06078873898619228, 0.4803057354754124], [0.36473230828204817, 0.5425428588256214, -0.6738240158026086, -0.4051358919723877, 0.13456252135486443, 1.9800867810090166, -0.1761010103894692, -0.3068554519981935, -0.9608018788582372, 0.5031666377118599, 0.43256871442166966, -0.3536712820789807, -1.0072687329890633, 0.18799444399201248, 0.11988501464587709], [0.2139519087181104, -0.08720067632769998, -0.20202058490454683, -1.4358815966684562, -0.47854447837655373, 0.941181005656947, -0.7728386544317111, 0.18025180680649544, 0.5380060292232911, -0.8822019927170589, -0.09473076280117022, 1.06852597858775, 1.0179950163604925, -0.6199256499964235, -1.9057843476933087], [0.49808769218456145, -0.5845323520207497, 0.4235864216082412, -0.2860785034852666, -0.4568404890856657, -0.0220298813384616, -0.4223197371163716, 0.8039872199139948, 0.3266310455794761, -0.1703445359264868, -0.5578175716280313, 0.2938799282175259, 2.8205142774308154, -0.7661818725306785, 0.9583893120063403], [0.5891434090608217, -1.0242306842294402, -2.1054472849574837, -0.46192169026568464, 0.8623914599441582, 0.5768301174321564, 1.1635222948250084, -0.413871455277111, 0.4619504873800748, -1.4864360461189665, 0.3251855528243252, 0.032370286397155945, 0.5206543285093373, 0.38019265643123046, -0.6157610970421828], [-0.8784577627626319, -0.915555583192878, -0.3559893094329591, 0.710704654432187, -1.4335853509803678, -0.16540591722285836, 0.6431347817792487, 0.7498977763010339, -1.1277564760945011, 0.8063637042255917, 0.4698317057799676, 0.6193438856971305, -1.779005772777947, 1.104309080520356, -0.7316299385069234], [0.4715493498723239, -0.06164834546725119, 0.052181837405199445, 0.539415401405867, -0.27548461466646956, 1.1240613499393233, -0.9409482141438025, -0.375201957777665, -0.2670111256649084, -0.6523183863047046, 0.7857799808583532, 0.58807990564952, -0.5270257259672714, 2.0736305863034175, -1.3499181109591618], [1.644701332214837, -0.025004966899064777, -0.8987393299455291, 0.3673297917179162, 1.3134974202390506, 0.40603855443457326, 1.0503783411198802, 0.3971259522520763, -0.3048795347325205, 0.16074132110528297, -1.1519711005330813, -0.5760548646542373, 0.4641387020924415, -0.4955699041345601, -0.23298408760622064], [-0.28484576860984223, -0.6315819023158343, 0.8495925748372654, 0.692053184660232, 0.8182952116517003, 0.9535206935709554, 0.02993750257942024, -1.0185660006867001, -0.5001348451511757, 0.23828382661494943, -0.8295191761231899, -0.3445528687961653, 0.09000838486343984, -0.37260097335367126, 0.27093419549688225], [-0.07286153606810589, 1.091294276956808, 1.4145735062682092, -0.6264590051098875, 0.29789045765434724, -1.0405553792338884, 0.9072036664740819, 0.6588814677713635, -0.8739862606622514, -1.3378815510476523, 1.0212142375186832, -0.07528299253173006, -1.0308681130725603, 0.27591551315522395, -0.32558459260274114], [-0.1396736463694973, -0.5264385643176305, 0.5139302295969576, 0.5783879898299087, -0.3515233308880793, 1.4880598256231514, -0.8538189117246734, 1.0849829347584063, 0.015509009772951228, -0.624623260042147, 0.2858323518127307, 0.9211402152768765, 1.1731659277968853, -0.8584029237209865, -0.2470840577484482], [-0.9490262934025155, 0.19135262349579932, 0.7743319762434991, -0.6424356680931839, -0.36264428987754843, 0.06410099407985545, 1.6396243290595967, 0.4115353873102797, 0.8785353592387725, 1.0319804439151845, 0.1921235614808807, 0.699463679002395, 0.6535334781407969, 1.6175188362129527, 0.9905518742569198], [0.7064693384801012, 1.8523522708810574, -0.564117152301429, -0.08480842877907999, 0.1617887688955502, 0.4369290338496446, -0.09472389647632491, -1.6360387062766262, -0.12958956567191338, 1.3690211875061753, 0.8047584784582094, -0.39835727896923656, -1.6555214242588165, -0.9607023681664901, 0.03936251500299326], [0.310716963885418, 1.2173695272692442, -0.7798674552377354, -0.2198577306577418, 0.5021864776237718, 0.05856511957198898, -0.4811033894642741, 0.20897251196047065, -0.403684833743183, 0.5166825342015116, -1.0902595035163163, -1.7894112165775617, 0.6674512500143729, 0.589363822187732, 0.2699887102487686], [-1.1680850877824065, 0.7823442665677391, -1.2074008677006534, -0.4442304526176239, -0.1332245990886637, 0.597345947493699, 1.3573056939720205, 0.07155935919361864, -1.0858271193146076, 0.6812782756488799, -3.0248362377023708, 0.637666435211139, -1.1440531448489202, 2.1123795191581882, 0.907289569120975], [-0.6280959787857692, -0.7374877115788087, -0.7538007204065279, -0.35895911280941584, -0.9099073394370356, -0.47193339781971483, -0.04281812932057695, 1.8495449933152897, 1.622480503916834, 1.4577282812945205, 0.5513879871215254, 0.47403623286619984, -0.3051860392113603, -1.5572921515118574, 1.738733065632023], [0.4036757122143057, 0.8596556892195529, 0.013244043858395001, 1.6970254729663345, -0.022953474758965618, -1.4698508281926286, 0.28609786899545514, -0.3700704827170207, 2.0350612441660183, -1.182567729586516, -0.6396412140305431, -1.1452936178734745, 0.013624725777475186, 1.5659593032637051, -0.04156496705718016], [1.8590239985508228, -0.5652402137795649, 0.6541103322921186, -1.3577025011487707, -0.9959484786018887, -0.3226890036408226, -1.8504945345795316, 0.7530981090541624, -0.18942443184380092, -0.08892769614677166, 0.36540004526743153, 1.031695146911107, 0.9829101294023386, -0.2996305652783203, -2.185010920240276]], "forget_biases": [[-0.7476332274300432, -0.13832929487544082, -0.21552726329643548, 1.2676240935956242, 0.7807562825765706, -0.19987273495671568, 0.0889672530038222, -0.25788862874269963, -0.5208388648352819, -0.4770362309749403, 0.22037703355249266, 0.06221010399725574, -0.7145137025611258, -0.7940684148311061, -0.004914975592727187]], "input_biases": [[-1.0739791982202533, 1.3289569919630695, -1.1878913644278597, -0.4328083033801331, 0.720382389287302, 0.20310448524383995, 0.4844912717819501, 0.5003378871399486, 0.34284778253645953, -0.45336365106464527, 2.0857211337138155, -0.17656012972774462, 0.2071330403590447, -0.09033598602535528, 0.549504845649698]], "output_biases": [[-0.0035511731672139076, 0.11199522143608327, 0.42288934596457917, 1.356426555002813, 1.2676346882667022, -1.2181648266625722, -1.392659092884593, 1.404436151959743, 0.4643409265067373, 0.2518038752979774, -0.5296886034577167, -1.0598754336199228, -1.426498286393856, 1.2951451104820941, 0.41487856173349397]], "cell_hat_biases": [[0.32069211974025214, -0.13123461706593387, 0.22030266105765967, 0.8730231550818578, -0.17118145705034346, 0.2126957412837043, 0.3406632549253745, -0.4093010823178083, -1.349697463663315, -1.3378606775934454, -1.6631477998213473, 0.6330716932756839, -0.614023844116678, 1.2834347698683244, -1.5270731719039217]]},
        {"type": "dense", "num_units": 6, "detector_function": {"name": "relu"}, "weights": [[0.46437606891783384, -1.2553994621115852, -0.16621395706937864, -1.4081482582136062, 0.35038429129202964, 0.08213138479946246, 0.6764566316460741, -1.184276370298677, 0.43412455285825324, 1.368812134193167, 0.25168237693331397, 0.8217015650514626, 1.051012369599729, 0.776046348060242, -0.4986901027271612], [0.8016596294325735, -0.40218391426840217, 0.770478803607246, 0.8839689075009348, 1.3165415503392568, -0.1882618431518438, -0.4666743733993962, 0.5223644207836986, 0.5748063283780173, -0.5035604484103404, 1.6518234350093464, -0.6999498340539961, 1.4366824288984998, -0.6091645340719588, 0.38293284040279807], [-0.7685049668103702, 0.5297211797868732, -0.035911550976279995, 0.20477951626350127, 0.9919958570647716, -0.7047912434654496, 1.1209978607156612, -0.4465721901984659, -1.5938838736644132, -1.4923111096450137, -1.246330199628495, -0.2915353442440606, 0.1914188379418996, 1.6058793459394611, 0.35729955618707904], [-1.2189834268420416, 0.07251412738538994, -0.9047586879789907, 1.0209031941679048, 0.37835881962076606, 1.6731314937416129, -0.06951602800644287, 0.524344906206072, 0.3738607418582101, -0.3610143799208458, 0.9979434176770596, -0.6644003281573686, -0.19942700018912013, -0.6719127629835349, 1.9817034314902744], [0.9479354261418018, -0.4616412157627098, -0.6716646522210328, 1.2953442182454744, 0.4540150650582137, 0.007466669285683886, 0.7613914995143067, 0.9474326382917148, -1.2058227624372309, 0.42476152436657727, 0.5889677023897845, 0.14341052243916852, 1.2803910677435697, 0.4619295545251359, 1.3420067338397008], [-0.30780843539593167, 0.12268806428595859, -1.51788675561898, -0.4641026825883659, -0.4115285633705561, 0.46952946452000177, 0.5018193821087349, 1.0249219595395653, -0.6511439156683494, 1.9018178611082646, 0.7617575488532065, 0.167381596294752, -1.3485531199950314, 0.08049459752283787, -1.3683659211272805]], "biases": [0.0, 0.0, 0.0, 0.0, 0.0, 0.0]}
    ]
}
