{
    "input_shape": [9635, 10, 6],
    "layers": [
        {"type": "lstm", "num_units": 15, "input_units": 6, "forget_weights": [[-1.7267883722493937, 0.029495939806319926, -0.6423589727309622, -0.6027384257144034, -0.08208865442598841, -0.22134026829141104, 1.6259370232289447, -0.25159749017165806, -0.578129543539186, -0.6417312464678733, 0.8458609015466957, -0.06172182298234973, 0.15726607306975002, -1.247529081122756, 1.9053886232935104], [0.52165870573548, -0.8696919365235434, 2.1700926207589943, -0.09630816137792998, 0.46557600156797274, 0.7514366175309349, 0.7211581349144749, -0.3753976380784458, 0.5413255954763277, -0.48995195570194344, -0.33890453895204764, -0.9826204388836144, -0.8065451842811443, -0.15113462532300742, 1.4754329880822943], [-0.0661399783936193, -0.48696027851031676, 0.011886122037434508, 0.42867523347366837, -0.9537220944814144, -0.7181176397204511, 0.8955122920400234, -0.8377167573210245, 0.32131509153061893, 0.0017247707593544047, 0.20251142298579655, -1.6564199439129477, -1.036265110806491, -0.6753284378314837, 1.0233234464052519], [0.48611492433423575, -0.5388515419730597, 0.047072913295722565, -0.17139963779847808, 0.8256227073236284, -1.5019732836532462, -1.6827431507000505, 0.3348166074831086, -1.1274898411614986, 0.18505398338276868, -0.21970856884112097, -0.49781358887984983, -0.292147009412839, 1.461720951232569, -1.6009591739909272], [1.6724998321019509, -1.9657814386127057, -0.49302804171586156, -0.5307706229372035, -0.5814849777627208, 0.6248060645160441, -1.0686463104011215, -1.160174304715405, -1.4533157886380699, 0.46963948502652003, -2.8447430537569267, -0.17167690135526473, 0.6747793867868278, 0.11375620340239033, 0.13263448482600562], [-0.6100757549624464, 0.4667539801440331, 1.986207653238591, 0.08574291261740742, -0.15177068894076146, 1.3310527110824395, -0.770572628886351, 0.10572157274630198, -0.14282577246593847, 0.0657407119580193, 1.1169781136971126, 0.04307690280374018, 1.260869648631103, -0.797239363374877, 2.1411771579459535], [0.11839468656619864, -1.6008729876246677, 0.9841057617911104, 0.2163398716995966, 0.3465756955128342, -1.0547194946820053, -0.4759659949162015, -0.1543550482804821, 2.2994400152946852, -0.3193151050675387, -0.48694935243726356, 1.932797177952308, 0.7249530184104321, -1.431302980089055, 0.05120892644258328], [0.7043193902835821, -1.9424770776112554, -2.015342641479251, -0.2548992963835152, 0.686218873352754, 0.6738653088756663, 0.2851292465650696, -0.3361079989507708, 0.0021164054663086844, -0.6998634025129314, 0.961972763397779, -0.34795310446861444, -0.7613317857243621, 0.6421929919281115, 0.2770598632585356], [-0.644358918633854, 0.12140897318099436, -0.32081828521123446, -0.8109480456515447, -1.0494128923687795, 2.0277389840158033, 0.9281071134737725, 1.7379462341412577, 0.13214048683810453, -0.8284414484701588, -0.3237655251136657, 0.11626962465442041, -0.41439356493525237, -0.05134116360070217, 2.0169893606050446], [-0.1826466601407672, 1.230172302806292, -0.3928561196976562, 0.08484273027091783, 0.23294293096049587, 0.308652445523463, -0.11791946648895915, -2.255680197634817, 0.08282562058145379, 1.345388381412363, -0.663412332272246, -1.3484947415216875, -0.8094613462002502, -1.5045766486231316, 0.42322623004795434], [-0.6022339059481693, -0.46373830761629986, -2.11310025043644, -1.307200623997764, -0.23004319829182363, -1.3469075932047267, -0.8726504753630633, 0.2257040071729608, 0.07169927472575698, -1.1672008154092983, 1.2717376220825272, 0.15342927201458023, -1.785236180027052, 1.2179349105006374, 0.8940156901330382], [-2.1498147253818205, -0.6550209664946389, 0.4435669347762257, 0.14259702035587557, 1.0374484502235108, -0.37248121038337334, -0.32221108862883685, -0.021537123867330435, -0.19693028493481057, -0.1260430565038035, 1.8380410799582454, 0.7982357768371728, 0.612508117373029, 1.1553173029406654, -0.7132928301905475], [1.253987209215093, -2.08570092871905, -0.5362701182494797, 0.5906647717242001, 1.3985790891551737, -2.4021307899592865, 1.3999390698792515, -0.27691161644167034, -0.40127380515554456, -0.3690339975495484, -0.06840574288746072, -0.6205884211817386, 0.30088566197310757, -0.8979143726793027, -0.13367455551924334], [0.3409106822989399, 0.15762261998945565, 0.9678734261619906, -0.16141257319923458, 0.011373924818051138, 0.747401317083442, 1.028043849064652, -0.2636247727586046, 0.6293355929680688, 0.42802795147741046, 2.1903105659954423, -0.25460593543443627, 0.2647025519652097, -0.3243868390480941, 1.3289977184327058], [-0.869505281824132, 0.5487443163308999, -0.15314011007617903, 0.31395425447104575, 0.002197690371929534, 0.41914510903496244, -1.734894890405101, -0.19021189769314584, -0.3660299860793104, 0.40536449652948475, -0.29448505919836376, 0.5914649942518119, -0.6419863658296812, -0.7787537858353346, 0.4218192788769778], [0.8206827566480804, -0.8838095278985569, -1.129071670985457, -2.12993284119518, -0.6391002929180156, -0.47642486683412727, -0.2749742660437938, -2.1602771936234655, -0.0471881779242726, 0.9451816000540475, 0.048056489191828596, -2.311657552474, 1.462444137548141, 0.1839277404974177, 1.4834020218776456], [1.5236663347661938, -0.1254490867819738, -1.870797775739548, 0.6739289302015453, 0.6663664182189385, -1.0940796178152565, -0.015733084328067713, 0.5833851776055201, -0.21047738081107623, -0.7971895613873503, 0.5358567243429595, -1.0978098731880244, -1.289378805390724, 2.1187658476428903, -0.7734215944646585], [-0.2802208697794442, -1.2230326833698777, -0.43067180048278875, 0.45557400044261365, -1.8326619475746224, 1.3198930363430443, -0.18041104694087384, 1.350270664830014, -0.0791071362788454, -0.8623752420643663, -0.1861178586859128, -0.09713744577547637, 2.3452871162178983, 0.7052605532682548, 0.2790271387715019], [-0.8426403252198583, -0.05782388402720345, -0.5078764772668641, -2.6954125408831904, -0.9239185865168127, -0.44707778841517926, 1.5692705030101457, -0.4539825026134503, 0.1982562495129883, 0.7735269775674709, -0.07797760654699973, -1.5935819293680358, -0.3451579835543091, 0.6681160986758103, 0.5681921719859884], [2.003564294591523, -0.5172942587753662, -0.47052428506858895, -0.0026470684220044776, 0.31563077067737727, -1.4663677486647226, 0.6813704980046379, 1.5047668480549763, 0.31185157550893394, -0.3151971172997383, -0.13328721951195607, 0.6014622914104285, 0.27354961038220776, 0.6631062697192851, 1.7319238776419164], [-2.2628130263275454, -0.4764675556310303, -0.583153702731403, 0.8079803316859686, -0.9240850317787184, 0.7687213234036717, 0.4810993061213122, -1.169767480619158, -0.7370598536994263, 0.7002029320144202, -1.4614673191910186, -1.135598990434909, 0.6479527377539779, 0.287286390713067, -1.7603198805595348]], "input_weights": [[-0.0009195610288943424, 0.12242772793465555, -0.801075299600759, -1.35510149670099, 1.0223331160977365, 1.044498688247459, 1.086779395745522, 0.09046343796507145, -2.517417191600686, 1.465618140163129, 0.5118802450178817, 0.4722884882178883, -0.7398141331847727, 0.38454821091143176, 2.2469293890429105], [0.4504666963565289, 2.9546543116075608, -0.7887657265315767, -1.611821852013012, -1.0937214343078392, 0.5408392308275183, -0.6396527122113468, -0.20274391386190463, -1.3621903841897554, -0.5129180806506876, -0.3653488153355621, 0.9826432519214197, 1.0595019318398462, -0.30081156946512694, -0.7710455625149283], [1.6528798037704897, 0.08030709310625947, -1.4229747429045654, 0.8143166792161877, 0.9351496935569273, -1.1435582563200177, -0.1549395067329045, -1.144912890614253, -0.06773568526307253, -0.21983795690602198, -1.0693799753221536, -0.6853257528658974, 0.03905008144560204, -1.784149961181332, -0.6057040347136706], [-0.4629167901264899, 1.638839283302197, -2.09490241618347, 1.5437916108491907, -0.5336927995801477, 0.9917141177799157, 1.1242296456001157, 0.01620981577813621, -0.3606296127458306, 2.642518571282979, 0.3821213707078423, -1.323983427763074, -0.0997932605217496, 0.03124799715949683, -0.6316614968599618], [0.46127760562409564, 0.08420399186100164, -2.1756886020165243, 0.2776563635105518, -0.6975346238722661, -1.5415168042632552, -0.17905869208066064, 0.6174290279829995, 0.5703903031413312, -1.7363197488182562, 0.44121269415750813, 0.07725448779881446, -0.5564524703271798, -0.9940507246013128, 0.9326063526100592], [-0.3347323285613208, 0.041044955946697534, 0.8814574460106149, -0.2239616220725509, 0.33183738582741434, -0.32169864093327416, 2.3283882854699307, 0.748018551662428, -0.6643439329307196, 0.09045351242510095, 0.6455372678841421, -0.5471872890284546, 0.7715166964372607, 0.31185136105562844, 1.5067992200530396], [-1.7292836873671704, 1.6823672918166088, 1.6984939421109546, -0.20301665930033913, 0.15647271853277953, -0.22779896824666543, 0.8034008953272848, 1.7030229887912678, 0.36809972524006085, 0.276924797074999, -0.38304421034160463, 0.808181796426171, -1.2810858560937401, -0.07632995839304549, 1.2990064796081393], [0.440312130258297, -2.20364226766308, -1.3456066369040391, -0.6881853266858631, 0.5664280933449013, 1.56657233781647, -0.6347589674786372, -0.9806543755270396, 0.10659787939584298, -0.5289413597608209, 0.24916028207125437, 0.32421695559353714, -1.2188585495015158, -0.038894746901849575, -1.164742289156255], [0.9700623956431618, -0.5505492524395661, -0.5602743448920663, -0.49797227862414484, 1.173323702527852, -0.6353254869055024, 0.5306586083644348, 0.7825111394496748, -0.8037401396993306, -0.1774921322727342, -0.15413245444895235, -0.5122487667126858, 0.29050119037462124, 0.5525847054482774, -1.150942922258642], [0.37424703234503903, 0.3403030545347322, 0.5831852842030112, 0.06933466131455295, 1.1497341029770327, 0.6206855957925108, 1.5153746974028606, 2.1528914835595283, -0.24851023071941342, -0.29973968775167215, 0.11512050404505318, 0.15117901671034714, 1.5069430594430424, -0.21431294861695468, 0.6824349445216118], [1.4265124464723884, -1.499958982892606, 0.506050255966857, 0.8773500737493302, -1.3082054124170297, -0.43001428185855145, -0.16748250978490142, 1.058125395301206, 0.2627651226227211, -0.24184757871674162, 0.09793894844420413, 0.7790910199503805, -0.3692644479628451, 1.013716432210942, -1.5333060613254639], [0.7499083036701738, 0.6011854551259894, -0.2657113457356147, 0.8474572923167778, 0.42410773749270547, 0.9657782011056264, 0.7007400298934637, 0.39554587793213314, 1.595181091326515, 0.5289400206331166, 1.773237305751834, 0.299955138221014, -0.2600770133523446, 0.16890499839269654, -1.4387138813699463], [0.6148564493695818, 0.3193719346226115, -1.6610012777640533, -0.8063582926541166, 0.5371138473056063, 1.9466344322030775, 0.2878110849269234, 1.0587743758228798, -1.8026915559730983, -0.4487538500649647, -0.39385979410123484, -1.1289051910817964, 0.010056299028609541, -0.6147608703773081, -0.7525988659206357], [0.33166000199185697, 0.2036197557299603, -0.6808937616106705, -0.8427046126185337, -0.8689952785373831, 1.7577796619884165, -0.9591860517736334, 0.4559380621150674, 0.6601135543663794, -1.1306061673336818, -0.1362524287161011, 0.29187624294636383, -0.7680475433679196, -0.1594852662809487, -1.1657189915190418], [1.214768936973801, -1.3508963837056474, 0.10252119466351228, 0.09710594698219215, -0.4514057130444694, 0.5096465618564215, 0.28044480461873705, 0.48757850973189065, -1.4975983811660412, 1.3896317944029595, 0.22093976554869865, -0.9695771511989102, -1.6616250364522176, 1.4108143837955716, 0.35009597484114136], [0.9488039864282258, -0.5534635004456702, 0.5770383274495976, -1.5852304119750422, -1.4858895005593133, 0.2020401944661556, -0.2582348144283215, 0.5491461480496033, -0.5456199325882874, -0.6462260749461689, -0.01626929891314729, -0.9425362573351186, -1.6626825608261273, 0.7009314925391159, 2.8829525357666834], [0.6352652061046682, 0.755475276711966, -0.8885806641810072, -0.14979698021311996, -1.157319896521463, -0.08542264443160286, -2.8690042289372752, -1.8358176689800443, 0.407694585797469, 0.3468456050825667, 0.22068983334662134, 0.14781648834040798, 0.7170529099023755, 0.561908679689579, 0.2755552953703873], [0.43608386571350943, 1.0735680258569222, 0.40592699714447367, -0.7630319391311104, -0.4789581895371347, -1.8632974398168924, 1.0043013051520329, -1.713984407262331, 2.0114429358474424, 0.0337924047342104, -0.36493450797763805, 0.05323985413644288, 1.261027549729895, -0.5980276369371332, -0.24666394038576325], [0.3561283383376526, 2.234721973081233, -0.14039368933254182, 0.005844355795617006, -0.12932340082762558, 0.7376685651424288, -0.43018388352524123, 0.09937845829396555, -0.13512855018878847, -0.44503618336769557, -0.848610534669307, 1.8523779572385908, -0.24491265372417495, 1.990979382516022, 1.69012193745594], [-0.4467945581870844, 1.4265375214487754, -0.8546444571124483, -1.395942233917, 0.5433026365474372, -0.5751986732044794, -0.9948367402393081, 0.13079601517801503, 0.0294464671536856, 1.5691260770370536, -1.6181568351473268, -0.45388507976395864, 1.7653149629401723, -0.3836038025151916, -0.8294391503896249], [0.6792907740803161, -0.449278931771847, -0.09863600412659879, -1.5514967634111405, 0.5527196665972206, -1.838705524301461, 0.025677324821392133, 1.9152090700626023, 0.3085467120029825, -0.017145276009911396, -0.3039674216529871, -0.5487940399847981, -0.5698878116888114, -0.34278648569590964, -0.8008611091469962]], "output_weights": [[0.4112744018861207, 0.4356350682240816, -0.03281464601942931, 0.7973998716270099, -0.03728307310203897, 0.2650714070313094, 0.025584379225562268, 0.7443431516438697, 0.28166041905360933, -1.3092404634448347, -0.7089313214563379, -0.6716028374829983, 0.23131051991865945, -0.2180310080822912, -2.6808131045378], [-0.49220042284455084, -1.2625684254698848, -1.6572219650655091, 0.05900686718770841, 0.19379507057905992, 0.4451653657426786, -0.5629942397185075, 0.6059643782314595, -1.2130397649089377, 2.1236119974328065, -0.5071681386105148, -0.743009172818941, 0.28554055074533435, 1.2782346983145163, 0.10339619573091696], [-0.027116504963193126, -0.02975299264248471, 0.23617153922503062, -0.4937832973693548, -1.202184624580648, -0.15364850822871867, 1.6649260279510991, -0.2026513090918876, 0.6089396309905194, 1.036278814046894, 1.4291389073929261, 0.8194848133301033, -1.0376361992429248, 0.5975490802917959, -1.6775989830906406], [-0.6591681218713558, -0.17748681042696873, 1.8223986316999643, 1.3558244081696837, 1.371893143052679, -0.9922702102051827, 1.718744163495911, -1.1135010287066405, -3.195789704004746, -0.10120519446945352, -0.7823757319439643, 0.4099918926274871, -0.468535425593961, 1.2226896192898538, 0.5847002966072851], [1.2648006190850607, 0.0646555847720799, -1.0460885662877648, 1.481195842201803, 0.3627280264286189, 0.9935748557565884, 0.12298477567460271, 1.4455168845428839, -0.5172207097063023, -0.22087287516725673, 1.3891083258161725, 0.6811656880893046, -0.4963131469532096, 0.42898689936962525, -0.6488118320845769], [-1.2983125275457152, 1.8117973606160414, -1.8062648650574573, 1.0465132489160154, 0.16364538121304137, -1.2813366227532685, 0.6394653410153671, 1.717934429288782, 0.01929736311932562, -0.24481480254526797, -0.8759697983903654, 1.5091396712072043, -1.0785547841932601, 1.1965455332844406, -0.08669951932919993], [-1.1679833397977777, 0.5410128305346192, -0.5216165436199904, 0.8525710279664593, 2.093131609345873, -0.9339994043387186, -0.1951200725196076, 0.38325625043864836, 0.36134447321984864, 0.34635881271088825, -0.10298022762315785, 1.8440922368990296, 1.0364916611607609, -0.6910240881720933, 1.0613074180486788], [-1.6202816385845242, 0.6340606366437969, 1.1875716295843375, -0.1390972676138258, 1.4383604484435824, -0.5585213961510674, 0.5270868950470731, -1.2895105136483003, 0.7382733072980383, 0.6723188159438633, 0.54321502367524, -0.8441502682280957, 2.132931278647447, 2.284987103740428, -1.3849186671975446], [1.1315705104212832, -0.4796682078107967, -1.9973163219464893, -0.17952948045852485, -0.6277024676776061, 0.604619884066353, 1.3486357437891634, -0.5679943055414517, -1.4614886007427146, -0.2101984523302049, -1.0952131428201255, -0.8239371092778492, -0.1582989326976012, 1.4140790762210662, 1.1605633590280293], [-0.3777678187459252, -1.715849148035199, -1.8983151183627265, 0.6406010950731544, 0.03277501331878013, 0.22634716998011886, -1.021958042760407, 1.131758547361696, -0.8425831887073832, -1.5636014630809305, 0.3363896696691594, -0.245691682697149, -0.025467601821801765, -0.9251480001457076, -1.3300878077305778], [0.1968545713134445, -0.14978916513509427, -0.6409100891648437, 1.0594850638366426, -0.756111483482472, 0.11085461065271116, 1.1135929331958732, 0.25721188996692285, -0.9859293532624924, -1.8773153740596946, -0.06362752737162429, 0.8147323636776949, 0.32904111055956536, 1.0602612168650194, -0.6151380700735304], [-1.2260874388839422, 0.1836389332596787, 1.243734089289389, -0.25982701422982557, -0.07819418562126546, -0.9972438678584026, -0.11019320262509906, -1.1296468216367386, -0.9667768872010791, 0.38450866949865004, -0.3623092210542718, 0.8186894042766816, -0.3964198378820743, 0.2601193732616614, 0.8243031924242309], [-0.28348635486309487, 0.7335020514837157, -0.613038274923546, 0.7958888959052063, 0.5655866819054653, 1.8206785448621894, -0.00672265673332249, 0.05689623600815725, -0.5558529710251954, 0.8108723874732546, -0.6446503338518881, -0.17251496630253949, 1.8470191570621348, -0.23437167272380108, 0.8003916771951409], [0.7602975349678677, -0.12485541021548638, -0.9169481806372106, -0.7865295068608298, 1.221259916545906, -1.4228972597106442, -1.1309435570115565, 1.7266857444227646, -0.9710913751069683, -1.1645295322991431, 0.3124895975801194, -1.8270076325627762, 1.1318563657212994, 1.44671314500396, -0.5117581063871122], [-0.45151928851651213, -0.7462233451627844, -0.269289581583849, 0.13073381303817566, -0.8425030404469593, 1.9031128392612484, 0.23209140606504028, 0.24257109233206364, 0.2982860951881197, -0.38792612647761393, -1.4717231519895593, -1.6696552077768836, 0.4878684812447339, 0.27300615567928593, -1.661645818917476], [2.252197254492776, -0.4531211362848253, -0.9748299196010235, 1.9707900281030746, 0.28790799198262, 1.0016651765541151, 1.5481323358755676, -0.7782606121525631, -0.24068198630359347, -0.7774585851596668, -1.3652502921647247, 0.9151534044977948, 0.8157782767196837, 0.8087561911524157, 0.5909933810636582], [1.2931968448704592, -0.585041241785185, -1.5221651203114857, -0.14171565136065184, -0.16618637391191923, 1.3771299673448478, 0.8967070593083739, -0.21105157906058378, 0.779643969572324, 0.5095047873255625, -1.3374898343381671, -1.2640961675898597, -1.8414708714283816, 1.5504617258057023, 0.8775133865657354], [0.5249339388161393, -0.08457529829908343, -0.17500441545580647, 0.012527706722350656, 1.4066519683681582, 0.10060449161631961, -1.0546347641709015, -0.5839798152951865, 0.6803033980472722, -0.21296758670269522, -0.8880131890665504, -0.07201376444022815, -0.5393978370712988, -0.12264068630389821, 2.089347553908324], [1.9196751626873814, -0.4118021934986013, 1.4558703991805946, -0.7800512428845489, 0.7431168012827998, 0.9783596385714666, 0.6047347918191263, 1.0418221821429583, -0.7861740323814869, 1.115486469182403, -3.1237224397906838, -1.3064769311609, -0.4196555647330505, -0.4283421534097313, 1.396881038053122], [-0.22128177908491317, -0.40034193506258187, 0.5482141133741874, 0.636265462665505, 0.12173681173597688, 0.31131166068184546, -0.651623284632926, -0.1622748748890964, 0.32194743606782106, 1.8867863772478513, -1.6231578791380976, 1.193107173420797, -1.8836186168220561, -0.4398926807073019, -1.7616306217628872], [1.0315449930711427, -1.5539322897076064, 0.001595031098351499, 0.4492965625407814, 0.3111838256227831, -0.7438656744355493, 0.5962532620965577, -0.916742116729587, 0.5905709929926816, -0.35196782857397024, -1.2190386269310458, 0.9036123532258413, 0.03673427115844939, 0.42008402456861316, 0.7097243285279908]], "cell_hat_weights": [[0.8687264664960659, 1.4606809312440496, 1.2172551088359886, -0.21689136546511034, 2.232342308178329, 0.06547882530846884, -2.5534479824404865, -0.3128275958913873, -2.2425686918247525, -1.9625422637196466, 0.529839956053517, -0.6496514210858297, 0.7832848879643706, -0.9822540185289707, -0.21787293848309355], [-0.33044700656903275, -0.7370749785626888, -0.7058171936578537, -1.3602018562375304, -2.0711720075710693, -0.8379502414318263, 1.5781977202270399, 0.04960196209522848, -1.7165498281287475, 2.0721696470128785, 0.3959828555292402, -1.7626206256377124, 0.11388573844711906, -0.21551188939731067, -1.596204500749813], [-0.5501475582470623, 0.17123117850671873, -0.6997368853172606, -1.105088727419726, -1.0490485286269866, 0.3007306278822379, -0.15584806207403698, 1.3698739306877068, -0.22230999338020915, -0.195551348410739, 0.09257361152079285, -2.5189572485684413, 1.1856516828209622, -0.4015389819146334, -0.7461175365981138], [1.5046125990005181, 1.2112865132855495, 1.8733707620492785, -0.6177813778521175, -0.6324470270483642, -0.4715404492460752, -0.4058537879220836, -0.21309172525594255, 0.9861088831417582, -0.010716796434752436, -0.6974987073669724, 0.7724186423970308, 1.814531061676218, -0.9153944685254785, 0.39162229591964964], [-1.8983534893641063, 0.21383837340223158, 1.1910083304512977, -0.02086834852749919, -1.5222513193911424, -0.703229465972696, 0.32736191841134016, 0.8704602845943518, -0.9594871565899464, 0.928695878956997, 0.26218020348461424, 1.30169604408912, 1.135383287532206, 0.9012301379047198, 0.15122990688834875], [-0.8018902726211741, -0.6984639013978294, 0.41517587874857087, -0.3874820383151178, 0.17716682969087205, -0.061743420403491005, -0.06104574277099045, -1.5036172997968824, -0.0922322718816218, -0.39736774778348727, -0.021798204230200496, -1.2530364576899438, -1.226811994586013, 0.5837320600350405, -0.17536819980222626], [0.05404131984129579, -0.6197700459926523, 0.8754535408851347, -0.12497908370844185, 0.09848774001432994, -1.4103957144297445, -0.8256864517811051, -0.13655923575052453, 1.1593224823214239, -1.2408425469483193, -2.141319275908856, 1.2884171779581706, -0.025840347971872252, -0.29684143292270493, 1.0400008974493409], [-0.1273607343488692, 0.6823101191613294, 0.08604590021088034, 0.0057537330176979234, -0.9956528279181763, -1.5138354983989617, -1.5326611145967348, 1.6863834216669016, -0.24683491259544815, -1.258991361539349, 0.4388863240074762, -0.1749795998142258, 1.5214453975383693, 1.1153991849207108, -0.6360645475869042], [0.3103548163620454, -1.6483394948644323, 0.30850911846042595, 0.19551508202503143, -0.6574489866491202, -0.10324528395178384, 0.493093911167537, 1.2021434143126366, -0.38471718940409605, -0.27442126003890177, 1.71418975688343, 2.4568914949330805, -1.4398552991519238, -0.6237822430350242, 0.03934143511606724], [0.7900658720418302, 1.0346656418025877, 1.4885824742757123, 0.44517571041242865, -1.1428623200349879, -0.16099679625054056, 1.980665289747752, 0.8112207411325117, 1.762137888899022, -0.560835776560877, -0.3662563875331349, -1.1280716172047518, -1.2073985159975937, 1.8288021071923208, 0.21074234386914256], [-1.095511222180245, -0.5280141085948615, -1.1716535818534843, -0.8891057439091958, -0.837263536145652, 1.366874819815927, -0.27825507812147665, -0.7902538069494901, 0.0034029226508298423, 0.06495826093236454, 0.19522335406431784, 2.575092514903924, -0.8208022043809691, -2.1904915832900276, -0.5773425567698443], [1.724321345654403, 0.5355516590917545, -0.8692587157437545, 1.5328992482073696, 1.395151984959162, 1.8764697829003434, -0.28481867608707334, -0.9258109703543169, 0.1657891119306966, 0.06497752765928712, 0.7062725738353042, -0.37865437407393415, -0.9975552935500916, 0.8624529666103492, -1.1028796043358091], [0.13617947593789775, -0.6829236155284163, -0.5988076660311968, 0.2467208752046427, -0.10894431514063964, -0.05288835201237288, -0.6406952822302711, 1.263707753228801, -0.47647148151829904, -2.3112772862666584, 0.007382755229885295, -0.1194829222845959, 1.2141358724765432, 0.14313015343460808, 1.5285214939283809], [-0.31415781807726817, -0.4099180701487798, 1.218752167793651, -1.5764413026593576, -0.14775112508899424, -1.9521693051714442, 0.2501102493894946, 0.6343868219757867, 0.04431788733947121, 2.2320239809786564, 0.23059924190042125, -0.4904216141001697, -0.4884119486821592, 0.38385091567253715, 0.44197966971103103], [-0.3407130331546, -1.4316156795109856, -1.2586272485205607, 0.4361609413518274, 2.0722701348606956, -0.7990005454235412, 0.3118404233308542, -0.8130510728007866, -1.5496486396329519, 1.3139371871506, -0.46467811520788405, 1.25588314762761, -1.627416104236019, -1.5101550061992626, -0.7817117785992139], [0.44300236121526165, 1.7376998843447344, -0.6055579800447232, -1.0708581194733955, -0.3413170745397006, 0.3091118894698794, -0.4504616267378598, 0.21580281064578719, -0.5949212552116364, 1.605101275167517, -0.2506205979780285, -0.05955563238827369, 0.8440080440236932, 0.9254970293165238, 0.4398581289395947], [-0.0943455837887551, -1.061358999885037, -0.14058276451681231, 1.3058293990585852, 1.996450511420606, 2.875213884634784, 0.9103235989004893, 0.2049292958901105, 0.025496747098095254, 1.0759899963120463, -0.33667767466053616, 0.7169567676693233, -1.2533153073536105, -0.18982301937507895, 0.6273991949226488], [0.9813121312361369, -0.35222672810447236, -0.8297575112120475, -1.4967918232709148, 0.5044820795157414, -0.33329836776751065, -0.6688515389694677, -0.24068270955259896, 0.929638465650443, -0.5130470545339274, -0.2435946313421636, 0.13185942244579735, -0.7406437234408169, -1.717584506187681, -1.5629937421660711], [-1.5974816319529388, -0.16842606110723027, -1.9320748941383254, -0.5144160616862639, -0.012722666776126304, 0.5958344140710847, 1.7439100346868965, -1.5720295348936622, -0.1190128823695432, 0.06276554703564058, 1.5448635694331145, 0.18342892134949113, 0.9672135682936898, -1.7523196710668913, 0.27683934522690673], [1.4314065931648925, -0.012146857081432275, 0.6792178307205848, -1.8775040290868323, 0.680418613746171, -0.07779541789807837, -0.3171499264856552, -0.09205615426150143, -2.086884517659368, -0.8801392359261868, 1.749373861240268, -0.320088468156894, -2.32684833584891, -1.7327173980199115, -0.572208127814946], [1.0841462684163814, -0.298940036491913, -0.09868374152715549, 0.9857641060420302, -0.6123662789862475, 1.7847502208924828, -1.5643122874685196, 0.8333302595076671, 0.8980391371985258, -0.695819696743115, 0.16115013851700496, -1.463022083294333, 0.18213311848461458, 0.28793950734942964, 2.1009931021671027]], "forget_biases": [[-0.8009378918700386, -1.529585158932471, 1.0026390743398437, -1.344233315543938, -0.13605720468497123, -0.5780104027338068, -0.4788512689791496, -0.7906072023256139, 0.4152608687811631, 0.7093152458461808, -0.535005137456145, -0.8158707309792312, -0.44359861959062835, 0.5620384128886488, 0.17386718920342623]], "input_biases": [[-0.8392999606013049, 0.028919284405449226, -0.6267149692482906, 2.520496521372065, -0.7326109207702126, -2.827945940033501, -0.3820724974626882, 1.126703889576998, 1.1409517526791009, 1.71968845853837, -0.580574465571944, 0.33933269135389776, -2.225476685716053, 0.5685129777761303, -1.5331551378585708]], "output_biases": [[1.0130844833067114, 1.4094932638553808, -0.667798779176951, 0.04672771988786377, 1.0065241785187606, 1.2916261861817837, 0.902074384932254, -0.31691402452390904, 1.5351716764970111, -0.585785827212333, 1.5700797374521593, -0.9076825662068129, -0.48740572241146185, -1.6530495689856701, -1.38432945704724]], "cell_hat_biases": [[0.8751434474094495, -0.6225846602558551, 0.3406240603380983, 0.5260983160672902, -0.7483419284958781, -0.7805648684492269, -0.4571676800570845, 0.736981773953476, -0.1993652946813036, -0.45219845763039684, 0.6007248569359194, 0.9256250622381312, 0.12650726960119435, -1.402284507183208, -1.9652343249510444]]},
        {"type": "dense", "num_units": 6, "detector_function": {"name": "relu"}, "weights": [[-1.198705329284918, -2.218229656162376, -0.5401419136442724, 0.2199690687540459, 0.2186055996286428, -1.034542979757692, 1.4450583915536586, 1.9365957753263336, 0.9926052812373674, -0.6994430231887202, -0.6082975701768474, -2.331844141518825, 0.21958054913577732, -0.44377207512187933, 2.1619585168962527], [-1.332471969026114, 0.2080185723521144, 0.10616924396672937, -0.5615335929106552, -0.15028052984394197, 0.389606127592633, -1.2952290920675706, -0.14789065480931562, 1.3373355410785963, 0.7220175489055086, 1.0635039901069196, -0.12315730755035141, 0.6605368422873847, 0.23820113117132863, 1.3829818687389752], [0.03658137581355873, -1.6523984935867033, -2.0325137149353614, -1.3112230142582775, -1.2652555297571728, -0.6089199608308167, -0.6523048453293705, -2.453568736699621, -0.32240104105621176, -1.7021748269553714, -1.764646923023669, 0.3547979048753914, 0.6955258211775379, -1.120650825670153, -1.292231911813373], [1.07705008699463, -0.3631548853414653, -1.6387101696174, 0.004580290722676991, -0.28468487531593106, -1.3845840130273184, 0.629034438650589, 1.2352241966327864, 2.2327150477013813, -0.34543682714486745, 1.0932601793403616, -1.2069520486160885, 0.6146142842774662, -0.34289559206170445, -1.064251314392594], [2.1553683479295898, -0.4415071584680395, 0.889958038622876, -1.6872143622198679, -0.32807471344610084, 0.9170471772838492, 0.46306814962323417, -0.45936563490543897, -0.4062501759870494, 1.593488740406586, -0.4731279890837018, -0.22088449287153222, 0.7995438992884278, -1.4269549431592565, -1.9686050561598718], [-0.3591323345077653, -0.90521087310242, -0.9501557404159691, -0.8896794756582528, 1.0197349591916356, -0.01995392807111549, 1.0374706996201817, -1.3104154492684745, -0.1633769210563187, -0.47533295894059663, 0.05710668719850186, -1.6919772476617152, -0.04595426481788079, -1.6268774180775187, -0.216596018566355]], "biases": [0.0, 0.0, 0.0, 0.0, 0.0, 0.0]}
    ]
}
