{
    "input_shape": [256, 256, 3],
    "layers": [
        {"type": "conv2d", "input_shape": [256, 256, 3], "padding": 0, "num_filters": 1, "filter_size": [3, 3], "stride": 1, "detector_function": {"name": "relu"}, "filter": [[[0.7548255689052529, -0.5908015474749745, -0.7198201303926922], [2.1114265707317523, 1.2203178691543444, 1.2330299164763774], [0.5378712139392552, 0.35395517431559353, 0.6935106460574333]]]},
        {"type": "pooling", "stride": 2, "mode": "max", "pool_size": [2, 2]},
        {"type": "flatten"},
        {"type": "dense", "num_units": 8, "detector_function": {"name": "relu"}, "weights": [[-1.800790478712123, -0.9559659359891381, 1.6199735550445868, 0.48593290316283894, 0.20623987405940886, -1.2817991928761394, -0.2212891988755453, 0.5550763400990418, -1.822877124838965, -0.5605402414363286, 1.5761996519267036, -0.1166804906737492, -0.7717789846090585, 0.6085428362289997, 0.3132892322507774, 0.41374797960690207, 0.7629131232985794, 1.1370510001398757, -1.067721600173796, -0.7298267747544605, 1.226421186853814, -0.8799002445627265, 0.9253757190682381, -1.500498686394857, 0.604873096588066, 1.1216956396136737, 0.4430652581178176, -0.6814183129618473, -0.20117346128062216, 0.5435556639750675, 0.10252844820565574, -0.8248067770593149, 1.017035551541369, -0.9740243237681359, 0.36550064945965044, 1.072135438283602, -0.37028509647456653, -0.05086649545197731, -0.9016919842051433, 0.5924749952640922, -1.2493536070429294, -1.6315996653303522, -0.35785647292469724, 1.224838594194138, 0.3847224790191073, -0.42587580848920903, -0.5046170876450674, 0.2963859609980148, -1.0515125405581354, 0.9286118065222895, 0.5382863662288059, 0.011197455946360397, -0.7121113029793528, -0.26162267469339434, 0.6495187974221861, -0.29738694532599097, -1.0087603031049963, 0.8898303913032577, -0.9325548579274826, 0.03519513565390029, -0.35120645926594163, -1.2483538572255746, 1.0558633039088225, -1.1061462967376845, 0.3667871545979863, -1.202916058874744, 2.444960449443787, 0.13980015672076157, -1.2437208050854198, -0.4109383852915478, -0.5354147171823371, 0.15574136364141955, 0.5394945825316559, -0.06124604440025413, 2.4545796186170783, -1.424806136142264, 1.3310587044665434, -1.3558738611877135, -0.8891583458901737, 0.594709219302916, 0.07964203118823336, 0.6727231291793953, -0.844712035631972, 0.4566699508773689, -0.19644674627554157, -1.3180178481702451, -0.010765905806142506, -0.6124635520512881, -0.7971702976061678, -0.3839518694303137, -0.4403261484412886, 1.109658908528544, -0.32563495878670834, -1.421879389792524, 1.0888446910732998, 3.027020551398334, 1.6051808447581382, -0.38975691126325007, 0.24965896324209405, 0.5937208164600706, -0.6061729455711561, 0.28285395866339275, 1.4323396064564207, 0.08640329287692591, 0.015578177531009735, 1.6609725613895003, -0.20761006183559313, -0.2971803282738138, -2.1544966005216177, 0.9492117396134524, -2.0475116761279715, -1.074939705243526, -1.0537189841269181, 0.6916217237459045, -0.8070468488118094, 1.0211352654092867, 0.851784502053139, -0.3726196591005782, 0.5793456620186261, 0.7559019794443536, 0.5469385439071026, -0.6436515180279557, 0.6047826961616736, 0.7740272401568885, 0.6953454149968062, 0.02517651223542331, -0.08633524228462582, -0.26029018716331936, -1.4663152866378841, -0.4256413638517142, 0.9078646828385752, 0.6529082292139257, -0.9339732505133221, -0.10751753388264786, 0.3623381172220276, 0.1077150682809329, -0.5214722966835056, -0.1643360238080344, -1.3010848704513591, -0.11702191102011601, 0.2283037020361273, 0.9901157900841046, 1.7658687128927997, 1.3589478193582207, -0.18232782360343147, 0.40186203033481294, -0.6765262063738322, -2.326737012828415, -0.7368507705869975, -0.21549727564991716, -0.0012824029397810255, 0.17465838785663673, -0.13792843091104165, 0.35652392198388205, -0.24666321543135175, -0.08893454120722892, -1.9968737895329873, 0.18686311802222777, 1.2318131266442742, -0.5696672397116915, 0.4873455823854537, 0.14757524542765824, -1.3516541415244867, -1.393381228888097, 1.7580608516336713, -1.0837596163757681, -0.303345532824249, -0.7075275406513123, 0.14916822362884846, 1.7124426961974577, 0.6968893422819907, 1.240563017187327, 1.888670528337624, -2.9470987761148306, -0.21356837668977682, -1.2476080285545774, -0.5959572091800202, 0.6874786357838562, -0.03942811600669387, 0.22390174877845592, 0.45813217182607596, 0.8081227794270716, 0.51242562994986, 0.2331842570906945, 0.8491597367258028, -0.09604361330134459, 1.6588641674223732, -1.3586759572320652, -0.9781651349301215, 0.06291816183455076, -1.335317715453555, -0.6650459470433634, -1.0720946056970186, 0.7813825928278382, -0.7363323126170761, -0.07002991864383841, 0.04334066064744306, 0.900415749734658, -2.9268863168886776, 0.22900459251403155, 1.6619163969222228, 1.715221487586516, -0.25369918816884174, 1.0037329379333235, 0.6867406111588628, 0.2102797144771925, -0.2579111532845849, -0.3875318632207586, -1.0170938008529793, -1.7666319118691742, 0.8775526601243984, -0.0625974818794365, -0.12420305908245684, -0.39664226021299565, 1.3739738205167098, -1.0046249053262695, 1.2662376383627558, -1.1688773803070953, -0.7769330043381751, 0.0984595426494141, 2.4900865558957523, 1.4041487629111893, -0.2858664380539672, -0.6167564313467964, 1.9117947729293814, -0.6918550765835348, -1.5062929452109604, -2.5867367963337706, 1.9184177408019218, 2.3992656289173584, -0.045003339873559076, -0.46648476893730134, 0.45154675083147977, 0.6829906210388423, -0.06261064635152114, -1.0092907455847575, -0.4282932573122274, -0.5782295068615244, 0.2470580347128745, 0.49974768483851784, 0.28674263419137097, 0.9541746401575351, 2.1827969664902143, 0.6699032609171749, 0.6775593821047932, -0.7770643371534977, -0.24268703739852882, -0.19362800293073534, -1.6082194180804175, 1.2842436408199502, -1.8066808765376612, -0.965163183868874, 1.709333330493482, 0.5500096038481502, -1.1790392244958439, 0.915575965354018, 1.6086692994712746, 0.7855935421158659, -0.7014743716210302, -0.24736517563119462, 1.5557733092270776, -0.15078735914602204, -0.4338498745820114, 1.3332437712281722, 1.7583557017509681, -0.6032771156347093, 0.23304515271665704, -0.42265008283206057, 0.1632282438291031, -0.5868328211816091, -0.3153186007848361, -0.18116937975267206, 1.1050597713149424, -0.26492093973615394, -1.4902524769657068, -0.3134842116782677, -0.5039351451006218, 0.3055068449727119, -1.4555168073553615, -1.0356767880394973, 0.0029759959338837016, -1.624527089792425, 0.17487468342657309, -0.5778211099593599, 1.4631202511869394, 0.0761919267481409, -0.8987734687577162, -1.3806460865558714, -1.2628630495554818, 0.3592630731788256, -0.2510652603475215, -0.517796252771434, -1.0073111085695465, 0.8726603127143789, -1.3357076100345875, 0.0581429742531637, -0.47516320970089954, -0.6598839727911028, -0.3320016869773127, -1.4655318144255216, -0.22482039833641185, -1.1210984675244335, -1.8978692852221442, 2.3872913580659945, 1.76655745534624, -1.0603776776424312, -0.5567866088332379, -0.2154299581582999, 0.5495953192293281, -1.872046222253491, -0.02781333148751805, -0.43595775820449917, -1.1745383542974734, -0.6319404901966377, -0.45744733145033645, 1.290132388057907, 0.5145175033508756, -0.003703170010453397, 1.0411104783910798, -0.3809963613527745, 1.3400307045698605, 0.17098585953051884, -0.6122493779082689, 0.7815761532681214, -1.0800733447260804, -0.13348799028346384, -0.2343297550728148, 0.3735925140174219, -0.8685099172720965, -1.555678876527125, -0.4194034206881243, -0.07322928790548462, 0.010251709878570298, -0.025864101255143192, -1.3811656856456744, 0.8855178447509301, 0.5975240090479337, 0.8446848047600295, 0.2958194726996103, -1.8964181429043623, -0.5822735218090096, 0.3393304799067176, -0.7691095815036695, -0.8994981318182809, 0.7278275048917606, 0.2801713970496913, -0.29048233598254136, 1.015595817210076, -1.000311173969701, -0.7444282780823552, -0.19576567040586831, -0.23686478171029457, -0.6525285859651303, -1.7040123275233143, 1.380200752134601, 1.3052796291436348, 0.5650992903099462, 0.16218758203084918, -0.20061984237646555, -0.746261922748177, 1.050396054451995, 2.3019070797270587, -1.9644143212855805, -0.3509639404118024, -0.5816407502982592, 0.4181477698576432, 1.763428017551192, -0.21829993961175184, 0.04306088162906189, -0.5860940867769051, -0.06299316422229481, 0.7150255018842888, 0.277931131286557, 0.3461951443197592, -0.22318652604991693, -1.5364095590282745, -1.6657288057901143, -2.066681669577416, 0.219496429763559, 0.35916118364484945, 0.6321221012379644, -1.0163553488754944, -1.695906492257257, 0.9071480991413874, -0.5347359731547502, 1.5791782830316876, -1.3029607711115454, -0.6959774347756915, 0.2677819824336368, -1.2108332220732267, -0.5724996297483197, 1.1963402359602138, 0.8562796790614637, 0.21430977043515584, 1.4967468656260239, 0.6676259686170483, 1.7148989839811548, -1.119924584372714, -0.29189449917868027, -0.16942472695010727, 1.2883518404678074, 0.8620115134018984, 0.20868039084521792, 0.5308477695718109, 0.1988253169295197, -0.18243917587798897, -1.3019313016160612, -1.9213023064690447, -0.20583607348150165, 0.8733427649756949, 3.0282227772643346, 0.68358362098801, -1.479308806985423, 0.6244085980485137, -1.9198804520145791, -0.5105193392639393, 0.7622202698303767, 0.26831050605100787, -0.8302578289268544, -1.4546093626546832, 2.305501797038573, 1.4262152799956993, 0.2332935011173839, -0.6981567796530823, 1.6490579413662865, -1.3322705795445524, -0.9325901696672312, -1.7260365253724044, 1.564746577452118, -1.2021575475340287, 1.8807960420483942, -0.1480222512725126, 0.24901501527064065, 1.198139041518397, 0.17602253283675617, 0.5648482828480377, 0.7562631551499913, 0.1779821536570461, 1.8335587134110753, -0.19444652381926275, -0.4784558724200543, 1.7401249410998259, -0.08348747167733224, -1.0165020610157227, 1.2732156740733307, -1.0851413510792929, -0.9082127814107411, -0.3182479133817925, 1.2208657525012818, 1.2123744589335608, -0.32369260488673013, 0.8630829516049695, -1.0677468119380382, -0.5538428499292277, -0.5644177370669541, -0.27282119437404434, 0.9108698269042745, 0.4327611029357777, 0.7508840277274575, -0.07236389063717757, 0.6217281877243446, 2.2794420979591314, 0.63857032586195, 0.07694110671219798, 2.5822023008428916, -0.8803032716657541, 1.5509262175884084, -1.3100230707204679, -0.6947581982746512, -1.816067087283591, 1.876662953737086, 0.9142131245490607, -1.3224580347730144, 1.0005698088774373, 0.6395362778739645, -0.7664801905185643, -0.22630648870267137, -0.0442474944724082, -1.2626390338009257, 0.3787516619099182, -1.0010611560879856, 0.20723656940873808, 0.696788789319047, -0.2881210248197592, -0.19479443800854307, 0.7082694491925929, 0.8356697545863038, -1.2277495052364649, -0.36355271289040964, -1.7742667393975964, -0.15151596434698414, 0.6039441061113122, -0.5834344128111641, -1.2582640856901652, -0.33781024143594335, 0.2583760175557398, -1.4382786210845728, -0.24578719253250558, 0.46933333449270404, 1.4902227814218287, -0.5056690665353345, -0.2660628651665417, -0.7330846385990503, 0.4915499532697689, -1.2067732385750658, 0.69052804219593, 1.070319274588837, 1.3806773471496137, -0.39802639725287625, 1.3012373288069834, 1.7364625903501723, -0.3879954757905462, 2.2066840162730803, 0.1399606403214973, 1.1881897629790519, 1.1035102977626001, -0.7792180785550787, 0.7864873791032955, 0.37936489843104915, 0.49516192801460657, 0.7715603257763753, 0.16751132313867131, -0.1364404815341601, 1.4446724836040779, -1.2697339690286926, 0.10903203077463014, -0.47234121663903017, -0.9189932837580064, -0.4868090591367752, 0.0694853221331378, -0.10909333530485033, 0.758375195095804, -0.21458775898030122, -0.13375875548064498, 0.5645171679541661, -0.5836774082219763, 0.10348134107485508, 0.3568934089968184, 1.5624462913913182, 0.05553852858344817, 0.3036812491556946, 0.8631015719460065, 0.2075002279482129, 1.7994159437247104, -0.8798129873174529, 0.2613102424949253, -0.686893763826436, -0.21074489155864262, 0.768690469342058, -0.5267083136985538, 1.1813049399681514, 0.7089450909797717, -0.8195169320794806, 0.9740199157341275, -0.614029348641335, 0.50412365331881, 0.1557266966552388, 0.2219292787127354, -0.14442176520440037, 0.3149463293502325, 1.282561833389164, -1.2194130942074093, -0.7657730812200991, -1.7987941746291152, -1.2944271741376108, -0.3151903129766334, 0.8074450077066211, 0.34777162269844436, 2.325707265134881, -0.01449197997180297, -1.2939555634995654, -1.3964581008958152, 0.7903768084649218, -0.4651290616403697, -1.4453107826591323, 0.5944704418180595, 0.29711901407316754, 0.6588938346133258, 0.5509449397834525, 0.4106875304367112, -1.3490749920742309, 1.0667310863065043, -0.8695002712566966, 1.1474084760824117, 1.3366054186665026, 1.4240428699597596, 0.9485701193166446, 2.1075573984350977, -0.2621020494277213, 1.5607069101285937, 0.12319323840509329, -0.37828394587014647, -0.4722628178477366, 0.35081703937842745, 0.09714284828729997, 0.8447310734498493, -0.5948970345051282, 0.23910530805193003, -0.284809029663708, 0.606043919935556, -0.807953338945312, 0.6207689365060166, -1.4601781578362412, 0.3186713762256906, 0.4647584906710607, -0.7831723169011579, 2.4269200973228533, 0.34563508437803564, 0.7170548904835649, -1.9632246694471978, 1.9316547092901655, 0.3733286816030842, 2.1156770720828075, 0.3861034288308187, 0.029850571625757008, -1.4410768354540857, -1.3154790347587964, 0.8177392514128912, 0.04549805336953722, -0.32912502627831813, -0.9435811304379581, -0.6895097219697889, 0.08654582845469756, 0.9316174706726733, 0.38775610733045573, -1.887527716497005, 1.0129165549238732, 0.32673391325626355, 0.5429973103953627, 0.43738893193931416, 2.1482305800503143, -1.234109568013258, 0.2296919795555871, -1.2264197225943976, 0.040134675458976275, -1.3031660305568777, 0.05848496954053014, 0.34706550659645524, -0.03980994113111446, 1.6769678323127257, -0.9139206865995188, -0.5801650181149685, 0.5764895267429921, -1.6682238581998503, -0.31442680497876385, 0.09294764829727636, 0.6796115500795818, 0.1627496398911272, 1.782092679122908, 0.1421390731614197, 0.6888027775003376, -1.4367177124192856, -0.24763156397902208, 0.807613505489253, 1.3017877450379929, 1.7855842719269073, 0.12163634349131446, -0.7195358846119109, 0.7824518910927368, 0.4998324510459582, 0.22154569733850202, -0.32795477956371266, 0.957002352881077, 1.5847272580061795, 1.6207289100886237, 1.1550260748247372, 0.24763767376567983, 1.2142469212973441, 0.30784846470045935, -0.5669049150416023, 2.49512635765514, -0.6908125050884815, 0.6859569099279029, -0.6518709288559458, -0.3809252688722843, 0.12395663496866877, -0.3241342720681859, 1.0935855190835548, 1.4197938385900921, 0.6937515827059029, 1.238258180716027, 0.1678573319224123, -0.9184027624232997, -0.47821318036406457, -0.9926741764486045, 0.18257828196215117, -0.007430407815696877, -0.1304077373664709, -1.0398657129498274, 1.223235821372712, -0.7870776588272947, 0.20300393246005738, -0.40236255084089095, -0.6630433020417354, 0.4798214150080841, -0.6959168627626344, -0.11530664130398667, -1.1295993198299288, -0.4212568355941145, -1.2485669713614937, 1.6778200692790877, 0.38246004098804, 0.6068493618183404, 0.10643591356881862, 0.7960748956169648, -0.16161091688902413, -1.271238828168859, 0.3707954884068205, -0.32865676266571425, -0.15332963420273196, -0.4630130423323987, 1.1365120054755746, -0.5384542161535536, -0.5116016484046736, 0.3459309248577667, -0.4862607075144369, 0.12075575497788532, 2.05491483083938, -0.6311530726159716, -0.966802216281258, -1.1484461581852974, -2.108897821088129, -0.8864752990257366, 0.7138011158480835, 0.38443405123361674, -2.238387506581726, 0.7576704216233844, -0.4189885437755025, 1.8202072981531578, 0.7506705564298093, -0.13428230521615708, -0.7373782693436436, 0.09440909555589644, 0.7764405154201306, -0.2845910263418606, -1.238739103065895, 0.2198387338269723, 0.7928735675128502, -0.8732618311613811, 0.4645508264526695, 1.6999347701635097, -1.8590886754673028, -0.4129603720613899, 0.8594701593835007, 1.1868383191103478, 1.0000148200738375, -0.08665331864459927, 0.9561896055444007, 0.9070905521342674, -0.004106292276677028, 1.5476740894843897, 0.41487678485928803, -0.8583892305255267, 0.3286121727706865, -1.5519141865716655, -1.3393823272142036, -0.0859323684446666, 0.49466716830027685, 0.8213759874587078, 1.2263668977896565, -1.0379601106337302, 1.1965609686881569, -1.6519952598126741, -2.7981820273084512, 1.5045310577357391, -0.8409395094382829, 1.4630114808200716, 0.3758544718888569, -0.013345141967242347, 0.37993058542526836, 0.4417576894444226, 0.0012723854500198777, 0.381348635429144, 0.2678636018220971, 1.3779220851543144, 0.3935242973556553, -2.398806501281421, 0.8974893541151716, 1.2285459025551664, 1.615140595505657, 1.0816047831384477, -0.4482382520717337, -0.13478448624312506, -0.47772078408354846, -0.36104399294609457, 0.8734827261943682, 0.04739117847476637, -2.543084660529048, 0.7029705995772216, 0.43441380639773297, 1.1440293684209577, 1.957456948308953, -1.0258972935854267, -0.9769996776328926, 0.4600516371124078, -1.6850314092113021, -1.0160372701104128, 0.9990311266337822, 0.7141789386512687, -1.1434987536821637, 1.894223770539804, -0.3334939813474853, -0.7314382931718271, 0.7801267278921942, 1.0979343809407711, -0.21236196953858366, 0.8989185737527818, -1.202962457516649, 0.5849328620820097, 1.850628777465114, 1.6903454085614933, -0.7070754501865557, -1.341387471724136, 0.2031117915827051, 0.1811790463160538, 1.0358724507051214, -0.2443103062141093, -0.2545469297026917, 0.93737278182446, -0.14357661949839298, 0.6042403666144921, -2.048150192447409, -2.517295577099554, 1.2282465881938598, -0.5416043855152853, 0.28690695764800084, -0.02950006776535785, 0.5852985674991359, -1.0292228725290156, 1.9218975698026568, 1.6572901725336822, -0.4849442248572892, 0.20631503474495194, -0.04928853462106433, 0.2913916759371383, 1.044078533337845, 0.49496854345446595, 0.6152770026261939, 0.22611691646121676, -0.40562981233166595, -0.46205990330791813, -1.7438722829431095, 0.39835506440823865, 0.23782455981467193, 0.8654427244225983, -0.43499758541329303, 0.5109039372991286, 0.6859929748693571, 1.3278066725603643, -0.5069621941999877, -0.1620715701069718, -0.06258141706165138, 0.9827811157274932, 0.6765945350642085, -0.1649291982447499, -0.4943780315176361, -0.44755081690159615, 0.18712305819309322, -0.5158957725657154, -0.9335762952400437, -0.24718981927056757, -0.14234519851640764, -0.4992127472339082, -0.8581491567197637, -0.3371143283122302, -1.2243974221065, -1.4376760263816137, -0.21824951733947864, 0.49445916612242424, 0.710781768507592, 0.21054848224033987, 1.2858386042630867, -0.2905454694486984, 0.43147702004306754, 1.226430340665968, 0.14177524100858752, 0.14110991425659478, -1.8048425475323198, -0.8328688288703084, 2.2797123815833635, -1.6256586625251692, 0.5918224919556652, -0.7880081185541585, -0.3610149942951816, 0.11776930802992716, -0.6144976326020809, -2.0813047160067497, -1.954404247949113, 0.9297993107220569, 0.8615091758493264, -1.241001082079346, 0.28042492081194365, -2.9355581340482737, 0.5453737507553333, -1.4831568304137055, -1.500912240790186, -1.791118656868162, 0.9164986316897786, -0.8189595201555553, -0.3065451335758537, 0.8302431361726459, 0.970406615845685, -1.6979970101817738, -0.1471481706193028, -1.105021833527186, 0.3841140975676248, 0.1310446466682259, -0.16445962999841154, -0.5862380330836532, -1.3529418900609134, 1.0069025825047921, 1.011924385270564, -2.6685294903746235, 0.5136299408422766, -0.2831031192872764, 0.361356485896407, 1.0931772262775452, -0.6897752419660518, 0.6307476896336509, -0.699495354626895, 0.3840969268761544, 0.6789590472521649, -1.1201299152785786, -1.4379557230840618, -1.6419965273723567, -0.21023467072574303, 0.02309123561954455, 0.38828473332571073, 1.1698565839413118, -0.7803578841056811, -0.8876462046715925, 0.43788008860149846, 0.04607084851924657, 0.8896038407187575, -0.05520637678737339, -2.537517308641008, 1.5420494257230974, 0.6654071432326524, -0.003651185461532022, 0.4699543242871604, 0.7937305593355096, 0.7389828459372912, 0.05276665888270672, -1.7625014329743862, 2.859261942069027, 0.6574762912356601, -0.8767966576994022, 1.616740664364801, 0.5496650164182518, -0.573107442112805, -0.6044032657504109, 0.16636689871134827, 0.30805837968368405, 1.7770688052487467, 0.5191905633906926, 1.4576983642828494, 0.8749874331927544, -1.4445554155150713, -0.21378094895839583, 1.1113021076080594, -0.3152677170392181, 0.30422742151556914, -2.916439592532229, -0.8726709523344927, -0.2226923543408501, 0.36548939679140313, -0.1706332192010628, -0.12061399713284184, 2.552983813069798, 1.235916314024141, 0.5988803972088107, -0.4637473005386417, 1.1181217997516038, -0.4206127027214452, 0.4510540866024383, 0.8414790814940416, 0.8563502066105159, 0.7240376105000339, -0.9434012228126244, 0.37596538489622483, 2.0273753068117557, -0.6892486823784776, 0.5549226479974871, -1.0384946560918817, -0.9920873274930972, -0.3230110131246375, 1.629596554611947, 0.11860440650521797, 0.3226490676012571, 1.0578289699435317, -0.2805612141065627, -0.642926713104433, 2.046137131483902, -1.137929655949813, -0.11218695750978927, -1.1951683345366355, -1.4350163963198264, -0.15478356254896586, -0.8243613954557067, -0.6773472914651327, 0.8864478195032458, -0.521058989359545, -0.41129297712544244, 0.07147514646362475, 0.7347777880832133, 0.7766632695434692, 0.9041353553794307, 2.1651332394745118, 0.9846262294325461, -0.40731214210445044, 0.7044914277783169, 0.6313024378545209, 1.200961035357448, 1.9429896364966228, -1.8453035257083625, 1.9470292168230663, 3.1356181024453873, -0.4450846539168429, -0.24645476124863172, 0.4296440311736158, 0.9634866145101058, -0.15508892726027781, 0.001044387657321011, 0.30530992588031935, -1.0733790780384302, -0.9242394518072291, 0.8838006841475066, -0.30378123696811304, -0.2602349836136588, 0.7448933607000937, 1.5763350141660541, 0.5563309258748002, -1.5500087337624437, 0.4656845428928013, -1.7035444132219506, 0.826520108570122, -0.0687672212886708, -1.0956605360095204, 0.33273846180138505, 0.0024276499412610847, 0.753548445207064, -3.286330958631101, 0.8334743469590776, -0.4539437082764802, -0.3420853166029778, 0.7059369049052413, 0.39668404107166644, 0.07352482179410222, -0.7227647533131804, 2.4458724838378094, -0.10715908938378871, 1.3987624332249167, 1.12030934125384, -1.312694752022914, -0.2712610182141192, -0.18645807752442983, -1.147935252665805, 2.149678320434378, -0.04746969052244579, -1.2764611025532597, -0.46617504397684606, -0.4184565563032207, 1.925651414954609, -0.9263864097077186, -0.26262526339631964, 0.5962877450364918, 0.19054346262091987, -0.3335554519019586, 1.761952349216723, -0.9983115064599787, -0.330611039155985, -1.0278373492577777, -0.8690105079747394, -0.770768473396012, -0.11380509095679242, -0.9789870481107124, 1.003024797980455, 1.286955195537354, 2.1202989362772846, 1.926168444285258, -0.7675664573229029, -0.14010972816852904, -0.9182512299249593, 1.4963405032973793, -1.0598064663420812, 0.3181727541272358, 1.0242474830785373, 0.011578551419100127, -2.4663883702066585, -1.0590017697264191, 0.5012603062940209, 0.12737784816859454, 0.20770726812648727, -0.1974216367899615, -0.7314152059418719, -0.005360662047159221, -0.137061816579453, -0.6371620041880077, -1.5791894243909286, -1.3742357377715309, 0.4056536589998696, -0.34243048147235466, 0.3233072383923035, 1.0360829729084837, -0.164617533604375, -1.6709631234643378, 0.6877691420543749, -2.875958689919647, -0.8809214661886797, 0.53769991790675, 0.4156486835083141, 0.3435742524645874, -0.7028917126350656, -0.39709362043120855, 0.8998250667802253, -0.35366248433683134, 1.3112698559451106, -2.7345229155780264, -0.04738667891434406, -0.26623347534056585, -2.327782390684759, 0.7467577954023473, 1.0028378099283324, 0.32467959619482517, 2.5127797893472317, -0.28275339031079644, -0.7986172801862725, 0.380218953913237, -0.8893189362276178, -1.084867948776831, -1.8267295594098978, 1.2854013636032984, 1.2721546170150082, 0.7259172692247453, 0.9977620876895367, -0.08206466547694144, -0.5528311303380846, 0.5520817308797638, -0.02790469484370936, 0.6543507341790831, -0.9521342415292807, -0.5515576927544675, -0.14349837335012036, 0.8836363483833442, 1.3583640785896727, -0.497779541705667, 1.6633038467509245, 1.572671431330202, 1.844958474737886, -0.4758940748705109, 0.21548341524834994, -1.3065370152024334, -0.2918645695435151, -1.0234838538795317, 1.3406139678564437, -0.4323930303746807, -2.013390653220604, -1.4581439744285418, -0.38364781417709254, 0.21576092126815724, 0.8111460079737817, 1.3190463652647197, 0.015863821385314038, 0.4939058231825959, -1.503205653110192, -2.4300187031189213, 0.2603175998046519, -0.1425524645342864, -1.1677203939640752, -0.07388939048721926, -2.9180699530351526, 1.1036152163560817, -3.110192626831907, 0.0186325150905383, -0.6893079530770269, -1.3319854756492078, 0.3880289824728562, 1.1957976518490858, -0.1422259588737193, -0.7117126977104637, 1.466214081534492, 0.37580457540201745, 0.6965514640381826, 1.1075599365784354, -0.49877812585409065, 1.3477213542189042, -0.6579633363814366, 0.7492072111071344, -1.0641229943539705, 2.2038930062357056, -1.3547373603613695, -0.6630583975152072, 0.463903436373127, 0.9124522343628373, 1.0469203215143876, 0.41772910256888324, 1.764593129038684, 0.12076201891329594, 0.4807704856250572, 0.005186199516462055, -1.439992282527529, -1.969514611892256, -0.3035038336823701, 0.6587128572830878, 0.6898762311529288, -0.4025555835997801, 0.14692744562156754, -0.2149859570408498, 0.8806073874293586, 0.23439524351810714, 1.6631021119702603, 0.825419615890215, 0.29806499377979645, -1.8332341010758528, -1.9231259197231516, -0.20870126075481163, 0.11209159103272984, -0.3206948726193602, 0.010271921950059174, -0.11281611308383029, -0.7723195413167327, 0.5906595969019535, 1.342680013850715, -0.27827672422858757, 0.8545519461392009, -0.7153195568568517, -0.40526731604315497, 0.4600326655655642, -0.5114928910001798, 0.18947504798565018, 2.5892743923933197, 1.0666643616055447, -0.12731261844176087, 0.6210032659826186, 0.1749833455294603, -0.8241572719851861, -0.3145022497502585, -0.22680261536227303, 0.3187177235602807, -0.2941256618888261, -1.373167314838802, 1.972130697600873, 2.261454263103123, 0.8338267823679321, 0.7070646084050575, -0.44789802652524296, -0.2855112020731336, -1.2546499196515253, -0.79273812277145, 1.9035427892666748, 0.9698286538349704, 0.47358300550251586, 1.2038425313809022, 1.6661514707274947, -0.3269298449202134, -0.12198047909466615, 1.3497265752079324, -0.5626822406143869, -2.028212784734974, -0.7881307153249657, 0.336724136026248, 0.2714114700566881, 0.5663813779669176, -0.8571651377295837, -0.22584926920380288, 0.46795539591912044, 1.1498718593253558, 1.0786385077028147, 0.3709623295454638, 0.5965864995743905, -0.8726876037382902, 0.6872006122188146, 1.4720573224817797, -2.07585649766047, -0.9071004342677426, -2.2878549580328995, -0.3852648467514346, -0.5715279816960459, 0.8634901580691329, -1.554613746900479, -0.7435093154943857, 0.07038921495633658, -1.9695267762918522, 0.6072283245626648, 0.45397473162594015, 0.5987565362103914, 0.9304341970439929, -0.5009083575760603, 0.9210587912155198, 1.1762899434121126, -0.7704444820612538, -0.4879010969200496, -1.0685252372510308, 0.7888476502497243, 0.3831533632229607, 1.7228510895867448, 0.8355325758234537, 0.43399961356751604, -0.27606124889289574, 0.6691229351958581, -1.306921357719295, -0.2447573911935713, 0.9416562015982299, 1.4831177358045136, 0.07619566234199493, -0.7948568525153589, 0.4817672858162919, -0.22870624156010536, -0.5235032845320116, -2.0409737016273812, 1.8115979119343661, -0.5745935139126367, -0.41255095482618187, 0.29941933063567455, 0.8601468487960321, 0.5755277196243346, -0.8662708158953751, -1.4357673662052362, 1.1307626867497338, -1.1788889926655275, -0.14018705703621842, 1.148606353263911, -0.11319410010558345, -0.11817925095963583, -0.6979190140584979, 1.295092636067046, 0.7458772777595433, 0.5433953596866324, -0.5869594795247068, -1.5337068766056756, 0.5736701977555471, -1.168744260261504, 0.017527965762629327, 1.286559203511253, 1.6968951978275244, 0.6228334285801713, 0.4210156515480912, -0.25865024956237753, 1.0132971460334355, -1.5971134134754896, 0.8891200768637615, 0.43102794645282183, 1.6284617061890567, -0.4337593078836827, -1.1663341532934188, -0.26097502429242514, -1.528939851332187, 0.6234249078597114, -0.14585558393830605, 0.24167472810034535, 1.16806593611263, -0.17503428622617143, 0.8141865602498577, 0.06723218851072306, 0.26900332516832726, 0.7862496961039867, 1.6434816167084063, -0.7113643809045969, 0.27183835126905476, -1.3143217615866998, -0.24240997651017301, 0.9780240264244288, 0.3691210181191583, -1.73237819951708, -1.3081157757561512, 1.934961593861714, 0.03600314020093315, 0.24070448634551442, -0.23008002584158468, 1.5228080668180408, -1.812176523566701, 0.7258175649517802, 0.84816182478038, -0.03468174388111169, -1.2042777606960886, -0.20238242320493982, 0.3778540547271366, 0.4911679198999026, -0.44640900191437516, 0.45594074701800796, -0.5002121201310773, 0.5471486095116387, -0.15675417065943417, 0.6352645673765898, -0.008597499257535807, 0.32714657069023967, 0.8684140251132144, -0.34063936982646564, 0.5133623039081777, -1.7128414704287191, -0.3369107346430844, -1.1065740974602527, 0.3787457939938903, 0.5498319456723364, 1.6908309997708444, 0.05990288094671928, -0.2842081092285303, -2.3130354933856316, -0.4655666775865119, -2.24436301641582, 1.0907400132150027, 1.4169953690274948, -0.9114458168272725, 0.17119377069966965, -1.5316736184003548, -0.4019849674600417, -0.45603529848345414, 0.2925057942470831, 1.359263570772642, 0.20620394246192447, 0.7219637928918867, 0.5979443046826682, -0.29573900895430144, -0.3277998614089138, -0.4562675401244353, -0.20702216807883522, -0.44239057603172527, -0.47548278200874944, -0.31667953410958377, -0.9378195886780862, -0.17410813215849222, -0.19651200004524763, -1.261055185909588, 0.2449656070899367, 0.6484853307857434, -0.8704491278885893, -1.1942494117202498, 1.4719722679863714, -0.09901033711821963, 0.5191772550147109, -0.4377525262133387, -1.424724151063567, 0.665461249305916, -0.7751288865230843, 0.341010715157126, 0.7310938271312377, 0.7809175955388332, -0.518267028053594, -1.9488804428530566, -0.10427598429865156, -0.06334628861171065, 0.8045761568660965, 2.169319201478219, 0.1724008871931626, 0.13965451569426424, 0.5427516421777038, 0.1363683676361288, 0.8398473402217473, -0.16643213338417343, -1.1353468832632057, 0.5835933632050947, 0.6954985003187041, -0.2591081918658422, -0.31459603921965357, 0.7524458192880383, -0.5806698778016297, -1.0436180103543857, -1.7935950214480234, 0.6640891032415164, 0.03531985627686242, 0.10100247886313078, -0.3458079421686737, 1.825538534365649, 0.29429002335768073, 1.8454455721342684, 0.5687647389059962, 0.26133957233235483, 0.13817073801493943, -0.6731559315193418, 0.37759958616303124, -0.3878328074894735, -1.4236242868913351, -1.3116506505175767, 0.46554342068911736, 0.2551328085587731, -0.16415529562848674, -1.1730329832971476, -0.11464937245948788, 0.015077124948162041, 0.5111816879913642, -0.9228004466014995, 0.06830126806251802, -1.0394479110672517, 0.3270994868248479, -0.48192787347358107, 0.7121047540422787, 0.0021892557883629433, 0.7417327022615335, -0.44650623946162055, 0.6728745068177311, 0.12287738602158216, 0.12380721395875395, -0.2945873712618594, -0.14029380384510426, 2.938984986079276, -0.04665965780464067, -0.5209688717942035, -1.4006162190702398, -1.8591516113982043, -0.04437259161694951, 0.06591642682771663, 0.05970836263777086, 1.2216058334264717, 0.14114166325145416, -0.0800068208168473, -1.5211584632444972, -0.018702124240749036, 0.29345922452977363, -0.01987649948496703, -0.7666017840339732, 0.5040912491996774, -0.4149233977239846, 0.7727759061404221, 0.0068236837221622906, -0.23940334346487094, -0.8613943430968176, 1.5124217755230875, -0.4061202044982445, 1.5087773337650836, 1.607026405863409, 1.5477006179931059, 0.26050724493711697, -0.7028080122387316, -0.7263200993452253, 0.7677848525176142, 1.8386270373121547, 0.899585071908107, 3.347039877470248, -0.9072505436072661, -0.35767921640544187, -0.8023678123591329, 0.0892451195117147, -0.37883154904175886, -0.32373466934270506, -1.7664204138957367, -0.7770538727120565, 1.8365328132007341, 0.05179575019577776, -1.4352046639142269, 1.3608257176832592, -1.0621008854682115, -1.584136201742132, 1.904858495620563, -0.4026348690007421, -1.3999651243842077, 0.5901969702271582, 0.49063472448849765, -0.13174008506654727, 0.6057007652289844, -0.0698893716358653, 2.398138738703624, -0.6501954539097007, -1.2818193024286844, -0.6697021884656178, 0.5638786902118927, 0.11973560685035535, -1.33172708570088, 0.21633330357105302, -0.4873718377788634, 0.2617587357753626, 0.3684313643520426, -0.37671319407886655, 0.6596178393874547, -0.24310320826406964, 0.2950065022898594, -0.15071682806763237, 1.1168928326942344, 0.8728520572047308, -0.6901645535949553, -0.18531272014332245, 0.7704502795661905, 0.6165643587077823, 0.9581696252674694, -1.2931417946200694, -0.9932460453243562, -0.07834600900379622, -0.9355658370370971, -0.547105125317522, -1.6030186600687422, 1.4429027331800124, 0.7378808656093364, 1.3465054992427523, 1.064115757248239, 0.23370690380355563, 2.0277389181619285, -0.7127405214715611, 0.9411866476168699, -1.066030081792911, 0.004480973759661666, 0.8051213994584264, -0.781491151856824, 1.8059459961297533, 0.12384029822129665, 1.294505307318081, -0.24154306572431947, 0.0019106249287754362, -0.11034396097669091, -0.8511199691964922, -0.5696916812333425, 1.5897312481386938, 1.7284195489428669, -1.5496985059091961, 1.499955942087436, -0.3964964442465106, 0.2988627831258883, 1.0841942369460789, 0.3139383642825606, 0.013803495023091627, -0.2202364579919168, 0.49924036424891016, -1.3582292405942817, -0.4433133979444149, 0.3801462578435649, -0.46147778373387477, 0.17554555883327755, -1.2369490566298347, -0.3782575137550708, 0.04668020098612248, -0.33821431155418114, 0.022963253898809648, 3.3164724160861976, 1.1997874317299073, 1.5500469451219758, -2.7977740924841714, -0.9876643495914822, 1.5234698548925916, 2.2734465842737905, -0.1824607162510116, 1.138389870412112, -0.30010071568122826, 0.5918756910851264, -0.4343784253003876, -1.4050444861834552, 1.59642641822555, 1.0761950741209982, 0.9196930791614341, 0.22768750693854306, -1.3529569859944228, 0.588191327368111, -0.1610342296478452, -0.24330775030165627, 0.7309713556730704, -0.15284822387212546, -0.09264937351113266, 0.07484368134951705, -0.4386136243145011, 0.323852498999525, -0.769984841698968, -1.0915483149150278, 1.311615553338243, -0.25048882747210643, -1.152340995234033, 0.24187255637277646, 0.3915341416213839, -0.5970286751853217, -0.3436587667204622, 1.7341496626546269, 0.21317348588385152, 0.0835468375578893, -0.20406036634050315, -0.29418286724440357, -0.004492261152487354, -0.1361174390182517, -0.3204199770311152, 1.5030183298823603, 0.6457447662094852, -1.1902306749430527, -2.492450815831712, 1.433449459563244, 0.16542242137303273, -0.7744782483617987, -1.1081401827704978, 1.4600706723755867, -0.8244713234320805, 0.5060272666631944, -0.7962720216489231, 2.3608250141859153, 1.0081782266950445, -0.7790684647271628, -0.06070942714375295, -0.5179294560857143, -0.17936444739053406, 0.31859984503106553, 1.3073934862795598, -0.3994583319568389, 0.23640822408044196, -0.4252603804016737, -1.2424893912226438, -0.31090843937328416, 1.4562265430863706, 2.2008556860976314, -1.1779004348170066, 0.05573670109514543, -0.9055023695200087, 0.9598460760401535, -0.33828060398059373, -0.6101704017394016, 0.9681169386081212, 0.28221952097057623, 0.3402040003449599, 0.6701418970593839, 0.45748340064644194, -0.09267472728118822, -0.9382796918536052, -1.1884368513606565, 1.3490690767277203, 1.2919309015911244, 0.6231763638783517, -0.3403750631850612, 1.1625225644618167, 2.5934268808310743, -0.16845557269155614, -0.252119191648627, -1.5582177803993185, 0.8351327028960369, 0.7597255446245883, -1.984043648719747, -0.5069962114551831, 0.6696629160588319, 0.6718047177179924, -0.8523205242904491, -0.10166087905555234, -0.279400602573015, -1.5441025814313956, 0.9522919943449275, 0.5733867456448455, -0.6031532669817511, -0.08735430187674909, -0.25861245524683946, 0.9305882646967423, 0.75811879563786, 2.2365916241815063, 2.022467684567597, -0.7883179757189948, 0.1438282862553392, 0.3751584504886802, 1.1282337698753842, -0.09837425419110876, 0.11300249076124542, 0.4422734598731566, 0.46973020235450513, -1.495345685089538, 1.2933107390987613, -0.7291880015480049, -1.3032601081424031, 0.4191647271429328, -2.033173855816761, 0.5454931722457922, 0.5721518336601379, -1.4585009247568397, -1.0987135454782806, -1.3775630743351952, -0.6023396839267485, -0.2383842599451602, 2.932936193673366, -1.0520029002170894, 0.6963952375550411, 0.9606224620801838, 0.266721628087221, -0.09840015973459847, -0.626740149668222, -0.5062405675450632, -2.334752359730889, 1.2980819322143513, 1.4769574237793237, -0.6883922334055996, 0.48499075256472146, -0.20170603840273132, 0.022307775253846012, -1.2037463232000498, 0.19081280998719688, 0.2237774817663342, 1.341827567550644, 1.0644068791324923, 0.34327592712098587, -1.698361923461387, -0.7960897622160894, 0.5485316342873616, 0.4414176955192246, -1.1757255329482195, -1.0948245275921402, -1.1121820262415372, 0.733555195991585, 0.44092001277791687, 1.1837491082195466, -0.3478314301136352, 0.7071953995925963, 1.1170763806724886, -0.7213658130330429, -1.0151327068280682, 1.3216621179583339, -1.470969903277032, -0.1289621470121729, -0.13418581242542024, 0.40167521490306823, 0.8528076920144869, -0.7371796483041225, -0.762343812625258, 1.2831430004816102, -0.25860421187728827, 1.0512080263876715, 0.7917456083277006, -0.1784228213822507, 0.6337793799058453, -0.021171409715433243, 0.107383141904405, 0.208601349179666, 0.8018384264049251, -0.6562539852007049, -0.15481687828124838, -0.6807814504700676, -1.303183610808042, 0.1532401635655862, -0.15067995642492588, -0.2273048222733902, 0.6458982514975358, -0.9682974539858807, -1.567239612495898, -0.17657400547118415, 1.054376957395298, 0.6036607088005701, 0.8230766516921206, 0.25422113703516525, -2.215308709325535, 1.6173928347605389, -0.07160466087103243, 0.006243344189687472, -1.5271383422160079, 1.1467645149962995, -0.4626467526631452, 0.04939359757730338, -1.3619509867479378, -0.12437196855801852, -0.6744264964420962, 0.10876389681333665, -0.5083143345283676, -2.135339381130864, 0.5665881559770962, 0.42566006958820923, 0.6489332814105307, 0.798603174860313, -0.4906650161362636, 0.6618008838229597, 1.0028905747549073, 0.11523203797808064, -0.6979161950734728, 0.4166750780292682, 0.49767058159959754, 0.4276101017760646, 0.4411660942434589, -0.3361362218995585, -1.22325089735553, -0.5633175497086379, 0.9978358410134407, -0.3298301833709921, -1.3081492547494027, 0.43603695509398455, 1.690462368958502, -0.4281838222530575, 0.2862538015488782, -0.4569741671289429, -0.5572229427861947, 1.9491750572241278, -0.5805436901223194, 1.4730125846926445, -0.9929813601846799, -0.0117737159374319, 1.2647283668461287, -1.2634170306858106, -0.5395410077795583, 1.4104913702480248, -1.5151443868537218, 0.9157152032363775, -0.5678627906796689, -0.38591892586540066, -1.118713413971644, 0.36991548380973793, 0.5418559085616637, 0.06357774142282863, 0.7778579214019234, 1.5303317071494589, 0.13340904518940586, 1.6574851987401629, 0.5266832858253281, -0.005146225817048794, -0.1398966833921586, 0.7409564122355428, -1.4052382481752366, 0.1503712065263115, 0.8213242871266193, 0.15211493751946767, 0.33968844613377563, -0.7514354202714869, 0.8075089476038928, 2.1500092339415198, -0.48669798462026453, -1.462423521956625, 0.22234328937166178, -1.0481229268068206, 1.7168512820569497, 0.478628526945153, 1.0151218350670952, -0.9289375088745054, -1.8343613743624414, -0.8010159603292616, -0.18553791310339243, -0.8002900128696716, -0.36886456046915334, 0.781578649962434, -0.27655937595048546, -0.12790184433313678, 0.5811682434445957, 0.16298616877485597, -0.16049000720520304, 1.9505569292055867, -0.6284271296794496, -0.2968832898871533, 0.5246597382461283, -1.6699430320781117, -1.9593390671713817, -0.10587484485992515, -1.8428381576761044, -1.4584698628721569, 0.5386477381422261, -0.6634496895987214, -1.5483676935819062, 2.352727579344038, -0.29573589445357906, -0.9267788782717544, -0.35334333998922357, 0.41558286932910016, -0.844635683119325, -0.1300126769581434, 0.07035667937432259, -1.7891540589945685, -0.24477560552856667, -0.5316255504632215, 0.2042077691081396, -2.4562753828705515, 0.2984458289206979, 0.5864588315880152, 0.5425036381577241, 0.07319230896633368, -0.5996869160956831, -0.7182451114191817, 0.53465198155032, -1.759303279298131, 0.5020550308022176, -0.6552190893689037, 0.3589387470434276, 0.5424488580620669, 0.9824225481308122, 0.1103155685230796, -1.1175436902981657, -1.0073732627965988, -1.5553458437944534, 1.9496917858749299, 0.010413694467826189, 1.0702341163096811, 1.6480321192472098, -0.611660019645323, -0.13345248140159888, -0.29314257127221455, 1.2636286220691262, -0.32857097910508837, -1.3294980564715053, 0.3093413766445859, -1.134217063920189, -0.7669213964582957, -0.6800324836117687, 1.029181205365608, 1.0098005638845162, 0.1420659662085954, 1.3419721681524728, -1.3544373680096216, -0.3593699474770452, -0.3844205221671999, 0.29607780479881685, 0.19471099309001297, 1.0342612008181304, 1.2232605493813848, 0.4117690186150902, -2.6192230365015643, -0.42775715313795915, -0.10100596941518623, -0.4599000234523904, 1.5436099285905394, 1.0767792581159696, -0.8414225173193862, -1.2669861493567278, 1.6108066120863653, -0.5284845454505669, -0.6211833276332362, -0.7842131218138008, 0.3381703300056, 0.9591099018485955, -0.7703024770454957, -2.0715459402360294, 1.0633233231587056, 1.3313334139549375, 0.21339847491434596, 0.9882834201862764, 1.932968218297564, -0.23639190866774956, -0.9512403525094896, -0.5962845229243414, 0.3249284264003765, -0.2730844780336347, -0.6218184621145394, -0.7938821062222542, -0.02898001789897732, -1.3101526653659545, 1.3021746086760195, -1.1201756213144443, -1.1064964258179133, -0.8423792215528328, -0.1652532290950485, -0.986252940792682, 1.6452690711653057, 0.03769507771149539, -0.2282096383296416, -0.4572816510403438, 1.9667907726993026, -1.1317386115064474, 0.27653355742141283, -1.64610877436764, -0.14172796267846283, -1.0013030320103284, 1.6505644271838327, -0.47819553254075614, 0.1937016813316226, 0.1293332978846878, -0.23348208271940293, 0.05319599247943032, 1.7882344664722978, -0.6093109851442599, -0.0441092829520022, -0.7742467788608149, 0.45236726081688483, -1.4368917631708766, 1.5120445602827626, 0.4372805349488626, 0.19633205558130212, 0.016946350111523963, 1.3266503997360952, 1.346284611907735, -0.32222918219643104, 0.2927888494708022, -0.25180414526931316, -1.388947851421583, 0.9171168143420073, 0.847911923034242, 1.157036488353389, 0.6695761569393612, 0.20599601960680958, 0.3911180150653939, -0.0663865656722456, 0.08348895374284819, 0.6947488011259838, 0.7963702802332808, 0.7557147737923244, -0.6287458492202118, 0.1929228146339228, 0.16153525791639134, 1.514017992123436, -0.197173838205504, -1.1531729188799886, -0.5139602758492353, 0.22653686946891574, -0.12130686375328266, 2.2627720439907035, 0.14395620308718152, 0.3488101129378136, -0.3049719499221618, -0.7735453460859382, 0.9791231033425987, 1.4332832933550739, 0.5699065362221526, -0.7449700988476187, -0.859160869165363, -1.018876223717301, 0.14228775099915847, -0.4089151776643766, -0.7223621881819945, -0.32387771038722823, 0.10286881459730467, 1.3434814023752584, -1.3072970125935395, -2.2952680681256137, 1.0913530493441164, 1.1998816724275714, 0.4627410716681338, -0.30509871242651265, -2.3855060907350536, 1.1900853800104618, -0.21518342711062607, 0.3934415579484759, 0.5301889089764423, 0.20225230498836338, 0.5606465803976642, -2.942681297773818, 1.0211423346319488, -1.3019283555459773, 1.1005453556178881, 0.6056567002069232, -0.9179325279341476, -0.14250991148033593, 0.7055190601607522, 1.0922336294610546, -0.8685317202845902, -0.01997521776638006, 0.5576165367912534, 0.132807621734402, -0.8959205059153579, -0.40088501056900716, 0.32257189574992806, -0.08814077696774708, -0.866786447131538, 1.2766410155088805, 0.4050462179246508, -0.09378001466564934, 1.05516815711066, -1.1322842806978732, -0.44151296405235957, 0.10488123093162889, -0.5644003209383539, 0.40010886149752733, -0.04029482620080633, 0.7668817447262873, -0.106232941286375, -0.1966221732018166, 0.3424333879768939, -0.43444924610688795, -0.32955617936160087, 0.07386338795138514, -0.37548919525015256, -0.6595413226058686, 1.280485564057606, -0.6624748226732613, -0.041554909982900776, -0.8767302086763746, 0.2169881342325164, -0.22803607649106403, 0.5443392369538065, -0.549192664757567, -0.16206407563312805, -0.6222055766853967, 0.7128653448168274, 2.7856992668946114, -0.2947563758059196, 0.708915388924678, 1.4664897958048413, -0.3705934694669861, 1.3514400201365677, 0.7809060224972114, 0.598139345011303, -0.5764741915314723, 0.43480027299832236, 1.6402929030576072, 0.19266418073216413, 0.9369773232637504, -2.22640167445775, 1.447563535363083, 0.8265336790621819, -1.6688346508702534, 1.3995831644878156, -1.0805898399012948, 0.5428342626903667, -1.1703786652820873, 1.0972582804452302, 0.5930801280294477, 0.8425658377185238, -0.4464312157766126, 0.6155125652072871, -2.1969070784869236, 0.10067022263811756, 0.982222341962078, -0.5831297587328769, -1.1024349626957182, 0.49279378640249905, 1.4700961511315935, 0.6044034794185632, 0.8449873513926879, 0.4214392354554293, -0.45262369651855844, -0.3332633065841466, 1.3450610630217283, -1.3737658691843027, 0.3597348372377642, -1.5290627922714468, -0.43054732672363283, 0.6530098959369743, -0.28068185540394724, -0.28678066353139187, -1.2768009660129065, -0.25256944484126187, 0.8236294633055495, 1.613896331043274, -0.00992767909071352, -0.4684685040337495, -0.5754867642159758, 1.395456513219608, 2.081735652930708, -0.29456693999812056, 0.3482023241396348, 0.33629609683220624, 0.026823337768626863, -0.38320834368294066, -0.10075552489704052, -0.6196232168602639, 0.5594051477679168, 0.672019859649317, -0.6971625351006031, -0.8396316448893021, 1.3857642052757755, 0.041877044915194964, 0.44425609440933944, 1.404342650643112, -0.5122467682708967, -2.0182739808355805, -0.6973567097576827, 0.11421457919554732, 0.8332551933264601, 1.3078212067564554, -0.02299780227589845, 0.9999076301426302, 0.6080813813967512, 2.5454003029264594, 0.08779164290615593, 0.24215835594623428, 0.3263550397094664, -0.7610587792514149, 0.5669211237238462, 0.25478840259994356, 0.8580024295287564, 0.7519040593469263, -1.4673169874035579, -0.23385479652819097, -0.4625671871682798, 0.547794892182952, 1.0590616105698938, -0.08726684302083387, 1.400086817532451, -1.4277332974042132, 0.1993031637887029, -1.1942391771396674, -1.2396836738186185, 0.6767140455137005, -1.6243313757934505, -0.9653724024189415, -1.2209723680763742, 0.7225994235385886, -0.41428963753210113, -0.9684705298015098, 0.43183061719747695, -0.6192661266151414, 1.3322816173130976, 0.5042756670211257, -0.26432612989008536, 1.6992324069230986, 0.692439979999261, -0.7465694228546961, -1.7241086198927436, -1.1946092683731209, 0.21975344051680196, -0.8027198753821212, -0.7961302811347502, -1.744288938411932, -1.15336102496915, 0.8023357616757635, -1.4828836295506749, 1.7200181801956864, -1.0073883702804183, 1.0741660599266851, -0.13795489298327346, 0.2760437361655358, -1.279568919149359, 0.3739575717958224, -1.1000433708436907, -0.594805215908758, -0.016974135154712768, 0.22820132478598845, 0.9498531748196222, 0.5780281051632649, 0.11120892776620926, -0.7362852445014136, 0.9404516083900666, 0.3047798321960319, 0.48975159542757263, 0.3198909948887573, -1.5784089001186372, -0.4754578406541632, -1.9470086357198704, -0.9519236785508254, -0.3720566585377719, -1.3856549249466623, -0.3143771757744013, -0.5957590227410501, 0.3880700215255033, -1.0232933019555148, 0.11075279281769507, -0.155324291178465, -0.32686356137557604, -0.03233285592660033, 0.362670374218085, -0.7822695509704112, 1.2838464232433857, -1.8501050906805285, 0.3246185158802076, 1.3954427940173573, -0.3968573071712448, 0.8330064986670931, -0.9440952922259155, 0.4207022883953144, -1.665282809831969, -0.1336262948953886, -0.8402111340779234, 0.47322296607238407, 0.11575475547301926, -0.8027466054524213, 0.04473741169976231, -1.5258678297727069, 1.3689780920842471, -0.002940538867235838, 1.14419676414378, -0.10778646579587463, -0.04795124098445472, -1.848801312815978, 0.33261575578019625, -0.6456344510387994, -0.2994604859749197, -1.019306060354081, 1.6436854720578025, -0.2778565597274796, 0.7864730594182112, 0.15497699260941736, 1.1727619834890168, 0.12320947747930992, -1.3055414498219933, 0.13096319385760083, 0.22422636417370279, 0.10443749414320551, -1.0113841457606991, 1.3252402905985512, 2.6326585471549024, 1.1434889099551875, 1.7505426583709764, 0.4197872780816324, -0.9114846255571701, 0.3121723839008432, 0.9945963326755812, 0.8234392835976417, -0.4311894736809837, 0.09201741839246204, -1.2115435595949484, 0.780544810512533, 0.4352643934502476, 1.7537694130764239, -0.06419168470744291, -0.8951830916885302, -1.4849006451190365, 0.5630710264305198, -0.2511923283134221, 0.8143932547415161, -0.5170711708911583, 0.847864389024508, 0.8883738826389549, 0.512451309347683, -2.274807125202283, -1.0097280465679872, 0.18453359311672843, 1.1766644565679578, 0.7100317373621795, -0.9803239361177762, 0.023484040079638835, -1.2084333090305024, 0.08180489076015511, -1.1634458981744968, 2.0824589071510795, -0.16885532235107756, -0.05586087987869631, 0.6563929558421453, 0.8951757900220575, -0.9868871426644258, 1.7170967378849693, 0.15835670500507407, -0.7518995758608664, -1.3153530190211422, -0.34584993701894196, -1.670057743902735, -0.02478655626322196, 1.6215576556851339, 1.030838529055958, 1.0358865888375672, 1.258082232936131, 0.09647052830374783, -0.6255147110522139, -0.8230135263791049, -0.1549095985454728, 0.08638822917082083, -0.004971908137168302, 0.30652189902595167, -0.6795840760335159, -0.25476243110890123, -0.40571058163344687, -0.017528170609459885, 0.17683855714240088, 0.5512711267952581, 0.42360164691765056, -2.367785799987575, 0.6202898762924424, -1.81018189632908, 0.33272719032730486, 1.3003078731989393, -0.6288997679515672, 1.1795884992485446, -0.4358241909246732, 0.703709096585553, -0.8952455440914122, 0.5167252449548417, -1.1630618243750739, -0.07077772377000183, -0.29658747927001705, 1.6341204880131648, 1.301024526692921, -0.41770718573420884, 0.9862221176750054, 2.0349319031132835, 0.35246377344951485, -0.39830082325922145, -1.0859254195589485, -0.5411644829543509, -1.2807983308069872, 0.3605454574897049, 0.054113689405785544, 1.6042247518351889, -1.099269172741835, 0.16935036997966976, -1.3086891543361967, 0.9906169194190744, -0.4487933256807534, 0.6668221637334037, -0.030072226748957966, -0.07191828947698697, -0.7858801154151994, -0.19552460738495578, -1.3039903783084228, -0.9370909436042107, -0.23304894306360113, -0.6392703210258129, -0.3194209862198928, -0.7567300779235482, 0.7941100569842974, 0.9050342684303545, -0.3420620850016942, 0.9020278919172403, 1.3322949383040543, 0.32900411552603603, 0.13012577013774396, -0.6371106764120661, 0.42348941359702924, -1.3824350058428143, 0.5670960483900686, 0.282841183988582, -1.2972498451480783, 1.1821769514411609, 1.1841745554316387, 2.4042940068328527, 0.5320184431743078, -0.6354844956424062, -1.040123872984349, 0.17618925886321476, 1.1913224211354065, -0.5806127576568485, 1.4968059091865475, -0.7472395792238563, -0.045881725056987364, -0.8743682528135869, 1.8461645029878595, 0.35614092908093653, -0.852567281740168, -1.0727212204121457, -1.0855954192241828, -0.0983180157862362, 0.34628324883699557, -1.1848508640537114, 1.4779449278976708, 1.238062553036199, 0.4507643660183002, -1.8745352822817178, 0.3394066104273483, 0.8663880715374165, -0.11392796769872351, 0.5902906088239572, 0.08730097825181973, 0.8672638282865157, 1.2022710817272124, -0.17202874337024385, -0.877614057461114, -0.09722901803138641, -1.5256114660677749, 0.7927638434237694, -0.8090839209408477, -1.8622258261484965, 1.1923276407985468, 0.5471452063793067, -0.12302715217264706, -1.181944271019281, 2.4250835679881426, -0.7266429029192369, -0.37207801072348734, 1.2309520307236548, -0.4311393310162458, 0.4571307135609284, -0.4352914296166278, -1.196901135960093, 1.2103974849540795, -0.8178713958812862, -0.9427335542758034, 0.18747516313040713, 0.2582576105839172, -1.370558898173614, 1.1383624977874534, -0.35004145821077315, 0.8022406434504499, -0.5408370623246259, -0.5862625905322018, -0.7490677499405274, -1.4851228322234795, 0.029255536368334115, -1.0693423597062701, 0.042983853859995654, -0.5969529691523608, 0.5242534772869516, -1.6170269229648955, -2.383733191604788, 0.9991923038335186, 0.24838751558154254, 1.6666874921081714, 1.272971913034795, -1.385824867387406, 0.7862714139057446, 0.5762353432485557, 0.9495359230917116, -0.6902472470872192, 1.411929348978909, -0.5475724565471138, 0.3904313363132958, 0.5806932982611418, -0.1334020021757457, -1.299161213635307, -0.0555154909554613, -1.1395528226519893, 0.35487520667652583, 1.1835934817703164, -0.4917057579534208, 0.25082554934583345, -1.0432449523480185, 0.6593261224880257, 0.19067744938134754, -1.1690513379564342, -0.6957966729903862, 0.9888891876547279, -1.6913862250288036, -0.9218869915636826, 0.2111065389558176, -2.2378032325110127, -0.39590757903167917, 0.12343276249025828, 0.7551812838159311, 0.6175666526063758, 0.1335332094567783, -1.7569404144093332, 0.7275256523803276, 1.026942751643996, -0.31224133141168603, 0.40100768773551654, 0.7220552872190281, 0.3428351992202649, 1.5592386502831785, 0.6452962340925211, 0.8141073114093705, -0.08809551547587763, -0.9263924248774956, 0.5541149172642903, -0.9652411557670437, 0.35057393517091684, -0.2014946320932278, 0.22695525095725166, 0.6323689319721217, -0.36895212017392975, -0.5104453987269508, 0.5509557465982158, -0.3331612108875254, 0.718702507305892, -0.0648023008312373, -0.6237508627482534, 0.008792038837980885, -1.1299474283910462, -0.6209096855319164, -0.1034212372045652, -0.3014061924468165, 0.24191865669183998, 0.28753960617655056, -0.5643355959935269, 1.7012622054948001, -2.0599708787570092, 1.07802770484525, 1.1395838381319925, 0.08852954685558567, 1.1017977033094137, 0.5244722636657518, 0.8792812734079102, 2.0161422500054282, 1.0219636472083173, -0.012479208180326716, 0.08088691021323233, -2.1974651040269966, 1.393937110447747, 0.8882684381366878, -1.4492165709094038, 0.19903535790726593, 0.8225717068570682, 0.09580159117320389, -0.3279265027030749, 1.5516094731687933, -0.020610022410058743, 0.24209404580602115, -0.9114941672324864, 1.1655595926687317, -1.9644352595661037, -0.09809762142694446, 1.4265200014456703, -0.49090634797345684, -0.6555772763181941, -0.028101321282292823, 0.49082029989735165, -0.8185257739258023, 1.4365608680922157, 1.2774469987320156, 1.2184158585094793, 1.360737718831559, -0.9086855807950961, 0.8577468792746041, 0.6230211357809596, -0.9214380073198575, -0.07638616859141273, 1.9533322244451272, -0.6346725322496999, 0.2536321989387303, 0.14043475486817716, -1.0362680204050683, 0.2376189320347569, -1.7363140091248195, 0.8685801988943024, 1.344418521250723, -0.38045994969925656, -0.6779838180505113, -0.10787837182798249, 1.02131712213856, 1.1766788769397318, 0.17564298725451338, 0.5307557307221835, -0.41148720622228036, 0.18038480775013788, 0.41973685009627576, -0.06075800319774778, -0.888088500436461, 0.5098857227266932, 0.9131870671211789, -0.7145586834384848, -0.31241393681769136, -0.6971253835125696, -0.40027124741733977, -0.09590209980982384, -0.42892940666385865, -0.045292957013567295, 1.1430027601167225, 0.45624963071957175, 0.4482155967665649, 0.36241112217970467, 1.6378677479016674, -0.5738212335594275, -0.569428387306413, -0.05353661975075653, 0.9697805198041272, 0.37588386266871626, 1.122214347439795, 0.32880842909753155, 1.1011486571814884, -0.175294510342787, 0.7006188119133513, -0.11531748672881294, -0.07366048483580681, 0.4790775539899084, 0.09425150620937052, 0.5890110975532569, -1.4317000361229553, 1.2862627594396279, 0.5317176871109542, 1.1114201429474697, 2.354997698429014, 0.18726401798128153, 0.5388648438260315, 0.028071228326489422, -0.2592308726042469, 0.8941816509042977, -0.7433545599893671, -0.030319542178391095, -0.4417911801851724, 0.3174915274584555, -0.9336302653552787, -0.4967316291074634, -1.3779095470729088, 2.1154107257531742, 0.7491750635579703, -0.3076292813754699, 1.6065290072477363, -0.012944473637457743, 0.923082826768933, 0.5132513060362452, 1.3579148967062933, 1.8759687662124425, -1.0895561085351637, -2.349430585120867, -0.0699957306238899, -2.009663025258751, 0.7170882253385676, 1.1026529803981315, -0.8451360658764053, 0.8015325102711699, -0.43688908889130523, -0.5946144634916831, -1.1706055455210786, -0.3828796340116589, 0.8226191783395522, -1.785361537862854, -0.49383092573887627, 0.37285419332753666, 0.9238971688864257, 0.7237915104951105, 0.3748454696046933, 2.554711482178702, 1.1926585348388081, 0.5565922251809312, -0.5414843138888861, -1.0662778816338432, 0.4319676119207107, 0.12978520919168318, 1.1657355158698657, 0.3324343003492487, -1.6464199641850907, 0.07157980161282862, -2.3952769874222826, 0.38768948950799403, 1.9621260257218534, 0.6127568008551224, 0.8209379835985887, 0.18846662855781174, 0.6889028313704556, 0.37938117100848356, -0.42789051553135365, -0.08888111013245853, -0.6295711125141589, -0.5642438922314212, -0.5311665247784068, -1.4811584553616413, -1.117020829225576, -0.7024848431164732, -0.20125575269542664, -0.6093209818531862, 0.8102205180595671, -0.4576693581234724, 0.8152801011174663, 0.31223373292106243, 0.1233380286274627, -0.26489810944833264, -0.682175053883117, -0.70944425934636, 0.2934747882732991, -1.149966200426483, 0.43388677353851984, 1.4009352251975062, -0.4074899763671403, 0.687063922659847, -0.2744409258054711, -1.3207165997260395, -0.03195731665072089, -0.6282083996846658, -0.5093450259421297, 1.4379336180257378, -0.09672670399012358, -0.25967651333688646, 1.3706275860265016, -0.18119287677659354, 0.25626401943148924, -0.02112460740095712, 0.9323458324787056, 0.1637457646189322, -0.5715931924815678, -0.10340018258505024, 0.38962468832591257, 0.0631233993539318, 1.2859282569383923, -0.7093674673450724, 0.7042321671287853, -0.055586451074581156, -0.5034886474739587, -0.5968916262479542, 1.1044524280413353, 0.0020371205096710032, -0.5335921356349964, 0.013441107746736125, -2.362873724258854, -1.1946286135796158, -1.6608190696585634, -0.824585700768877, 1.5249653950355535, -1.6521326436588757, 0.5628641145615123, -2.727727290133507, -0.04980914853864493, -0.04555383395936437, -0.32841260244080805, 0.25805655304719244, 0.22572060599948937, -0.8183652508676578, 0.16472273565156012, -0.2477193293485975, 1.9849046444514646, 0.07455606663180636, 1.90633013819612, -0.7795862128550134, -1.763918564868267, 0.04291495431256037, 0.19765867231539025, 1.7833043040336987, -0.6689411696521705, -1.1887299962485791, 0.8880909125895309, 0.08627729120780006, -0.3790428600795933, -0.33324969183592645, 0.8610882767339677, -0.816204455553817, 1.8199405150647958, 0.7024199729877624, -1.180939469010462, -0.2164244512304153, 0.1069947209574936, -0.02990342635194057, -0.32008866367910993, -0.25999421936005873, 1.6852693194230735, 0.607028230029518, -0.3351617611552451, 0.5813140491555575, -0.13402679789632943, 1.547049082979417, 2.112267477898498, 1.158337020400615, 0.7405480774475374, -0.8468166277558784, -1.2126812223367853, -0.3283192693089948, 0.8912737232348152, -0.9930246906498869, 1.1451234142796858, 1.4409523038292984, 0.9112779412172347, 0.13763437640633844, 1.206828816807636, -0.6076416180309255, -0.26839944413439115, -1.0769527008999231, -0.031246705838217276, 0.564642880360125, 0.5826183459314584, -0.10571822660598623, -0.663819367141253, 0.5353818577047739, 0.8013858310720116, -0.2962234877960469, 0.31190049267412256, 1.3973475182188708, 2.6355330586601755, 0.3523713801777172, -0.8665294295872079, -0.3782732984198953, 0.15107475520120398, 0.8818916721960461, -0.5610569577044577, 1.418826657244996, -0.8886545805568483, 1.5446168413837955, 0.9777373471726427, -0.16992135913631098, 2.879362978005471, 1.3353478472579292, -1.746276786090402, -0.5461422967383692, 1.996552823779732, -0.5229451521729073, 0.9971252759028593, 0.1794989720417537, 0.040554750427612876, -1.1167152120075041, 0.20225054800435846, 1.1700334105561863, -1.2150176792521519, -0.03185729041701127, -0.10801096010362288, 1.9428941211223691, 0.9515084143499688, 0.7907307010050825, 1.5550916562261823, -0.7478242286234377, -0.5267438075845053, -0.5252223858001013, -2.2278943926464496, 1.7830339056734466, 0.8580993289012135, 1.7042448270173862, -0.4907217086568032, -0.032226669351215355, -1.2479049407131406, 0.7222682351453232, -0.48290587176523264, 1.1289762173845153, -0.9111921993749231, -0.27231830154674863, 0.17148897370524968, 1.471858249248248, -0.8815357213713491, -0.23842887017602535, 2.2609614374280786, -0.3422363066441523, 0.8606809431936767, 1.0236116232393686, -1.4503173551690642, -1.4849824995632483, 0.042731445105404595, 0.29083586172512577, -2.3824361027882235, 0.7228379376847404, -0.3252255221607928, 1.301533085236153, -1.2895469476281463, -0.5424935066093445, 0.12583437834502068, 0.25547842504387863, -0.49362009468708345, -1.3447161494000608, 0.6803824352061469, -2.0297373872123523, -1.1678663867214831, 1.1912249967071213, 1.1974200261789014, -1.6541468219869815, 0.6577821636276061, -0.1296755285087142, 0.7331031293485867, 2.499924796878129, -0.31263960588829437, 1.4154602672883239, -1.5538313786044478, 0.9281993831843137, -0.7785747387669286, 0.9599800558492644, 0.8845561049639901, -0.628738707725078, -0.433934738453486, 0.3294113689269212, -0.7281684284064547, 0.07416337249163567, -1.117931874454389, -1.1142549553512602, 0.016332569109939344, 1.0962857204635161, 1.3713595987396594, 0.4516324623462994, 1.2044914613101172, -0.18745447212297678, 0.657781734343096, -0.467806198111204, -0.4248104352419671, -1.0579167337067146, 0.9155682266696893, -0.3626280687584215, 1.4890143180271629, 0.22009871183735977, 1.7496137547097492, 1.0454581658975135, 2.1101658108911763, 3.126663682000325, -0.7845963602289496, 1.2396296686369992, -0.6653768353911449, -0.1917556114928316, -0.19796685372076053, 2.256300036648799, 0.11862906364502102, 0.6962414186197329, -0.28769297239616537, 0.39128370801196904, 0.9136410609462037, -0.19922849955346783, -0.26129424664155293, 1.3759354673796422, -1.0500618685878433, 0.18040116627263847, 1.5095185991460236, -0.713805543584106, 1.618424246143134, -0.0477553823886598, 1.664627444881505, -0.06690807027555942, -1.1296092916524298, -1.6646006071484143, 0.16953894682332252, -0.9806839360913453, -0.20359007490800488, 1.391035173225177, -0.2527355499966784, -0.1696326066998647, 0.3973059013200009, 1.3230876850352944, 1.4938625904565277, 0.4300732000378052, 0.4817252662778638, -1.276875343580594, -1.048533855284838, -0.2583164983593088, 0.6110488031069559, -1.152229838242229, 0.36052000039736387, 0.6778068165630954, 0.21891121206415476, 0.1408917534265427, -0.10637008218740379, 1.494144267045855, -0.8025787641828613, -0.47368077220433025, 1.403760016706702, 1.0948178512899644, 1.7668864426357793, 0.23991351012165418, -0.6117004723558322, 2.111711506526123, 0.37542453172456514, 0.3714541910803584, -0.9023098354780036, 0.45933317639469373, 0.9730989660882345, 1.1740017278131956, -1.1254262458213333, 1.939425390748564, -0.4010379739441248, 1.2590922956142259, -0.04958513937389408, 0.9123365003916564, 1.1912880211452082, 0.7877051667855655, 0.556520029167453, -0.6047799156868325, 1.2060861732423183, 0.674559029307738, 1.8807895970154647, 0.4889418210885801, -0.3447509843496493, 0.4115420471858523, 0.3711166979796688, 1.1376821200803673, -0.4315879934251706, 1.2590925449989425, -0.6548797876304981, 0.9769703188321205, 1.5594626196886852, 0.026756015192745897, 0.5915389888082632, 0.3153919009020042, 0.03419998190696292, 0.3918861522809153, -0.6026161235792032, 0.18857407051881211, 0.2375789651904222, 0.8851127808156865, -1.3571652039354156, -0.2686178237505109, 1.2303440744991478, 2.0614067929149242, 0.3378053377320222, -0.9007486368071181, -0.2919742907045388, -0.21959306512356533, 0.4630110428142054, 0.8346814469718726, 1.6325642435493815, 0.7820617765581097, -0.4502311364341364, 0.10630638729089574, 0.5625117251736961, -1.0239535122527823, 0.37215986761311026, 0.055963812093078824, 0.9266106688536117, 0.8347328732728589, -0.04523293115387618, 1.441710414162384, -2.4073979428382084, 0.7497123731755084, -0.08781352787392728, 0.5186667006695906, 0.20687816071726509, -0.8322164986443359, -0.9923130780481203, 0.40849471740196674, 0.39849995970036184, 0.2581517075200753, 1.0246142717368483, 0.44790498416022717, 2.0036225802686607, 0.49747031181924284, 0.6658105126203914, 0.12807966667055282, 0.28593278638268693, 0.6275519081810685, -0.42840114830212983, 0.796150531667915, -0.33695356846465574, -0.4704177900244687, -1.575339608948521, 1.0865580454920325, -1.1656356687425586, -0.5114806786161322, 0.7049451985712779, -0.2542131796731273, -1.7736093231961587, 0.3521046789933294, 1.7131520453119717, 3.0349652493818726, -1.026967475792107, 0.5494640997990973, -0.4143525659454111, 0.238706970206449, 1.7377763607412002, 0.11796061981602216, 0.6861140646940118, 1.9829478835794805, 0.9902813862602259, 1.6880325274045416, 1.8498466588456217, 1.4647090838743924, -0.5710865636534617, 1.526775693891639, -0.7961872010725595, 1.054865388315514, 1.1117559355421631, 1.4789054765182257, -0.6034526346177134, 0.09456729481132396, 0.7272760910265544, 0.85870409738687, 1.2144044211876288, -0.9408967512352032, 0.6484985662111938, 0.8203857847438535, -0.8585303236458536, 0.2788998845202313, 0.7221777296213236, -0.8378976397576476, 0.3551093251698747, 1.3896479337210075, 0.24132745186953142, 0.5213211066382755, 0.4712405086353423, -0.32075505441915664, 1.2603316760980416, -1.2930213598444422, 0.03981829543726461, -0.08949226967301115, 1.4716111926643802, 0.9370759034005147, 0.508921145750684, 0.9194009926109655, -0.7195471014556802, 0.28309320501374424, 0.6785908442565788, -1.2881565054368345, 0.030557108648020033, 0.973196329813282, 0.26770979292979175, 0.4507367908435054, 1.1192447300740276, 0.21907444126203024, -0.5753503317875924, -1.023249563189668, -0.9060570074945457, 1.5641377903179992, -0.9408431026982877, -0.4200024801548746, 0.3860348293377592, 0.8245441903853364, -1.5145681606838481, -0.6382245851021441, -0.9085878961681324, 0.12462697352110284, -0.013427386795800267, 1.0111980901741011, -0.003454832635681334, 0.14283713527537475, -0.5528494920230227, -0.11184228116670367, 0.07129470526933057, -1.3744866491550172, 1.0354985669197123, 0.3879955604482554, 1.0468676974280733, -1.1419751721975169, -1.7978021048832815, 0.23843244914728032, 0.7684645380245905, -0.3788228490844269, 0.0838257954776123, 0.033348404013756994, 1.208413453257647, 0.4809305047557056, 0.35964792629187037, -1.0059795554918725, 0.32184513021618094, -1.6238001036411112, 0.09790854968875547, 0.3731603803328187, -0.8464989217963446, 1.1943151738134306, 1.1141615156060738, -0.9992637250728702, 1.081269377767244, 1.2154387114398535, 0.7078882882733145, -0.5086074619513524, -0.6040739074662405, -0.948452915651653, 0.8777480560248089, -0.9195446871929611, -1.1055603955202693, 0.5443338341648789, 0.4165974577380436, 0.14409065286189873, -0.4572837290501203, 0.3713323306673479, -0.6293866345903034, -0.957401199659701, 1.3446782400892927, -0.2955746584616042, -0.5980631844971739, -0.11287526079230711, 0.21278598369315796, 0.9797807946681437, -0.5308268880569678, -0.41714766123482283, -0.2933663720039338, 2.5934273566745425, 0.03234953998194705, -1.7581217253620764, 0.2605671671738328, -0.3409734195952756, 0.10180712995343219, -1.2658529745885254, -0.3238738870471701, -1.733838807832133, -1.1670386280716112, -1.6899224680406397, -0.07606151791334889, 0.8521563631229229, -0.5850265009342162, -0.7421549459391213, -0.11165202670373771, -0.060722004007495924, 1.6020669442558126, 0.28936837933300724, -0.8133152423619034, 0.5949368739398786, -1.7969148211337669, -0.7156461351516074, 0.0045363499926716795, -1.1430763268527828, -0.769483597152185, -0.46543383769794033, 0.5214259364574942, -1.1401081871884562, 0.6930596046798964, 0.7732026180362691, 1.2618706608084234, 0.8619601481140615, 0.2836164443778377, -0.7672423786355327, -0.5757413045670335, 0.8626056767837547, 0.3795977980561627, -0.14313022349216198, 1.361952997621583, -0.0014385486319284935, -1.6248505193944849, 0.49575562912367444, 0.15936854385686805, 1.113944844144196, -1.0848006389967935, 0.9492569773879858, -0.49911161739225113, -0.033171424929997834, -0.0016167484987956106, 1.2517858583104766, 2.9075829523544017, 0.05058987008905039, -0.0262459132964871, 0.05368123389633492, -1.0302300320808573, -0.18944010858304014, -1.0061367567869086, 0.06792854925827163, -0.7414743486893568, 0.8320580087591969, -1.0316756046759217, 0.8751746134034057, 0.4815218838693802, 1.0040744396331254, -2.2798849194492514, -0.34169552593645636, 0.22998098409308607, -0.8579481957899222, -0.31418107602939677, -0.3374274338528498, 1.3303618892857056, -0.6282313273013472, 0.10347093759670761, 0.8809330581426567, -0.3261473266143789, 0.11972071154626937, 0.13745554555473274, 1.1679686661323447, -0.4881057747658848, -2.4310616943815506, -1.416283628688246, 1.3987569769665313, 0.8528755317064776, -0.9440727305882023, 0.9172162465820712, -1.0956940991595217, 0.33086390943027244, -0.950854062252306, -0.688126710771114, 1.8963077225907572, -0.10077462433256318, 0.6766619390065043, -0.8592893723424797, 2.1035736552090154, 0.6678475178892538, 2.314864852120259, 0.5454987810013722, 1.4539301341921844, -1.6795233740951807, -0.034910362935210826, 0.9099953352733736, 0.75557578485603, 0.5884207148514518, 0.3283871680492385, -0.9935518546254335, 2.0158571817785984, -0.7389899293199127, -1.4039889124147604, 0.5861428975293184, -0.9657897294925758, 0.8086799599554436, 0.8416749628303652, 0.4714183929580935, -0.378512694025398, -0.18582728644715846, 0.4681084493296114, -1.2565099308864687, 0.14167535477351922, -1.5416892230004278, 0.4909966061481281, 0.4335216539977701, 1.9200583611353517, 1.9985962368743269, -1.467529371852112, 1.9780024425338931, -0.1643902102146416, 0.21719419701783188, -1.6456299112786057, -1.8952683456451507, -0.27267347324329905, 0.17998912203684309, -0.4860164282234687, 1.0740025012944192, 0.042443216422052316, -0.08485767062747475, -0.5554381465704153, -0.16357582445522922, 0.4949289918306219, 0.1767275088557577, 0.16719608775419037, -0.3874038943831758, 0.9703103458395829, -0.5593563059158241, -1.486195206176774, -1.8425078709466185, 0.6249609922606572, 0.24144875108761418, -0.5970434912125783, 0.07963441815105993, -0.23854802535057748, 1.145586415968945, -0.24777105526213514, -0.030368544861400094, 3.0614432992744107, -0.7553772648735109, -0.21413230477481202, 0.9995143084813961, -1.3891337867759417, 1.7668373487863103, -0.4426426633812871, -0.9630448391881756, -1.9923870611446093, -0.6672080364778183, -0.08970290778880569, -0.4488704878969342, 0.6447721064104776, -1.6027964696808095, -1.8183236569780432, -0.20230965204222873, 2.0307860587728137, -0.5439948977479132, 0.39360549612553175, 0.21681584485422772, 1.3725634275492187, -0.8894227836781808, -0.4334163926322171, -0.11248526432072235, -0.3489814114040017, 0.0022289814590389857, -0.557917582224608, 0.1859282866699726, 1.6426720434023836, -0.3011250627595283, -0.5802417543281121, 1.2456228038706818, 0.34731313755533266, 0.4809452835215206, 0.4466249993511551, 0.10014723538109788, -0.18156102867770482, 0.6090095316869841, -0.2910682937097946, -1.5109056461418449, 0.533917807655081, 0.40740316053533887, -0.2975097371409504, -0.7499231374343897, -0.9301433283278345, -0.20007486163224164, 0.037410118091464384, 0.6679382518201195, 0.4362305055839544, -0.3614937041211527, 0.19120484900501822, -1.4067610179405992, -0.5016184721500466, 0.7440948951521971, 0.23598300320368318, 0.6364204594752109, -0.06879928674809387, 1.2126104779244038, -1.4390066751767574, 1.1917729367239867, -0.5302974421077739, 0.15291855418509273, -1.0500458660933696, 1.1082550387467762, -0.7846467635664922, 0.7865444850924049, 0.7911100253870245, 0.8627125587967788, -1.4340724953297215, 1.0603190397017535, 1.8132935331759674, -0.7714203844227416, -0.438560772609196, 0.46601449389357236, -0.5027045059585963, 0.4068517626067791, -0.8981798593131788, -0.9536050147906234, -0.12238287873835287, 2.1990035321330965, 1.6563543179217521, 2.381947051087746, -0.0487671641496182, -0.1691069609000671, -0.7703756054612332, 1.8562875544147392, 0.6051330427427659, -0.42677204380595524, 0.35473880260565605, 0.05666506031575254, 1.4413605259260205, -1.0053847898584558, -1.3801538233360384, -1.647988596900739, 0.20707802255792543, -0.2442090161603488, -0.545641758877027, 1.066071648341058, -0.2851812971445207, 1.2820594259084266, 0.41541726161862846, -1.068190058237579, 1.1507777479230956, -1.8562900687043251, -0.9356769768983311, -1.3263298398243861, 0.5333859054258446, -0.3220093573740216, -1.0535046800489234, 0.6696946170348637, 0.5017251400259538, -0.1860186359228277, 0.06952453477070279, -0.5609981836435073, 2.1594410088324048, 2.08517430333831, 1.3276643467262466, 1.02539014178889, -1.094196103868707, -0.11785732322969021, -0.602112782488327, 0.6903380147122313, -0.8650804538704019, 0.9923892153964139, -0.679235650541299, -1.5729652178233318, -3.189249021954011, 0.2623556752274362, 1.2150476975747735, 0.5981320766097035, -0.07909092771071395, -0.6302887273361172, -0.5381053619134988, 0.018156426643483443, -0.2533292431591528, 0.3338911334718164, 1.6309015641389686, 0.17012088096342015, -0.13744164363471248, -0.28106400980986224, -0.11378175745470315, -1.4404065576641776, 0.7115567124417886, -0.09679776441046734, 1.0228663787008347, -1.8178300409965307, 0.24286243754658252, -1.3945702054393783, -1.9683083686496365, 1.6462728232077726, 1.166604714490134, 0.2763576048812487, 0.032782004420560173, -0.3602840113091537, -0.2946358097598536, 1.015030191247048, 0.8203429301370749, -0.38758950343474924, -0.7112747541980482, -0.37545707780053583, 0.1545927022644384, 0.405989561238461, -0.8512339075745783, -1.610609721561325, 0.6414719912339849, 2.506244986617005, -0.5524576155504087, 1.7902401407988489, 1.7528750276516663, 0.7400317930824707, 1.3582522828037265, 1.736635488045889, -0.946887441472852, -0.5488960943044187, 0.07674376852061665, -1.2060156645778526, -1.527102034701725, 0.11486065224234127, -1.28005095984927, -2.6085384183716496, -0.41172552755634806, 0.8674112081571528, -0.6564794078305791, -0.22432692200380963, 1.0878915572917904, -1.2926616412955982, 0.04520828961187115, 0.4718243399465722, 0.9325619451697444, 0.5847548910456569, -0.09755802381370066, -0.2552482461457066, 0.362731356999777, -1.260512799743576, 1.1818898393736084, 0.5700433601764138, -1.0795366712066188, -2.2577925053101033, 1.3556842168112095, -0.1480873054388371, -0.9617682237047135, 0.2755929583594126, 0.12216144604407213, 0.531097102273268, -0.09055990782546203, -0.38331134061636307, -0.49940569311299965, 0.27834565713343834, -0.9649490549512935, -1.1198130276495217, -0.8370941761936217, 0.37125959012014226, 0.4965827707151853, -0.9421887963923311, 1.0438537620167978, 1.3504146071246002, -0.9875575976415204, 1.7423949038547912, 0.028258289120575625, -2.6127390898922878, 1.4934969851894433, -1.9767779495023696, 0.09689568616603679, -1.5071660382557748, -0.7908235034708323, -0.720182462730228, 0.4822493485787809, 0.647111232427649, -0.9383651948195876, -0.7419469831628819, 1.5907312432855185, -1.6679639419997252, -0.4927752978034442, 0.33752619554392116, -0.3442018587019995, 0.13222188187875691, -1.1271037430214892, -0.3387999645425253, -0.5949138042302957, -1.1095402100470735, -0.3950733565007932, 0.2717185458689163, 1.619885839539266, -0.645266280117934, 1.6789875917285524, -0.8316921531375474, -0.153468540883777, -1.082723095586655, -1.2043059202898676, -0.933641138552598, 2.299042381464486, 2.044074409439175, 0.04332271658032244, -1.6010587199368285, 0.03661705244834912, 0.8841740152934031, -2.639582658638456, -2.6899528671160957, 0.5998461664005714, -1.1960650291426518, 1.4285032733891434, -0.696997094131022, -0.7960455143772311, -0.14006654301105792, 0.7293238504937642, -0.8874457602114916, -1.0131311506845042, -0.26479086615245384, 0.8224314053209127, 0.4875708720004528, -0.8116154485843239, -0.4126367675072724, 0.9194187269753237, 1.1093290702686693, 0.994339466878459, -2.7262911048125247, -0.16681538626253326, -1.0666879640909102, 1.0365142724162981, 0.4156076931499762, 0.3850653691706712, -0.904137313071355, 1.0941398047341808, -1.2956417070821908, -0.7268989245607543, 0.3359024665816446, -0.9456449143481771, 0.6329443957973638, -0.9672516642010525, 0.550027218192014, -0.1978106694526096, 0.3889775665925287, -0.16442567055107354, 0.6153989525536676, -1.16016643186609, -0.28443839052520364, 1.4110458472421403, -0.745620681941576, 0.42383420833699204, -0.4203091822628205, 0.8664941108859365, -1.2349963816616967, -1.3242827113134317, -0.5546668546676408, -0.38511063845821386, -1.321040079313657, 0.06094277157920344, -0.886464712950165, 0.007257471319280049, -0.06369349878219786, -1.491831328374102, 0.39735972324559393, 0.9338105211645418, 1.1627444380074674, 0.8300754024553609, -0.6645556363726902, 0.7643965695286745, 2.717031497839572, 0.10867529384455483, -0.7571596293623075, -0.5202957845319232, 0.27502501025369064, 0.2121075250980458, -0.8333624331165975, -0.15425214947991764, 0.7558570071147367, 1.5478023720482808, -0.2547897454178439, 0.44731376459340044, 0.6670187856313061, 0.8988446842683282, -0.665924235826621, 1.8761868245978184, -1.6461384406967545, 0.8860932888061762, 0.21630301916960248, -0.06836681296647748, 0.18122429559023454, -0.4535757222833324, 0.19178445136280517, 1.32585324124157, -0.22128177713048866, 1.7990734512269473, -1.0420221317889953, -0.9557302971645395, 1.6221490884537482, -1.081968904639991, 1.1986584186519995, -0.04528867242406403, 0.4239802668884188, -0.795772671773388, 0.9522516279667396, -0.037210369162092, 0.15399926394285388, 1.219151552482805, 1.4009096231013043, -0.49777782897372386, 0.2815577630826297, -0.22466980438096554, 0.9357011785814677, -0.13396248733102764, -0.3381271502368935, 0.2999767560315129, -0.03593260878264219, -1.6002830432086046, 2.4024833278631976, 1.4496975692394658, 0.20549041639123056, 0.05023160541033186, -1.4299083030113606, -0.042489074713735676, 1.796704579323199, -0.94616815499277, -1.1543807206658652, 0.1619290727698441, 1.0009322023182095, -0.9526079574393455, -0.7799687185261983, 0.29477656232423305, 0.10077954841459648, 2.181750170464717, 0.033769875190772736, 1.2404100104552778, 0.7403474350070504, -0.32868840000823907, 0.049634688720585386, -0.6627999503481299, -0.1560598783140629, 0.8629511602202823, -0.3066136356648356, 1.2341409335194724, -2.5961652512832494, -1.3232660755446632, -0.35444900672759927, -1.229218064091032, 0.5483501926178292, -0.9486874372847166, -0.39759206115984974, -0.7142562024748332, -0.37826358672693805, -0.12066508610185239, 0.802722556182373, 0.5184329186724417, -0.6996388207161199, -0.27536874233676134, 1.1524201049285683, 0.42009849497518337, 2.4066696067935127, 0.05575925864746595, 0.31564149988211715, -1.0011336496647079, 0.808352443498484, 1.587150833776844, 1.0904933743294896, 0.17092412043897381, -1.4010878439185024, 0.3527326333589835, 1.395822869527369, 0.9936754392696531, 0.01808294697754897, 0.15480402344552935, -0.21774495172609473, 0.6814991779324732, 0.29782189134069037, 2.1121591900564307, -0.7326424794756996, -3.0562715090263164, 0.7115713448676391, 0.7006066060240586, 0.6952231378668782, -1.8703754157582377, -1.3969044981001093, -2.3434158695772336, -0.02959604694511006, -2.0612013777097853, 1.078433040070874, 0.5374862828864878, -0.7490985288135922, -0.5684417936294989, 1.0505066086110855, -0.9568950010259808, -0.19713327183253976, -0.7609244787209816, 1.3664302422825738, 0.07901224579252118, -0.286297194174731, 0.8262603111440057, -0.34641708555963185, 0.27572893747336225, -1.1142994372698272, 0.17987824078753534, 0.5913708367775687, 1.6913172628840147, -0.06806812177738432, 1.896843214068586, 2.303183469217666, 0.04742925247147803, -0.24261242129295713, -0.9438923683484598, 1.0291842053089701, 0.4828307595467638, 1.357012815987831, -0.3762399081013298, -1.2512437880734204, 2.3278861771541033, -1.5871268394716227, -0.023207039157328413, -1.169452105052821, -0.04505566691703833, 0.9588145657875584, -1.0554120098426036, -0.8523128426067831, 0.993675499642578, 0.4126579145121181, -0.3764461418011861, -1.0780785554980876, 1.688595031812087, 0.1748571846034992, -0.4507408577698304, -0.14180846832342248, 0.4151906513708592, -0.12343764215923213, 1.0079995036060085, -1.0597626234558275, 0.738426199118942, 0.1943252607712602, 1.3709737298798284, -0.15414648935941921, 0.5169089033842494, 0.5546219329247618, 0.5091980775034249, -0.6071889511152969, -0.90448340123378, 0.7774741668747515, 0.351035835566218, 0.33878150156249726, -0.6267301159920894, 2.2225294750232027, -0.29144353497346576, 1.9166099107773247, 0.9879611097581605, -0.6581749695877205, -0.27102299188998236, -0.16205529112913844, 1.2818033243191151, 2.413470885480439, -1.1479261339907263, -0.8664648990389785, 0.1766033416534518, 1.1818661602836968, -0.13876595813882703, 0.17628955450620726, 0.15064910156251782, 1.0529420693171654, 1.2886813918614728, -0.24015279357899402, 1.1035249594809386, 1.6223447694716124, -0.24486083090407781, -1.060637299835339, 1.2863395483752507, 0.26263337230004896, -0.6143615391346774, 1.0715793778679172, -0.8088331113623114, -0.2926097978330465, -1.0303667733776698, -1.4404857721567816, 0.3872023211212569, 1.0232888455560973, -0.21758746508259652, -0.5756995344698047, -0.8537150223837434, 0.20833592932938955, 1.6722114786907665, 0.3667034051534851, 0.4982907976697199, 0.7343108307245124, 1.9327830426579968, -0.018117248293957788, -0.04610044434395404, -0.7345137671637704, -0.9858977688981311, -0.766907443492, -0.7907532768070941, 0.2424275091898405, -0.38871522166669964, -0.8375917996226595, 0.5492213431594103, -0.03889148143013959, -0.777704784959185, 1.8069435460254395, -0.9775834054379705, -0.688357994363095, -0.3212706705148159, 0.05713736414386792, 1.0235374503308177, 0.614120313633323, -0.942239905852349, -2.73062741574977, -1.510521383752135, 0.2534983057609522, 1.7633983397679, 0.17911242838285216, -0.30380453931546736, -0.5001783207354445, -0.05622203071724322, 0.13534625274304182, -1.3418075901848354, -0.8418169086947541, -1.1473823626142503, 0.3591179257023257, 0.21104117861638017, -0.6838865137967527, -0.3351566370374147, 0.2541686098647554, 0.3587742031265092, -1.3673795233097665, -0.9712971348327982, -0.68085948504259, -0.7375613451960551, 1.9616625043991902, 0.9615015032479624, -1.2453387687141717, 1.0651733160943564, 2.088356075383204, 0.9539209198407339, 1.8951184205702893, 1.0934671352654783, -1.399882655385213, -0.8960371272682311, -0.023380565786468487, -0.8674202179744858, 1.0377160203790068, 0.7337372437744307, 0.15409005676170254, 0.35142998182738006, -1.2135491396779574, -0.68436993569246, 2.165889955446092, 0.24260996074357316, 0.7476416314921435, -0.09121492249963321, -1.679721927637415, -0.9378440261292672, -1.0772085291180238, 1.7028414179032538, 0.6734910720977757, -1.7003467269021548, -0.9560818211207341, -0.4239278903573277, 0.34135395195264406, -0.2800195791868476, -2.125339167257876, 0.3904649601660949, 0.92954221166867, 0.9456194897886805, -0.11377546172264665, 0.03703828344505312, -1.4653147858423754, -1.3281980655749503, 0.8849718924223151, -0.191197856165986, 0.21453959835178216, -0.260060323242115, 0.54313432583212, 1.11665348056532, -1.9268270017305138, 0.637535868078707, -0.6827277824834315, -0.16990731241822382, 0.7709138949685165, 1.3711873049439036, -0.8213676694966484, -0.10707614805809813, 0.28176044012093815, -0.8139538874062645, -0.29752209590451767, -1.2769952956129058, -1.294106804625666, -0.6634635348620928, 0.044247819701358576, 1.1071914939228409, 0.9682948281824281, 0.36420129939545737, 0.07555085299275892, 0.8148162523317841, 1.0944313015754648, -0.19527469182751075, -2.054150253051057, 0.7029227810829894, 0.3981959411692495, -0.6785219728283565, -1.5833965113245627, 1.5306525830119493, 0.022870258037696486, 0.8444569987822524, -0.2733515427293528, 0.2476798604675687, 0.6197587288651973, -1.1160544893236992, -0.3277199173477498, -0.5205735147838947, 2.6689511950066818, 0.3915738160043789, -0.6166629040545668, 0.6048684835896223, 0.24421873255180174, 0.9926377555372323, 0.2763239321120484, 0.7129195078580997, -0.428694354212152, -0.3212571775718873, -1.1648146679106133, 1.525422981771325, 0.643786402864326, 0.5035138487059619, 0.09118736709411637, 0.10804358162258469, -0.33711613588521205, 1.1724893593418244, 1.8614064725398511, 0.8953588286342136, -1.0573254841783424, 1.7414159273852692, 0.7179544938385585, -0.30621296072709125, 0.383592524490656, 0.1440304136365725, -1.2580394267897497, -0.7430394540818736, -0.4252957410591632, 0.9535382101325135, 0.9919274496286549, -0.4220277592733922, -1.0171797369817586, -1.3767758239817023, 0.26844134761819777, 0.5506927208982597, -1.8731633035530564, 0.08461758211704201, 2.2610517928902585, 0.6514339483880381, 1.7638795612842444, -0.8750996082537641, 1.0011759620973064, 0.5632772313646368, 0.024802319267964817, 1.1113801933661593, -1.8869973334032877, 0.032804965473536174, -0.07635542766511931, 0.6065872728083581, -2.1845613339925882, -1.2548417944822838, 0.5834008956364761, 0.7066638407314544, 0.8183634594391462, -0.005927433842577823, -0.29604894753185734, -0.1536857621789621, -0.7612058216066083, -0.7471854843232324, 1.308987950509201, 0.5092746216508915, 1.1643891216281725, -0.6385352711150261, 0.8832549144854471, -1.5309081799262454, 0.5773930684305171, -1.0613812572336059, 1.692415370642556, 2.8803610392801184, 0.5064167740662866, 1.9455562467131917, -0.42786623178847955, 1.0754379159530494, -0.4075166033555502, 0.2813649684839748, -0.8696444116626508, 0.02631342642997153, -0.42910492281297885, 0.8691458160565602, 2.3368531714221024, 0.6166440891377432, -0.8540602716645443, -1.4810527194008536, 0.6099646845297744, 0.6896143197665242, -0.20768746306191704, 0.9148042860543888, -0.37577061775477655, -0.8022083924575463, 0.8268171061518086, 1.0142310533252763, 0.9651411113039849, 0.6956609185754944, -0.05592256352521715, -0.4922332887172317, -0.5993498224240361, 0.9802107399940619, 0.7940966685759474, 0.6135148774491367, -0.4640883001443409, 0.31401264583778926, 0.034761011594858185, 0.32040504460259067, 0.5632992124495051, -2.392288810512762, 0.5233834324671391, -0.010225317032427766, -1.7307020622070768, 0.30506316156165275, -0.47207386230977066, -0.5881806031400343, -0.6348931566062058, -0.5391827355391864, -0.14859773379894226, -0.6750693788648121, -2.0372548985777286, 1.6819374761342683, -0.7283313606780849, -1.3053507709039458, 0.7604047567968063, 1.495781441593423, 1.5432307794453735, 0.23048190239000604, -1.6771988917661333, 1.066492006366438, -0.28977263417507626, 1.3074575962688255, 0.08159024028842102, -0.03417854450233267, -0.6990909889309842, -1.1091926448878118, 1.2432646518941086, -0.6857150978056993, 0.49926274207312954, 1.2046741739312692, 0.14625592560496992, -0.012584691363709594, 1.1674167087807084, 0.3590355292981922, 0.8288739326887542, 3.709728266852319, -0.4075294328739541, 0.6820596844082858, 0.04705834329864549, 0.24189966236616073, 1.2425513251221585, 1.3251971989875562, 0.39956555247750847, 0.9658477999245533, 1.0990692841919338, 0.011398868787642355, -1.380906145661964, 1.0859096318394805, 0.26039222070972873, -0.35844726955219725, -1.7128714759898291, 0.8059637026156046, 1.8034158320040548, 1.5701705553580352, -2.201348272108102, 0.11232011222728422, -1.9078993535145696, 2.9033461776503384, -1.5778182967481582, -0.7648205624669111, -0.9623987467502474, -0.785124761500979, 0.8389793744039908, 1.4058434613544408, 1.3040029511786526, -0.5635310763052691, 0.9235462987009054, -0.5125140239924711, 1.0437477257161396, -0.24992570524230623, -0.37131693160179596, 0.5221231918172397, 0.8822584691415531, -0.9141430371758216, 0.39566294700251564, 0.3994163400530791, -0.4537041332204271, 0.5778216448333348, -0.7194507615028906, -1.0403281355590077, 0.10377098667320328, 0.23237444743353333, -0.5041953974288558, 0.04815657762709241, -0.18150481038936778, 1.0380001955755642, 0.2132122616906524, -0.27064301427726845, 0.786489032534919, 1.279811513214079, 0.4090422517776528, 1.080861971472821, -0.7845853860718526, -0.422854549163598, -0.1628685721946082, -0.14183401069092327, 2.140002319932287, 1.1312156851522912, -0.1392531884528541, -1.390625418170536, -1.1319918904140511, -0.40970488759543877, 1.3634693613490687, -0.6861153226195026, 0.17573757269816176, 0.43322930567516715, 0.41510988724496845, -0.2533564547443253, 1.5805671050630956, -0.7644721562394654, -0.01751417213961376, 1.1770345933715278, 1.052385596194055, -0.1745337450108709, -1.0311921133525215, 1.267054198725468, 0.44669192449887934, -0.6994383178760618, 0.23800923912095498, 0.2713137358295889, -0.6806560204536806, 0.5485167492059363, -0.5231427322931418, -0.24871223776581805, -0.00694602190412023, -1.8612769202409039, -0.063972697860486, 1.021606661472069, -1.2720018838465557, -0.11700817036768267, -0.415473309483601, -0.11349119304699797, -0.11866906611365162, 0.1841229036404785, 1.14673180358413, 0.5829741749739237, -0.5999596717990714, -0.009744151288395092, -1.075612632952637, 0.09003345237885174, 2.1780775725203396, 0.9902028996494238, -1.8133035304766916, -1.4432121255635162, -0.551733177135065, -0.7415074132266097, 0.17872203687800714, -0.348148281892951, 0.134142764208884, -0.5897284283471433, -0.32468979864452213, 0.7504184756513145, 1.8309331723773896, 0.7674319241442271, 0.4840902011759754, -0.44539247415036487, 1.4227915727325289, -1.1707914602503735, 0.3050560280067639, -0.03479425535037278, 0.8980474303076766, -0.12695675011659063, 1.4954050920801298, 0.8294655110671316, -0.6537581530265537, -0.9826531027710265, -0.27845286605843517, -0.8020067361727519, 0.8067303648016334, 0.14153161273191817, -0.5807132156574659, -0.06441784433455117, 0.1430184776076502, 1.7353238393899952, -1.8016435355985663, -0.4408136909909003, 0.4075232748526774, 0.6101100330678138, -1.033142847999791, 0.36524059071045945, -0.23422199027271604, 0.3657802547861637, -0.6792825259734819, 0.6894367357565094, 0.5030522283341342, -0.22923395573161628, -0.6524699186351056, 0.5633036757121795, 1.362668838762082, -1.426738042947131, 1.4069819140726598, 0.7927747504239541, 0.05397296948171758, -0.027685995576301525, -0.4511146687493724, -1.5789243423591095, 0.5165462336411384, -0.2930577576928264, -0.0012878919871576616, -1.0058976171394587, 0.0158738250017045, -0.02752457764619906, -1.3084594297468237, 1.9137256702131402, -0.8205275106369561, -0.20349185786561694, 1.8973461990493636, -0.5722953748462897, -0.000494022904589744, -0.2504226434569151, -0.4784928253946113, 0.1277885616641271, -1.6526468962082794, 2.2522469976990602, -0.16382360231228546, 0.5113403644126059, 0.4494976898919301, -0.7864085200594269, -1.0163397206486744, -0.22664280879340867, 1.9556355297414234, -0.3236871250700246, -0.025119254731372533, -0.8395052189896579, 0.3186674462042487, -0.27358273886680207, 0.27405095100917265, 0.6960877033476432, 0.7567797757210588, 0.43428668645497137, 0.23554654405295683, -0.8291697839908987, 1.686387011682027, -0.11464001486623993, -1.0189012741449113, 0.7350117706951386, 0.7846516509150009, 1.1521511744757194, 0.7600769273016006, -0.13266323353917736, -0.32003579375038066, 0.6134605243110681, -0.05998709838313129, 0.3266249400217309, 1.3281366144238822, -1.9873617081578145, -0.254682809148441, -1.4620331190375142, -1.545611833263581, 0.9171485256688205, -0.3837549756670391, 0.7723668613823107, -0.38867656427112346, 0.23020669620090667, 1.1578616862608264, -1.635667136645465, 0.7328184059123939, 2.4238528093140643, 1.3638851445208864, 2.0189446581784614, -0.01575544771492053, 1.079431924108665, -0.21207409017759604, -0.44853838379686234, 0.40369978718571, 1.211749494402175, -1.458563425240872, 0.9145277663809157, 0.8676880714380176, 0.6109130200793066, -2.275502422112063, 0.950939975067396, 0.4724112627438289, 0.10492827912482539, 0.4590120541199517, -1.2208799910921542, 0.08457787425385024, -1.1527974626619266, 1.4330922070441388, -0.35735528766870084, -0.41135961372249247, -0.02365939061394741, -0.9224404032761833, -0.4032192847692861, 0.976526213199457, 0.36095809934626993, 0.2441638355630585, 0.8246260677268114, 1.5354504958144013, 2.1762345830348875, -0.729301241569031, -1.6802158324045409, 0.04571015779779182, 0.3741580276851304, 0.5841084643922893, -0.2511774463740807, 1.2925576715934872, -0.4656484284458185, -0.9753152094537655, -0.532352115337342, -0.37129239277543774, -1.917282858122033, -0.3557383798237248, 0.6014612187443341, 0.18941249230942442, 0.5477996726388674, -0.6345367151544653, 0.19419287644427036, -1.167842269445389, 0.27402379582624925, -1.2770618067264121, 0.14003772581823917, 0.9265276841060357, 0.09649746875857516, -0.38837996060898494, -0.026443214640511168, -1.4378280955000808, -1.3666991630885537, 1.0046984927222071, 0.0030604669792102927, 0.23854479218223038, -0.5792686117274076, 0.5188313595900143, 2.06302125849282, 1.667771570001136, -0.3634038732345074, 0.9814163584847222, -0.9198669638988997, 0.3067679221153428, 0.013077019993371932, -0.48783670455206735, 0.7441939105671338, -2.217157232108416, 0.4410863387625205, -1.8223664028522941, -1.1576255585227198, -0.2009813249820414, 0.33112768999590686, 1.5348740248360913, 0.9802663965887428, -1.4940774210865868, -0.6506711344073443, 2.0730753704529534, 0.8932362237109285, 0.8291805916992671, 0.41428662282437767, 1.0716905711148783, 0.1345994437293587, -1.1763081120021563, -0.1671727652094954, -0.8307610925719701, 0.648458641438035, 0.08771847671875165, 0.654183498965432, -0.2778339337399852, -2.1160977455331778, 0.8506961039905919, 0.14934387149945724, 1.2666458972760035, 0.0035736359726682015, -2.058699746913554, 1.7169961053911647, -0.560102640252133, -0.5485035265219282, 0.7970941354845998, -0.1330746149673591, -1.4250007617333236, 0.3249865289130157, 0.7252336038655818, -1.6053469911924159, 1.671116374864064, -0.6589412362544791, -1.0058963340991611, -0.7207822401804782, 1.9845858505961675, -0.09863873134009797, 0.5278266235445082, 0.07578187435270818, -0.2661070032179609, -0.48948151655892563, -0.33318994022710474, 1.1694637065863869, 1.0250465396560722, 0.392013878366789, 0.6367537144891922, 0.9309097428633771, -1.7198852233950084, 1.1031729216138135, -0.49488190818794003, 1.9675585707494607, -1.2736219189511813, 1.200323968811547, -1.234859623867216, 1.1655312837671716, -1.718183807969267, 0.1397552158249166, 1.166184478202875, 2.529546439444407, 1.0496220168132115, -0.1743429610255832, 0.6795767743819318, 0.7084262880406903, 0.18889114886414463, -0.11810992365733713, 0.8096960201194575, 0.7832641269108068, -0.7951274457133451, 2.067490722625118, -0.6427952453446042, 0.2628136723508365, -0.34266569199107394, -1.3289447830469028, -0.4355020696416384, 0.9458697879519758, 1.3748316467237907, -0.737509189239478, 0.02054354701282866, 0.739597251217706, -0.48071969823717925, 0.06176356059976015, -0.686207808933913, -0.6713411061137248, 1.055767998638003, 0.23346715148043706, 0.14047901633152676, -0.02521635498184191, -1.1031314731371227, -0.42450609409018825, -0.5142735828006286, -0.2348969886084041, -0.5991927925064329, 1.3114675163937815, -0.6131162888226009, 2.131922126088492, 1.7226823878130209, -1.6033439783497252, -1.2050497356800007, -0.3329002837292192, -1.4134777450556164, -1.0030428328209935, 0.3203993549742708, 0.3881473410821241, -0.40539300818501683, 1.5568557150841553, 0.06662362635343974, 0.7414479682427048, 0.8838050622966029, -0.22501452850861534, -1.087462399849062, -2.3557501235706972, 2.1681506484887865, -0.4579125855833235, 0.27191543580077215, 0.33754629828779414, 1.240377345113173, 0.8712822041183708, -0.19796403402774151, 0.2082611401912433, 1.2469889290702794, 0.059017268297994835, -0.8015599564930118, -1.3338403479952798, -1.5653735048934345, 0.25822585456353336, -1.6606399894736028, 1.7049533612406491, -0.10086305446904348, 0.78437182759707, 0.6124719984163373, -0.5373160159671173, 0.1661230795076498, -0.7793399233895262, -0.6218338406414046, -0.5253988655760881, 0.3302168537332914, 0.27091207967955083, 0.4998454238661478, -3.1395917837097786, 0.7631656829968879, -0.07533923906227002, -0.38740023783717775, -0.40025318393363374, -0.4543913417991735, 3.333032514648321, 0.9074898674442375, 0.39959229059984136, 1.7109231700656944, 0.2214927401815264, 0.963481817609585, 0.39198590172282344, 0.820512835146464, 2.627140146758162, 1.5410817152693852, -1.0698797846939971, 0.8814101233909412, 0.4487295248553187, -1.1304126158542633, 0.31066856105099955, -0.8114904494187011, 0.11218115144593185, -0.33770932888203975, 0.20024386796418608, 1.7589313533752267, -1.0170200436133225, -1.582644765635757, -0.34992123417464005, 0.547913763429171, 2.3331179633910737, 1.0578958440540933, 0.38510190477788997, -2.3783477802877866, 0.8637406729999563, -0.6217241220780546, -1.161988797122603, 1.309035091630995, 0.8617949320618153, -0.5951002037948976, 0.4544015124011276, 0.044437112124033847, 1.4149568806548647, 0.2990892144284586, 0.7664250182395024, -0.1431379243684343, -0.6751991789713377, 1.7275694862389444, -1.342971249199838, -0.9933955750709851, 0.6310316516768881, 0.43729877324184646, -1.48007768603622, 0.3374135704243861, -0.5175200112419627, -1.349026517000922, 0.7450312157357867, -0.15406885494041558, -1.0916681916947868, 1.0208626925887998, 1.5150690649526521, 1.4345912255084046, 0.30863714179688834, 0.3913203009660541, 0.538034781157285, 0.5189983789021552, 0.6015681187265745, -0.565516359715692, -0.8576649959833144, -0.27860868774046893, 0.7467732116802863, -0.48661934702061127, 0.2468724718708486, -1.9077997686256767, -0.13808008434631258, -0.5113529692340273, 1.7737501184402191, 1.3510592715798335, 1.4132303936685113, -0.6594872170176925, 0.3301301648655042, 1.0012376810771895, -1.1424543151339348, -0.5412067505767071, 2.5123690012369027, -0.7784816330402042, 0.7084040829299457, 0.06762215404559403, 0.8569018611331655, -0.11244350118827383, 0.055641484432362345, 0.6204077341745579, -1.5054476445270875, -0.25558724602421123, 0.4955897275168271, -0.5088803589814734, 0.21426818327180647, 0.5917917612111934, 1.3508668064854068, -0.4586372217672656, -0.25335016789969433, -1.6277247157016073, -0.3180784602667555, 0.1217314487922319, -0.45182083775631426, -1.3285969716170298, 0.24878506428586372, 0.22254147595636858, -0.45259959448783993, 1.510366663422585, 0.2490704865145161, -0.3500843168045914, -0.9016135598983885, -0.12491442328696327, -2.5145558509386197, -0.44105754571556705, 0.7084612891177527, 1.5096140840946586, -0.5499031355151808, 0.2620835203004903, -0.9324747240000248, -0.2747319465044667, 0.13311450260058266, -0.5952389325910635, -1.296079251464074, -1.6832241678477862, 0.11090790198798833, 0.6343785140764132, -0.5457337691904602, 1.7451051170140737, 1.61867825898443, -0.4802420253165804, -2.043987987402892, -1.3734108317308285, -1.4204550689792754, 0.12121507502419628, 0.7561185266351595, -0.9101839549972829, -0.7316886655763233, 0.06557999222419243, -1.4695310700150641, 1.2562153212085727, -0.7820849661197116, 0.8544661254713763, -1.6491289753866758, 0.5016839149636354, 0.7351649268932621, 0.4942197383445876, -1.0551696360139609, -0.7273375297262532, -0.6689360559783489, 0.4717506144205753, 1.9605206714358416, -0.5877152996791117, 1.6950060177000061, 0.12758699988501784, 0.7584870175877377, 0.6180651624081649, 