{
    "input_shape": [256, 256, 3],
    "layers": [
        {"type": "conv2d", "input_shape": [256, 256, 3], "padding": 0, "num_filters": 1, "filter_size": [3, 3], "stride": 1, "detector_function": {"name": "relu"}, "filter": [[[3.2435078905437815, 3.3956074236003806, 3.8417435783296594], [3.941193942318648, 2.1659874338628957, 4.804723387435057], [3.518254283843296, 3.729968274516855, 3.5411584918380807]]]},
        {"type": "pooling", "stride": 2, "mode": "max", "pool_size": [2, 2]},
        {"type": "flatten"},
        {"type": "dense", "num_units": 8, "detector_function": {"name": "relu"}, "weights": [[2.469787531063222, -0.6955078785308244, 1.686313952491797, -0.9966813941390865, 1.3888753279830146, -0.4734924662394673, 2.589238350303354, 0.33641355764142206, 2.0715148953863536, -0.46571878665432387, 1.2234612973774386, -1.5533686715427315, 1.554920023114484, 0.23108927375343513, 3.2551137644262047, 0.8032042811470129, 1.5253594869375702, 0.7991256148122456, 0.7328916868487996, 0.5735977257982312, 0.39311870743052557, -0.7891864490995614, 2.66005603966428, -0.2284410316131651, 0.26017033670255746, 0.002795790797886816, 0.9389729126188336, -0.2914425217163957, 0.8384325487579598, -1.596534629987498, -0.05962615091651674, 0.17514471961469194, 2.0484629833382253, -0.3159606054180567, 1.8980779999702204, 0.07398241149567557, 1.6511574110050005, 0.5516461432934658, -0.11142673963198019, 1.2476844766956694, 0.7787616917520666, 0.31027263576396974, 2.172885890708418, -0.36285855487887003, 2.401503508096391, -1.316757950846767, 0.47020400181037003, -0.07648851146772968, 1.8106316013187145, -1.3228366493363595, 4.404514668313964, 1.076141058040065, 2.5117500420045733, -2.401997446587019, 1.7659333814116762, 0.9195454009576807, 3.596950947288099, 0.04655980509683956, 2.147779234653202, -1.3882199716417467, 3.7662246771915626, 1.0178524989019129, 1.2823942364893204, -0.24214222809762748, 0.19000913204423178, -0.49296433919116517, 0.8421206000450171, 1.285161509610849, 0.39657615197116414, 1.598675638945446, 1.1174302456143919, 1.7504267266721338, 2.330071638256448, 0.8643198628545774, 0.3946804026798263, 0.053100147566624414, 1.42672326933011, -0.1206000111651921, 2.183468229688201, -0.019728014317170642, 1.73177242531367, -0.9490863459500449, 3.5746773124500737, 0.7620374174411267, 1.8322961223122405, -0.2507487000659642, 0.6270510298029123, -0.7938792585440998, 2.1816654214535336, -1.1089206706725814, 0.9648777466134126, 0.8370090897820635, 1.0118789650214175, -0.511472697454737, 1.5737681063429227, -0.7943436294379181, 2.6400059395045545, 1.3656932442232408, 3.34048289908677, 0.6188155554128151, 0.8802944416886688, -1.475206640487329, 1.034127647889088, 1.3179626648698308, 1.1543972235157551, 0.7410317247055053, 2.100399775409626, 0.1727146125350196, -0.1008564210773864, 0.010144192457995676, 1.74294495247236, -0.9988229524287069, 2.170288101096853, 1.0094134427151196, 1.2245099237609818, 0.021528035688354038, 1.1392404230485083, -0.15660334025871586, 2.092921478361566, 0.37799789177825055, 1.7265506219288467, 0.590972569710462, 1.8260351618900086, 0.4176052817598282, 2.1199187275560747, -0.46466139743054446, 0.9241297050463164, 1.6800474738497202, 1.6601681146976004, 0.5309392150787275, -0.7196564755272428, 0.7624903608824384, 0.9977605220202648, 0.8058650315750279, 0.07957768034859249, -0.14355408278479384, -0.906429477444936, -0.692364173748986, -0.2464972836405879, -1.4042917780081692, -1.0488528475745333, -0.7323728540936159, 0.5624413650465225, -0.8132296608718221, -0.610756616374759, 0.1011468502214393, 0.22232005628052737, 0.7821156088334631, -1.1627195223240059, -0.13595273368044203, -0.01703988209058824, 0.6997441132280644, -1.2775811819309375, 1.6363293125524512, 1.9588529721722394, -0.012424267234932769, 1.9740520286792598, 1.4226594238911385, -0.8360147010548425, 3.3882841786453337, -0.7065934808407195, 1.6046099241384488, 0.22500283942169613, 0.8608903577179462, 0.4024941189753038, 0.984008917950718, 1.3473596177488483, -1.4111193985706467, 0.5392995752113328, 0.7837442839301257, 0.01884406297527591, -1.9811667442853476, 0.9899429181792091, 0.8390241502286941, -0.2763002080572312, 0.28909227221379746, 1.3307019326793987, -0.49922666249922026, -0.6574077910762979, -0.46069795478982384, 0.37015046537160445, -0.676921528878212, 0.11841475614872575, 0.3689705128613215, 0.5723775346074838, 0.8109294686699863, 0.7308531988092531, -1.6584833444324723, -0.7180885179049029, 0.6807967483260274, 1.8003694210285015, 0.44753354260505185, -1.800926733136059, -0.12782241055129212, -1.0112060786360721, -1.152025024649627, -0.6623205459103094, -0.5031756265903394, -0.578007414083353, 0.8782038791233995, -0.6052020905306873, 0.27341619927779137, -1.4064260044437393, -0.08627660243515163, -1.1632479506278326, -0.5051545074538556, -1.5621682847260385, -0.4133363695359859, 0.26217093342341413, -0.04495557071221786, -2.352568278519925, -0.9782449521531817, -0.9187826676014083, -1.380172503482563, 0.6416159410736852, 1.1823903427781997, 0.3551023964186002, 1.062690240794172, 0.24705597483576736, -1.2401583834012493, 0.6899210509823228, -0.2624495261826429, -0.35381214790782706, -1.4399053182133972, -0.8793664117850107, 0.6407418076390043, 1.0333947553243845, -0.634723555136908, -0.871154224884918, -0.452875324831075, 0.01410992836943219, -0.4447956452799859, -1.0230491849464607, -0.5754533808354015, -0.20890784653104036, -0.6312378706324485, -1.4963566394663765, -1.205765798604002, 0.8676204790456852, 1.9742206797857325, 0.8170879990882381, -2.3680895824237083, -0.464520997993564, -0.7215826695660726, 1.8705431299004067, -0.09823567458488557, -0.6462871940932117, 0.31039008263501344, -0.43854012203051196, 0.3074318915732756, -0.7971705580970784, -1.8900549405280753, -0.03962083631645684, -0.5956157571683454, 2.661075487694366, -0.8382607937304147, 2.498787807704332, -1.0999559914125956, 1.1472667624104615, 0.7562290565482965, 2.0950338956343355, 0.14004058124099908, 1.0718977459676369, 1.2803532909888433, 2.23165211218155, -0.47237539420709923, 2.6344408699442963, -0.5128833788199179, 3.350302411034181, 0.6612583358822302, 1.4554311797396637, 0.2931911770412444, 1.920244546836553, -1.3666117050154922, -0.24907602974871776, -0.49097646914817944, 2.2551075229774398, -0.5327672657682596, 1.971926723179701, -0.9467952973605898, 0.062177671804737544, 1.464936451103677, 1.1106224522922805, -1.6317250630094429, 0.8515720221306503, 0.4928109603538653, 2.3779291376303657, -1.0106913961729178, 2.6366122984867575, -0.3154828405014991, 1.0742936076482372, 0.9173775123203749, 2.351726410521054, 1.2468916338908276, 1.8673411136859288, -0.13137987443209528, 2.8367781090489657, -0.6270674567910672, 0.3538359829591817, -1.6255886160613384, 1.0957425877339872, 0.04226226606913262, 1.3359710098856583, 0.24346639943774856, 3.3006095827683937, 0.4332286627567146, 0.3970060161054425, 0.9838333139281598, 0.771605114259956, -0.4056919342786105, 0.5725950755276776, -0.5055767092634356, 0.6730248401459288, -0.8282643563230676, 0.9347069888300024, 1.5477689940977815, 2.0751980915341646, -0.729271827458822, 2.68609021890993, 1.332717693064869, 1.7422299770459242, 0.41458516554634794, 0.9145800107756138, -1.505018983239902, 3.076144303930138, -0.7673854438762185, 1.5410556655033716, 0.18492800163981854, 1.6929046184775567, 0.6670217091232898, 3.0975023716037287, 1.7641125515717222, 2.1832272540133695, 2.39504201524082, 2.4440854809583454, -0.031150787976535456, 2.4341961457096377, -0.24665927777053875, 1.3228880418432045, -0.8890581572385701, 0.32434849321367193, 0.010439515195557629, 1.6476655853197744, -0.6149409671419719, 0.2239447525522025, 0.40225863805362955, 3.502999548507821, 0.2345276064748737, 2.4506599311753314, -0.7432602429625333, 2.814717089051319, -1.0448665946228024, 3.1484269987420843, -0.5105698055740676, 2.382967986874464, 0.5988844880932198, -0.5140355561037816, -0.16186473899833995, 3.1534406826055563, -0.15296808354946417, 1.9056665180801455, -0.034046116623035465, 1.9924518736172405, 1.018489682174447, 0.40811905907344326, 1.0051062121809438, 2.610369333154841, 2.3389187393848823, 1.1002979199045568, 0.22306414134687497, 2.6775743332955426, -1.9110960538924617, 0.7238256192291921, 2.4584253872519373, 2.7987539864669513, -0.4212879028793597, 3.3683434061115767, 0.005482059355292606, 1.1822980920262807, 0.38178335661762947, 1.238263281263975, 1.1460449894092355, -0.9472135817629665, -0.07044230493476757, 0.6786358529226018, 1.4086102964528637, -0.33483949308244915, -0.48553385185301307, 0.5516146374282683, -0.07983853482580337, -1.1659568752928076, 0.6118365437912323, 0.8618852660970441, -1.078765428744295, -0.33907035529437873, 0.5095464674071423, -0.7393753168437629, 0.36374788164978417, 2.2786795944733353, 0.8291654214929527, 0.5739087293975897, 0.5076550267247619, -1.5303485233230576, 1.726301320401625, -1.1833228614985372, -1.77006329803844, -0.07504773823153942, 1.259170477325025, -0.19084904532227207, 0.1440526832682537, -1.970653464252584, 0.5533026875249725, -0.8731594210343409, -1.0502307438516325, 1.737567665461901, 1.556027282930538, 1.0078221596811066, -0.6181675334289879, 0.7797041899100184, 0.9980710059130661, -0.8741618607584866, 1.6345643464007056, 0.8296033735945528, -1.4519275027648468, -0.3148507723638916, -0.303969545651757, 0.08786356608794199, -1.654491791507928, 1.1627841161647705, 1.1225310580753578, 0.8129169388935669, 0.34892679360149986, 0.9177245483312421, -0.16283824477104508, -2.4137396460933584, -0.3172262581888195, -0.986683281481081, -1.1724211531665705, -1.6414389688225337, 0.8370645077757498, 0.13393411359251126, 0.6496004410812269, -0.3543262782158348, -0.5329075908846939, 1.2268353626582351, -0.2967309537086165, -0.7482916953833224, 1.1193644359926196, 0.3045003479310261, -1.6139417897635893, -0.781969263491362, -0.06684188946725879, -1.7253514920581197, 0.41994308085300014, -0.6179599684637207, 0.10868852624312132, -1.7054088158418148, -2.267902314405577, 1.9305303764269026, 1.5113162206873647, 0.34499859026824653, -1.369936307497422, -0.2862435071822922, -0.7597017280272625, 0.6331668539377616, 0.40577701845008846, -0.016598034339306313, -0.06760800755822023, -0.1072710320716554, -0.5783412929580287, 0.2391025697299395, -0.18198445593038412, -0.5734033472423191, -0.16407714343253274, -1.2095471022944129, -0.7080674875690235, -0.0759668715097363, 0.07531882482190369, 0.47096591368048785, 0.3156451555157892, 1.3539523343053017, 0.03195307087394985, -0.6275913004157597, -0.8709870909155559, -0.9475039902263644, -1.193223845041453, -0.5766945130419944, -1.1454337008191149, -0.2895583441999254, -1.4333513031667071, 0.8058996301111375, 0.6698056157056655, 1.2335913018654567, 0.515496736248431, 1.3309614984505405, 0.6550551762673009, 0.36939304207162993, 0.9457131148303622, -0.4492865470566363, 0.7486633891958544, 0.31207067747412737, -0.39080235344126335, -1.6634132890995303, -0.6762466550598651, -1.3675116590784493, -1.2172125029426826, -1.520963779756618, 0.7056926791015072, 1.3215295527962023, -0.8376192985892791, 0.5029285116189313, -0.23818773560829357, 0.5071733691498179, 0.4567913972892778, 1.4504362209416928, -0.38187040433910546, 1.583157630489058, -1.1492522168105754, 1.7642878736613763, -0.7835627033561635, 0.060884671798297374, -0.5164169743596206, 1.5312693306863407, 0.6479649730488827, 1.4421572739319912, -0.09937933514843127, 2.733445311650255, 1.110046251798379, 1.3034972642187352, -0.4537521155621381, 1.3911449564355174, -1.072873266032148, 2.8022367098132746, -0.6410805555287094, 0.7412357143578587, 1.8338586975397035, 1.4376569351032993, 0.03011550957939488, 2.574204313061395, -0.4094567513411287, 1.2293048594077807, 0.9906228658040415, 1.8799581634988214, 0.7783502854177591, 2.041457909727011, -0.06700595626351369, 3.4853368084303438, -0.21921104010829437, 1.0419650471699105, 0.13059101483108468, 4.23679587948387, -0.883930143022141, 1.2682042372319615, -0.2860103564848116, 1.4322541957180213, -1.8959987160018696, 1.5221264766155849, -1.2599029332486267, 0.37618943890691736, -0.9559951689895478, 3.0657742335602096, 1.786625407963107, 1.3966305911191412, -0.4347223149042033, 2.252591840431395, 0.12191898857614651, -0.04159265996174502, 0.753797198736274, 1.1478521300349276, -1.102103553964283, 2.847102390419032, -0.3783050194015357, 1.3061666591876753, -0.6966152765472727, 2.484197380025895, -0.433067458524317, 1.511220280709051, -1.1511101249088698, 1.9775760159482154, -0.365764906867232, 2.4325104437424354, -2.000439606720321, 0.7220541873117365, 0.8107290065394229, 1.0996984871317965, 0.5937085989006587, 2.3689617748125307, 0.00010127726883660756, 3.0562898292081666, -0.5640016258352186, 1.5658237847365242, -0.3571118157663502, 0.20238899674883418, -1.145465934431509, 2.8327358455686467, 0.26054087680182864, 0.8873032429413819, -0.8518837855063385, 2.124783275348425, 1.1953961685081107, 1.7777658686168651, 0.2362972700400486, 2.302395193866043, -1.440883130144487, 2.8780666576322393, -0.0820071420879958, 2.2473404322748634, -0.6848532574825307, 1.0377885359020367, 0.14993239797271035, 1.6172484416516628, 0.6930052776683413, 0.6008109946001726, 1.0117792742750493, 2.9833940209632988, 0.5158199953357102, 3.252457700819173, -0.7960974547414603, 3.7276255975365054, -0.3760433086386136, -0.5477196732361024, 0.9520347964350707, 3.0566752595110773, 0.04109318322138267, 1.2953807590020066, -1.0919549634947237, 2.1358003278900326, -0.5782632291858635, 3.3584696761179273, 0.06395787233899991, 3.381958290741316, -0.8198457126896357, 1.021272188015047, -0.30499220266812904, -0.6126978701148516, -0.2204974600214783, 1.753032944344727, 0.06503042765385304, -0.7575888776063837, 1.182546342194428, -1.9993873219905636, 0.01781145898037979, 0.23723121951891746, -0.19034933762124182, 0.8370960792727324, -2.011266605766367, -0.6956547942130212, -0.2978714396448092, 1.9258753385401959, -2.111344027162578, -0.7353532335019787, 0.010856938138540866, -0.5611371391685718, -0.5384273020328598, -0.9672417469884539, -0.007706716226938602, -0.0360069573551929, -0.4423668444544972, 0.43995080456241425, -0.3180047707710111, 1.4208223181525643, -0.2680734048053302, -0.2598237080449167, 1.111940992776458, -0.15648445487663754, 1.1352331788274241, -1.2732198198275129, 0.07262928192593232, 0.6116569346927553, -0.9974971573063419, 0.7993506557167792, -0.35838488996120477, -0.6919025016907716, -2.0223526679784793, -0.5162754207681379, 0.24915075798029948, -1.4685143464796024, -0.45972948814806774, -0.6499399359868846, 0.956350633553967, -1.860153393961197, -0.13761411116733346, 2.2799154831753725, 0.24514420358434635, 0.8621725071575678, -1.5870633316319374, 0.5566641204507232, -0.26687815792960706, -0.8051251772712763, -0.21283837746735582, -0.4161697283833198, 0.2850968293490335, -1.8597417465159654, 0.787003043861149, 0.9415324235134386, -0.05506850002433614, -1.4783203154099571, -0.6249242823834716, 0.18356899337563976, 1.7030263285666591, -0.376509022105357, 1.0498839170235483, -1.852202526622677, 1.5407537721599744, 0.4575201627412887, -0.3258476022549342, -0.978474737184173, 2.0882504302978546, -0.7103218441150483, 1.8549731656722752, 1.6535270980631729, 0.3639394187740531, -0.3422999171713065, 1.6071946019675367, 0.1606119621602459, 0.9313336523260347, -0.492368505568549, 0.7252081890217287, 0.7560508104945746, -0.002093732648967152, 0.9905242490733794, 1.3856147559319332, -0.43767824296153446, -0.8035376536817522, 1.6355948276797696, -1.2623700380898728, -1.1794426612172089, 0.4089966888461995, 0.5543428634392791, -0.3204488113772778, -0.6655303910689025, 1.0325032517392707, 0.2838634917538828, 0.20042847371402106, -0.2621382728100007, -0.2905025290910052, -1.7670463427423886, 1.014760190503124, -1.1220924923572233, -0.5650234622307803, 0.3087486317061794, 0.6228472020527042, 1.3374471588349348, -0.11370175505624505, -0.48432518282613574, 0.14352631654932294, -0.9697963703379474, 0.25573299811663674, -0.4134643101728492, 0.04663760864522925, 1.394441393126496, 0.41160702362745794, 0.13299369826474935, -0.7588291100066062, -0.4168437891207593, 1.6543681780005806, -1.1351310861951551, -1.4807828274648673, -0.269574532186803, -0.7964242477473275, 0.361644342876441, 0.3554155757632583, 1.7416098785166865, -0.4008665338563016, 1.3439027153259415, -1.4795272111757622, 1.206194339783535, -2.2217821070809882, 3.2376782523148906, 0.33242216802340735, 1.9624519784612249, 0.18797657609608642, 1.2261052643848782, -0.10019061731616719, -0.3044710936235634, 0.44444758701127207, 2.532780442509975, -0.4325114511378353, 1.6372855444039507, 0.1879138993943512, 0.8894302265071363, 1.1849676612885223, 0.6353031218303874, 0.5656227883955788, 2.807471720086133, 0.18683484551776397, 2.3854602368585676, -0.2874919182123255, 1.3038567240581806, 0.05679078400503492, 2.87383089340068, 1.2587627462235507, 1.8758845959914863, -0.11521576449647938, 0.0741540047346132, 2.564675913956878, 0.6857041501094202, 2.3549575378785517, 2.3086959983849398, -1.953867611480701, 0.6669914408674816, -0.7532030293154287, 1.4770788549996674, 0.49694671209373364, 1.447925073323526, -1.064417205099446, 3.778529039516596, -0.07055893359923117, -0.7498467601206137, 0.6743193357614992, 1.979058567502716, -0.2050976951232844, 1.884065716682973, 0.17861687008542967, -0.6409400908259109, -0.10407638508553183, 1.1737693139453638, -1.0749865178736508, 1.1362053957951583, 1.356617812707738, 1.7348618890581384, -1.5018914172339508, 2.386550264904979, -0.29502775728133157, 4.1859103610665525, 0.40865910424435486, 3.2090133541665526, -0.6013187637798155, 1.6159475467374724, 2.448366106333304, 3.112566629550688, 0.2379104040333764, 2.630648011133396, -0.36992884733863446, 3.9749180501655204, 1.11613786591793, 1.5131999770961264, 1.432966121253151, 2.5359747422392487, 0.08569630779381357, 3.5664489220028512, 0.012640469033252003, 1.6428388195983974, 1.1495558877274596, 1.158921266107422, -0.06613736616707136, -0.00638591718900991, 0.20694355523829455, 3.310053477093333, 0.09934478895765834, 1.0995274501424646, 0.888516306474296, 0.39516675057523887, -0.8898031924123088, 0.2677522145122649, -0.3207349625642773, 0.7019232792730241, 0.2255202892327037, 2.064629186475424, -0.03863311884881981, 1.2673851823700728, 0.825251553699195, 1.3622975214375774, -0.32656974474543365, 0.6418345630009242, -0.3468058142749781, 2.2743731023812606, -0.7003046680492848, 0.7523425264982373, 1.155820862984476, 3.389140834066735, 0.09051272658543841, 1.7557703239140139, 1.6819235646633657, 1.1677029292142747, -1.2777335382459407, 2.8975372179619283, 0.4735302271394976, 2.6537328435820604, 0.2209999384998314, 2.806316488684649, -0.18290290237065593, 2.320382225132774, 1.9388987949962335, 2.9240819922613963, -0.37456299494164547, 1.5873056134524295, -1.5709790771143788, 1.3255181192413972, 0.5718454237526386, -0.04741384619368889, -0.36978792767854485, 1.0352847803849834, -0.14778008930798003, -1.8242459317663227, -1.0916365588264134, -0.785618124367033, 0.17953512945094457, 0.6540731611749496, 0.15314698986744749, -1.2519619750740825, 1.1308741821774921, -0.7873523644316276, 0.7900303667259457, 0.15898611041462224, -0.7308974845653954, -0.5130025419184472, -1.601968713176707, 0.9815988575697179, 0.169360464159873, -0.28958909560067464, 0.7720258359732436, -0.5423247963864939, 0.6163788053935499, -0.6184819297484032, 1.3415579510225675, 0.7038534715309287, -0.8048999064838256, 0.32491812932608677, -0.28453005184718944, -2.7205679334694843, 0.36234644693085266, -0.7843836469912089, 1.1556965585329633, 0.42948883698786083, 0.8696005213937202, -0.5531713564912869, 0.438087905749735, -1.6893373083897452, -1.1737341914598107, 1.034619477387069, -0.664207942623626, 0.4827792343179439, -1.5350116527664368, -1.0502216876131427, 0.31398086300664163, -1.196350340072975, 0.2631514175292046, -1.280464996366918, -0.05946724513905266, 1.9142253461218963, -2.119501825965214, -0.23837363936835027, 0.02990421583349729, 1.9397869842789646, -0.9486672678690975, -0.5659232175258422, -2.1436381231579573, 0.46752936254902905, 1.1827855661892441, 1.564061303464546, 1.184790937180036, 0.8902961993843416, 2.74488646465648, 0.9666233586176112, -0.6306943965539286, 0.022217108302777556, 0.9895790282692043, -0.9810311699793238, -0.4069036199269683, 0.1468374098641052, -0.8004458455542668, -1.4447550517637446, -1.0468358164899312, 0.5839972196867695, -0.8533103289310977, -0.8168164382900572, 0.1721511185923587, -2.0062426085581615, 0.4552941625294947, -0.705701392454959, 0.6596142923441018, 1.8246605173752752, 0.3716875514970741, 0.18928018110694342, 0.4524376125875183, 1.016931843825761, -0.1041972265256986, -1.2821034153447497, -0.2751244434169656, -1.6175499264644797, -1.7211940651459636, 1.6248327338296735, -0.8887400296903745, -1.3962627098151466, 0.08292258114974876, -1.365948926106093, 0.0663232701162295, -0.46086731833556926, 0.4381521297101587, 1.5325194049656259, 1.0033057214282952, -0.21665746388441834, 0.28045298664102436, 0.5875804922432111, -0.15907488783690316, -0.029255437994015195, -0.6549530215609338, -0.07352320198197364, 0.6587926138062548, 0.34239699959270353, 0.34782977926819886, -0.23742595288017435, -0.6039125685545552, 0.33604631132086077, 1.4903301709491077, -0.27904183402881005, 0.9615118666029748, 0.34648431866127255, -0.24345859170560658, -0.3285737639194777, -0.9227248814741362, 0.8529351416440552, -1.309255137521813, -1.8307682224466275, -0.23443002524515208, 1.1104861850429861, 0.38062394509528485, -0.5449237599666593, 0.7749720263878273, 1.0997480528928247, -2.4145831314843695, 2.1424403002001884, 0.05367090133628778, 0.8982393163368357, -0.43545145752325914, 1.557794603866337, 0.41124659262107066, 1.8471082125289058, 1.6265106092889434, 1.0907148741533328, 0.26269650099287656, 0.5959892780809855, 2.1842480156476856, 4.154779777796038, -0.9056070215175928, 2.0783546271242783, -0.7550634301014263, 1.364685294062899, -0.9229915408284284, 0.33724043529250086, 0.3723557705180917, 1.328468793289949, -1.7084454755249292, 1.2316983057576105, 0.5279151048700862, 1.615146481664418, -0.2304572041567583, 2.2613257908396007, -0.3939529905537545, 1.6234074524950823, 1.0446334741923073, 2.869976251421754, -0.4061468826924246, 2.2190449272834982, -1.1620755805562668, 2.4956909319736797, 0.2676037739384166, 1.6265727745215373, 0.5150066996926287, 2.759332609658155, 1.2838326289096833, 1.9671945099432495, 0.5917359219983701, 2.805493570671234, 0.7673054853734832, 1.217084059379833, 1.6250827940299695, 1.8477627846924285, 1.0845308859599616, 1.5762246824690385, 2.1361851562275316, 2.068159627636971, -0.1265824444233983, 2.1553659393515474, 0.5130091916817993, 1.8253142443391934, 0.6826581301270278, 1.0047428460064682, 0.7944944896351431, -0.5449287987171757, 1.0671664613902885, 3.1908819988962165, -0.11367441700113311, 1.6650844430567002, -0.1362528181057633, 0.8433898479411124, 0.015639076863960804, 0.6135139847625312, -0.39175506678125005, 1.1855321551926041, 0.9765350092828198, 1.9546427841840612, -0.006074364002664973, 1.1484386553308867, -1.6436746251057952, 2.5313852411117157, 1.5328812431343775, 3.2189898416755334, 0.053418792578124215, 2.9167410038550226, 0.9942809476058786, 1.569490018386189, 0.18989122739616257, 2.5264576608707516, -1.721348893668513, 1.4456830645360346, 0.6539250069642344, 2.3578332624141676, -0.5407126749391244, 2.10305174076387, 0.9905121489244165, 1.915993311008478, -0.33893444025730773, 3.356535452336398, -0.10729540221717525, 1.696128029554871, 0.4179375379252206, 0.2538456497588724, -0.35460408813513755, 1.1706978384147608, -0.9088061300508542, 1.444995532857489, -1.2843813272735645, 2.46043804385193, 1.4507681364783542, 2.0347417222045014, 1.539653500602347, 2.561005674131253, 0.867777335099821, 0.7795466586086448, 0.7432033642373805, 3.436277446200649, -1.298536831907016, 1.6185782241747104, 0.674403332691004, 0.17097456462147234, -0.3416712230082781, 1.1015995648445953, -0.5684667720801908, -0.6796330723809922, -0.8114068018501609, 0.17792971783863004, 1.6180784052480262, 0.9854922964765318, 2.0178633804035844, 0.7076443970691108, 0.40709185948142335, 1.6249540734322236, 0.5144627071155977, -0.9119109794602746, 0.35081506028686016, -2.0588210079633757, 0.922977717306104, 0.8047528577389664, 2.2404457621999456, 0.35236765793830205, 0.5893897464829615, -1.219126715342198, -0.8393919831310642, 0.8249349436303895, 0.6384245490083087, -1.6011859703176055, 0.35649802895195476, -1.069052056119186, -0.21367963354662536, -0.33620457101965645, 0.31784136353685644, 0.2564448450823937, 1.0368473207008395, 2.5231212379249564, 0.8212759531807522, -0.7255091288822951, -1.7635721440858478, -0.10922966893299417, -0.8359832449755682, -1.4298534945151486, -0.46647681619336184, -1.518461189277936, 1.6404000837157195, -0.20368324466486065, -0.6261721964761613, -0.8969571179120954, -0.976291623275821, 1.4525630247247199, -1.210630232286516, -0.17483194538487185, -0.5839963118159155, 1.5775870678884756, -0.5301144887537484, 1.400350275441959, -0.14423777992445228, -0.42198662778355456, 0.23574276488571363, 1.4694668855279283, -1.0855098924524453, 0.6417295528326803, 0.36196500892752687, 0.022203798546010737, 1.7627262138021431, 0.05094555360517579, 0.8666096453292887, 0.3698365873516846, 3.0272888404790943, 1.1793681732323313, 0.539802244201789, 0.21615057801960572, -1.254463483338654, -2.409130806453496, 1.5088244792970744, 0.09575092664423147, -0.19071016429204818, -2.805416929422166, -0.1730450626514222, 0.5546138071433151, -0.13163879389583916, 0.7339880740377038, 0.9506692991799318, 1.325479755190335, 1.1547796009110611, -0.3386854375976573, 0.8991105705754282, 0.772240687731519, -0.44788404078592103, -0.7500758445010145, -0.004608022516220487, -1.3058994149725511, 0.4208247175390299, -0.30372445477007876, 0.6740195276478367, 0.41910096511085104, 0.032498140986612536, -1.1681240753762294, -0.8156095498665794, -1.5274839056896694, 1.1531001716359517, -0.2530410125981851, -1.8629948193273003, 0.7905877897379631, -0.6249977395902914, 0.6413155164503358, 0.16769864854643624, -1.7257798246027167, 0.8295888125443699, 2.1559789104270863, -0.297046587301341, 0.3448034374144357, -0.29492995548757234, -1.875676706046807, -0.3390980449383026, -0.6248243225885113, 1.1383553988935327, -0.15791451038638904, 0.1521100618499602, -1.4651334460023133, 0.7658725782256117, 1.3975001985086772, -0.5662660016291148, 1.7863541880904539, -0.8015882482717187, -1.341568021648604, -0.27094419627680494, -0.22403736137314292, -0.8859326977153924, -0.756009272620376, -0.9412773763724764, 0.5256721551272314, 0.5498932624215077, 0.2217120234094323, -0.48566627749810504, 2.4847412444710852, 1.6703083928543467, 0.6182731920917991, 0.13528756529123956, 2.6157096098763133, -1.6707572232502192, 1.101832840440543, 0.03862067899166976, 3.2471008396562686, -0.4408463364900394, 0.4291072616090531, -2.186858466985136, 0.9014948518128547, 2.869024881559148, 1.6033242497989564, -0.4514762985303443, 0.962981477305093, 0.9158992720331728, -0.4028428838622531, 0.20643896012656685, 1.7483217706876086, -0.5782787068858538, -0.29218343432922533, -0.1886251837081927, 2.770933618404739, 0.6110441764577645, 2.048320406671557, -0.5225374929730381, 1.4655658380402026, -0.18063558233807242, 2.731159875182805, 0.3438358041256124, 1.1550099725805225, -1.4391848101693565, 0.973776604533847, -0.38658205384052624, 1.3446214792208255, 1.008785286831485, 1.2081015259493633, 0.3823238273058801, 1.3091606186477684, -0.3174778424787805, 2.0167617429469225, 0.588971354461018, 2.4719592943237547, -0.2694511618022514, 2.2264356483440015, 1.9713645772672843, 1.4541341209239844, -1.160410874935431, 2.8251490523046834, 0.2452860756906795, 1.4605376259048282, -0.4859965230407285, 0.983745791459057, -0.42282566161193025, 3.187547912899061, -0.4359819577822629, 0.7804973739933188, 0.28849405852881027, 0.8540976922470501, 0.42393332923486915, 2.620092518632234, -1.3398558194938606, 1.8378026906514289, 0.26105084731116984, 1.498451221920669, -0.2083347267918752, 0.7780211290096146, -1.314303521549735, 1.3491166401138346, -0.2621089559474515, 4.6788362657056695, -1.2951942462865818, 2.4753112402388577, 0.41794472757101514, 2.30698461544938, -3.564974232904118, 2.2556244910808916, -0.5397995693340528, 1.949984968208659, -2.306577761509736, 3.526727913208382, -1.8101969109221172, 0.6427468940215993, -0.212467429826654, 0.5755925338688166, -0.756965608107764, 1.1320988240737804, 1.3952387242466924, 1.5651081994922822, -0.03218019060893517, 1.767544955663236, 0.16928439047385951, 1.9159677306367866, -0.28755329182953693, 2.6564558988012443, -1.4749654849378868, 0.15601439897239047, 0.9619330059337172, 1.1743876370356208, -0.3926153268452642, 2.558595086045077, 1.0202836194078115, 0.4635412203764532, 2.3782607526392914, 2.022190926753603, 0.03937402856002243, 2.585470976129212, -1.3245547982266686, 1.4902995242244557, 0.39555590913729943, 2.241448121227391, 0.12411646981210119, 2.092502646313964, -0.8381137555680597, 3.1985344655530983, 1.247515539574388, 1.8873397501117823, -0.9549443330070562, 2.000226170327172, 0.2754531942085938, -0.41567515178426073, 1.1749124098194048, 3.03478545217783, 0.9440509266982777, 0.2530242365589616, 1.1141256692652086, -0.11086682702159244, 1.5864447257735463, -0.16793274489242058, 0.1991065070930161, 1.6896025527464569, -0.34548978873034863, 0.5439882367863201, -0.04036870650439787, 0.6357189397838049, 1.5684332372706047, -0.931731070042807, -0.4753042285260161, 0.17015329625677253, -1.4747057000342085, 0.890335011184971, 1.3249368734004963, -1.105509945889154, 1.1501505396511924, 1.6961527711798559, -0.6676515018329954, -1.8475908905225398, -0.36218452913444826, -1.5221249776316457, -2.975403662960596, 0.16794363809771876, 0.14678599175499113, 0.8968324819746509, -0.31236153008796586, 0.03196877731068095, 0.6740479641582492, -2.516362136131377, -0.16555397611178682, -1.5529018419349132, -1.073729295748057, -1.0586160121072565, -1.9451058112202484, -1.2648629541391052, -0.3110773550085738, 0.13027725964426973, 0.8359750751112832, 0.9774056560030973, 0.2912512824938417, 0.0035316553283277845, -0.32853415709506234, -0.21499121933316914, -0.5717829012328504, -0.23149992980721246, 0.624884985359106, 0.9994790193021428, 1.1598350144007377, -0.9186240185547939, 0.4713124246207815, 1.3983475303291786, 0.6517003039522464, -0.6135992955077042, 0.5646224599759244, 0.6039424009166102, -0.5086578619470508, 0.42165110274649736, 1.5302848519843752, -0.8325011995999912, -1.9926915096567168, -0.26065750040519925, 0.18431657436942137, 0.4079301872178251, -0.49834065260406774, -0.22662660489902714, 0.02513025811167053, 0.2809565023025299, -1.306004898187787, -0.20781946298534176, -0.8778893252598825, -0.4348337181746107, -0.39611272075026294, -0.224081464665135, 1.3020827195906286, -1.8994676039159133, -0.964366262850457, 0.4961985510897202, -0.6852530527278197, -0.8879794329674042, -0.7095543156195726, -0.3227665185562183, -0.30759006808171924, 0.9421975434613967, 0.7696047620320147, -0.298795174863895, -0.4942968668238782, -0.4684361468038444, 0.2568390201880392, 0.7823998138818347, -1.2073612093817663, 1.6124188834650668, 0.637329716736274, -1.7360540593751246, 0.5272680136568938, 0.5739309617626674, -0.971292790553249, -0.29486234193865407, -0.6759525388477384, -1.4974092558536236, -0.21006208505503313, -0.00501234449117215, -0.2857120215389058, 1.467792894245062, -0.7302347827932288, 1.798840901557613, -0.5091508759489458, -1.3917905240250785, 0.1251740187614052, 1.592548690370839, 0.29458659442891827, -1.7357145207780227, -1.311465817968218, 0.07108113903528679, -1.5405084756040337, -0.5149743887660196, 0.9014904399542586, 1.4142258361950188, -0.08740031428606758, -1.3649129790271333, -0.6924367355228018, -1.1285520374819795, -0.5797789963315276, 0.22099271357973552, 0.6809446947500951, 0.7648206440748466, -1.1452035744223192, 1.0422449855216376, -0.6350372602267251, 0.6517199477273324, 0.49183346698428715, 1.6677494011306249, 0.8140239386702807, 2.134393773998443, 2.0083941521300446, 3.556112975105584, 0.8750253093573955, 1.8432096696933222, 1.2203135842838861, 2.1369597285866098, -1.1719303367325027, 0.3987177975347338, -0.08199022544455731, 1.1690996938854785, -1.9462489642796126, 0.6088587183049382, 0.7623872287856569, 1.9267480109782795, 0.14381999161167366, 2.9551776995815553, -0.4189661297783466, 1.0503585993671831, 0.14002899648832035, 1.359510307402691, -1.338589271742533, 2.8689193526502708, -1.4672340961292516, 2.2767882013931375, -0.487392673562221, 1.3339619780867606, 0.3328844636888813, -2.032394120341067, -0.676942728929464, 1.9171182782570357, 0.4204313936120812, 0.663940124449436, -0.5712803574088734, 1.7178602763130428, 1.367696670013551, 1.2878454512508657, 0.4413474789052255, 1.5187070349123684, 1.7281311795811216, 0.6197138113284509, -0.6600935866616289, 1.1843910938984077, -2.5297011810240515, 2.399221526472834, 0.11457888009322825, 1.117372870120595, 1.2950104831959475, 1.0695382201692363, -1.4395877621012911, 1.0319538391989473, 0.4564607664864742, 1.8427201178789716, 0.6639807935104884, 1.736754229593479, 0.23687281101037885, 1.2498357327100118, 0.33983412509875227, 0.9898208185761599, -0.31190216644841723, 2.24824461402936, -1.1289886438428076, 2.6586099798960663, 0.700911890467347, 3.445526401930726, 1.7164147564909695, 1.8417902527702537, 0.5911119259749337, 2.000726624385429, 1.3559115471311414, 0.7800469239632223, 1.403947314676718, 1.2709419810217866, -0.8033429229429441, 2.82695382355932, 0.5191484017467098, 0.29329599792374067, 1.3395742091247844, 1.8257640166033107, 0.9659584228247905, 0.38260443696065516, 1.2075420355671136, 1.1581777094298664, -2.164729933896111, 3.0127545769728594, 1.1515585154668238, 3.242109968101209, -0.1977032151576074, 2.090866373478262, -0.07839762313916819, 2.3488413460997335, 0.727276627223665, 2.7524567042467045, -0.8448124642046326, 0.6001595350092607, 0.3110541186272352, 1.1389244117904413, 0.5749332788570313, 0.3012648582589598, -2.370061521779433, 1.0106818227540757, 0.8484701726870837, 2.953713760580596, -1.1053433543209026, 3.4841803631243202, 1.546305464582746, 0.5767349879091141, -0.8181137664857844, 2.0855331864342155, 1.6056967109813591, 0.1545420500903926, 0.71725374491603, 0.2998136160809391, -0.30368153919095275, 0.15725249140462708, 1.4425683243191472, 2.8268063630670417, -1.2788203202321025, -1.3428560987148448, 0.9996087617622087, 0.498601318302097, -0.06207770103028954, 0.3954972701280944, 0.03141469199821914, -1.1216303568103885, -0.5851102816701745, 0.5016105014133492, 0.5017978949032452, 0.7845295040374439, -0.898379073841702, -1.7278748728714106, 1.4899807113512087, 1.028806934828113, -0.32008368993717007, -0.4629408256861147, -1.3043057223464567, -0.27035674482682537, 0.9272803756426933, -2.174329434341272, 1.0478670897339464, 0.5378291432579604, 1.0275893034249584, -1.0551517312181113, -0.14807269424493807, 2.119497902593026, -0.4904164826704018, 0.5580004695096898, 0.5092850823923047, 0.7683812255173343, -0.1386994186769757, 1.0466767154393932, 1.2964231863815485, 2.0579235012210746, 2.3498949568459935, -0.013770522566534897, 0.827649484836018, -0.7550212868371654, -1.0651018190337145, 0.4972209946599312, 0.1305400762133628, 1.0506041078206303, -0.11426476577830233, -1.2785410967835962, 0.579611595707674, 0.27285093609182104, 1.4128549199114724, 0.11547536127098369, 1.75655332700426, 0.34748572189948007, 0.28905930935711727, -0.716322127040966, -1.0379028821183396, 0.6777813921729486, -0.037728358726436116, 0.17731106215789313, 0.08765221272384868, 1.5619237000370914, 1.1766830196738045, -0.13030161501042423, -0.6215141062538317, 1.4683776230780023, 1.348640208149364, 0.58887391638144, -1.634170854571579, 0.6146642996800229, 0.04031054480032271, -0.9298188747545441, 0.8881760815364313, -1.910982778931587, 1.074791946130401, 0.8469904657297533, 0.6236507752338618, 0.3834169971737816, -1.780610490532637, 0.12681897639858683, -0.319193468995076, -0.2568884259328711, 0.6894523952270732, 0.9189582129521415, -0.15807990574222272, -0.9532364914632049, -0.2412938052846418, 0.8670280918686166, -0.4132295880768567, 0.3893871998621646, -1.7841805712242769, -1.8858458606896553, -0.6066770162214812, -1.4054984194551015, -1.2719072740231487, -0.4468670823965547, 0.18217798576224248, -0.7607097986189928, -0.9857817113577971, 0.4799997142984615, 1.2566980017358418, 0.019710090336483885, -1.0107589270076516, -1.0555957734845096, -0.44265532619196957, 0.1932183921221689, -0.36269626086668555, -0.05657368934964875, 0.7397105285637519, 0.5149580101501423, 0.32801848769087666, 0.17364172754330548, -0.46145106492267307, 0.174689130434755, -0.7102160201197072, -1.4893078332581111, -1.2226517380000568, 0.23409635763230902, -0.5728495458906804, -1.2311542940281428, -0.12995518384194965, 0.6071544162068707, 0.5862967768207012, 0.7651519981360169, 0.06305010409202366, 0.3774620180666046, -1.0998813569281665, -0.5141909139356378, -0.798751151436252, -0.14073960395615653, 1.2000607808550223, 0.7874354031312769, -0.7061651416662723, 0.5203866921721083, 1.3639387457815046, 1.3602998896919558, -0.20980871061922643, 2.4017972602695044, 0.3706403096736076, 2.4883575759328207, 0.20701736793416348, 1.0428106959322982, -0.34496807901756327, 1.362361403807741, 1.2067803404219815, 1.583624715506467, -1.3999057394120642, 2.9702435769562063, -0.2735021901493025, 0.30227573456102447, -0.6868230320274024, 3.109097285746649, -1.570276533484871, 0.23211972906417414, -0.4877827743874579, 2.084233967968353, 0.04428287235949452, 1.2081076645924576, 0.2977651641292871, -0.06975288222270354, 1.1737019370415716, 0.8069559205329246, 0.6999192155007834, 0.9923458618391019, 1.4360965482558932, 1.19806937328931, -0.6066226812696816, 2.514065764016689, -0.8872535835888511, -0.4140806811282618, 1.1428642324956104, 1.8603051164152724, -1.1066951335091209, 1.7829731153376804, -1.2146286652293923, 0.3981389312943575, -0.1926670018048265, -0.08950472762179679, 0.22583324727548548, 2.0203345693035444, 2.4744654255075695, 0.7946058750837779, 1.213159454693587, 1.9055905770777652, 1.7745830277459471, 3.3506082592953814, -1.2273264683438252, 0.7341022842634364, 0.4706471201995977, 1.80098925853957, 1.135862479589721, 3.608609458154485, -1.0663899033348136, -0.18684370821284987, 1.729396055682859, 2.9922630203484513, -0.39872408517233404, 0.06846466175609378, 0.20662264284497184, 3.38275986370455, -0.9849116872344092, 1.0700743100848389, -0.22866872776726943, 1.4191534303480269, -0.6537144290651893, 2.873842311256212, 0.3225496695164787, 0.12299976941627289, 0.5315746782263793, 1.9503392660269252, 0.9286974455047713, -0.49867941621093004, -0.7461618699823943, 2.7010333803510873, -0.3537472171926932, 3.7562105881456413, 0.7110075055923702, 1.9481803027251767, -0.8361901952365984, 1.24306906840405, -0.9580298539904036, 1.1299382418828963, 0.43807876974036963, 1.031286937514661, 0.26346927879315146, 2.1597684727911317, -2.50580264590308, 1.2269807121293064, -1.4302288278285773, 3.150439245861167, 1.073456991867435, 2.14599408182876, -0.15750336231461862, 1.096673770739306, -1.345138795436746, 1.8947813134351503, -0.25761815239044256, 2.4104919640895432, 1.1051745483054982, 0.8510803770340032, 0.7801431260154756, 1.474514620569093, -0.6902601969127599, 2.3897098496900764, -0.661586574144525, 0.4013420435951117, 0.6612754422580139, 1.5861203490132216, -0.096001117726357, 1.3305160083214362, 1.3258611271518002, 1.5779640592990987, -0.31190641984795775, 0.28698650962393574, -0.43710554925927375, 1.4510841287406957, -0.26801268477254925, -1.3757752981070575, -2.1672099081692764, -1.2582265435480426, 1.3582087388225053, -1.0500054263240466, 1.5104918907947276, -0.4307005711951517, -0.34245442146028704, -0.3597483067303371, 0.30667699225996053, 0.5149988539533829, 0.5062056766290196, -1.1354808520604311, 1.6969464184089043, -1.435346147379205, 0.060217806003377956, -0.7520114113311441, -0.48301599072906065, -0.3124143961321312, -1.2590197105359044, -0.9303436285681504, 0.11653061436461945, 2.2466913564205035, 0.7194358412763828, 1.4881565874902263, 1.0071731791693883, 1.6813036657944465, 1.3212704357648508, -0.5920444458454195, 2.0418187480933754, -1.3347186581110149, 0.8146332390720143, 1.0076444461375886, 2.7487532230384613, -0.15773364511078766, 1.7345084820423278, 1.6981209232289574, -1.364924467246374, 0.37292326054098773, -1.5889895097065507, 0.9259680222347696, 0.9869062933968948, -0.23083638276603027, 1.0945251616591007, 0.13445361063638192, 1.2167323282998928, -0.307158682363402, 0.7863115359237051, 0.19930591255007085, -0.19088142366136515, -0.37341521869428707, 0.5262535400482571, 1.4189213742426212, -1.3235560548289695, 0.3424394918764662, -0.7124549443813295, 0.6554203447943051, 0.5978361893732814, 2.271359217103116, 0.5726176488345776, 0.5151124369860595, -0.6660770265517322, -1.0506972767779628, 0.3389195213533005, -1.0983294482615442, -0.275249427013414, 0.9007716801061203, -0.3204557910157642, 0.9384632664193635, -0.34617548107914614, -0.6589879453769816, 1.1642559109753239, 1.3643873452620825, 1.0447692452470276, -1.627860609193651, 0.7707465404989382, -0.3593237386664273, 1.8928374475964622, 0.35066701683686385, 0.8008364862309824, -0.7607420469173829, 1.487451038741104, 0.632808717867292, -1.9263708037643763, 2.4911114571510713, 1.4428218326679019, 0.5295554026613537, 2.0146614043071542, 0.5760877770610352, -0.34155517483135106, 0.144063580187429, -1.741246697088636, -1.078828124932118, -0.27733660806185906, 0.66277554450691, -0.7544139965410132, -0.0456836143207688, -0.3486852834534294, 1.236254787431306, 1.947001636308667, 1.2920425408704985, 0.6284718482497023, -0.6941888075191771, -0.8688760865928186, -1.5679430402158105, -0.37544544167463234, 0.07199256342688659, -0.9353575308897315, -0.8866063799005851, 1.7164129397879309, -0.29233276139482484, -0.6430941324441202, -1.4199814550357013, 0.7644078812203373, -0.8924755142443652, -0.4016665762757682, 0.1290749319136259, -0.25820657404737163, 0.2460793323252806, -1.674467891776887, 0.2066503062975619, -0.704238574546404, 0.9033138963236153, 0.36661521037633915, -0.9038252607431247, 0.0960264690424454, 0.35756140582286, -1.5224381803044433, 1.0769653232624519, -0.2561814922419205, 1.3505596802570874, -0.2354489574676709, -0.8680894673504767, -1.6192039050078002, 2.678614939606609, -0.4647066836396701, 2.396011719692099, -0.7954853372567667, 3.0776305808943083, 0.5162212919441519, 3.1218426869551603, -1.241408977409259, 1.4486744749020544, -0.20367535007812673, 3.2374278015283315, -0.9007873604376955, 1.6084857037099252, 1.1465245379136815, -0.26127554742005854, 0.38299152304642486, 0.6213599213873925, 0.7559182536796293, 3.06753306441821, -0.21543891524003655, 1.5244053433536606, -1.2822563139668766, 0.35259694574599343, 0.5156695934673476, 1.8573199237348532, 0.07290178276925256, 1.977143088773448, 0.528198052615011, 3.094444916602557, 0.39179164357597435, 1.953355515953981, 0.17919272944760428, 1.9069912853645712, -0.8304137867585882, 1.7117697801613447, 0.019837535679654596, 0.376963018082878, -0.36707348249127214, 1.7956463386336252, -0.038152357844977815, 3.3517543014619666, -0.19612081641723045, 3.5067802991268064, -0.8778616813591822, 1.0361130146228053, -0.29010319456142863, 2.4623215565345045, -0.7344617280545632, 1.2170021009675198, 0.9159218464720861, 2.1017871460417847, 0.21386264700537663, 1.2567369082062574, -0.14090270741806035, 2.7433661474922255, -0.21036992931361836, 1.7006597013370761, 0.32870222839965313, 2.2842607671288007, 0.03626645568007865, 2.6569427467791438, 0.3645542937488536, 1.1749541975622118, 1.1545720004840936, 1.2281735453251854, -0.42580159007078777, 3.4732552357503956, 0.71495340247522, 0.9919879917914557, -0.6761525119517363, 0.33521775774288404, -0.2628417785271198, 1.5775359040858916, -0.26295274833702836, 2.042269670746169, 0.16519512102750644, 1.3799904780238434, -0.9450474449485508, 0.9938112903269618, -0.15807932373606878, 0.9672254880326279, -1.8971633088255133, 2.2685388124147527, 0.7398666702788494, 2.850990734330044, -1.3407752232673125, 2.016924764559131, 1.175572425387529, 1.2688959629916163, -2.3535193148360656, 2.263821892899733, 0.019854671133966016, 3.1711353992919102, -0.16992331399858798, 2.4309822259995744, -1.0634496033409253, 0.47933323534812644, -2.1292911953012457, 2.9593939186614673, 2.0473163989312204, 1.4482952707746812, 1.5132451740810506, 1.1708336063574283, 0.33756770521239465, 1.5970412706004995, 0.8320248609622408, 2.2167628518062346, -0.010993127229414212, 1.0342823715402272, 2.173617236096835, 0.45688185054588215, 1.1212576922891582, 1.7560732211323207, -0.28859402821628327, 2.337573945564795, -0.3327857259550169, 0.9093634498319954, 0.07575538447448336, 2.5611250692439076, 1.9051675139902684, -0.3218142709853557, -0.2206136879008776, 0.06226299686126322, -0.15658212445561082, 0.37554814452760127, 1.0288371197796535, 1.732137029857358, 1.2362059461116646, -1.2720762222197515, 0.7463199745084703, 2.4480108287363285, 1.383987316361017, 1.1647385422944718, 0.018499230111240213, -0.16275740739325084, -0.8364228562020024, 1.179470179895322, 0.9227342879944127, -1.0892763548531488, 2.135498947889661, -0.561591164526235, 0.4495899150074046, 0.973232497808112, 0.3342295090141196, -0.31228873728494877, 1.0216356962821398, 2.1856658817118126, -1.5593977451458672, 0.04788611597660137, 0.17417549152650408, 0.20446041901594306, 0.8436906540879414, -1.2985703301363185, -1.129199114710756, 2.6596451746381944, 1.1630328010441564, 0.04725478348929707, 0.7065160649614987, -0.5373578373563574, 0.7639586298143095, -1.1403486571505397, -1.3600455780624359, -0.0726490023843234, -1.2291715935030727, -0.6184040429360383, 1.129507757043274, -0.457468825297071, 2.6587049718166056, 0.16770724344908983, -1.1262972196099075, 0.1298433576051363, 0.4880097955721437, 0.7624994324802232, 0.8048186255786721, -0.914124433914798, -1.5578475181555094, -1.7296886613447242, -0.129952097845288, -0.6928454512940828, -0.7868957344955965, 1.4274164554944102, 0.6771169055561997, 0.21236078849887455, -0.5160726370856227, 0.5974720317381031, -0.05406155365030771, 0.5666362075158545, -0.3517487508066263, -0.43371110534841734, 0.3094439399335253, -0.8999241581967281, 0.7872723682879509, 1.3394736401926002, 0.8092690766802474, 0.3391620422403489, 1.3480229081765382, 0.6656393375970666, -0.1749621728179716, 0.09778706414463337, 2.6951106595018772, 0.7919887584503229, 1.1366617063125255, 0.6423395574744488, 0.9538392949637423, 1.189243961862758, 1.0014493380262826, 1.0595308591173354, 0.313198089217242, -0.4409765780710029, 1.643490364205786, -0.8729343870555499, -0.5008073853194994, 0.5718255535700855, 1.3211405479953866, -1.872672119940068, 0.5296359516454348, -0.26918393108578453, 1.452332405228415, 0.228742629206412, 0.20223224260497477, 0.024128053177880134, -0.12647008610589153, -1.7253826790233926, -0.10007393782208357, 0.080863670940897, 0.005447572053140963, -0.1524764831261909, -1.4965458790794766, -0.2648062898207618, -0.35805215845078986, -0.1364987810276434, 2.358218242177299, 0.5047550068502876, 1.9731131358050311, 0.053575394200560594, -0.3488416387183435, 0.3390618567526152, 1.0436953370464277, -1.053752836369867, 1.9262097007274261, -1.87749220145379, -0.8075085687880077, -0.5721248373545983, -0.505817257309533, 2.1939406357307925, -0.7289939644274659, -0.9450759559203018, 0.043724117473770224, 1.551915401030347, -0.5004012346563681, 2.7643206064554153, 1.0598620733542752, 2.3352469857103166, -0.9649229813898412, 2.75553602990312, 0.5004104508496241, 1.4167553387690255, 0.8466937060365206, 0.2918565483597196, -1.6728672814259093, 3.0601304254778965, 0.5766427304299288, 1.5062154139419384, 1.3566295982593568, 0.7610492522418731, -1.3101784984660967, 0.10563764957531807, 0.3624348059316792, 1.1569329541718465, 1.1438259793707826, -0.34510795299222374, -1.0765023325072471, 1.5223065727518388, 1.3658835912933274, -0.4941402382668574, -0.8367674949683385, 1.6388991131772956, 1.586239191943624, 0.9992601268357347, -0.408371830358155, 1.4840487232966193, -1.088775048714639, 1.7362132251808104, 1.5070640891605458, 2.630030412208758, -0.10417484679947428, 0.5495353548146715, -0.8851312977588657, 1.680359732502993, 0.04587666509036941, 1.5445739433005001, 0.8273987725164427, 1.6790297714788032, -0.4275830402586502, 1.4731896761795291, 1.5174086052181397, 1.2818445732127577, 1.1327108453586205, 1.3715548109122404, -0.12331229205832743, 0.8572172342701058, 0.3130932396704757, 1.4081916260954417, 1.0877244192722946, 2.412188085829211, -0.5171322317401472, 3.1383181378098812, 0.25067259392151975, 0.46746565134343865, -1.4526794472649727, 0.0072255401434042354, 1.9440972936871745, 2.216995034292754, -0.5049132676302691, 0.4793621349497167, -0.7925636462340818, 1.6077711512558324, 0.17772116191575157, 2.198399618541368, 0.7823989041489605, 3.0410883730110703, 0.34837873381337214, 0.15121553560894277, -0.2673725253452344, 0.9111811143630966, -1.2390040880905946, 1.3189120280761002, 0.2901192749035177, 2.5943610628836176, 2.101991886592197, 0.3826067300490591, 1.212060510245569, 2.3332201205610805, 0.3975302332436425, 0.2574861006290318, -0.22830353003618048, 1.2070999905252227, 1.704179043151874, 2.730458991533449, 0.3700596426718285, 1.504693568883348, -1.64624932139287, 0.3324868062796757, 1.091810391171295, 0.21767366758767628, -0.42747740699555326, 0.4505576453721293, -0.4780639742932307, 1.7969132770601848, -2.0793088164407005, 0.9512226050005004, 1.2677253597805902, 0.7873782803135383, 0.3806234929373437, 0.7706266701373148, 2.19179485943671, 0.3624056705993417, 0.6165700665056951, 3.2375590183507175, -0.5440265141745417, 3.074216463933216, -0.5630586050611099, -0.02348165772872593, -0.23128884047849216, 2.141496973319674, -0.9571622700809319, 1.196314506652391, -1.7499835200041909, 1.1840236069538745, -2.3043740771851042, 1.124169331346202, -0.3751959152097434, 1.4704798033140656, -1.3556636415941685, 0.6946965716578293, 2.687328468043737, -2.26957713356392, -0.4467845718757212, -0.21088160713002446, -1.018803844052462, -1.1515743398447333, 1.1302919785636656, -1.0600619065079435, -0.8378115198360856, 0.343035913817421, 0.2305029049905356, 0.16584470707566096, 1.5899719659473548, -0.7633569525652658, 2.0917869137620486, 0.7750627001605848, 0.6229567263046305, 0.6602019468407648, 0.8747807442240455, -1.1435318125396354, -0.8689673834108469, -0.23279223900667598, 0.10440866676241624, 0.543547180260331, 1.6491469903017295, -1.0668953018489147, -0.8919901191967409, -0.9102344894699869, 1.1466044929263393, 1.182384803915059, 2.384241174167327, -0.3705727996708735, 0.2289616351961355, 0.8420551345008599, -0.5796225356531024, 1.3463507979350815, -0.9071460316829952, 0.5044105849513877, 0.5290968226694805, 0.414673473660391, 1.2324813303055495, 0.6838328682248868, 0.5175443933252979, 0.4357456082203324, -1.3661475344998222, 1.9466750507505906, 0.7307715272226593, 0.8497825955476899, -1.9850036734052838, -0.17679490031614653, 0.6999728078061235, 0.6464977278080128, -0.6416895464353665, 0.05492247408780248, -0.42867226103956463, 0.13527753089086697, 1.8907226930466932, 0.4205669566556188, 2.2904084493844192, 1.6791924610990556, -0.3883071786816532, 1.751615803654628, 0.9206244242844225, -0.3304397718915239, 1.4759594267526457, -0.39050706644529604, -0.39719164948533914, -0.5415664735296124, 1.1031020784225787, -0.5458812639493353, 0.7368342755199779, 1.5968485993255819, -0.6513232205126983, 0.47040585074156543, -0.010955374624662778, -0.7504480401666843, -0.13307578692350605, 0.38809671587431116, -0.3279102853195687, 0.1804756437766412, -0.9634097483195658, -0.009836085555814236, 1.2546341890280013, -0.05288640875862733, -2.1263654922419604, -0.4558712332684463, -0.31493979710551673, 1.321824586043707, -0.9299907614610384, 2.558075574768482, -1.2556036322359672, 0.20471687254815576, 0.7080990972518794, -0.2905891034086579, 1.291960380996447, 0.7902473272177669, -0.9730973803541999, -0.5971837442576567, 1.9969860044465428, -1.4577335155977476, -0.6127406816636389, 0.08639172103795162, 0.7793641559212063, -0.6558965890707802, 0.946409644250265, -0.3066133093283964, 2.0627213923812824, 0.24086472068035178, 0.3188512982818999, 1.2435629715053516, -0.6675553463143998, 0.6592455987171503, 1.0547533350779925, 2.98043523967282, -0.5040850550248637, -0.29692456011940754, 0.3106582977431358, -0.9639452027459752, -0.9010574472264241, -1.284341915245724, -0.7170251280065479, 0.6745548228779383, -0.7233546351153934, 0.2643359166659262, -0.33519362687105564, -0.4357305728792785, 0.9030063055676243, 1.4531668931836548, -0.8507532834823918, 0.8462283259998921, -0.5113784964878262, 2.6530916129982582, -1.0226263636212656, 2.244140112650496, -0.13850043205362447, 1.9089209592529177, -0.8680392848544856, 2.0376286215973956, -0.38354375461265455, 0.6322368130033015, -0.8787460766031768, 1.270852349671706, 0.32343032520242143, 1.353572369177124, -0.9655422576492054, 1.065343567008579, 1.6861536397021715, 1.7505351831894034, 0.68850282530852, 1.5866742623031609, 0.6432448927733118, -1.1735650693542627, -1.4797017488626107, -0.11068989571118198, 2.2055244448004303, 3.1112941898911917, -0.9190091984450329, 2.049016047393484, 0.5108348595151175, 0.8814945510730358, 0.5640806780169761, -1.2552437746691112, 0.21843181368062686, 0.055504859840536325, -0.8689023811599111, 0.785782054408128, 0.5961094119354985, 2.389788771816492, 0.5187358915478717, 2.4082631464537867, -1.3611956071789502, 1.9619441597750265, 0.13052529940329713, 1.4932564948084475, 0.49832992641273205, 1.4579203175451991, 0.7909547231734081, 1.613872915453439, 1.2288169661874038, 2.0403435154178506, -1.3634388788227862, 2.5859178988026326, -0.6165181149393698, 0.6499994005980166, -0.5494248624273528, 1.16443902394457, -0.18491600510760595, 3.2405172220234673, 1.6558227275399902, 2.3566573831081414, -0.6638527586379268, 2.648573028477563, -1.2378276201970677, 1.1872024258913827, 0.8000474266525436, 1.8628364066861351, -0.3946584611028726, 3.2460241985420577, -0.4393296345209449, 2.6839336843250297, -0.4933629422605036, 1.9380895693671978, -1.0926641665467096, 2.5630037968592876, -0.016880880214399954, 0.7444742581909063, 0.027068108670669083, 1.3301139391221743, 0.6694319371162305, 0.2985083133672653, 1.6265438153317275, 1.1118580557366093, 0.004864106017431145, 1.2832085522016128, 1.0617673198532591, 1.0082614094675402, 1.1944841036256877, 1.7338435195224056, -0.15414725130271484, 0.9254965840708197, 0.5228778585055611, 2.4416767396772596, -2.0684342878566633, 0.392200019718955, 0.7181573629428648, 0.49347385578392633, 0.537825613811843, 3.365820830755281, -0.9932016219234512, 0.9882165104889233, -1.006265623747441, 1.617128189714891, 0.2160766634314687, 2.3814329569244324, 0.20050347416155762, 1.5082451219646755, -0.804575168819129, 1.353312541076085, -1.6078589611333092, 1.5793853489830738, -0.5158969362637771, 0.4761829750986327, -0.6940846010541852, 2.606189843903326, -0.10417360992340431, -0.6635056838320215, 2.7378109518937097, 1.2878496777436454, -0.025684063519077767, 2.2108150600174508, -0.28111305642704365, 0.7482934074895851, -0.24698359687418014, -0.434794612254077, -0.6291856961990737, 2.1496412070608897, 0.5362706039977048, 0.768176167894452, 1.4598148714786723, -0.5257529333018215, 1.1680491416630419, 2.630779869474791, 1.2312812753759588, -0.3475586336937728, -0.3957143535247869, 1.1889249326130717, -0.9646642329885069, 0.4831178691182514, -0.1706065536798827, 1.0149829705247735, 1.9408276174956, 2.298907062954661, -0.4942560834622721, 0.7219964050445891, -2.0392101627952504, -0.20724510939000348, -0.2845653434832479, 0.29095575259385714, -1.9501197527307488, -1.6465059460402485, 0.9869953533226205, -0.6148403914271784, 0.04815931657184485, -1.0616992990857288, -0.8930305354039164, -1.2958176042287153, 0.6396284678108212, -0.40191108524436936, -0.03327103640707008, -1.545146012795025, -1.0447205070640808, -1.118854636106489, -0.9075765943163846, -0.9647239985179574, 0.33493661433327326, -1.1108046572266206, 0.5805233075740734, -0.639744832040856, -2.054444425228957, 0.10679627686472454, -0.47996945237960287, -0.09913596559077335, 0.10152329251813412, 0.7852951584167677, 1.7150432258718165, -0.11494504040912928, -1.0258802968083587, -2.444402762822831, -1.328409427866073, 0.42239922371367045, -1.151494933048571, -1.2888912382862858, 0.3798910428134717, -0.18122924551993122, 0.0017226007471964002, 0.9351893185720689, -1.2433457551736415, -2.1473377688154685, -1.1512856195479286, -1.2979224688734314, 1.848420508045214, 0.6330309289974438, 0.11051799211296123, 1.5596004564730546, -1.3889176223112736, 0.5036208910037063, -0.680726747337154, -1.4263089100770279, 0.8631204834271109, 0.44969642548106076, -0.9250169908323786, 1.4406746651013582, -1.615281207768847, -2.056598751464843, 0.4062060670272452, 0.17929022542065454, 0.012955182170076475, 1.5756701032893456, -0.12143176840710795, -0.5200420001895764, -0.5514493068690371, -1.1498950322658588, 0.9168775335447347, -0.3496130112123824, -2.001317162655043, 0.48331538462244694, -0.5213988569945766, 1.454281534349197, 2.527071191593205, 1.491910928285672, 0.45117332702706575, -0.7635332457215929, 0.3204500277682305, -1.4717789998754505, 1.5380395051788396, 0.8398721055975148, -0.0653319821063118, 1.995433065153734, 1.0289683919137005, -2.274347364488439, -0.8032332082927514, 1.398435209701221, -0.416294330536635, 0.3649238581411212, 1.2430442614704622, -0.043980306358361976, -0.23926258010614504, -1.2249548109260833, 0.21061534241484273, 0.028298112159623454, 0.8014052395144099, 0.6029968625178522, -0.10464391636624075, -0.9696124093933113, -1.154940529445824, -0.5728053998219647, 1.052241099987848, 0.3348136214203297, -0.3703570754725499, -0.4242817075037278, -1.1131852728963905, 1.4394922104712253, -0.1964277122253474, 4.3372737596165285, -1.1768088740320646, 1.9169206901597957, 0.6227373574528174, 1.4632844641628453, 1.476131535021941, 2.5187418861746385, 0.07096782828944909, 2.8717878518379827, -2.7099241796295557, 1.3784284373551927, 0.06430762578729991, -0.1339370793448909, -0.9765742873079192, 1.8825504941340114, -0.027389330189755073, 0.08870533353130461, 0.9902777004646152, 2.0840516735208907, -0.5764070664577315, 1.1425268980932775, 0.6028899004988941, 3.3506181102543797, -1.7916363195446148, 0.295212405496679, -1.0233104105519808, 0.7241279556475577, 2.0097939285058164, 1.4275509936963628, -1.167915885149549, 2.542879935757283, 1.0349293118462022, 1.4927576769131818, -0.35053716755822456, 2.8499830756128706, 2.1839180769855013, 3.6648170509352207, -0.6805554500601327, 0.9511982887559355, -1.5467415779963603, 2.355013269250751, -1.3466117232553767, 3.0371125618862775, 1.0834843736145332, 1.3644886844234752, -0.8832640158936651, 1.9446656887278715, 0.545848025839267, 1.0679743493794729, 0.11634211225111508, 0.9340430254985544, 0.049269898598923056, 1.8626873409150728, -0.9036256710492231, 1.4601580727297248, -0.3757749049902281, 3.101890554406585, -1.894555610094382, 1.9098843538682893, 1.1344057868957744, 1.3299453180398029, -1.7427436634591904, 2.757610959546878, 0.10037931658818564, 1.6980510237635178, 0.5876228250764509, 2.066263047762256, 1.1839893088100637, 2.8682339516641067, -0.40868276016097, 2.987890397742211, 0.3114912282904335, 2.762026954142715, 0.7707529907978097, 1.4746294278029974, -1.0372657154438492, 1.966976103746328, 0.9217303295761943, 1.8909729120341936, -0.6585768246890966, 2.2110009092199303, -0.5891628875611944, 0.009914310700880974, 0.7914931539085664, 0.45078320178093934, 0.6583425554919479, 0.8829749097128157, -1.7581682719805856, 1.2292212152688822, 0.35888282339923355, 2.1274259210957536, -0.7525418772637604, 1.4806374304822227, 0.09059755962047454, 3.8240678815056977, -0.2598430027538974, 2.6202908482981737, 1.1487891090990217, 1.0236872639083792, 1.24653914210171, 1.9886576357238022, 0.3583901750454699, 4.1267063332909615, 0.2996076089601772, 1.0765786875510381, -0.2442099222741146, 0.6132039489630882, 0.08464912719982581, 1.1889367852868336, 0.322863376893776, 3.6459216739692106, 1.485457520916718, 2.3899261183311076, 1.041074726724765, 1.953055236573265, -0.4124767664555255, -0.6659085109408385, -0.01151787278533279, 3.063274597486373, 1.3717031854755002, 0.40375681282119513, 0.26425663653873754, 0.7531483995026778, -0.9545890703089812, -1.1913752514513458, 1.2227375029614558, 0.0695992221549086, -1.0261287993917028, -1.2529987658995347, -0.2884872703613668, -0.8431948440157733, 1.5015458038894798, -0.16247026959011457, -0.585954949358824, 0.7222840944988184, -0.5422702007343312, 0.9407783600750612, 0.123174037386974, 0.5742440196634568, 1.1539846854637235, 1.3640700819066525, -0.6570635151396556, 0.06677704207751238, 0.0435334781429872, -0.47367069029385184, -2.076211804678333, -0.7752896119244123, 0.2849931978356341, 0.20042782295954423, -0.7135971556151358, -2.103924060515805, 0.5633801374708709, 1.0605232537184155, -1.8293032365154238, 0.6473199567808859, -0.3882675473997147, 0.8560213008308754, 0.26775431281869383, 0.10769381672039899, -1.0066017211891312, 0.7737752782256642, 0.5054529874865349, -0.30761127796024507, 0.6304218178110279, 0.3884550029371155, 0.4608266128905073, 1.1104470603992531, -0.6254812446001338, -0.21630349100509272, -0.5184661984520534, -0.14801413865233537, 0.8787245623959568, -0.5866923587415132, -1.161738815147598, -0.23220344929923412, -0.32995103379243346, -1.6408847194912648, -0.5479871361945298, -0.279830548601791, -0.1596653217875868, 0.8740390559152388, 0.712058221800127, -0.06836285902479297, 0.47822310014079283, 1.1475490787554181, 0.6655952150240072, 0.17328992164876306, -0.4201117083683742, -0.33864218286190967, -0.40021221950108227, 1.6033136774473387, 0.17640218566535884, 0.7082886583356477, -0.29953457175509607, 0.17822626783672582, -1.4220817710188203, -1.325254732638347, 0.9602051601314605, -0.1021876357981056, -1.5832499698097182, -0.8293950119243446, -0.21883967289744186, 1.6025666786464803, -1.1256696066060403, -1.254187780933539, 1.415110628729322, 1.7444661333332414, -1.0125877197622903, -1.2247309931493946, -0.43608641890164695, -1.1302340401592936, -0.071410794880462, 0.4196919487329987, 1.4424860583194397, -1.2515299970950182, 0.5883772585006212, 0.1541486659905329, -0.3443237216534376, -0.3091959144080038, 0.005344266403488238, 1.8711296005877232, -0.06323678505336759, 1.2052608964450513, -0.6754690953528654, 0.14903230599558778, 0.6889684522594374, 0.968837496704974, 0.3654244015693545, -0.5062982832884678, 0.2868804834851959, -0.7154643967055526, 1.1359196268237064, 0.031041569764386212, -0.18482925683522172, -2.559654805634393, 0.1290454462662285, -0.5918374503554729, 0.005701560157311371, -1.287813076508433, 1.2118457688221682, 1.0919596400934406, 0.2011390310913211, -0.24803975709903897, -0.6399965676578319, -0.2578789052727294, 1.7630234146492647, -0.39715215883224875, 0.0007889960914600734, 0.608006480354967, -2.5308557524250497, 0.02024141207662254, 1.1809935863733017, 1.113380501850432, -0.9644261670766087, 1.2944832273816183, -0.2552042927825559, 0.27945002675399505, -0.05052677485235303, 2.1178800563451374, -0.7268869012910116, 2.3674698203997147, 0.009832208158172307, 2.3409721379253705, -0.8483038608743338, 1.136357644708741, 0.35903291813080696, 0.3193267901667806, 0.38063327696970967, 0.6097177370916659, -2.2561967075726233, 2.020894914520204, -1.2419521493628312, -0.9848264383862696, 0.462094719241193, 2.60631519490139, -0.7243973354906438, 3.8048998830399547, 1.7816094570022618, 1.8479453673458963, 0.12396880692975311, 1.1796913029940332, 0.7377601160779356, 2.96835054455543, -1.6895828073205592, 2.312311849094196, -0.637861976986868, 0.7845150408577324, -0.5471774945525697, -0.2459498671139517, 0.10286869310994133, 1.721907332782356, -0.22034438289656447, 1.8410961268559627, -1.2535604892194843, 1.0529654152903223, -0.02117966232004761, 1.26663443778079, 0.6909566352851002, 2.3852556909238443, 0.046685447991437694, 1.787398833892781, 0.2604809990166895, 2.5263581008587357, -2.0718360386760235, 1.2380757230206525, -0.7332532047625093, 3.3384011730034073, -0.7328567954114649, 1.0387797637569423, -0.5273461059812125, 3.3408746248376557, -1.3285491010123651, 0.8524787596010369, 0.8050344484806534, 1.1200942406177492, 1.3309772669841957, 0.8935687701265288, -0.5146006869308837, 2.212987820385643, -0.9550786514919045, 0.8802113182695993, -0.5837379959468281, 2.6847522904315704, 0.735586375533474, 1.349210408697794, -0.5785728875927644, 2.6854446345833076, 0.580386324615893, -0.02592796074374118, -0.19210666111684083, 1.769161658468752, 1.0208825552824055, 1.4871614499533259, 0.7811640901463545, 2.0300672622415443, -0.051661073946794235, 1.5195257561722784, -0.13151381732873269, 1.7300854190062576, 0.6826231210534419, 1.1540307882711403, -1.1218204472564728, -0.22461143657280355, -1.0037482533016395, 2.2892139585909574, 0.4370381391147638, 2.2682995870581455, 0.6522297500669318, 2.676136848830208, 0.42693034162417404, 3.1797190157262136, 0.33262433201857877, 1.9490396194084518, 0.17648968137762905, 0.43842973004979424, -1.6869415038529345, 3.131894405029778, -0.8683408796033689, 2.4868041949502784, -0.5169781423829511, 2.9978524595160327, 0.03430403808713253, 0.28905562659180944, 0.9036178260699321, 1.6750521570737205, -1.2973092840041693, 2.221769678546588, -1.2671909945647504, -0.14073345108993301, -1.990995846976852, 0.3219158033978093, 2.175804712549993, 0.40973585674604773, 0.10800580201483853, 3.35700942351124, 0.04603241068783915, 1.7176424855275922, -0.38875639202003565, 2.1205121829997338, -0.6675350396799066, -1.6560553417746577, 0.2379710306053357, 0.307623033513746, -0.09610261923127739, -2.2525683121603004, 0.6128706539860916, 0.41703615367159247, 1.2831621497427856, 0.7147868851964392, 0.20069040401367905, -1.2491010548582828, -0.2557656482365219, -1.6109444297228745, 0.9352181032661623, -1.0476549741791714, -1.4691793264954416, 0.3811426713400345, -0.2191596221129541, -0.3942800148773579, -0.13149361352384192, -1.3872622015642702, -0.8003467134710749, -0.877644639129759, -1.5683254454455318, 0.18829111933572376, -0.28665965737767884, 1.502144112543235, -0.6158489610640038, 0.4084739850075628, 1.2640896855850092, -1.404136284823467, -0.05830423723879764, 0.5384226412782794, -0.06813262351816565, -1.011182351242581, 1.156758906203932, -0.2942377065527178, 0.5444169883846861, 0.2463925998414739, -0.5684391944089945, 0.16756887115055005, 0.48941908289982694, -0.08092600873711288, 0.908731008767498, 1.3540870562450844, 0.48767225937229636, 1.0272626304269796, 0.28795243350988653, -0.8770415361256898, -0.6113876825921939, -0.6679802730191079, 0.9017416743533746, 1.7640449864926804, -1.246295558536153, 0.09587716180492613, -0.12869848486635943, 0.3336645157589094, 1.1742383349117465, -0.3292832366602168, 1.6149059874785348, -1.7559333252872291, 0.3446928461806909, 0.17350264665493587, 0.24442155358063053, -2.229345938569109, 0.11179511463637884, -0.21406045929473203, 0.3490249898273298, -1.3935050300357072, -0.3050580222920832, 1.171704134884828, 0.39045731666033656, 0.8393651728453598, 0.9352728983770087, -0.6433179794949139, 1.3737283523589428, 0.556833269772106, -1.372150589615269, -2.225815863254262, -0.713886751130718, 1.2659041698232625, 0.8090579593401539, -0.5369151588645453, -0.4463057827657579, 2.803268552116877, -0.22275814219798284, -0.29248877246091765, 0.8348841309258078, -1.254269054102603, -0.6227019076831317, -0.9157737136157369, -1.785975587241718, 0.07022054181590687, -1.0296595756001492, -0.738526108993281, -0.6305495689569862, -0.6425923274731755, 2.004967633605668, 0.46907897718691355, -0.6482275894006244, -0.794432264815612, 1.8109348483814522, 0.24959789021565934, 0.6810873286493465, 0.012742592078105158, -0.7127312467859542, -0.5669709738353842, -1.0533761906632788, -0.6404890658426988, -1.3288370604775566, 1.0557612911240872, -0.2447812488318522, 0.23082654128899402, -0.870931395109633, -1.1308391293049982, 1.3439805987835514, 0.7327492891627716, 0.4425354759630067, -1.4703778518067838, -1.4398508404415895, 0.8121753152942606, -0.030331505175949076, 0.003788508605342547, -1.6484131030021982, -0.7543167489641328, -0.415669111624222, 0.7123842113639112, -0.880076668087813, 0.4476582661594105, -0.8919161081303698, 2.3802805398490343, 0.39321983820961637, 2.4210520532136006, -0.6275150217939329, 2.2547878728846675, 0.5882269201970828, 0.13886551414923132, 0.428160913304213, 2.603666590697273, -1.4653632252836353, 0.030039883287399344, 0.634381552052917, 2.2831925594354963, 2.6645569101326614, 1.2459951388289854, -0.8263501630188064, 1.3512781966899434, 0.815993073027861, 1.8312850729329309, 0.22088485360175933, 2.1879710059274364, 0.1312156328818138, 1.4275063314532324, 0.3818829341011826, 2.894795154108183, 0.561982085926852, 0.8718695069077245, -0.34317064098426864, 0.5748560540953196, -0.19022841410760855, 1.5166465893030332, 1.1453549142541117, 1.870622220389341, -1.3899208931839684, 3.46059009244151, -1.6853639377552234, -0.1965973858395534, -1.7275280787617024, 3.1262057578400966, -0.20414095419846184, 2.6294740651123667, -2.739519836367091, 0.45640209037012747, 0.4034569256355044, -0.37326440169511865, 0.38294932885879934, 1.9742218131956522, -1.3366294238590983, 0.6534106572586859, -0.3567901266005122, 0.42056439752610764, 0.0058669264032047645, 0.9935931790794822, 0.30136270457179815, 2.3705702159928093, 1.163602318542607, 1.9222533663436312, 0.7638689612085817, 2.0442149804070278, -0.3497087392547419, 1.0392248305231053, 0.5449103531620881, 1.0444281143672605, -0.36978790135196093, 2.9933260329877145, 1.5312610882465294, 3.172770526484582, 1.77666231424739, 2.1368832107741143, 0.42482419569051033, 2.674853113840855, 0.8771482722633843, 0.056127735859905714, -1.4776811053736156, 2.974309377273706, -0.20530234662309177, 3.7634615923278494, -0.3151642376472243, 1.5753791605919234, -0.7488338215160147, 1.4117511492335244, 2.5676403451485674, 1.543616231147169, 0.15219694846412932, 1.5045367930984936, -1.0935400182888029, 0.40962225331791957, 0.6852561675652235, 2.2861680660511325, -3.2022443124251048, 0.41830100007126836, -0.9851086466354148, 1.3275883883237343, 0.34334471682305034, 1.340610855465946, 1.3724536815152635, -0.5836051502371739, -0.5966869811158573, 2.9218316669995428, 0.31286885935697617, 0.29147666257367894, 0.3525712504742218, 2.3639975523719374, -0.1531053570979039, 2.518830203330804, -0.2438267105914507, 1.7539659135610344, -1.7331114278757271, 2.964006697330166, 0.36250090531653506, 1.1250000261595965, -0.26010623986454695, 0.9840448896754614, 0.041100154283054434, 3.5747465144726847, -0.29471408961159157, 0.7129298429403208, 0.7526895890930305, 1.7893733100780789, 0.859944632973451, 0.41740723497367205, 0.3031255924838675, -1.4547432444322874, 0.4117715383688813, -0.5436511202303766, -0.844149521769897, -1.9491215611004036, -2.1309779203695953, -0.3619637390412332, -0.32868070481194844, -0.5281389310356577, -0.17079786810058983, -0.9828772620335454, -0.09234532835386285, -1.2583624796854966, -0.0966320426306836, 1.2310765091876144, 0.6129340896784182, -0.20140905396176584, -0.7769313527326442, -0.7161954893820068, -1.3290369172656695, 0.7875978393514231, -0.29740620575678645, -1.067452786786898, -0.6622127768806497, -0.18215743766944426, 0.48548834082939, 0.2101151749927145, 0.9982017425068551, -0.22006595880878954, -0.21951488607469455, 1.2811797877947646, -0.5394863241168502, 0.18724132572029223, 0.6561024772842495, -1.312520485813394, -0.6098194888504673, -0.07356057126147149, -1.3679809302408505, -0.6248491564617521, -0.19392094305498817, 1.1266487058297898, -1.8792457176674533, 0.48264181415509516, -0.7494884087010554, 0.4860105776423916, 0.1820309307956431, -1.1384380238999627, 0.12144930508091437, -0.6160256339831927, -0.6678909270158634, 0.7071117931783475, 0.006813437352425973, 1.0628160422651887, 0.9491524402078432, 1.66200612794445, -1.1270345442633907, -0.05255974537825431, -1.8750353676164149, -0.7895403367454202, -0.8068431185971169, 1.2499806637565882, 1.1119620270017996, 0.386855188973943, 0.034942711698302084, 0.43261306444522546, -1.2772493421331963, 0.8929004878938409, -0.0677903388290745, -1.0178280740751542, -0.6516459481674743, 1.6264765936075984, -1.491124852889717, 0.6922001266029495, -0.8704540170284109, 1.8648450964980048, -0.27789417689642654, -0.22440775607747065, -0.5075782523483902, 2.715191618508266, -0.035626684134786625, -1.347508674138243, -0.30778648623373006, 1.8792327134293514, -0.7068752235630954, 1.2066819488826248, 0.6186764281239819, -0.18801483540914557, -0.6793841018435677, 0.3668467510236702, -0.5030587729481566, 0.8308770032805138, 0.05620144608173216, 1.1308719583345992, 0.3081303364031411, -0.5543606643793259, -0.5164235365548439, 0.13812786194883722, 0.4775047989780055, -2.3690037843033953, -1.4211966342856406, 0.7962246231660485, -0.7081420340574727, -1.7448878164492438, -1.3625754686090024, -1.889638996620222, 1.2733933108318838, 0.6511060017333575, 1.2095368176494263, -1.084249481652986, 0.49118573627130496, 0.36830519710558945, -0.27012005724508487, 0.8678657846931974, 0.9048120295256711, 1.102595647029415, 0.7212344885372884, 1.5061655440157298, 1.4800144810713023, 1.0340035571512767, 1.4274527086548365, -1.3622531810536032, -0.8714119698443226, -0.4565831936598852, 1.8121000915046, 0.03498783619392163, -0.23829594051160471, 1.818125788842184, -1.4488421803106175, 1.3001013338936822, 0.10338424602411998, 2.4525794502662066, 0.25487463829430523, 1.467119176734579, -0.6195233870185782, 2.3922053607597915, -0.08897256998131661, 1.3683118263323983, 1.0356487422264042, 0.7952039315956938, -0.34867888947114334, 3.9410788182815475, 1.4528382251693033, -0.6677390534006977, -0.670200490875356, 2.0021078438820497, 0.6965749348171016, 2.026962384059142, -0.5583294732737486, 2.5699923665616593, -0.9925039366074275, 1.096218300350136, 0.1917780901754786, -1.2829338071796688, -0.010130022199389552, 2.3990794407758442, 0.8723184312220433, 2.9049941698424497, 1.0884946267447992, 2.003750442742087, -0.5619990760099678, 1.4738889202434855, -1.1805334627081234, 2.0174693546220315, 1.559823060718468, 1.9433067680441438, 0.49889414922149244, 2.4031940215907017, -1.083513954489848, 2.8969190211626263, 0.34262594334135593, 1.6413694794271985, -1.7680033126819954, 1.6823051021016924, -0.4518176849549387, 1.500512843923698, 0.2867911660528475, 3.2772996705025688, -0.28357583075837944, 2.806534012063057, -0.44181278124649964, 2.9531036713755583, -1.7176374038070727, 1.9385848739787246, -0.7220679917801549, 2.0312745929387916, -0.3597042319366753, 0.9174539264914964, -0.2728944780919157, 0.23362958976009487, 0.8162930267813236, -0.33734649034378295, -0.650117546735636, 2.208652016768341, 0.9263153669405987, 2.794966303535172, -0.791242556866511, 1.2032020498286693, -1.486712556858203, 1.550171861430204, 0.3646829723007072, 2.406933994326274, -0.5793700971659229, 2.989178820428875, 0.09898488670096782, 3.316500107583329, -0.2851737633232454, 1.3551358337720916, -1.8337619654509976, -0.8239466731778842, 0.4926093141686366, 2.9843411470692516, -2.9961520778578365, 2.1659805935527583, -0.23123281882604205, 2.1825082771529276, -1.499197052310087, 0.47561157599969806, 0.2473665077668809, 1.434544010279344, 0.298438071780343, 1.451231016306035, -2.5187325572816657, 2.280906484391802, 0.7951628874001979, 0.6502910490855078, 2.488873217346844, 2.429298917678404, 1.079638408625031, 1.8726203970637882, -0.47594349686848403, 0.8243609404881644, 1.3326458698043575, 2.434883255400261, 0.6197829608281509, 1.8927523600062994, -1.0691622130106244, 1.638483736034071, -0.04468599460435223, 1.3755159551899319, 0.16618371024963574, 1.0132818233783, -0.11399633107697339, 2.4022442842008696, -1.0832234345768808, 4.287386554738792, 2.0155645417471044, 2.8013397369171678, 0.7056897561856547, 2.093596696165494, -0.17155941549215978, -0.1453172899214717, 0.5829116877389586, 3.4862969478772867, 0.12523917378148455, -1.1670002857847956, -0.7481811904896076, 0.13543564991019746, 0.4864010997890086, -0.4958884822790456, 1.5698937404546927, -0.531704328522636, -1.176240991604933, 0.8311231185552818, 0.7820189021251555, -1.0932385977336976, -0.08967997259882413, -0.015420957593130809, -0.8521842649845843, 1.2236792021920746, 0.56845010311432, 0.6997008613871201, -0.016875550808934593, -1.2109263797767005, 0.7504441059846064, 0.4402038331088643, -0.8176769799625326, -0.21455117754060846, 0.6416394356199168, 0.20854662567283808, -0.0556237710858412, -1.2732012574656495, -0.9642695860046425, -0.03574968249245336, 1.1907170550809283, 0.6112363583541534, 0.47431914039645523, -0.7855031009947442, 0.5715343004349925, -0.07040173447420027, 1.032452365736643, 0.6294576835539989, -1.7827637690605405, 1.9682234354147128, -0.057085079417177345, -2.2892753461034236, 1.029886451274234, 1.1329892867685771, -1.586833962762649, -0.24827191181169142, 0.2140149673423197, -0.809248060764223, 0.7140847210769393, -0.2244194544577209, -0.111642226537659, -0.4805059087036429, 0.9038259652095257, -0.6024338704312149, 1.6076756203646394, 0.08537728609631026, 1.2749744366975768, -1.0133698114693586, 0.4282262569843973, 1.1870659428834924, -0.09248189202691853, 0.15615375775478088, 2.1229805695231745, -1.5233107714649086, 1.0730614690826024, 1.213710578251649, -1.0865388043630677, 2.1790240068798368, -0.798598313820979, 0.821057629297719, 0.8368017891331602, -0.10652629153522317, 0.055405273627692354, 0.35019125540207513, -1.0554102391634006, 0.15724583385099045, -1.3144395534342521, -0.6290249138695835, -0.6944244297578158, -1.3419672720876308, 0.3390757290727799, 0.15004145037058828, 0.4584348344900769, -0.1375650170329165, 0.6727633608527074, -0.9141697070347119, 1.0433417648398637, -0.3825330210793071, -1.987657222432484, -0.44482166587247096, 0.8598272212214568, -0.6195033155713116, -1.40438586509302, 1.486028833056881, 0.16071764648755119, -0.6817709295801899, 1.844289135757421, 0.2701997860707473, -3.166086781138048, 0.46141317126711423, 1.458776240754635, -1.240203874736808, 0.13124445084306616, -1.565720446691112, -0.711727477367072, -2.0167896867123765, 0.34529595985196276, -1.1413248955933921, -1.1103985208022342, -0.6067270901233586, -1.1070915769991705, 2.2786942978748783, 1.612524057002206, 1.4035538137085923, 0.9034666123059674, -1.3813629603133546, 0.9677659935627538, -0.1916742269490337, -1.5106394568396515, -0.9004672476188236, -0.9209723727609562, 0.5045967658798777, -0.207459113381327, 0.0215402520841104, 1.0968625840939055, 0.15692850910564818, 1.2534030377179646, 1.0785622537826098, 0.05831310531475669, 1.1148205850496529, -0.302367701111829, 2.2521668846374774, -0.9166371814808482, 2.823267087626917, -0.6213120553520849, 2.831602488876238, 0.8328062292976929, 1.2305669857319284, 0.9977449674649983, 2.1943556465053353, -0.4792433396134496, 1.8534716129494688, 0.8816187140674053, 2.636182672152571, 0.10979056998614738, 0.41245434541816584, -0.5828903962639265, 1.118116477923482, 1.6294234715445015, 1.2345926765826203, 1.1889043006435365, 1.6402072684627254, -0.0357558918393708, 2.4359916089565616, -0.20881635062377019, -0.44448661751729035, -0.6313748332052013, 0.760102430195474, -0.30676459276343887, 0.49777395188437124, 0.5985733191703195, 1.0058284045439099, -0.07281973764232481, 0.5691442431854601, -0.6255442032052582, 1.248983443892501, 0.6966355934996555, 0.43853902593671246, -0.35949895192129966, 2.057463109903527, -0.42836185006461774, 1.5902661663705813, -0.5103132908422047, 1.3613653303527327, 0.19210679518254287, 1.3647878797725954, -1.193725535751779, 1.371608011922548, -0.320706951821413, 1.2208901128963339, 0.5974501702736044, 1.9733965706449166, 0.18298349049204868, 2.958777443932295, -0.7845542382489763, 0.7428176070670212, 0.22406575209280918, 2.3402211211443893, 0.6265787963951899, 1.566466782994614, -1.287237379020974, 2.287812618364522, 0.4241094397162499, 0.9022517766865943, -1.4018568551127648, 1.8964817080936662, -0.40979121181557965, 1.4807399921096602, 0.3348700946437428, 3.5846400625589663, -0.887848170011348, 2.8179734274795685, -0.7130767029256265, 1.839516756157831, 1.1528172662667158, 2.4238911588591834, 1.4438643366882988, 2.9472027310882187, 0.004255953721293192, 1.9018339123431047, -0.5246708497319884, 2.4584919168384474, -0.1679491157178424, 2.4298510178877337, -1.1195905918791325, 4.002787402002531, 0.15475040697491038, 1.5258764148530668, 1.0933891170707852, 1.7601656809568558, -0.6656312959995035, 2.4652006877752077, -0.6719033042766669, 1.7222728257876494, -1.8515574742795249, 1.026297069829439, -0.19875277190000887, 2.5734551328512714, 1.1786841270113582, 1.3772223886054147, 0.9560392620487378, 1.3767217885515013, 1.066141258246076, 2.4326545678259284, 0.7262871363195469, 0.11942225184076849, 0.2704738081444653, 1.580410704977918, -0.6545752594602435, 1.7205747490960885, 2.4577821262199255, 1.2027997150369376, 0.7401839584605476, 3.3002729857237036, -1.7754593802359184, 2.1801819094414285, 0.02360756878338776, 2.685694074555326, -0.2982167032841217, 1.736385662753597, -0.6506516818744655, 1.431996593261371, -0.20664878230764555, 1.2271292232102207, 1.337675694304385, -0.7032226143795857, -1.6893287545215512, 1.6370071306117335, 1.4263938272541323, -1.0877639958696146, 0.503799147264196, 0.7454367292396606, 0.17240760102965585, -1.0570338188247135, -0.14158141997787788, -1.079536587109595, 0.892633168992401, -0.6072040623611707, 2.2823332296378176, 0.1109478160441997, 0.4332096537082026, 0.811032849579857, 0.9405365293103721, 1.0082733598677511, 1.3377944001230604, -0.3725586796273218, -1.4382452643594132, 1.3278681950210736, 1.975847562690045, -0.5025781683632446, -0.8033492736032823, 0.9656264013361784, 1.109963704021583, -0.5073662119982904, 0.4510647386754548, -1.8324936342234186, -0.04448283141828771, -0.6348252949629377, 0.6648194580781954, 1.1142584351219944, 1.0745812542662199, -0.2966189336570433, -0.9491500422831307, 1.5884672164424705, -1.7978594000978305, -1.73540794058203, -1.3557048440120558, -0.31001148819143404, -0.8542372590906927, 0.8720094857535544, 0.3828152317646799, 0.7740463899298644, 0.3444827702903783, -0.4145231348579408, -0.17142673496662927, 0.21735153837406465, -0.3315829738567356, -1.2729791707389584, -3.498592750608731, -0.30306720644993135, -0.39183323986578544, -0.9043577085373742, -0.624486466729261, -0.49447825312393284, 0.7876335774674109, -0.04961173792174081, 0.4026082944436435, 1.2157350785509695, -0.6447421907781389, 1.0767542929649583, 0.10124290458348616, 1.8771531247405966, 0.26654628881463915, 0.12751366576636736, 0.05999776675223732, -0.03784296956766879, 0.6082972702105688, -0.9348956261166391, 0.23606017806244872, -0.6493827607172479, -1.1953284120127472, -0.20454058071456105, 0.03347360260706879, -0.1540159857041812, 0.4062011509939005, 1.6085542561259634, 0.34561110698147296, 2.042062155862666, 0.1300208644052254, -0.7837023222615327, -2.1267937095985143, -0.765903133411439, 0.30489661246083843, -0.3750522436955142, -1.1752398611376609, 1.9834152927719935, -0.6106708770937739, 1.8270696859617717, 0.759277588528925, -1.2065926466785197, 0.5725150340211914, 0.28859870940661964, -0.6898878802707374, -0.7478015564392346, -1.2559091447074116, 0.46889052918899193, -0.3208816744511658, 0.016532723115750287, 0.45047624802760555, -0.794862084008049, -0.16577336435143444, 1.377950510679574, -0.5536736265765843, 0.8586277433370831, -1.5370770739784392, 0.17916861772554965, 1.46899304058039, -0.017385164275835054, 1.5057245734299216, -0.29997998698273365, 0.5329524375448611, -1.9806729393417783, 1.0304250850931, 2.167742693211669, 0.21142434074262711, 2.3924729100961657, -0.46081790778352544, -0.9273151644160539, 0.90518866580866, 1.1839024552963635, -1.7873748285486797, -0.21995844090188105, 1.279596937093341, 0.5310605233741619, -0.047121947690522775, 1.4652801888766556, 0.29236068238495855, 3.912539392332086, -0.902138438455059, 1.2115447459987825, -0.34530399698423575, 0.5849924204319472, 0.15510079522863462, 2.9791949816966135, -0.8244881778049444, 2.1550859752411213, 0.3224322015089781, 2.8478421417511406, -0.7650322510074978, 3.075851374305138, -0.3362952399907375, 1.7153030507110145, -0.8727604561749868, 1.1889047379903965, -0.8103598154886922, 1.8689073965763159, -0.8979787195839992, 3.79976829500406, 1.4021708598514697, 0.37277520312798607, -0.47512034185316354, 1.204807285854424, 0.40785038077132507, 1.5028413671755536, -0.27124719960715316, 3.8712508594889803, 0.6128078442137593, 0.986437263578538, -1.5500048943632747, 0.4351387194980537, 0.679016018174721, 1.2386236683675607, -0.7297762693745009, 2.0006202526353345, -0.27210144406636644, 0.1535999067665356, 1.7039369869861005, 0.3418045805932865, 0.16328375197834227, 1.8069739725991698, 0.9913179513422727, 0.18741020830900004, 1.0723225183618388, -0.1519734580014079, 0.060220334109585945, 0.9027529437386216, -0.13183500394241085, 0.906685473704147, 0.33460570542212137, 1.7556966084715413, -0.6735736722169315, 1.0598849214036612, 0.8445202495204509, 1.8840948258092625, 0.4289746917488109, 2.4400735726148417, 2.3899171153158205, 1.0818095227364062, -0.824013759167524, 2.881511134125336, -0.8958262484020557, 1.7745284463862105, 0.3936085759067716, -1.385305784747556, 1.9009804374102293, 2.946051061598022, -0.1196788406229677, 2.2260261420951855, -1.1151647530280977, 3.115048019081169, -1.0522974502587747, 2.476718916336918, -0.8042143907171758, 1.2363499052300972, -1.3617124021803422, 1.0564108698574268, -0.33167413888702457, 1.5540911861057194, 0.5852236839306054, 0.8955870835414875, -1.9349470857674673, 2.7411169637687394, -0.2361693706201229, 1.4694089111490074, -0.6124699353631458, 0.11132655340262099, -1.394959176793754, 1.2039220048119519, 0.3679240042976458, 3.0706029191518467, 0.5414341637568604, 1.6508116114067366, -0.2016511538932701, 2.025914805433193, -0.3019068115832624, 1.8162722655639723, 0.6745383897515325, 2.402545964768593, -0.9494638864108431, -1.3157252466958487, 0.2708115259220149, 0.8114156322808304, 0.8216236588543739, 2.685854216108944, -0.6190133687639061, 1.4193423609664642, 1.3380650807953562, 0.8398990239355141, 0.5121741591761301, 1.9285156125632497, 0.7003557271924032, 2.4852909989919096, 0.05408527895869681, -0.07881614425408418, 0.1812239784648425, 1.9341572878122495, 0.9200172951319383, 1.701555082648959, 0.3361757397265708, -1.812103254881129, -2.07905058261501, -0.714334845499833, -1.2610523741767012, -2.013805732312872, 0.4423397046102065, 1.4164151747565845, -0.17612886441296147, -0.6372394624358781, -1.828380731821571, -0.7340510877753372, -1.9509989565551604, -0.9870759432643624, -1.8832341789531026, -0.5554303409574439, -0.4467522337097972, -0.6815356276286217, 1.756749634578358, -0.697009019437127, 0.4513264030207705, 0.7258082337082897, 0.8135178992267996, 1.4480249410678439, 0.35120614157811103, 0.07600832522129865, -0.9814898290846732, 1.7776940574623492, -1.0670147437907402, -0.08124964480215473, 1.6796191690806144, 2.3283422844314248, 0.9956571549889168, 1.7016217228461716, 0.6687342980145411, -0.02576108971288243, -1.3671524408641826, -0.8235888130014611, 2.0785850541027777, 0.15395616112677016, 0.3331563119872383, 1.2015691251471974, 0.8769520071175622, -0.83455980673193, -0.49337135327237097, 0.6597970733764734, -1.1347195691324905, -0.09721164796610256, 0.2998673953403173, 1.1801251411223659, 0.5392691592136741, 0.7471787494263878, -1.0337460740404225, 0.7728112419421976, 0.03307103113845075, 0.23421562749779173, 0.9172680413522858, -2.180984563541014, 2.4773195317672916, 0.0006156968557618994, -1.1787605102983594, 0.42314285186378114, -0.09331430420592349, 0.25221685951904776, -0.6828760491161948, 0.6000932371170565, -0.4644181130998373, -1.4253137557442757, 0.2858206871176469, 0.7212804620426712, 0.6799488849396027, -0.7847653298171196, 0.7414849804557541, -0.6029258936409453, 0.4274248212356221, -2.068957727094954, -0.4749187736802245, 0.19342034434004965, 1.2044840055392152, 0.061973400134792515, -1.1665645191046352, 1.459425803472447, 0.891241770847985, 0.09988618171924338, 0.3329007009896977, -0.5939629989789803, -0.28580713209318387, 0.7637004384775498, 1.4515148411127459, -0.7510635768448937, -0.8086957681338894, 1.0481759767408512, 1.7135603930268, -0.18026017750673554, -0.054349865464553095, -0.6757650843043949, -1.3858215375049512, 0.20309679677252138, 2.029869543063853, 1.2609380720670544, 0.548162739106216, -0.03080060135884534, -0.8236666766490381, 0.9558394936715457, 0.6097512548048551, 0.31406795632888784, 1.281305078834132, -0.0943974185788417, -0.32747913074857543, -1.0311001944166949, -1.794676869985205, 2.9360179733181826, 0.36258095524331924, 0.10630501932999965, 0.16356022091897432, -0.1693001634940817, -0.5284635549578207, -0.4698870375722328, -2.211467280936502, -0.8038625960806238, 0.4957681820960144, -1.3847702312325432, 1.5319032590600616, -0.5762198814055728, 0.2383171468991257, 0.3603621013172747, -0.9489921171481839, 0.17272368923549702, 1.2620431372697298, 1.7467361467705156, 0.347694685515744, 1.4694323462338954, -0.024501418810024517, 1.4977291272198179, -0.7117812585280803, 1.625029365822965, 1.4945499279667853, 2.4312009626694775, 0.9886986394825115, 1.7542008064283958, -0.28886106846090215, 0.8545888555133754, 0.18470730641671482, 1.4157142708895865, 0.1901558954752101, 0.4099393437948563, -0.3220407210632983, 1.1081970211791465, 1.5352564855320767, 3.4830274182390397, 0.05990149155212429, 0.2012558706236285, 0.20581318280608785, 0.9014811890001824, -0.4950012955578192, -0.39359513388813683, 0.7269835019830572, 0.9980964911620349, 0.507961190986427, 1.456466680402931, 0.6163716982230688, -1.4772502305103266, -0.5717635068550369, 1.8799227668219434, -1.507484422059419, 2.363482721143161, -0.08114813524274336, 2.7569505889102235, -1.2478035015271678, 0.9573291911998816, -1.388122539832276, 0.5732130925915133, 0.1489323575062194, 0.9287858501024798, -0.6604141769599794, 0.9145386290442934, 0.5971957390483625, 0.02781224535954549, -1.4070682694016818, 1.8292460002373827, 0.1346613973699813, 1.0411570944228008, -0.3826209163559602, 1.239727670596497, -0.17720211397841704, 0.26259154970548987, 0.3723829569770033, 1.7625562359268403, 1.4386364606791964, 1.4701843280751516, 0.08918650453696496, 1.210510952781284, -0.7036890059154094, 2.0291486327130754, -0.5793084968460508, 2.385247872118189, -0.35879476036472874, 2.6217464427453963, 0.897177806662858, 2.0680354294080048, -0.8826556659682107, 2.1196168715587085, -0.5065433521892346, 1.6439165644397458, -0.2881939564069057, 2.3423016546156044, 1.3061635209054965, -0.08883328212553993, -0.32043050693263725, 0.6853969939878762, 1.5442786486357745, 1.2315572094797125, 0.3480479541334337, 3.5326636907047066, 0.1758803270093653, 3.2044795142107914, 0.6566526356989266, 1.5097837963720322, -0.8074508914443432, 2.018120460302556, -0.2523403033525182, 0.8591471561800553, -0.504450042708803, 0.8456324922241445, 0.8754646580905526, 1.6174253115076362, 0.8187222548171377, 2.6014031229086374, -0.6726371841695304, 1.796881354357329, 1.6284727599104183, -0.5944983135563638, -2.7470868079636146, 1.027891631959333, -0.9382575047428381, 2.6934218627475803, 1.1709066700750383, 1.4731478882600497, -0.219930592222179, 1.2168028854134427, 0.26137849564888743, 3.2985791023341346, 0.8044474601844033, 2.9354513887721065, 1.0390572330532082, 1.4780728846162043, -0.4409343625130272, 2.67184566420603, -1.89636746428734, 2.390098472523605, 0.8198505350797934, -1.001558450564823, -0.5946720952789533, 1.2444331690015111, 0.008226042292382777, 0.8593837359846171, -1.0893863210955315, 1.6199774370719953, -1.3736084308783043, -0.6287765284205018, -0.22376076651574292, -1.1274095017536134, 0.7210754989073201, 1.4651769731111077, 0.7060521162619148, 2.019415468647369, 1.1592143732526277, 1.1925014150390372, 0.24755847144366266, -0.3100591448539867, 0.8662672477889722, 1.9490662780991501, 0.6600397973763278, -0.018444252715836516, -0.24732530195474398, -1.532248296601548, -1.326093387694645, -0.20112972357638761, -1.072290888946476, -0.7820419109049469, -0.573486745101664, -0.9226076799747189, 1.6738004482030948, -0.18151788144335274, -0.624220627692872, 2.0099967094578153, -2.2346549335764023, -1.441129342829677, -1.1055546635409825, -0.17212845091189996, 0.0874083103604561, 0.4948457405237214, -1.9359158049246616, 0.05353337991616363, 0.05411459426932629, 0.44517121668095505, -0.44764349053385727, -1.2108945338262442, -0.5637561353224441, 0.8085413094832558, 0.370556357752915, 1.2197382973341773, 1.6489749200789823, -0.8099931476079258, -0.4019123092452023, -0.6927818833374741, 0.07311902692286858, 3.16945615116932, -0.7201046687448764, 0.11249908224219028, -1.4901317466305812, 0.1903824259879683, -0.614626613707938, 1.1586322937769822, -0.43992802122293995, 0.9638355528721304, 0.13204276761534225, 1.067595379387625, -0.14845214826199257, -0.03632847499790879, -0.35666988070428907, 0.0529379444731277, 2.3631228464835368, -0.3244918042146435, 0.22907293085470212, -0.5504236439023117, -0.8900988581892797, 0.09719040277051968, -0.7649099738997691, -0.8366491767155486, 0.32107024050871225, -0.8052983256477199, -0.34958102093157767, 1.827335534792603, -1.8428502855373001, -0.4278564187766471, -1.2732759612160598, 0.0016502546159337312, -0.1379178027801027, 0.38989954743499766, -0.10576565350914215, 2.059964503965548, 0.5262973715380723, -0.29439183176691264, 1.3792746546513057, 1.1607484212717964, -0.95829123649941, 0.7820799773177833, -0.8388541767594957, -0.22661870145953908, 0.6192428281051283, -0.04830496254259047, 0.18839625342640046, -0.22058700154805413, -1.1700957813813695, 2.152781514174436, 0.6247544689483712, -1.932895838657013, -2.020500125930586, -1.0050834971180367, 0.5701317628884918, 1.561802512033926, 1.1455954218646651, -0.47769328638858694, -0.4779000338376649, -1.617999727618734, 0.23222239827931787, -0.7400075399279223, 0.776930557549898, -1.1661773641146462, -1.5468180423493447, 0.12295054371492069, -1.3461980429258809, -0.15747708579833875, 1.0866701639573022, -0.09683044408993542, 0.6706078647418817, -0.022752031422812232, -0.636566740006696, -2.6363517089393658, 1.5152232858299806, -0.40225299484647536, -0.8837762429039894, 3.3743063975723504, 2.009114019406129, 1.08989768342823, 1.3477473107227298, 1.9630532736267838, 0.5673669755790546, 1.5626387380275881, 0.7849501791270309, 0.6070366326151683, 0.2723236145969987, 2.868353549371935, -0.8220595077151416, 1.6766265034494194, 0.29223673037312575, 0.8689656898894079, -0.5720276638938471, 3.260126147752608, 1.8027526708880763, 3.7507879756053204, -0.1481653407261635, 3.4010634970601807, -0.1745330215879536, 0.856759399702591, 2.105723030907691, 2.7405041106592236, 0.8690709897200234, 0.9182701922129396, 0.23186393481503242, 0.8367947081594781, -0.8130158062945793, 3.643242383018659, -0.3914558717459604, 2.1580117769603975, 0.4458459162614939, 1.382698193487599, 1.8073542089678134, 1.1056027180488084, 0.047360589099529574, 0.6999100421233205, 0.49960049867811124, 2.436251930473604, 2.6293732020401848, 2.7686449281513945, -0.04744255792888813, 0.3716233561837745, 0.055837945758493414, 1.0345434617216327, -0.7371633992884442, 3.1149717252393705, -0.19049316739216654, 0.8181910883132344, 1.7891324468938978, 0.36847549543273495, -0.8013225276462197, 2.821767924549227, 0.9206575951870221, 4.5345667740432125, -0.9350292939103747, 2.256008520962658, -1.0415094428078366, 2.119541673563674, 0.4546223016994747, 1.773716737535742, -0.4583657045508768, 1.1450315530101889, 0.9852398709096425, 1.23361601219261, 0.4917325512794567, 1.5089861700446572, -0.03747590073511788, 1.2871356780852707, 0.6955187185825793, 2.2729326341920784, -1.1189580927656013, 0.8584860740404073, -0.0628251848387863, 0.6151870638924212, -1.0699225497873113, -0.6645704535986692, -1.1620183697231086, 0.43819561501691406, 1.2665479560912625, 1.4722161810676344, 0.35521824474816477, 2.8765463395085753, 2.0650978881846402, 0.825044170216736, -1.7757242519106167, 1.6162782690114346, -2.4156382784082657, 3.1023124759471, 0.9743686714361658, 1.0841732118850813, -0.06695656586452939, 2.11874459574931, 0.8280184303258588, 2.9304608442080147, 0.2200630204985468, 1.3645505734713201, 1.1946270579044214, 2.8895622457381407, 0.1647330238591759, 3.077292541074174, 1.2307087723864474, 2.277915682526225, 0.5856996316663886, 2.581971357609324, 0.03351640929471824, 2.4050249311976226, 0.7325395891348347, 1.4038253488625068, 1.299973714137343, 1.2743780958447204, 0.4770706431947831, 2.452959176645679, 0.9033519220318718, 3.4740983037958504, 0.3136550709905441, 0.19180427701330852, -1.0369998241310123, 3.4154008536457328, 0.9196253093608463, 1.110615963125954, -0.5884072202845197, 0.6295987929115648, -0.7522465295805503, -0.4653225378844831, 1.6869801259810042, 1.6545651987842285, -0.9817680186462758, 1.6520770057662375, 0.08799608162305902, 0.36376173154206654, 0.7915805018485891, 0.8657738779242521, -0.2814236147348256, 0.2014406044849079, -1.7406552853692263, 0.6600064134494632, 0.41333858370095466, 0.5438020084383101, -0.49805422923187, -0.06361206425010807, 0.474021156018454, 0.28033902352682977, 1.3096023744392022, 0.47167152437956855, -0.43028009654292554, -0.4408157669868353, 0.9104516808993635, 0.6030022657075518, 0.7447526235944653, -0.02182454172103336, -0.50395630182017, -0.41139792699776634, -0.24409068937362946, -0.9060109992712457, 0.045231297314201835, -0.9291729120823901, -1.683176880588046, -0.25865113916096233, -0.6687978138127296, -1.053908209324217, -0.3845285026562917, -0.19963872445721162, -0.8435354878722038, 1.4735954730564391, -0.7140734685908973, 0.5631988785166407, 1.4765624400619444, -1.3477481611601314, 0.024092184969553655, -2.0414954259526548, 1.2347440961102942, -2.952355870807256, -0.737944524361407, 0.7351081774399112, 0.6610433576277164, 1.9171272608160372, 0.08675014806929655, -1.7310789977498064, -0.5919631652450291, 0.9164127649383738, 0.011640599807883414, 0.12689895434790588, -0.47583737339856935, -1.2248444552201847, 0.20305816295060167, 0.528094707164556, -1.445886791480007, -0.012775096119471033, 0.06336082926765356, -1.2467865156060118, -0.8849071804008248, 0.26784648471592215, -0.5437211902347695, 0.5419801288897319, 0.3735279429665638, 0.8836171686983545, 0.2970371749978908, 1.6052004649336016, 0.2131948385660165, 0.43927368147585216, 0.3954609482622922, -0.7977331747191484, 1.5841590839081918, 2.529524109858181, -0.7822951207668015, -0.34068731098806526, -0.927122388179504, 0.830539767125034, 0.37940248205457133, -1.5079539581616472, -0.568883042405964, 0.48410324750856343, -0.016551312782431347, -0.27116443393412504, 1.0769627656388754, 1.4353868819276843, -0.34370031774841253, 0.5406522190145098, -1.12922458249124, 1.0649549206239826, 0.8214057548009287, -0.44470790697905443, 0.7501061290144271, 1.6791142855581138, 1.1236009286544173, 2.1158179167955358, 2.7516991384932203, -1.990433124006042, 1.472218342978578, -0.269621326745569, -1.0790463794708993, 0.7443693138126881, 1.3590106341146966, -0.1453059640263712, -1.4697887571321098, 0.3803432716850752, -0.9025032732764456, -0.2633867304713919, 0.6142526289338687, 0.21160866716338633, -0.19323457552763765, 0.3767811780595527, -1.156324704042765, 1.5756423955282877, -0.15706247944907642, -1.8298608123281552, -0.7974882770768531, 0.44360140220275246, 1.8903638371130944, -0.38863472953271244, -0.4205927441321686, 1.4087002019319808, 1.3482627410023627, 1.7902873437694704, 1.510990473294339, 1.92492491994359, -0.28118228955794733, 2.3723403276820028, 1.054619083919735, 0.728729131083947, 0.5242750477865603, 1.3859424324976481, 0.11608392120883064, 1.7106321933325994, 0.0287511908463169, 2.4597903103641325, 0.6728798641503648, 1.482044814714429, 1.1351597737628685, 1.1829778726155162, 0.03059048275756591, 0.5947652943981432, 1.0214638511383467, 0.6128039324667619, 0.485683115648497, 1.3544821003797631, 0.7618065779091269, -0.007679308052448569, 0.1545302491159797, 2.9662452091579237, 0.5269645382911081, 2.321548385362522, -0.38798832519320525, 1.1078625759717418, 1.6706424854456445, 1.54669011123776, 0.008188243698523064, 1.624876526570956, -0.5284997460087439, 1.033698370046688, 0.21964005961112099, 